<?xml version="1.0"?>
<MethodSetup Method="BDT::BDT">
  <GeneralInfo>
    <Info name="TMVA Release" value="4.0.7 [262151]"/>
    <Info name="ROOT Release" value="5.27/06 [334598]"/>
    <Info name="Creator" value="lbianchini"/>
    <Info name="Date" value="Tue Nov  8 09:17:32 2011"/>
    <Info name="Host" value="Linux lxbuild142.cern.ch 2.6.18-238.1.1.el5 #1 SMP Wed Jan 19 11:06:36 CET 2011 x86_64 x86_64 x86_64 GNU/Linux"/>
    <Info name="Dir" value="/grid_mnt/vol__vol1__u/llr/cms/lbianchini/CMSSW_4_2_5/src/Bianchi/TauTauStudies/test/Macro/tmva"/>
    <Info name="Training events" value="24700"/>
    <Info name="TrainingTime" value="9.15195"/>
    <Info name="AnalysisType" value="Classification"/>
  </GeneralInfo>
  <Options>
    <Option name="V" modified="Yes">False</Option>
    <Option name="VerbosityLevel" modified="No">Default</Option>
    <Option name="VarTransform" modified="No">None</Option>
    <Option name="H" modified="Yes">False</Option>
    <Option name="CreateMVAPdfs" modified="No">False</Option>
    <Option name="IgnoreNegWeightsInTraining" modified="No">False</Option>
    <Option name="NTrees" modified="Yes">400</Option>
    <Option name="BoostType" modified="Yes">AdaBoost</Option>
    <Option name="AdaBoostR2Loss" modified="No">quadratic</Option>
    <Option name="UseBaggedGrad" modified="No">False</Option>
    <Option name="GradBaggingFraction" modified="No">6.000000e-01</Option>
    <Option name="Shrinkage" modified="No">1.000000e+00</Option>
    <Option name="AdaBoostBeta" modified="No">1.000000e+00</Option>
    <Option name="UseRandomisedTrees" modified="No">False</Option>
    <Option name="UseNvars" modified="No">2</Option>
    <Option name="UseNTrainEvents" modified="No">24700</Option>
    <Option name="UseWeightedTrees" modified="No">True</Option>
    <Option name="UseYesNoLeaf" modified="No">True</Option>
    <Option name="NodePurityLimit" modified="No">5.000000e-01</Option>
    <Option name="SeparationType" modified="Yes">giniindex</Option>
    <Option name="nEventsMin" modified="No">98</Option>
    <Option name="nCuts" modified="Yes">20</Option>
    <Option name="PruneStrength" modified="No">-1.000000e+00</Option>
    <Option name="PruneMethod" modified="Yes">nopruning</Option>
    <Option name="PruneBeforeBoost" modified="No">False</Option>
    <Option name="PruningValFraction" modified="No">5.000000e-01</Option>
    <Option name="NNodesMax" modified="No">100000</Option>
    <Option name="MaxDepth" modified="No">3</Option>
  </Options>
  <Variables NVar="5">
    <Variable VarIndex="0" Expression="signalPFGammaCands" Label="signalPFGammaCands" Title="signalPFGammaCands" Unit="" Internal="signalPFGammaCands" Type="I" Min="1" Max="9"/>
    <Variable VarIndex="1" Expression="visMass" Label="visMass" Title="visMass" Unit="GeV/c" Internal="visMass" Type="F" Min="0.300884" Max="1.69323"/>
    <Variable VarIndex="2" Expression="etaMom1" Label="etaMom1" Title="etaMom1" Unit="     " Internal="etaMom1" Type="F" Min="-0.126661" Max="0.12905"/>
    <Variable VarIndex="3" Expression="phiMom1" Label="phiMom1" Title="phiMom1" Unit="     " Internal="phiMom1" Type="F" Min="-0.129666" Max="0.126006"/>
    <Variable VarIndex="4" Expression="gammaFrac" Label="gammaFrac" Title="gammaFrac" Unit="     " Internal="gammaFrac" Type="F" Min="0.0115991" Max="0.986783"/>
  </Variables>
  <Spectators NSpec="0"/>
  <Transformations NTransformations="0"/>
  <MVAPdfs/>
  <Weights NTrees="400" TreeType="0">
    <BinaryTree type="DecisionTree" boostWeight="2.9251218339586877e+00" itree="0">
      <Node pos="s" depth="0" Seq="0" IVar="1" Cut="4.3348839879035950e-01" cType="0" nS="2.3183240234375000e+04" nB="1.5481368408203125e+03" nEv="2.4731376953125000e+04" nSuw="2.3200000000000000e+04" nBuw="1.5000000000000000e+03" nEvuw="2.4700000000000000e+04" sepI="5.8679562062025070e-02" sepG="1.5565705871582031e+02" res="-9.9000000000000000e+01" rms="0.0000000000000000e+00" nType="0" CC="0.0000000000000000e+00">
        <Node pos="l" depth="1" Seq="0" IVar="-1" Cut="6.1346936225891113e-01" cType="0" nS="2.2550765625000000e+04" nB="1.0729831542968750e+03" nEv="2.3623750000000000e+04" nSuw="2.2526000000000000e+04" nBuw="1.0340000000000000e+03" nEvuw="2.3560000000000000e+04" sepI="4.3356735259294510e-02" sepG="-1.0000000000000000e+00" res="-9.9000000000000000e+01" rms="0.0000000000000000e+00" nType="1" CC="0.0000000000000000e+00"/>
        <Node pos="r" depth="1" Seq="1" IVar="2" Cut="-5.0819250755012035e-03" cType="1" nS="6.3247412109375000e+02" nB="4.7515362548828125e+02" nEv="1.1076276855468750e+03" nSuw="6.7400000000000000e+02" nBuw="4.6600000000000000e+02" nEvuw="1.1400000000000000e+03" sepI="2.4495661258697510e-01" sepG="4.4926261901855469e+01" res="-9.9000000000000000e+01" rms="0.0000000000000000e+00" nType="0" CC="0.0000000000000000e+00">
          <Node pos="l" depth="2" Seq="1" IVar="-1" Cut="1.2380952835083008e+00" cType="0" nS="2.5406221008300781e+02" nB="2.1899686813354492e+01" nEv="2.7596188354492188e+02" nSuw="2.7100000000000000e+02" nBuw="2.4000000000000000e+01" nEvuw="2.9500000000000000e+02" sepI="7.3060013353824615e-02" sepG="-1.0000000000000000e+00" res="-9.9000000000000000e+01" rms="0.0000000000000000e+00" nType="1" CC="0.0000000000000000e+00"/>
          <Node pos="r" depth="2" Seq="3" IVar="2" Cut="3.6669664550572634e-03" cType="0" nS="3.7841189575195312e+02" nB="4.5325393676757812e+02" nEv="8.3166583251953125e+02" nSuw="4.0300000000000000e+02" nBuw="4.4200000000000000e+02" nEvuw="8.4500000000000000e+02" sepI="2.4797542393207550e-01" sepG="7.6533096313476562e+01" res="-9.9000000000000000e+01" rms="0.0000000000000000e+00" nType="0" CC="0.0000000000000000e+00">
            <Node pos="l" depth="3" Seq="3" IVar="-1" Cut="0.0000000000000000e+00" cType="1" nS="2.4944180297851562e+02" nB="3.5606815338134766e+01" nEv="2.8504861450195312e+02" nSuw="2.6400000000000000e+02" nBuw="3.8000000000000000e+01" nEvuw="3.0200000000000000e+02" sepI="1.0931115597486496e-01" sepG="-1.0000000000000000e+00" res="-9.9000000000000000e+01" rms="0.0000000000000000e+00" nType="1" CC="0.0000000000000000e+00"/>
            <Node pos="r" depth="3" Seq="7" IVar="-1" Cut="0.0000000000000000e+00" cType="1" nS="1.2897009277343750e+02" nB="4.1764712524414062e+02" nEv="5.4661724853515625e+02" nSuw="1.3900000000000000e+02" nBuw="4.0400000000000000e+02" nEvuw="5.4300000000000000e+02" sepI="1.8027350306510925e-01" sepG="-1.0000000000000000e+00" res="-9.9000000000000000e+01" rms="0.0000000000000000e+00" nType="-1" CC="0.0000000000000000e+00"/>
          </Node>
        </Node>
      </Node>
    </BinaryTree>
    <BinaryTree type="DecisionTree" boostWeight="1.1262807593199640e+00" itree="1">
      <Node pos="s" depth="0" Seq="0" IVar="2" Cut="3.1636320054531097e-02" cType="0" nS="1.3411919921875000e+04" nB="1.1319456054687500e+04" nEv="2.4731376953125000e+04" nSuw="2.3200000000000000e+04" nBuw="1.5000000000000000e+03" nEvuw="2.4700000000000000e+04" sepI="2.4821038544178009e-01" sepG="4.4580151367187500e+02" res="-9.9000000000000000e+01" rms="0.0000000000000000e+00" nType="0" CC="0.0000000000000000e+00">
        <Node pos="l" depth="1" Seq="0" IVar="4" Cut="9.4018310308456421e-01" cType="1" nS="3.6386464843750000e+03" nB="7.3489044189453125e+02" nEv="4.3735371093750000e+03" nSuw="6.9090000000000000e+03" nBuw="7.4000000000000000e+01" nEvuw="6.9830000000000000e+03" sepI="1.3979667425155640e-01" sepG="1.3666343688964844e+02" res="-9.9000000000000000e+01" rms="0.0000000000000000e+00" nType="0" CC="0.0000000000000000e+00">
          <Node pos="l" depth="2" Seq="0" IVar="-1" Cut="1.3809523582458496e+00" cType="0" nS="3.5419047851562500e+03" nB="4.5450820922851562e+02" nEv="3.9964130859375000e+03" nSuw="6.7390000000000000e+03" nBuw="4.5000000000000000e+01" nEvuw="6.7840000000000000e+03" sepI="1.0079474002122879e-01" sepG="-1.0000000000000000e+00" res="-9.9000000000000000e+01" rms="0.0000000000000000e+00" nType="1" CC="0.0000000000000000e+00"/>
          <Node pos="r" depth="2" Seq="2" IVar="-1" Cut="0.0000000000000000e+00" cType="1" nS="9.6741798400878906e+01" nB="2.8038223266601562e+02" nEv="3.7712402343750000e+02" nSuw="1.7000000000000000e+02" nBuw="2.9000000000000000e+01" nEvuw="1.9900000000000000e+02" sepI="1.9071999192237854e-01" sepG="-1.0000000000000000e+00" res="-9.9000000000000000e+01" rms="0.0000000000000000e+00" nType="-1" CC="0.0000000000000000e+00"/>
        </Node>
        <Node pos="r" depth="1" Seq="1" IVar="2" Cut="-2.1130338311195374e-02" cType="1" nS="9.7732734375000000e+03" nB="1.0584565429687500e+04" nEv="2.0357839843750000e+04" nSuw="1.6291000000000000e+04" nBuw="1.4260000000000000e+03" nEvuw="1.7717000000000000e+04" sepI="2.4960295855998993e-01" sepG="6.7010107421875000e+02" res="-9.9000000000000000e+01" rms="0.0000000000000000e+00" nType="0" CC="0.0000000000000000e+00">
          <Node pos="l" depth="2" Seq="1" IVar="4" Cut="9.4034594297409058e-01" cType="1" nS="4.4955419921875000e+03" nB="1.3822380371093750e+03" nEv="5.8777802734375000e+03" nSuw="8.5840000000000000e+03" nBuw="1.4100000000000000e+02" nEvuw="8.7250000000000000e+03" sepI="1.7986151576042175e-01" sepG="2.3896606445312500e+02" res="-9.9000000000000000e+01" rms="0.0000000000000000e+00" nType="0" CC="0.0000000000000000e+00">
            <Node pos="l" depth="3" Seq="1" IVar="-1" Cut="0.0000000000000000e+00" cType="1" nS="4.3736030273437500e+03" nB="8.6102874755859375e+02" nEv="5.2346318359375000e+03" nSuw="8.3460000000000000e+03" nBuw="8.9000000000000000e+01" nEvuw="8.4350000000000000e+03" sepI="1.3743101060390472e-01" sepG="-1.0000000000000000e+00" res="-9.9000000000000000e+01" rms="0.0000000000000000e+00" nType="1" CC="0.0000000000000000e+00"/>
            <Node pos="r" depth="3" Seq="5" IVar="-1" Cut="0.0000000000000000e+00" cType="1" nS="1.2193888092041016e+02" nB="5.2120935058593750e+02" nEv="6.4314825439453125e+02" nSuw="2.3800000000000000e+02" nBuw="5.2000000000000000e+01" nEvuw="2.9000000000000000e+02" sepI="1.5364988148212433e-01" sepG="-1.0000000000000000e+00" res="-9.9000000000000000e+01" rms="0.0000000000000000e+00" nType="-1" CC="0.0000000000000000e+00"/>
          </Node>
          <Node pos="r" depth="2" Seq="3" IVar="1" Cut="4.1706266999244690e-01" cType="1" nS="5.2777314453125000e+03" nB="9.2023281250000000e+03" nEv="1.4480058593750000e+04" nSuw="7.7070000000000000e+03" nBuw="1.2850000000000000e+03" nEvuw="8.9920000000000000e+03" sepI="2.3163506388664246e-01" sepG="2.4465409851074219e+02" res="-9.9000000000000000e+01" rms="0.0000000000000000e+00" nType="0" CC="0.0000000000000000e+00">
            <Node pos="l" depth="3" Seq="3" IVar="-1" Cut="0.0000000000000000e+00" cType="1" nS="1.3532738037109375e+03" nB="5.9675604248046875e+02" nEv="1.9500297851562500e+03" nSuw="5.4400000000000000e+02" nBuw="4.2200000000000000e+02" nEvuw="9.6600000000000000e+02" sepI="2.1237333118915558e-01" sepG="-1.0000000000000000e+00" res="-9.9000000000000000e+01" rms="0.0000000000000000e+00" nType="1" CC="0.0000000000000000e+00"/>
            <Node pos="r" depth="3" Seq="7" IVar="-1" Cut="0.0000000000000000e+00" cType="1" nS="3.9244575195312500e+03" nB="8.6055712890625000e+03" nEv="1.2530029296875000e+04" nSuw="7.1630000000000000e+03" nBuw="8.6300000000000000e+02" nEvuw="8.0260000000000000e+03" sepI="2.1510732173919678e-01" sepG="-1.0000000000000000e+00" res="-9.9000000000000000e+01" rms="0.0000000000000000e+00" nType="-1" CC="0.0000000000000000e+00"/>
          </Node>
        </Node>
      </Node>
    </BinaryTree>
    <BinaryTree type="DecisionTree" boostWeight="9.1025305149433267e-01" itree="2">
      <Node pos="s" depth="0" Seq="0" IVar="0" Cut="1.3809523582458496e+00" cType="0" nS="1.4597660156250000e+04" nB="1.0133715820312500e+04" nEv="2.4731375000000000e+04" nSuw="2.3200000000000000e+04" nBuw="1.5000000000000000e+03" nEvuw="2.4700000000000000e+04" sepI="2.4185518920421600e-01" sepG="4.5974365234375000e+02" res="-9.9000000000000000e+01" rms="0.0000000000000000e+00" nType="0" CC="0.0000000000000000e+00">
        <Node pos="l" depth="1" Seq="0" IVar="-1" Cut="1.9459569826722145e-02" cType="0" nS="8.0582612304687500e+03" nB="2.7601188964843750e+03" nEv="1.0818379882812500e+04" nSuw="1.2903000000000000e+04" nBuw="4.7900000000000000e+02" nEvuw="1.3382000000000000e+04" sepI="1.9003984332084656e-01" sepG="-1.0000000000000000e+00" res="-9.9000000000000000e+01" rms="0.0000000000000000e+00" nType="1" CC="0.0000000000000000e+00"/>
        <Node pos="r" depth="1" Seq="1" IVar="1" Cut="6.3530504703521729e-01" cType="0" nS="6.5393989257812500e+03" nB="7.3735966796875000e+03" nEv="1.3912996093750000e+04" nSuw="1.0297000000000000e+04" nBuw="1.0210000000000000e+03" nEvuw="1.1318000000000000e+04" sepI="2.4910125136375427e-01" sepG="2.0560475158691406e+02" res="-9.9000000000000000e+01" rms="0.0000000000000000e+00" nType="0" CC="0.0000000000000000e+00">
          <Node pos="l" depth="2" Seq="1" IVar="4" Cut="5.8036405593156815e-02" cType="0" nS="4.9548715820312500e+03" nB="3.8525966796875000e+03" nEv="8.8074677734375000e+03" nSuw="8.4820000000000000e+03" nBuw="4.0700000000000000e+02" nEvuw="8.8890000000000000e+03" sepI="2.4608422815799713e-01" sepG="2.7750537109375000e+02" res="-9.9000000000000000e+01" rms="0.0000000000000000e+00" nType="0" CC="0.0000000000000000e+00">
            <Node pos="l" depth="3" Seq="1" IVar="-1" Cut="0.0000000000000000e+00" cType="1" nS="4.2386362304687500e+03" nB="2.0381770019531250e+03" nEv="6.2768129882812500e+03" nSuw="7.2040000000000000e+03" nBuw="2.2600000000000000e+02" nEvuw="7.4300000000000000e+03" sepI="2.1927526593208313e-01" sepG="-1.0000000000000000e+00" res="-9.9000000000000000e+01" rms="0.0000000000000000e+00" nType="1" CC="0.0000000000000000e+00"/>
            <Node pos="r" depth="3" Seq="5" IVar="-1" Cut="0.0000000000000000e+00" cType="1" nS="7.1623547363281250e+02" nB="1.8144197998046875e+03" nEv="2.5306552734375000e+03" nSuw="1.2780000000000000e+03" nBuw="1.8100000000000000e+02" nEvuw="1.4590000000000000e+03" sepI="2.0292130112648010e-01" sepG="-1.0000000000000000e+00" res="-9.9000000000000000e+01" rms="0.0000000000000000e+00" nType="-1" CC="0.0000000000000000e+00"/>
          </Node>
          <Node pos="r" depth="2" Seq="3" IVar="3" Cut="-2.5791293010115623e-02" cType="1" nS="1.5845272216796875e+03" nB="3.5210000000000000e+03" nEv="5.1055273437500000e+03" nSuw="1.8150000000000000e+03" nBuw="6.1400000000000000e+02" nEvuw="2.4290000000000000e+03" sepI="2.1403487026691437e-01" sepG="2.7157478332519531e+01" res="-9.9000000000000000e+01" rms="0.0000000000000000e+00" nType="0" CC="0.0000000000000000e+00">
            <Node pos="l" depth="3" Seq="3" IVar="-1" Cut="0.0000000000000000e+00" cType="1" nS="3.2449829101562500e+02" nB="3.2205984497070312e+02" nEv="6.4655810546875000e+02" nSuw="3.5500000000000000e+02" nBuw="4.3000000000000000e+01" nEvuw="3.9800000000000000e+02" sepI="2.4999643862247467e-01" sepG="-1.0000000000000000e+00" res="-9.9000000000000000e+01" rms="0.0000000000000000e+00" nType="1" CC="0.0000000000000000e+00"/>
            <Node pos="r" depth="3" Seq="7" IVar="-1" Cut="0.0000000000000000e+00" cType="1" nS="1.2600289306640625e+03" nB="3.1989401855468750e+03" nEv="4.4589692382812500e+03" nSuw="1.4600000000000000e+03" nBuw="5.7100000000000000e+02" nEvuw="2.0310000000000000e+03" sepI="2.0272985100746155e-01" sepG="-1.0000000000000000e+00" res="-9.9000000000000000e+01" rms="0.0000000000000000e+00" nType="-1" CC="0.0000000000000000e+00"/>
          </Node>
        </Node>
      </Node>
    </BinaryTree>
    <BinaryTree type="DecisionTree" boostWeight="6.6347165807905761e-01" itree="3">
      <Node pos="s" depth="0" Seq="0" IVar="2" Cut="7.2828163392841816e-03" cType="0" nS="1.2293856445312500e+04" nB="1.2437519531250000e+04" nEv="2.4731376953125000e+04" nSuw="2.3200000000000000e+04" nBuw="1.5000000000000000e+03" nEvuw="2.4700000000000000e+04" sepI="2.4999156594276428e-01" sepG="2.5442655944824219e+02" res="-9.9000000000000000e+01" rms="0.0000000000000000e+00" nType="0" CC="0.0000000000000000e+00">
        <Node pos="l" depth="1" Seq="0" IVar="4" Cut="8.9377200603485107e-01" cType="1" nS="5.2895776367187500e+03" nB="2.9713498535156250e+03" nEv="8.2609277343750000e+03" nSuw="1.0613000000000000e+04" nBuw="2.4800000000000000e+02" nEvuw="1.0861000000000000e+04" sepI="2.3031231760978699e-01" sepG="1.4094747924804688e+02" res="-9.9000000000000000e+01" rms="0.0000000000000000e+00" nType="0" CC="0.0000000000000000e+00">
          <Node pos="l" depth="2" Seq="0" IVar="-1" Cut="1.3809523582458496e+00" cType="0" nS="4.7261333007812500e+03" nB="1.9992901611328125e+03" nEv="6.7254233398437500e+03" nSuw="9.6090000000000000e+03" nBuw="1.6400000000000000e+02" nEvuw="9.7730000000000000e+03" sepI="2.0890197157859802e-01" sepG="-1.0000000000000000e+00" res="-9.9000000000000000e+01" rms="0.0000000000000000e+00" nType="1" CC="0.0000000000000000e+00"/>
          <Node pos="r" depth="2" Seq="2" IVar="-1" Cut="9.1041576862335205e-01" cType="1" nS="5.6344433593750000e+02" nB="9.7205963134765625e+02" nEv="1.5355039062500000e+03" nSuw="1.0040000000000000e+03" nBuw="8.4000000000000000e+01" nEvuw="1.0880000000000000e+03" sepI="2.3229615390300751e-01" sepG="-1.0000000000000000e+00" res="-9.9000000000000000e+01" rms="0.0000000000000000e+00" nType="-1" CC="0.0000000000000000e+00"/>
        </Node>
        <Node pos="r" depth="1" Seq="1" IVar="2" Cut="-5.4780086502432823e-03" cType="1" nS="7.0042788085937500e+03" nB="9.4661699218750000e+03" nEv="1.6470449218750000e+04" nSuw="1.2587000000000000e+04" nBuw="1.2520000000000000e+03" nEvuw="1.3839000000000000e+04" sepI="2.4441443383693695e-01" sepG="2.0224520874023438e+02" res="-9.9000000000000000e+01" rms="0.0000000000000000e+00" nType="0" CC="0.0000000000000000e+00">
          <Node pos="l" depth="2" Seq="1" IVar="4" Cut="9.4034594297409058e-01" cType="1" nS="4.4976801757812500e+03" nB="3.9332761230468750e+03" nEv="8.4309560546875000e+03" nSuw="1.0830000000000000e+04" nBuw="2.9800000000000000e+02" nEvuw="1.1128000000000000e+04" sepI="2.4887961149215698e-01" sepG="1.1882550048828125e+02" res="-9.9000000000000000e+01" rms="0.0000000000000000e+00" nType="0" CC="0.0000000000000000e+00">
            <Node pos="l" depth="3" Seq="1" IVar="-1" Cut="0.0000000000000000e+00" cType="1" nS="4.2596362304687500e+03" nB="3.1003059082031250e+03" nEv="7.3599418945312500e+03" nSuw="1.0526000000000000e+04" nBuw="2.2400000000000000e+02" nEvuw="1.0750000000000000e+04" sepI="2.4379694461822510e-01" sepG="-1.0000000000000000e+00" res="-9.9000000000000000e+01" rms="0.0000000000000000e+00" nType="1" CC="0.0000000000000000e+00"/>
            <Node pos="r" depth="3" Seq="5" IVar="-1" Cut="0.0000000000000000e+00" cType="1" nS="2.3804411315917969e+02" nB="8.3297033691406250e+02" nEv="1.0710145263671875e+03" nSuw="3.0400000000000000e+02" nBuw="7.4000000000000000e+01" nEvuw="3.7800000000000000e+02" sepI="1.7286072671413422e-01" sepG="-1.0000000000000000e+00" res="-9.9000000000000000e+01" rms="0.0000000000000000e+00" nType="-1" CC="0.0000000000000000e+00"/>
          </Node>
          <Node pos="r" depth="2" Seq="3" IVar="-1" Cut="4.6920004487037659e-01" cType="1" nS="2.5065986328125000e+03" nB="5.5328935546875000e+03" nEv="8.0394921875000000e+03" nSuw="1.7570000000000000e+03" nBuw="9.5400000000000000e+02" nEvuw="2.7110000000000000e+03" sepI="2.1457538008689880e-01" sepG="-1.0000000000000000e+00" res="-9.9000000000000000e+01" rms="0.0000000000000000e+00" nType="-1" CC="0.0000000000000000e+00"/>
        </Node>
      </Node>
    </BinaryTree>
    <BinaryTree type="DecisionTree" boostWeight="4.1496289034376521e-01" itree="4">
      <Node pos="s" depth="0" Seq="0" IVar="4" Cut="1.5091109275817871e-01" cType="0" nS="1.1672394531250000e+04" nB="1.3058982421875000e+04" nEv="2.4731376953125000e+04" nSuw="2.3200000000000000e+04" nBuw="1.5000000000000000e+03" nEvuw="2.4700000000000000e+04" sepI="2.4921415746212006e-01" sepG="9.4694061279296875e+01" res="-9.9000000000000000e+01" rms="0.0000000000000000e+00" nType="0" CC="0.0000000000000000e+00">
        <Node pos="l" depth="1" Seq="0" IVar="0" Cut="1.3809523582458496e+00" cType="0" nS="9.2695283203125000e+03" nB="8.9420556640625000e+03" nEv="1.8211583984375000e+04" nSuw="1.9228000000000000e+04" nBuw="1.1070000000000000e+03" nEvuw="2.0335000000000000e+04" sepI="2.4991916120052338e-01" sepG="9.4396118164062500e+01" res="-9.9000000000000000e+01" rms="0.0000000000000000e+00" nType="0" CC="0.0000000000000000e+00">
          <Node pos="l" depth="2" Seq="0" IVar="-1" Cut="1.9459569826722145e-02" cType="0" nS="4.7349628906250000e+03" nB="3.2888264160156250e+03" nEv="8.0237895507812500e+03" nSuw="1.1690000000000000e+04" nBuw="3.7700000000000000e+02" nEvuw="1.2067000000000000e+04" sepI="2.4187919497489929e-01" sepG="-1.0000000000000000e+00" res="-9.9000000000000000e+01" rms="0.0000000000000000e+00" nType="1" CC="0.0000000000000000e+00"/>
          <Node pos="r" depth="2" Seq="2" IVar="1" Cut="8.7003862857818604e-01" cType="1" nS="4.5345654296875000e+03" nB="5.6532294921875000e+03" nEv="1.0187794921875000e+04" nSuw="7.5380000000000000e+03" nBuw="7.3000000000000000e+02" nEvuw="8.2680000000000000e+03" sepI="2.4698574841022491e-01" sepG="1.3556735229492188e+02" res="-9.9000000000000000e+01" rms="0.0000000000000000e+00" nType="0" CC="0.0000000000000000e+00">
            <Node pos="l" depth="3" Seq="2" IVar="-1" Cut="0.0000000000000000e+00" cType="1" nS="3.9913300781250000e+03" nB="3.8671484375000000e+03" nEv="7.8584785156250000e+03" nSuw="5.9890000000000000e+03" nBuw="6.4200000000000000e+02" nEvuw="6.6310000000000000e+03" sepI="2.4993757903575897e-01" sepG="-1.0000000000000000e+00" res="-9.9000000000000000e+01" rms="0.0000000000000000e+00" nType="1" CC="0.0000000000000000e+00"/>
            <Node pos="r" depth="3" Seq="6" IVar="-1" Cut="0.0000000000000000e+00" cType="1" nS="5.4323522949218750e+02" nB="1.7860810546875000e+03" nEv="2.3293161621093750e+03" nSuw="1.5490000000000000e+03" nBuw="8.8000000000000000e+01" nEvuw="1.6370000000000000e+03" sepI="1.7882661521434784e-01" sepG="-1.0000000000000000e+00" res="-9.9000000000000000e+01" rms="0.0000000000000000e+00" nType="-1" CC="0.0000000000000000e+00"/>
          </Node>
        </Node>
        <Node pos="r" depth="1" Seq="1" IVar="2" Cut="2.3693138733506203e-02" cType="0" nS="2.4028659667968750e+03" nB="4.1169262695312500e+03" nEv="6.5197919921875000e+03" nSuw="3.9720000000000000e+03" nBuw="3.9300000000000000e+02" nEvuw="4.3650000000000000e+03" sepI="2.3272076249122620e-01" sepG="4.6771701812744141e+01" res="-9.9000000000000000e+01" rms="0.0000000000000000e+00" nType="0" CC="0.0000000000000000e+00">
          <Node pos="l" depth="2" Seq="1" IVar="4" Cut="5.1639754325151443e-02" cType="0" nS="4.7046093750000000e+02" nB="3.1762377929687500e+02" nEv="7.8808471679687500e+02" nSuw="1.3710000000000000e+03" nBuw="2.7000000000000000e+01" nEvuw="1.3980000000000000e+03" sepI="2.4059730768203735e-01" sepG="6.4312370300292969e+01" res="-9.9000000000000000e+01" rms="0.0000000000000000e+00" nType="0" CC="0.0000000000000000e+00">
            <Node pos="l" depth="3" Seq="1" IVar="-1" Cut="0.0000000000000000e+00" cType="1" nS="2.6766149902343750e+02" nB="1.8153612613677979e+00" nEv="2.6947683715820312e+02" nSuw="9.6500000000000000e+02" nBuw="2.0000000000000000e+00" nEvuw="9.6700000000000000e+02" sepI="6.6912309266626835e-03" sepG="-1.0000000000000000e+00" res="-9.9000000000000000e+01" rms="0.0000000000000000e+00" nType="1" CC="0.0000000000000000e+00"/>
            <Node pos="r" depth="3" Seq="5" IVar="-1" Cut="0.0000000000000000e+00" cType="1" nS="2.0279943847656250e+02" nB="3.1580844116210938e+02" nEv="5.1860784912109375e+02" nSuw="4.0600000000000000e+02" nBuw="2.5000000000000000e+01" nEvuw="4.3100000000000000e+02" sepI="2.3812898993492126e-01" sepG="-1.0000000000000000e+00" res="-9.9000000000000000e+01" rms="0.0000000000000000e+00" nType="-1" CC="0.0000000000000000e+00"/>
          </Node>
          <Node pos="r" depth="2" Seq="3" IVar="-1" Cut="1.1904761791229248e+00" cType="1" nS="1.9324051513671875e+03" nB="3.7993022460937500e+03" nEv="5.7317075195312500e+03" nSuw="2.6010000000000000e+03" nBuw="3.6600000000000000e+02" nEvuw="2.9670000000000000e+03" sepI="2.2347760200500488e-01" sepG="-1.0000000000000000e+00" res="-9.9000000000000000e+01" rms="0.0000000000000000e+00" nType="-1" CC="0.0000000000000000e+00"/>
        </Node>
      </Node>
    </BinaryTree>
    <BinaryTree type="DecisionTree" boostWeight="4.0817760769119127e-01" itree="5">
      <Node pos="s" depth="0" Seq="0" IVar="3" Cut="4.0782291442155838e-02" cType="0" nS="1.0833842773437500e+04" nB="1.3897533203125000e+04" nEv="2.4731375000000000e+04" nSuw="2.3200000000000000e+04" nBuw="1.5000000000000000e+03" nEvuw="2.4700000000000000e+04" sepI="2.4616351723670959e-01" sepG="7.1883209228515625e+01" res="-9.9000000000000000e+01" rms="0.0000000000000000e+00" nType="0" CC="0.0000000000000000e+00">
        <Node pos="l" depth="1" Seq="0" IVar="4" Cut="9.3723177909851074e-01" cType="1" nS="1.9836145019531250e+03" nB="1.4873381347656250e+03" nEv="3.4709526367187500e+03" nSuw="4.2790000000000000e+03" nBuw="1.4800000000000000e+02" nEvuw="4.4270000000000000e+03" sepI="2.4488918483257294e-01" sepG="1.3356717109680176e+01" res="-9.9000000000000000e+01" rms="0.0000000000000000e+00" nType="0" CC="0.0000000000000000e+00">
          <Node pos="l" depth="2" Seq="0" IVar="-1" Cut="3.6441987752914429e-01" cType="0" nS="1.8584680175781250e+03" nB="1.2830802001953125e+03" nEv="3.1415480957031250e+03" nSuw="4.1310000000000000e+03" nBuw="1.2600000000000000e+02" nEvuw="4.2570000000000000e+03" sepI="2.4161364138126373e-01" sepG="-1.0000000000000000e+00" res="-9.9000000000000000e+01" rms="0.0000000000000000e+00" nType="1" CC="0.0000000000000000e+00"/>
          <Node pos="r" depth="2" Seq="2" IVar="-1" Cut="0.0000000000000000e+00" cType="1" nS="1.2514655303955078e+02" nB="2.0425785827636719e+02" nEv="3.2940441894531250e+02" nSuw="1.4800000000000000e+02" nBuw="2.2000000000000000e+01" nEvuw="1.7000000000000000e+02" sepI="2.3558023571968079e-01" sepG="-1.0000000000000000e+00" res="-9.9000000000000000e+01" rms="0.0000000000000000e+00" nType="-1" CC="0.0000000000000000e+00"/>
        </Node>
        <Node pos="r" depth="1" Seq="1" IVar="3" Cut="-4.0384028106927872e-02" cType="1" nS="8.8502285156250000e+03" nB="1.2410195312500000e+04" nEv="2.1260423828125000e+04" nSuw="1.8921000000000000e+04" nBuw="1.3520000000000000e+03" nEvuw="2.0273000000000000e+04" sepI="2.4299047887325287e-01" sepG="7.1994346618652344e+01" res="-9.9000000000000000e+01" rms="0.0000000000000000e+00" nType="0" CC="0.0000000000000000e+00">
          <Node pos="l" depth="2" Seq="1" IVar="2" Cut="1.5008802525699139e-02" cType="0" nS="2.0135466308593750e+03" nB="1.6955853271484375e+03" nEv="3.7091318359375000e+03" nSuw="4.4490000000000000e+03" nBuw="1.4600000000000000e+02" nEvuw="4.5950000000000000e+03" sepI="2.4816285073757172e-01" sepG="3.6448768615722656e+01" res="-9.9000000000000000e+01" rms="0.0000000000000000e+00" nType="0" CC="0.0000000000000000e+00">
            <Node pos="l" depth="3" Seq="1" IVar="-1" Cut="0.0000000000000000e+00" cType="1" nS="6.1614392089843750e+02" nB="2.3414363098144531e+02" nEv="8.5028753662109375e+02" nSuw="1.7720000000000000e+03" nBuw="1.5000000000000000e+01" nEvuw="1.7870000000000000e+03" sepI="1.9954134523868561e-01" sepG="-1.0000000000000000e+00" res="-9.9000000000000000e+01" rms="0.0000000000000000e+00" nType="1" CC="0.0000000000000000e+00"/>
            <Node pos="r" depth="3" Seq="5" IVar="-1" Cut="0.0000000000000000e+00" cType="1" nS="1.3974027099609375e+03" nB="1.4614416503906250e+03" nEv="2.8588444824218750e+03" nSuw="2.6770000000000000e+03" nBuw="1.3100000000000000e+02" nEvuw="2.8080000000000000e+03" sepI="2.4987456202507019e-01" sepG="-1.0000000000000000e+00" res="-9.9000000000000000e+01" rms="0.0000000000000000e+00" nType="-1" CC="0.0000000000000000e+00"/>
          </Node>
          <Node pos="r" depth="2" Seq="3" IVar="-1" Cut="2.1061783656477928e-02" cType="0" nS="6.8366816406250000e+03" nB="1.0714610351562500e+04" nEv="1.7551291015625000e+04" nSuw="1.4472000000000000e+04" nBuw="1.2060000000000000e+03" nEvuw="1.5678000000000000e+04" sepI="2.3779545724391937e-01" sepG="-1.0000000000000000e+00" res="-9.9000000000000000e+01" rms="0.0000000000000000e+00" nType="-1" CC="0.0000000000000000e+00"/>
        </Node>
      </Node>
    </BinaryTree>
    <BinaryTree type="DecisionTree" boostWeight="2.9100961918675805e-01" itree="6">
      <Node pos="s" depth="0" Seq="0" IVar="4" Cut="8.4747123718261719e-01" cType="1" nS="1.2526009765625000e+04" nB="1.2205366210937500e+04" nEv="2.4731376953125000e+04" nSuw="2.3200000000000000e+04" nBuw="1.5000000000000000e+03" nEvuw="2.4700000000000000e+04" sepI="2.4995797872543335e-01" sepG="4.9476932525634766e+01" res="-9.9000000000000000e+01" rms="0.0000000000000000e+00" nType="0" CC="0.0000000000000000e+00">
        <Node pos="l" depth="1" Seq="0" IVar="3" Cut="-3.2266795635223389e-02" cType="1" nS="1.0523404296875000e+04" nB="9.3889501953125000e+03" nEv="1.9912353515625000e+04" nSuw="1.9773000000000000e+04" nBuw="1.2560000000000000e+03" nEvuw="2.1029000000000000e+04" sepI="2.4918854236602783e-01" sepG="5.4954879760742188e+01" res="-9.9000000000000000e+01" rms="0.0000000000000000e+00" nType="0" CC="0.0000000000000000e+00">
          <Node pos="l" depth="2" Seq="0" IVar="-1" Cut="4.8939222097396851e-01" cType="0" nS="2.4147187500000000e+03" nB="1.3772156982421875e+03" nEv="3.7919345703125000e+03" nSuw="4.8690000000000000e+03" nBuw="1.5200000000000000e+02" nEvuw="5.0210000000000000e+03" sepI="2.3128467798233032e-01" sepG="-1.0000000000000000e+00" res="-9.9000000000000000e+01" rms="0.0000000000000000e+00" nType="1" CC="0.0000000000000000e+00"/>
          <Node pos="r" depth="2" Seq="2" IVar="2" Cut="1.9459569826722145e-02" cType="0" nS="8.1086855468750000e+03" nB="8.0117338867187500e+03" nEv="1.6120418945312500e+04" nSuw="1.4904000000000000e+04" nBuw="1.1040000000000000e+03" nEvuw="1.6008000000000000e+04" sepI="2.4999095499515533e-01" sepG="4.3319812774658203e+01" res="-9.9000000000000000e+01" rms="0.0000000000000000e+00" nType="0" CC="0.0000000000000000e+00">
            <Node pos="l" depth="3" Seq="2" IVar="-1" Cut="0.0000000000000000e+00" cType="1" nS="1.8895700683593750e+03" nB="1.2120953369140625e+03" nEv="3.1016652832031250e+03" nSuw="5.7330000000000000e+03" nBuw="7.2000000000000000e+01" nEvuw="5.8050000000000000e+03" sepI="2.3807285726070404e-01" sepG="-1.0000000000000000e+00" res="-9.9000000000000000e+01" rms="0.0000000000000000e+00" nType="1" CC="0.0000000000000000e+00"/>
            <Node pos="r" depth="3" Seq="6" IVar="-1" Cut="0.0000000000000000e+00" cType="1" nS="6.2191152343750000e+03" nB="6.7996386718750000e+03" nEv="1.3018753906250000e+04" nSuw="9.1710000000000000e+03" nBuw="1.0320000000000000e+03" nEvuw="1.0203000000000000e+04" sepI="2.4950289726257324e-01" sepG="-1.0000000000000000e+00" res="-9.9000000000000000e+01" rms="0.0000000000000000e+00" nType="-1" CC="0.0000000000000000e+00"/>
          </Node>
        </Node>
        <Node pos="r" depth="1" Seq="1" IVar="4" Cut="9.6690285205841064e-01" cType="1" nS="2.0026053466796875e+03" nB="2.8164169921875000e+03" nEv="4.8190224609375000e+03" nSuw="3.4270000000000000e+03" nBuw="2.4400000000000000e+02" nEvuw="3.6710000000000000e+03" sepI="2.4287031590938568e-01" sepG="4.6106098175048828e+01" res="-9.9000000000000000e+01" rms="0.0000000000000000e+00" nType="0" CC="0.0000000000000000e+00">
          <Node pos="l" depth="2" Seq="1" IVar="0" Cut="2.3333332538604736e+00" cType="0" nS="1.8821203613281250e+03" nB="2.2505537109375000e+03" nEv="4.1326743164062500e+03" nSuw="3.3420000000000000e+03" nBuw="1.6400000000000000e+02" nEvuw="3.5060000000000000e+03" sepI="2.4801300466060638e-01" sepG="5.3752933502197266e+01" res="-9.9000000000000000e+01" rms="0.0000000000000000e+00" nType="0" CC="0.0000000000000000e+00">
            <Node pos="l" depth="3" Seq="1" IVar="-1" Cut="0.0000000000000000e+00" cType="1" nS="2.9255087280273438e+02" nB="6.0531463623046875e+01" nEv="3.5308233642578125e+02" nSuw="7.5700000000000000e+02" nBuw="8.0000000000000000e+00" nEvuw="7.6500000000000000e+02" sepI="1.4204652607440948e-01" sepG="-1.0000000000000000e+00" res="-9.9000000000000000e+01" rms="0.0000000000000000e+00" nType="1" CC="0.0000000000000000e+00"/>
            <Node pos="r" depth="3" Seq="5" IVar="-1" Cut="0.0000000000000000e+00" cType="1" nS="1.5895695800781250e+03" nB="2.1900224609375000e+03" nEv="3.7795917968750000e+03" nSuw="2.5850000000000000e+03" nBuw="1.5600000000000000e+02" nEvuw="2.7410000000000000e+03" sepI="2.4369031190872192e-01" sepG="-1.0000000000000000e+00" res="-9.9000000000000000e+01" rms="0.0000000000000000e+00" nType="-1" CC="0.0000000000000000e+00"/>
          </Node>
          <Node pos="r" depth="2" Seq="3" IVar="-1" Cut="0.0000000000000000e+00" cType="1" nS="1.2048496246337891e+02" nB="5.6586309814453125e+02" nEv="6.8634808349609375e+02" nSuw="8.5000000000000000e+01" nBuw="8.0000000000000000e+01" nEvuw="1.6500000000000000e+02" sepI="1.4472894370555878e-01" sepG="-1.0000000000000000e+00" res="-9.9000000000000000e+01" rms="0.0000000000000000e+00" nType="-1" CC="0.0000000000000000e+00"/>
        </Node>
      </Node>
    </BinaryTree>
    <BinaryTree type="DecisionTree" boostWeight="3.0617807504867617e-01" itree="7">
      <Node pos="s" depth="0" Seq="0" IVar="0" Cut="5.1904764175415039e+00" cType="0" nS="1.3284825195312500e+04" nB="1.1446550781250000e+04" nEv="2.4731376953125000e+04" nSuw="2.3200000000000000e+04" nBuw="1.5000000000000000e+03" nEvuw="2.4700000000000000e+04" sepI="2.4861878156661987e-01" sepG="2.5334356307983398e+01" res="-9.9000000000000000e+01" rms="0.0000000000000000e+00" nType="0" CC="0.0000000000000000e+00">
        <Node pos="l" depth="1" Seq="0" IVar="1" Cut="7.2650110721588135e-01" cType="0" nS="1.1770240020751953e+02" nB="0.0000000000000000e+00" nEv="1.1770240020751953e+02" nSuw="2.9700000000000000e+02" nBuw="0.0000000000000000e+00" nEvuw="2.9700000000000000e+02" sepI="0.0000000000000000e+00" sepG="0.0000000000000000e+00" res="-9.9000000000000000e+01" rms="0.0000000000000000e+00" nType="1" CC="0.0000000000000000e+00"/>
        <Node pos="r" depth="1" Seq="1" IVar="1" Cut="4.3348839879035950e-01" cType="1" nS="1.3167123046875000e+04" nB="1.1446550781250000e+04" nEv="2.4613673828125000e+04" nSuw="2.2903000000000000e+04" nBuw="1.5000000000000000e+03" nEvuw="2.4403000000000000e+04" sepI="2.4877838790416718e-01" sepG="2.2376838684082031e+01" res="-9.9000000000000000e+01" rms="0.0000000000000000e+00" nType="0" CC="0.0000000000000000e+00">
          <Node pos="l" depth="2" Seq="1" IVar="2" Cut="4.0947119705379009e-03" cType="1" nS="1.9347525634765625e+03" nB="1.2182926025390625e+03" nEv="3.1530451660156250e+03" nSuw="6.6100000000000000e+02" nBuw="4.6600000000000000e+02" nEvuw="1.1270000000000000e+03" sepI="2.3709186911582947e-01" sepG="1.6558886718750000e+02" res="-9.9000000000000000e+01" rms="0.0000000000000000e+00" nType="0" CC="0.0000000000000000e+00">
            <Node pos="l" depth="3" Seq="1" IVar="-1" Cut="0.0000000000000000e+00" cType="1" nS="1.8136883544921875e+03" nB="6.5718835449218750e+02" nEv="2.4708767089843750e+03" nSuw="4.1500000000000000e+02" nBuw="4.3300000000000000e+02" nEvuw="8.4800000000000000e+02" sepI="1.9523172080516815e-01" sepG="-1.0000000000000000e+00" res="-9.9000000000000000e+01" rms="0.0000000000000000e+00" nType="1" CC="0.0000000000000000e+00"/>
            <Node pos="r" depth="3" Seq="5" IVar="-1" Cut="0.0000000000000000e+00" cType="1" nS="1.2106423187255859e+02" nB="5.6110424804687500e+02" nEv="6.8216851806640625e+02" nSuw="2.4600000000000000e+02" nBuw="3.3000000000000000e+01" nEvuw="2.7900000000000000e+02" sepI="1.4597420394420624e-01" sepG="-1.0000000000000000e+00" res="-9.9000000000000000e+01" rms="0.0000000000000000e+00" nType="-1" CC="0.0000000000000000e+00"/>
          </Node>
          <Node pos="r" depth="2" Seq="3" IVar="1" Cut="6.7345595359802246e-01" cType="0" nS="1.1232370117187500e+04" nB="1.0228257812500000e+04" nEv="2.1460628906250000e+04" nSuw="2.2242000000000000e+04" nBuw="1.0340000000000000e+03" nEvuw="2.3276000000000000e+04" sepI="2.4945271015167236e-01" sepG="4.0706485748291016e+01" res="-9.9000000000000000e+01" rms="0.0000000000000000e+00" nType="0" CC="0.0000000000000000e+00">
            <Node pos="l" depth="3" Seq="3" IVar="-1" Cut="0.0000000000000000e+00" cType="1" nS="7.2900673828125000e+03" nB="5.7667324218750000e+03" nEv="1.3056799804687500e+04" nSuw="1.7205000000000000e+04" nBuw="5.2700000000000000e+02" nEvuw="1.7732000000000000e+04" sepI="2.4659703671932220e-01" sepG="-1.0000000000000000e+00" res="-9.9000000000000000e+01" rms="0.0000000000000000e+00" nType="1" CC="0.0000000000000000e+00"/>
            <Node pos="r" depth="3" Seq="7" IVar="-1" Cut="0.0000000000000000e+00" cType="1" nS="3.9423029785156250e+03" nB="4.4615253906250000e+03" nEv="8.4038281250000000e+03" nSuw="5.0370000000000000e+03" nBuw="5.0700000000000000e+02" nEvuw="5.5440000000000000e+03" sepI="2.4904568493366241e-01" sepG="-1.0000000000000000e+00" res="-9.9000000000000000e+01" rms="0.0000000000000000e+00" nType="-1" CC="0.0000000000000000e+00"/>
          </Node>
        </Node>
      </Node>
    </BinaryTree>
    <BinaryTree type="DecisionTree" boostWeight="3.2567882252237906e-01" itree="8">
      <Node pos="s" depth="0" Seq="0" IVar="1" Cut="6.3239473104476929e-01" cType="1" nS="1.2796569335937500e+04" nB="1.1934806640625000e+04" nEv="2.4731376953125000e+04" nSuw="2.3200000000000000e+04" nBuw="1.5000000000000000e+03" nEvuw="2.4700000000000000e+04" sepI="2.4969646334648132e-01" sepG="3.8095436096191406e+01" res="-9.9000000000000000e+01" rms="0.0000000000000000e+00" nType="0" CC="0.0000000000000000e+00">
        <Node pos="l" depth="1" Seq="0" IVar="3" Cut="-2.5937883183360100e-03" cType="0" nS="5.6019028320312500e+03" nB="4.3054135742187500e+03" nEv="9.9073164062500000e+03" nSuw="4.2520000000000000e+03" nBuw="9.0700000000000000e+02" nEvuw="5.1590000000000000e+03" sepI="2.4571879208087921e-01" sepG="5.4561305999755859e+01" res="-9.9000000000000000e+01" rms="0.0000000000000000e+00" nType="0" CC="0.0000000000000000e+00">
          <Node pos="l" depth="2" Seq="0" IVar="2" Cut="-1.3819669373333454e-02" cType="0" nS="3.3648935546875000e+03" nB="1.9375996093750000e+03" nEv="5.3024931640625000e+03" nSuw="2.2880000000000000e+03" nBuw="4.7600000000000000e+02" nEvuw="2.7640000000000000e+03" sepI="2.3188632726669312e-01" sepG="3.6680595397949219e+01" res="-9.9000000000000000e+01" rms="0.0000000000000000e+00" nType="0" CC="0.0000000000000000e+00">
            <Node pos="l" depth="3" Seq="0" IVar="-1" Cut="0.0000000000000000e+00" cType="1" nS="2.8878237304687500e+03" nB="1.3883140869140625e+03" nEv="4.2761376953125000e+03" nSuw="1.5310000000000000e+03" nBuw="4.4300000000000000e+02" nEvuw="1.9740000000000000e+03" sepI="2.1925778687000275e-01" sepG="-1.0000000000000000e+00" res="-9.9000000000000000e+01" rms="0.0000000000000000e+00" nType="1" CC="0.0000000000000000e+00"/>
            <Node pos="r" depth="3" Seq="4" IVar="-1" Cut="0.0000000000000000e+00" cType="1" nS="4.7706991577148438e+02" nB="5.4928558349609375e+02" nEv="1.0263554687500000e+03" nSuw="7.5700000000000000e+02" nBuw="3.3000000000000000e+01" nEvuw="7.9000000000000000e+02" sepI="2.4876232445240021e-01" sepG="-1.0000000000000000e+00" res="-9.9000000000000000e+01" rms="0.0000000000000000e+00" nType="-1" CC="0.0000000000000000e+00"/>
          </Node>
          <Node pos="r" depth="2" Seq="2" IVar="1" Cut="5.8503133058547974e-01" cType="0" nS="2.2370092773437500e+03" nB="2.3678137207031250e+03" nEv="4.6048232421875000e+03" nSuw="1.9640000000000000e+03" nBuw="4.3100000000000000e+02" nEvuw="2.3950000000000000e+03" sepI="2.4979826807975769e-01" sepG="1.2588199615478516e+01" res="-9.9000000000000000e+01" rms="0.0000000000000000e+00" nType="0" CC="0.0000000000000000e+00">
            <Node pos="l" depth="3" Seq="2" IVar="-1" Cut="0.0000000000000000e+00" cType="1" nS="4.4627081298828125e+02" nB="2.9065893554687500e+02" nEv="7.3692974853515625e+02" nSuw="5.9300000000000000e+02" nBuw="3.8000000000000000e+01" nEvuw="6.3100000000000000e+02" sepI="2.3885260522365570e-01" sepG="-1.0000000000000000e+00" res="-9.9000000000000000e+01" rms="0.0000000000000000e+00" nType="1" CC="0.0000000000000000e+00"/>
            <Node pos="r" depth="3" Seq="6" IVar="-1" Cut="0.0000000000000000e+00" cType="1" nS="1.7907385253906250e+03" nB="2.0771547851562500e+03" nEv="3.8678933105468750e+03" nSuw="1.3710000000000000e+03" nBuw="3.9300000000000000e+02" nEvuw="1.7640000000000000e+03" sepI="2.4862916767597198e-01" sepG="-1.0000000000000000e+00" res="-9.9000000000000000e+01" rms="0.0000000000000000e+00" nType="-1" CC="0.0000000000000000e+00"/>
          </Node>
        </Node>
        <Node pos="r" depth="1" Seq="1" IVar="3" Cut="-2.0091949030756950e-02" cType="1" nS="7.1946660156250000e+03" nB="7.6293935546875000e+03" nEv="1.4824059570312500e+04" nSuw="1.8948000000000000e+04" nBuw="5.9300000000000000e+02" nEvuw="1.9541000000000000e+04" sepI="2.4978500604629517e-01" sepG="2.9638341903686523e+01" res="-9.9000000000000000e+01" rms="0.0000000000000000e+00" nType="0" CC="0.0000000000000000e+00">
          <Node pos="l" depth="2" Seq="1" IVar="4" Cut="3.3671766519546509e-01" cType="0" nS="2.8277312011718750e+03" nB="2.3475595703125000e+03" nEv="5.1752905273437500e+03" nSuw="7.0440000000000000e+03" nBuw="2.0900000000000000e+02" nEvuw="7.2530000000000000e+03" sepI="2.4784789979457855e-01" sepG="2.6826797485351562e+01" res="-9.9000000000000000e+01" rms="0.0000000000000000e+00" nType="0" CC="0.0000000000000000e+00">
            <Node pos="l" depth="3" Seq="1" IVar="-1" Cut="0.0000000000000000e+00" cType="1" nS="1.5030914306640625e+03" nB="9.0767999267578125e+02" nEv="2.4107714843750000e+03" nSuw="4.3570000000000000e+03" nBuw="7.4000000000000000e+01" nEvuw="4.4310000000000000e+03" sepI="2.3475027084350586e-01" sepG="-1.0000000000000000e+00" res="-9.9000000000000000e+01" rms="0.0000000000000000e+00" nType="1" CC="0.0000000000000000e+00"/>
            <Node pos="r" depth="3" Seq="5" IVar="-1" Cut="0.0000000000000000e+00" cType="1" nS="1.3246396484375000e+03" nB="1.4398795166015625e+03" nEv="2.7645190429687500e+03" nSuw="2.6870000000000000e+03" nBuw="1.3500000000000000e+02" nEvuw="2.8220000000000000e+03" sepI="2.4956558644771576e-01" sepG="-1.0000000000000000e+00" res="-9.9000000000000000e+01" rms="0.0000000000000000e+00" nType="-1" CC="0.0000000000000000e+00"/>
          </Node>
          <Node pos="r" depth="2" Seq="3" IVar="0" Cut="2.1428570747375488e+00" cType="0" nS="4.3669350585937500e+03" nB="5.2818339843750000e+03" nEv="9.6487695312500000e+03" nSuw="1.1904000000000000e+04" nBuw="3.8400000000000000e+02" nEvuw="1.2288000000000000e+04" sepI="2.4775227904319763e-01" sepG="1.9964971542358398e+01" res="-9.9000000000000000e+01" rms="0.0000000000000000e+00" nType="0" CC="0.0000000000000000e+00">
            <Node pos="l" depth="3" Seq="3" IVar="-1" Cut="0.0000000000000000e+00" cType="1" nS="7.9605279541015625e+02" nB="6.1969482421875000e+02" nEv="1.4157476806640625e+03" nSuw="3.0830000000000000e+03" nBuw="4.3000000000000000e+01" nEvuw="3.1260000000000000e+03" sepI="2.4612064659595490e-01" sepG="-1.0000000000000000e+00" res="-9.9000000000000000e+01" rms="0.0000000000000000e+00" nType="1" CC="0.0000000000000000e+00"/>
            <Node pos="r" depth="3" Seq="7" IVar="-1" Cut="0.0000000000000000e+00" cType="1" nS="3.5708820800781250e+03" nB="4.6621396484375000e+03" nEv="8.2330214843750000e+03" nSuw="8.8210000000000000e+03" nBuw="3.4100000000000000e+02" nEvuw="9.1620000000000000e+03" sepI="2.4560786783695221e-01" sepG="-1.0000000000000000e+00" res="-9.9000000000000000e+01" rms="0.0000000000000000e+00" nType="-1" CC="0.0000000000000000e+00"/>
          </Node>
        </Node>
      </Node>
    </BinaryTree>
    <BinaryTree type="DecisionTree" boostWeight="3.5364679850435266e-01" itree="9">
      <Node pos="s" depth="0" Seq="0" IVar="4" Cut="8.4747123718261719e-01" cType="1" nS="1.3392488281250000e+04" nB="1.1338887695312500e+04" nEv="2.4731376953125000e+04" nSuw="2.3200000000000000e+04" nBuw="1.5000000000000000e+03" nEvuw="2.4700000000000000e+04" sepI="2.4827624857425690e-01" sepG="3.9278305053710938e+01" res="-9.9000000000000000e+01" rms="0.0000000000000000e+00" nType="0" CC="0.0000000000000000e+00">
        <Node pos="l" depth="1" Seq="0" IVar="2" Cut="-2.9247442260384560e-02" cType="1" nS="1.1204306640625000e+04" nB="8.7687998046875000e+03" nEv="1.9973107421875000e+04" nSuw="1.9773000000000000e+04" nBuw="1.2560000000000000e+03" nEvuw="2.1029000000000000e+04" sepI="2.4628269672393799e-01" sepG="3.7437095642089844e+01" res="-9.9000000000000000e+01" rms="0.0000000000000000e+00" nType="0" CC="0.0000000000000000e+00">
          <Node pos="l" depth="2" Seq="0" IVar="-1" Cut="7.7705091238021851e-01" cType="1" nS="1.6773031005859375e+03" nB="8.0423547363281250e+02" nEv="2.4815385742187500e+03" nSuw="6.0640000000000000e+03" nBuw="4.0000000000000000e+01" nEvuw="6.1040000000000000e+03" sepI="2.1905477344989777e-01" sepG="-1.0000000000000000e+00" res="-9.9000000000000000e+01" rms="0.0000000000000000e+00" nType="1" CC="0.0000000000000000e+00"/>
          <Node pos="r" depth="2" Seq="2" IVar="0" Cut="2.1428570747375488e+00" cType="1" nS="9.5270039062500000e+03" nB="7.9645644531250000e+03" nEv="1.7491568359375000e+04" nSuw="1.3709000000000000e+04" nBuw="1.2160000000000000e+03" nEvuw="1.4925000000000000e+04" sepI="2.4800524115562439e-01" sepG="3.2281547546386719e+01" res="-9.9000000000000000e+01" rms="0.0000000000000000e+00" nType="0" CC="0.0000000000000000e+00">
            <Node pos="l" depth="3" Seq="2" IVar="-1" Cut="0.0000000000000000e+00" cType="1" nS="7.9885073242187500e+03" nB="6.1343457031250000e+03" nEv="1.4122852539062500e+04" nSuw="1.0192000000000000e+04" nBuw="1.0300000000000000e+03" nEvuw="1.1222000000000000e+04" sepI="2.4569086730480194e-01" sepG="-1.0000000000000000e+00" res="-9.9000000000000000e+01" rms="0.0000000000000000e+00" nType="1" CC="0.0000000000000000e+00"/>
            <Node pos="r" depth="3" Seq="6" IVar="-1" Cut="0.0000000000000000e+00" cType="1" nS="1.5384967041015625e+03" nB="1.8302186279296875e+03" nEv="3.3687153320312500e+03" nSuw="3.5170000000000000e+03" nBuw="1.8600000000000000e+02" nEvuw="3.7030000000000000e+03" sepI="2.4812522530555725e-01" sepG="-1.0000000000000000e+00" res="-9.9000000000000000e+01" rms="0.0000000000000000e+00" nType="-1" CC="0.0000000000000000e+00"/>
          </Node>
        </Node>
        <Node pos="r" depth="1" Seq="1" IVar="4" Cut="9.6690285205841064e-01" cType="1" nS="2.1881813964843750e+03" nB="2.5700878906250000e+03" nEv="4.7582695312500000e+03" nSuw="3.4270000000000000e+03" nBuw="2.4400000000000000e+02" nEvuw="3.6710000000000000e+03" sepI="2.4838951230049133e-01" sepG="5.8494720458984375e+01" res="-9.9000000000000000e+01" rms="0.0000000000000000e+00" nType="0" CC="0.0000000000000000e+00">
          <Node pos="l" depth="2" Seq="1" IVar="2" Cut="-2.9386002570390701e-02" cType="0" nS="2.0526506347656250e+03" nB="2.0041931152343750e+03" nEv="4.0568437500000000e+03" nSuw="3.3420000000000000e+03" nBuw="1.6400000000000000e+02" nEvuw="3.5060000000000000e+03" sepI="2.4996432662010193e-01" sepG="5.3848037719726562e+01" res="-9.9000000000000000e+01" rms="0.0000000000000000e+00" nType="0" CC="0.0000000000000000e+00">
            <Node pos="l" depth="3" Seq="1" IVar="-1" Cut="0.0000000000000000e+00" cType="1" nS="1.6441734619140625e+03" nB="1.1805662841796875e+03" nEv="2.8247397460937500e+03" nSuw="2.1790000000000000e+03" nBuw="1.3000000000000000e+02" nEvuw="2.3090000000000000e+03" sepI="2.4326583743095398e-01" sepG="-1.0000000000000000e+00" res="-9.9000000000000000e+01" rms="0.0000000000000000e+00" nType="1" CC="0.0000000000000000e+00"/>
            <Node pos="r" depth="3" Seq="5" IVar="-1" Cut="0.0000000000000000e+00" cType="1" nS="4.0847723388671875e+02" nB="8.2362677001953125e+02" nEv="1.2321040039062500e+03" nSuw="1.1630000000000000e+03" nBuw="3.4000000000000000e+01" nEvuw="1.1970000000000000e+03" sepI="2.2161725163459778e-01" sepG="-1.0000000000000000e+00" res="-9.9000000000000000e+01" rms="0.0000000000000000e+00" nType="-1" CC="0.0000000000000000e+00"/>
          </Node>
          <Node pos="r" depth="2" Seq="3" IVar="-1" Cut="0.0000000000000000e+00" cType="1" nS="1.3553077697753906e+02" nB="5.6589477539062500e+02" nEv="7.0142553710937500e+02" nSuw="8.5000000000000000e+01" nBuw="8.0000000000000000e+01" nEvuw="1.6500000000000000e+02" sepI="1.5588720142841339e-01" sepG="-1.0000000000000000e+00" res="-9.9000000000000000e+01" rms="0.0000000000000000e+00" nType="-1" CC="0.0000000000000000e+00"/>
        </Node>
      </Node>
    </BinaryTree>
    <BinaryTree type="DecisionTree" boostWeight="2.3651649275898992e-01" itree="10">
      <Node pos="s" depth="0" Seq="0" IVar="2" Cut="3.1636320054531097e-02" cType="1" nS="1.2149749023437500e+04" nB="1.2581626953125000e+04" nEv="2.4731376953125000e+04" nSuw="2.3200000000000000e+04" nBuw="1.5000000000000000e+03" nEvuw="2.4700000000000000e+04" sepI="2.4992376565933228e-01" sepG="3.4520458221435547e+01" res="-9.9000000000000000e+01" rms="0.0000000000000000e+00" nType="0" CC="0.0000000000000000e+00">
        <Node pos="l" depth="1" Seq="0" IVar="2" Cut="1.6559349372982979e-02" cType="0" nS="1.0731489257812500e+04" nB="1.0453798828125000e+04" nEv="2.1185289062500000e+04" nSuw="1.6291000000000000e+04" nBuw="1.4260000000000000e+03" nEvuw="1.7717000000000000e+04" sepI="2.4995703995227814e-01" sepG="5.2297149658203125e+01" res="-9.9000000000000000e+01" rms="0.0000000000000000e+00" nType="0" CC="0.0000000000000000e+00">
          <Node pos="l" depth="2" Seq="0" IVar="-1" Cut="1.3333333730697632e+00" cType="0" nS="1.5249584960937500e+03" nB="8.3208911132812500e+02" nEv="2.3570476074218750e+03" nSuw="2.4340000000000000e+03" nBuw="9.1000000000000000e+01" nEvuw="2.5250000000000000e+03" sepI="2.2839739918708801e-01" sepG="-1.0000000000000000e+00" res="-9.9000000000000000e+01" rms="0.0000000000000000e+00" nType="1" CC="0.0000000000000000e+00"/>
          <Node pos="r" depth="2" Seq="2" IVar="0" Cut="5.1904764175415039e+00" cType="0" nS="9.2065312500000000e+03" nB="9.6217099609375000e+03" nEv="1.8828240234375000e+04" nSuw="1.3857000000000000e+04" nBuw="1.3350000000000000e+03" nEvuw="1.5192000000000000e+04" sepI="2.4987843632698059e-01" sepG="2.0569843292236328e+01" res="-9.9000000000000000e+01" rms="0.0000000000000000e+00" nType="0" CC="0.0000000000000000e+00">
            <Node pos="l" depth="3" Seq="2" IVar="-1" Cut="0.0000000000000000e+00" cType="1" nS="7.8439155578613281e+01" nB="0.0000000000000000e+00" nEv="7.8439155578613281e+01" nSuw="1.7000000000000000e+02" nBuw="0.0000000000000000e+00" nEvuw="1.7000000000000000e+02" sepI="0.0000000000000000e+00" sepG="-1.0000000000000000e+00" res="-9.9000000000000000e+01" rms="0.0000000000000000e+00" nType="1" CC="0.0000000000000000e+00"/>
            <Node pos="r" depth="3" Seq="6" IVar="-1" Cut="0.0000000000000000e+00" cType="1" nS="9.1280917968750000e+03" nB="9.6217099609375000e+03" nEv="1.8749800781250000e+04" nSuw="1.3687000000000000e+04" nBuw="1.3350000000000000e+03" nEvuw="1.5022000000000000e+04" sepI="2.4982672929763794e-01" sepG="-1.0000000000000000e+00" res="-9.9000000000000000e+01" rms="0.0000000000000000e+00" nType="-1" CC="0.0000000000000000e+00"/>
          </Node>
        </Node>
        <Node pos="r" depth="1" Seq="1" IVar="0" Cut="1.3809523582458496e+00" cType="0" nS="1.4182600097656250e+03" nB="2.1278278808593750e+03" nEv="3.5460878906250000e+03" nSuw="6.9090000000000000e+03" nBuw="7.4000000000000000e+01" nEvuw="6.9830000000000000e+03" sepI="2.3999011516571045e-01" sepG="1.1419876098632812e+02" res="-9.9000000000000000e+01" rms="0.0000000000000000e+00" nType="0" CC="0.0000000000000000e+00">
          <Node pos="l" depth="2" Seq="1" IVar="2" Cut="3.6277819424867630e-02" cType="0" nS="5.8737591552734375e+02" nB="2.1538690185546875e+02" nEv="8.0276281738281250e+02" nSuw="3.8790000000000000e+03" nBuw="6.0000000000000000e+00" nEvuw="3.8850000000000000e+03" sepI="1.9631835818290710e-01" sepG="6.0131011962890625e+01" res="-9.9000000000000000e+01" rms="0.0000000000000000e+00" nType="0" CC="0.0000000000000000e+00">
            <Node pos="l" depth="3" Seq="1" IVar="-1" Cut="0.0000000000000000e+00" cType="1" nS="5.0198822021484375e+02" nB="4.4025882720947266e+01" nEv="5.4601409912109375e+02" nSuw="3.3520000000000000e+03" nBuw="4.0000000000000000e+00" nEvuw="3.3560000000000000e+03" sepI="7.4129976332187653e-02" sepG="-1.0000000000000000e+00" res="-9.9000000000000000e+01" rms="0.0000000000000000e+00" nType="1" CC="0.0000000000000000e+00"/>
            <Node pos="r" depth="3" Seq="5" IVar="-1" Cut="0.0000000000000000e+00" cType="1" nS="8.5387710571289062e+01" nB="1.7136102294921875e+02" nEv="2.5674871826171875e+02" nSuw="5.2700000000000000e+02" nBuw="2.0000000000000000e+00" nEvuw="5.2900000000000000e+02" sepI="2.2196821868419647e-01" sepG="-1.0000000000000000e+00" res="-9.9000000000000000e+01" rms="0.0000000000000000e+00" nType="-1" CC="0.0000000000000000e+00"/>
          </Node>
          <Node pos="r" depth="2" Seq="3" IVar="4" Cut="1.9690342247486115e-01" cType="1" nS="8.3088409423828125e+02" nB="1.9124410400390625e+03" nEv="2.7433251953125000e+03" nSuw="3.0300000000000000e+03" nBuw="6.8000000000000000e+01" nEvuw="3.0980000000000000e+03" sepI="2.1114166080951691e-01" sepG="2.6872350692749023e+01" res="-9.9000000000000000e+01" rms="0.0000000000000000e+00" nType="0" CC="0.0000000000000000e+00">
            <Node pos="l" depth="3" Seq="3" IVar="-1" Cut="0.0000000000000000e+00" cType="1" nS="2.5981616210937500e+02" nB="2.4946009826660156e+02" nEv="5.0927624511718750e+02" nSuw="9.6500000000000000e+02" nBuw="8.0000000000000000e+00" nEvuw="9.7300000000000000e+02" sepI="2.4989663064479828e-01" sepG="-1.0000000000000000e+00" res="-9.9000000000000000e+01" rms="0.0000000000000000e+00" nType="1" CC="0.0000000000000000e+00"/>
            <Node pos="r" depth="3" Seq="7" IVar="-1" Cut="0.0000000000000000e+00" cType="1" nS="5.7106793212890625e+02" nB="1.6629809570312500e+03" nEv="2.2340488281250000e+03" nSuw="2.0650000000000000e+03" nBuw="6.0000000000000000e+01" nEvuw="2.1250000000000000e+03" sepI="1.9027850031852722e-01" sepG="-1.0000000000000000e+00" res="-9.9000000000000000e+01" rms="0.0000000000000000e+00" nType="-1" CC="0.0000000000000000e+00"/>
          </Node>
        </Node>
      </Node>
    </BinaryTree>
    <BinaryTree type="DecisionTree" boostWeight="2.9119261821026776e-01" itree="11">
      <Node pos="s" depth="0" Seq="0" IVar="2" Cut="3.1636320054531097e-02" cType="1" nS="1.3206059570312500e+04" nB="1.1525316406250000e+04" nEv="2.4731376953125000e+04" nSuw="2.3200000000000000e+04" nBuw="1.5000000000000000e+03" nEvuw="2.4700000000000000e+04" sepI="2.4884536862373352e-01" sepG="5.1768634796142578e+01" res="-9.9000000000000000e+01" rms="0.0000000000000000e+00" nType="0" CC="0.0000000000000000e+00">
        <Node pos="l" depth="1" Seq="0" IVar="-1" Cut="5.1904764175415039e+00" cType="0" nS="1.1780447265625000e+04" nB="9.5515146484375000e+03" nEv="2.1331960937500000e+04" nSuw="1.6291000000000000e+04" nBuw="1.4260000000000000e+03" nEvuw="1.7717000000000000e+04" sepI="2.4727056920528412e-01" sepG="-1.0000000000000000e+00" res="-9.9000000000000000e+01" rms="0.0000000000000000e+00" nType="1" CC="0.0000000000000000e+00"/>
        <Node pos="r" depth="1" Seq="1" IVar="0" Cut="1.3809523582458496e+00" cType="0" nS="1.4256121826171875e+03" nB="1.9738020019531250e+03" nEv="3.3994143066406250e+03" nSuw="6.9090000000000000e+03" nBuw="7.4000000000000000e+01" nEvuw="6.9830000000000000e+03" sepI="2.4349880218505859e-01" sepG="9.1956314086914062e+01" res="-9.9000000000000000e+01" rms="0.0000000000000000e+00" nType="0" CC="0.0000000000000000e+00">
          <Node pos="l" depth="2" Seq="1" IVar="2" Cut="3.6277819424867630e-02" cType="0" nS="5.4590167236328125e+02" nB="2.0321392822265625e+02" nEv="7.4911560058593750e+02" nSuw="3.8790000000000000e+03" nBuw="6.0000000000000000e+00" nEvuw="3.8850000000000000e+03" sepI="1.9768340885639191e-01" sepG="4.3849330902099609e+01" res="-9.9000000000000000e+01" rms="0.0000000000000000e+00" nType="0" CC="0.0000000000000000e+00">
            <Node pos="l" depth="3" Seq="1" IVar="-1" Cut="0.0000000000000000e+00" cType="1" nS="4.4912203979492188e+02" nB="4.9899562835693359e+01" nEv="4.9902160644531250e+02" nSuw="3.3520000000000000e+03" nBuw="4.0000000000000000e+00" nEvuw="3.3560000000000000e+03" sepI="8.9995831251144409e-02" sepG="-1.0000000000000000e+00" res="-9.9000000000000000e+01" rms="0.0000000000000000e+00" nType="1" CC="0.0000000000000000e+00"/>
            <Node pos="r" depth="3" Seq="5" IVar="-1" Cut="0.0000000000000000e+00" cType="1" nS="9.6779647827148438e+01" nB="1.5331436157226562e+02" nEv="2.5009400939941406e+02" nSuw="5.2700000000000000e+02" nBuw="2.0000000000000000e+00" nEvuw="5.2900000000000000e+02" sepI="2.3722490668296814e-01" sepG="-1.0000000000000000e+00" res="-9.9000000000000000e+01" rms="0.0000000000000000e+00" nType="-1" CC="0.0000000000000000e+00"/>
          </Node>
          <Node pos="r" depth="2" Seq="3" IVar="-1" Cut="8.9356082677841187e-01" cType="1" nS="8.7971051025390625e+02" nB="1.7705881347656250e+03" nEv="2.6502985839843750e+03" nSuw="3.0300000000000000e+03" nBuw="6.8000000000000000e+01" nEvuw="3.0980000000000000e+03" sepI="2.2175207734107971e-01" sepG="-1.0000000000000000e+00" res="-9.9000000000000000e+01" rms="0.0000000000000000e+00" nType="-1" CC="0.0000000000000000e+00"/>
        </Node>
      </Node>
    </BinaryTree>
    <BinaryTree type="DecisionTree" boostWeight="1.3578942291437424e-01" itree="12">
      <Node pos="s" depth="0" Seq="0" IVar="0" Cut="5.1904764175415039e+00" cType="0" nS="1.1826329101562500e+04" nB="1.2905046875000000e+04" nEv="2.4731376953125000e+04" nSuw="2.3200000000000000e+04" nBuw="1.5000000000000000e+03" nEvuw="2.4700000000000000e+04" sepI="2.4952438473701477e-01" sepG="2.2784011840820312e+01" res="-9.9000000000000000e+01" rms="0.0000000000000000e+00" nType="0" CC="0.0000000000000000e+00">
        <Node pos="l" depth="1" Seq="0" IVar="1" Cut="7.2650110721588135e-01" cType="0" nS="8.3395133972167969e+01" nB="0.0000000000000000e+00" nEv="8.3395133972167969e+01" nSuw="2.9700000000000000e+02" nBuw="0.0000000000000000e+00" nEvuw="2.9700000000000000e+02" sepI="0.0000000000000000e+00" sepG="0.0000000000000000e+00" res="-9.9000000000000000e+01" rms="0.0000000000000000e+00" nType="1" CC="0.0000000000000000e+00"/>
        <Node pos="r" depth="1" Seq="1" IVar="2" Cut="-9.0131208300590515e-02" cType="1" nS="1.1742934570312500e+04" nB="1.2905046875000000e+04" nEv="2.4647980468750000e+04" nSuw="2.2903000000000000e+04" nBuw="1.5000000000000000e+03" nEvuw="2.4403000000000000e+04" sepI="2.4944426119327545e-01" sepG="1.0504366874694824e+01" res="-9.9000000000000000e+01" rms="0.0000000000000000e+00" nType="0" CC="0.0000000000000000e+00">
          <Node pos="l" depth="2" Seq="1" IVar="-1" Cut="7.5000715255737305e-01" cType="1" nS="5.8456390380859375e+01" nB="8.6072311401367188e+00" nEv="6.7063621520996094e+01" nSuw="2.0900000000000000e+02" nBuw="1.0000000000000000e+00" nEvuw="2.1000000000000000e+02" sepI="1.1187200993299484e-01" sepG="-1.0000000000000000e+00" res="-9.9000000000000000e+01" rms="0.0000000000000000e+00" nType="1" CC="0.0000000000000000e+00"/>
          <Node pos="r" depth="2" Seq="3" IVar="0" Cut="2.1428570747375488e+00" cType="0" nS="1.1684477539062500e+04" nB="1.2896439453125000e+04" nEv="2.4580917968750000e+04" nSuw="2.2694000000000000e+04" nBuw="1.4990000000000000e+03" nEvuw="2.4193000000000000e+04" sepI="2.4939225614070892e-01" sepG="9.8140592575073242e+00" res="-9.9000000000000000e+01" rms="0.0000000000000000e+00" nType="0" CC="0.0000000000000000e+00">
            <Node pos="l" depth="3" Seq="3" IVar="-1" Cut="0.0000000000000000e+00" cType="1" nS="2.0709128417968750e+03" nB="1.9052385253906250e+03" nEv="3.9761516113281250e+03" nSuw="5.6030000000000000e+03" nBuw="2.0300000000000000e+02" nEvuw="5.8060000000000000e+03" sepI="2.4956595897674561e-01" sepG="-1.0000000000000000e+00" res="-9.9000000000000000e+01" rms="0.0000000000000000e+00" nType="1" CC="0.0000000000000000e+00"/>
            <Node pos="r" depth="3" Seq="7" IVar="-1" Cut="0.0000000000000000e+00" cType="1" nS="9.6135654296875000e+03" nB="1.0991200195312500e+04" nEv="2.0604765625000000e+04" nSuw="1.7091000000000000e+04" nBuw="1.2960000000000000e+03" nEvuw="1.8387000000000000e+04" sepI="2.4888242781162262e-01" sepG="-1.0000000000000000e+00" res="-9.9000000000000000e+01" rms="0.0000000000000000e+00" nType="-1" CC="0.0000000000000000e+00"/>
          </Node>
        </Node>
      </Node>
    </BinaryTree>
    <BinaryTree type="DecisionTree" boostWeight="7.6559188866824376e-02" itree="13">
      <Node pos="s" depth="0" Seq="0" IVar="0" Cut="5.1904764175415039e+00" cType="0" nS="1.2384950195312500e+04" nB="1.2346425781250000e+04" nEv="2.4731376953125000e+04" nSuw="2.3200000000000000e+04" nBuw="1.5000000000000000e+03" nEvuw="2.4700000000000000e+04" sepI="2.4999938905239105e-01" sepG="1.9526042938232422e+01" res="-9.9000000000000000e+01" rms="0.0000000000000000e+00" nType="0" CC="0.0000000000000000e+00">
        <Node pos="l" depth="1" Seq="0" IVar="1" Cut="7.2650110721588135e-01" cType="0" nS="7.8100646972656250e+01" nB="0.0000000000000000e+00" nEv="7.8100646972656250e+01" nSuw="2.9700000000000000e+02" nBuw="0.0000000000000000e+00" nEvuw="2.9700000000000000e+02" sepI="0.0000000000000000e+00" sepG="0.0000000000000000e+00" res="-9.9000000000000000e+01" rms="0.0000000000000000e+00" nType="1" CC="0.0000000000000000e+00"/>
        <Node pos="r" depth="1" Seq="1" IVar="1" Cut="1.0965095758438110e+00" cType="1" nS="1.2306849609375000e+04" nB="1.2346425781250000e+04" nEv="2.4653275390625000e+04" nSuw="2.2903000000000000e+04" nBuw="1.5000000000000000e+03" nEvuw="2.4403000000000000e+04" sepI="2.4999935925006866e-01" sepG="1.1366775512695312e+01" res="-9.9000000000000000e+01" rms="0.0000000000000000e+00" nType="0" CC="0.0000000000000000e+00">
          <Node pos="l" depth="2" Seq="1" IVar="2" Cut="-5.0469104200601578e-02" cType="1" nS="1.1861221679687500e+04" nB="1.1679207031250000e+04" nEv="2.3540429687500000e+04" nSuw="2.1453000000000000e+04" nBuw="1.4640000000000000e+03" nEvuw="2.2917000000000000e+04" sepI="2.4998505413532257e-01" sepG="3.2533519744873047e+01" res="-9.9000000000000000e+01" rms="0.0000000000000000e+00" nType="0" CC="0.0000000000000000e+00">
            <Node pos="l" depth="3" Seq="1" IVar="-1" Cut="0.0000000000000000e+00" cType="1" nS="8.7179876708984375e+02" nB="4.5751504516601562e+02" nEv="1.3293138427734375e+03" nSuw="2.9420000000000000e+03" nBuw="3.7000000000000000e+01" nEvuw="2.9790000000000000e+03" sepI="2.2571821510791779e-01" sepG="-1.0000000000000000e+00" res="-9.9000000000000000e+01" rms="0.0000000000000000e+00" nType="1" CC="0.0000000000000000e+00"/>
            <Node pos="r" depth="3" Seq="5" IVar="-1" Cut="0.0000000000000000e+00" cType="1" nS="1.0989422851562500e+04" nB="1.1221692382812500e+04" nEv="2.2211115234375000e+04" nSuw="1.8511000000000000e+04" nBuw="1.4270000000000000e+03" nEvuw="1.9938000000000000e+04" sepI="2.4997265636920929e-01" sepG="-1.0000000000000000e+00" res="-9.9000000000000000e+01" rms="0.0000000000000000e+00" nType="-1" CC="0.0000000000000000e+00"/>
          </Node>
          <Node pos="r" depth="2" Seq="3" IVar="-1" Cut="8.0103391408920288e-01" cType="1" nS="4.4562786865234375e+02" nB="6.6721862792968750e+02" nEv="1.1128465576171875e+03" nSuw="1.4500000000000000e+03" nBuw="3.6000000000000000e+01" nEvuw="1.4860000000000000e+03" sepI="2.4008773267269135e-01" sepG="-1.0000000000000000e+00" res="-9.9000000000000000e+01" rms="0.0000000000000000e+00" nType="-1" CC="0.0000000000000000e+00"/>
        </Node>
      </Node>
    </BinaryTree>
    <BinaryTree type="DecisionTree" boostWeight="1.0011079654945344e-01" itree="14">
      <Node pos="s" depth="0" Seq="0" IVar="0" Cut="5.1904764175415039e+00" cType="0" nS="1.2804866210937500e+04" nB="1.1926509765625000e+04" nEv="2.4731376953125000e+04" nSuw="2.3200000000000000e+04" nBuw="1.5000000000000000e+03" nEvuw="2.4700000000000000e+04" sepI="2.4968466162681580e-01" sepG="1.7546934127807617e+01" res="-9.9000000000000000e+01" rms="0.0000000000000000e+00" nType="0" CC="0.0000000000000000e+00">
        <Node pos="l" depth="1" Seq="0" IVar="1" Cut="7.2650110721588135e-01" cType="0" nS="7.5222564697265625e+01" nB="0.0000000000000000e+00" nEv="7.5222564697265625e+01" nSuw="2.9700000000000000e+02" nBuw="0.0000000000000000e+00" nEvuw="2.9700000000000000e+02" sepI="0.0000000000000000e+00" sepG="0.0000000000000000e+00" res="-9.9000000000000000e+01" rms="0.0000000000000000e+00" nType="1" CC="0.0000000000000000e+00"/>
        <Node pos="r" depth="1" Seq="1" IVar="1" Cut="1.0965095758438110e+00" cType="1" nS="1.2729643554687500e+04" nB="1.1926509765625000e+04" nEv="2.4656154296875000e+04" nSuw="2.2903000000000000e+04" nBuw="1.5000000000000000e+03" nEvuw="2.4403000000000000e+04" sepI="2.4973474442958832e-01" sepG="1.0970109939575195e+01" res="-9.9000000000000000e+01" rms="0.0000000000000000e+00" nType="0" CC="0.0000000000000000e+00">
          <Node pos="l" depth="2" Seq="1" IVar="-1" Cut="-5.0469104200601578e-02" cType="1" nS="1.2266287109375000e+04" nB="1.1283878906250000e+04" nEv="2.3550166015625000e+04" nSuw="2.1453000000000000e+04" nBuw="1.4640000000000000e+03" nEvuw="2.2917000000000000e+04" sepI="2.4956494569778442e-01" sepG="-1.0000000000000000e+00" res="-9.9000000000000000e+01" rms="0.0000000000000000e+00" nType="1" CC="0.0000000000000000e+00"/>
          <Node pos="r" depth="2" Seq="3" IVar="-1" Cut="8.0103391408920288e-01" cType="1" nS="4.6335629272460938e+02" nB="6.4263098144531250e+02" nEv="1.1059873046875000e+03" nSuw="1.4500000000000000e+03" nBuw="3.6000000000000000e+01" nEvuw="1.4860000000000000e+03" sepI="2.4343132972717285e-01" sepG="-1.0000000000000000e+00" res="-9.9000000000000000e+01" rms="0.0000000000000000e+00" nType="-1" CC="0.0000000000000000e+00"/>
        </Node>
      </Node>
    </BinaryTree>
    <BinaryTree type="DecisionTree" boostWeight="1.0734832949014807e-01" itree="15">
      <Node pos="s" depth="0" Seq="0" IVar="0" Cut="5.1904764175415039e+00" cType="0" nS="1.2241416992187500e+04" nB="1.2489958984375000e+04" nEv="2.4731376953125000e+04" nSuw="2.3200000000000000e+04" nBuw="1.5000000000000000e+03" nEvuw="2.4700000000000000e+04" sepI="2.4997475743293762e-01" sepG="1.8324768066406250e+01" res="-9.9000000000000000e+01" rms="0.0000000000000000e+00" nType="0" CC="0.0000000000000000e+00">
        <Node pos="l" depth="1" Seq="0" IVar="1" Cut="7.2650110721588135e-01" cType="0" nS="7.1639602661132812e+01" nB="0.0000000000000000e+00" nEv="7.1639602661132812e+01" nSuw="2.9700000000000000e+02" nBuw="0.0000000000000000e+00" nEvuw="2.9700000000000000e+02" sepI="0.0000000000000000e+00" sepG="0.0000000000000000e+00" res="-9.9000000000000000e+01" rms="0.0000000000000000e+00" nType="1" CC="0.0000000000000000e+00"/>
        <Node pos="r" depth="1" Seq="1" IVar="4" Cut="8.0103391408920288e-01" cType="1" nS="1.2169777343750000e+04" nB="1.2489958984375000e+04" nEv="2.4659736328125000e+04" nSuw="2.2903000000000000e+04" nBuw="1.5000000000000000e+03" nEvuw="2.4403000000000000e+04" sepI="2.4995785951614380e-01" sepG="8.0304756164550781e+00" res="-9.9000000000000000e+01" rms="0.0000000000000000e+00" nType="0" CC="0.0000000000000000e+00">
          <Node pos="l" depth="2" Seq="1" IVar="2" Cut="-2.9247442260384560e-02" cType="1" nS="9.7328212890625000e+03" nB="9.6182685546875000e+03" nEv="1.9351089843750000e+04" nSuw="1.8309000000000000e+04" nBuw="1.2300000000000000e+03" nEvuw="1.9539000000000000e+04" sepI="2.4999123811721802e-01" sepG="2.6326375961303711e+01" res="-9.9000000000000000e+01" rms="0.0000000000000000e+00" nType="0" CC="0.0000000000000000e+00">
            <Node pos="l" depth="3" Seq="1" IVar="-1" Cut="0.0000000000000000e+00" cType="1" nS="1.3388708496093750e+03" nB="8.7170007324218750e+02" nEv="2.2105708007812500e+03" nSuw="5.5240000000000000e+03" nBuw="3.8000000000000000e+01" nEvuw="5.5620000000000000e+03" sepI="2.3883439600467682e-01" sepG="-1.0000000000000000e+00" res="-9.9000000000000000e+01" rms="0.0000000000000000e+00" nType="1" CC="0.0000000000000000e+00"/>
            <Node pos="r" depth="3" Seq="5" IVar="-1" Cut="0.0000000000000000e+00" cType="1" nS="8.3939501953125000e+03" nB="8.7465693359375000e+03" nEv="1.7140519531250000e+04" nSuw="1.2785000000000000e+04" nBuw="1.1920000000000000e+03" nEvuw="1.3977000000000000e+04" sepI="2.4989420175552368e-01" sepG="-1.0000000000000000e+00" res="-9.9000000000000000e+01" rms="0.0000000000000000e+00" nType="-1" CC="0.0000000000000000e+00"/>
          </Node>
          <Node pos="r" depth="2" Seq="3" IVar="-1" Cut="9.6910578012466431e-01" cType="1" nS="2.4369565429687500e+03" nB="2.8716899414062500e+03" nEv="5.3086464843750000e+03" nSuw="4.5940000000000000e+03" nBuw="2.7000000000000000e+02" nEvuw="4.8640000000000000e+03" sepI="2.4832344055175781e-01" sepG="-1.0000000000000000e+00" res="-9.9000000000000000e+01" rms="0.0000000000000000e+00" nType="-1" CC="0.0000000000000000e+00"/>
        </Node>
      </Node>
    </BinaryTree>
    <BinaryTree type="DecisionTree" boostWeight="2.4022408607859833e-01" itree="16">
      <Node pos="s" depth="0" Seq="0" IVar="0" Cut="5.1904764175415039e+00" cType="0" nS="1.2783321289062500e+04" nB="1.1948054687500000e+04" nEv="2.4731376953125000e+04" nSuw="2.3200000000000000e+04" nBuw="1.5000000000000000e+03" nEvuw="2.4700000000000000e+04" sepI="2.4971483647823334e-01" sepG="1.5913349151611328e+01" res="-9.9000000000000000e+01" rms="0.0000000000000000e+00" nType="0" CC="0.0000000000000000e+00">
        <Node pos="l" depth="1" Seq="0" IVar="1" Cut="7.2650110721588135e-01" cType="0" nS="6.7993606567382812e+01" nB="0.0000000000000000e+00" nEv="6.7993606567382812e+01" nSuw="2.9700000000000000e+02" nBuw="0.0000000000000000e+00" nEvuw="2.9700000000000000e+02" sepI="0.0000000000000000e+00" sepG="0.0000000000000000e+00" res="-9.9000000000000000e+01" rms="0.0000000000000000e+00" nType="1" CC="0.0000000000000000e+00"/>
        <Node pos="r" depth="1" Seq="1" IVar="1" Cut="8.9760321378707886e-01" cType="1" nS="1.2715327148437500e+04" nB="1.1948054687500000e+04" nEv="2.4663382812500000e+04" nSuw="2.2903000000000000e+04" nBuw="1.5000000000000000e+03" nEvuw="2.4403000000000000e+04" sepI="2.4975804984569550e-01" sepG="8.3640365600585938e+00" res="-9.9000000000000000e+01" rms="0.0000000000000000e+00" nType="0" CC="0.0000000000000000e+00">
          <Node pos="l" depth="2" Seq="1" IVar="4" Cut="1.1417762935161591e-01" cType="0" nS="1.0721059570312500e+04" nB="9.7430009765625000e+03" nEv="2.0464060546875000e+04" nSuw="1.7443000000000000e+04" nBuw="1.3410000000000000e+03" nEvuw="1.8784000000000000e+04" sepI="2.4942892789840698e-01" sepG="4.4466651916503906e+01" res="-9.9000000000000000e+01" rms="0.0000000000000000e+00" nType="0" CC="0.0000000000000000e+00">
            <Node pos="l" depth="3" Seq="1" IVar="-1" Cut="0.0000000000000000e+00" cType="1" nS="8.7664931640625000e+03" nB="7.2135673828125000e+03" nEv="1.5980059570312500e+04" nSuw="1.5189000000000000e+04" nBuw="1.0520000000000000e+03" nEvuw="1.6241000000000000e+04" sepI="2.4763906002044678e-01" sepG="-1.0000000000000000e+00" res="-9.9000000000000000e+01" rms="0.0000000000000000e+00" nType="1" CC="0.0000000000000000e+00"/>
            <Node pos="r" depth="3" Seq="5" IVar="-1" Cut="0.0000000000000000e+00" cType="1" nS="1.9545672607421875e+03" nB="2.5294340820312500e+03" nEv="4.4840014648437500e+03" nSuw="2.2540000000000000e+03" nBuw="2.8900000000000000e+02" nEvuw="2.5430000000000000e+03" sepI="2.4589093029499054e-01" sepG="-1.0000000000000000e+00" res="-9.9000000000000000e+01" rms="0.0000000000000000e+00" nType="-1" CC="0.0000000000000000e+00"/>
          </Node>
          <Node pos="r" depth="2" Seq="3" IVar="0" Cut="1.1904761791229248e+00" cType="0" nS="1.9942673339843750e+03" nB="2.2050537109375000e+03" nEv="4.1993212890625000e+03" nSuw="5.4600000000000000e+03" nBuw="1.5900000000000000e+02" nEvuw="5.6190000000000000e+03" sepI="2.4937011301517487e-01" sepG="3.1812084197998047e+01" res="-9.9000000000000000e+01" rms="0.0000000000000000e+00" nType="0" CC="0.0000000000000000e+00">
            <Node pos="l" depth="3" Seq="3" IVar="-1" Cut="0.0000000000000000e+00" cType="1" nS="9.2151086425781250e+02" nB="6.4663073730468750e+02" nEv="1.5681416015625000e+03" nSuw="3.6810000000000000e+03" nBuw="4.4000000000000000e+01" nEvuw="3.7250000000000000e+03" sepI="2.4231831729412079e-01" sepG="-1.0000000000000000e+00" res="-9.9000000000000000e+01" rms="0.0000000000000000e+00" nType="1" CC="0.0000000000000000e+00"/>
            <Node pos="r" depth="3" Seq="7" IVar="-1" Cut="0.0000000000000000e+00" cType="1" nS="1.0727564697265625e+03" nB="1.5584230957031250e+03" nEv="2.6311794433593750e+03" nSuw="1.7790000000000000e+03" nBuw="1.1500000000000000e+02" nEvuw="1.8940000000000000e+03" sepI="2.4148243665695190e-01" sepG="-1.0000000000000000e+00" res="-9.9000000000000000e+01" rms="0.0000000000000000e+00" nType="-1" CC="0.0000000000000000e+00"/>
          </Node>
        </Node>
      </Node>
    </BinaryTree>
    <BinaryTree type="DecisionTree" boostWeight="3.2776668927684377e-01" itree="17">
      <Node pos="s" depth="0" Seq="0" IVar="4" Cut="1.9734843075275421e-01" cType="1" nS="1.2152642578125000e+04" nB="1.2578733398437500e+04" nEv="2.4731376953125000e+04" nSuw="2.3200000000000000e+04" nBuw="1.5000000000000000e+03" nEvuw="2.4700000000000000e+04" sepI="2.4992579221725464e-01" sepG="2.6681400299072266e+01" res="-9.9000000000000000e+01" rms="0.0000000000000000e+00" nType="0" CC="0.0000000000000000e+00">
        <Node pos="l" depth="1" Seq="0" IVar="0" Cut="1.2380952835083008e+00" cType="1" nS="4.2904375000000000e+03" nB="3.6685695800781250e+03" nEv="7.9590073242187500e+03" nSuw="5.2530000000000000e+03" nBuw="4.5900000000000000e+02" nEvuw="5.7120000000000000e+03" sepI="2.4847377836704254e-01" sepG="5.7732742309570312e+01" res="-9.9000000000000000e+01" rms="0.0000000000000000e+00" nType="0" CC="0.0000000000000000e+00">
          <Node pos="l" depth="2" Seq="0" IVar="-1" Cut="-3.6079168319702148e-02" cType="1" nS="3.3705263671875000e+03" nB="2.3138808593750000e+03" nEv="5.6844072265625000e+03" nSuw="3.2430000000000000e+03" nBuw="3.3800000000000000e+02" nEvuw="3.5810000000000000e+03" sepI="2.4136170744895935e-01" sepG="-1.0000000000000000e+00" res="-9.9000000000000000e+01" rms="0.0000000000000000e+00" nType="1" CC="0.0000000000000000e+00"/>
          <Node pos="r" depth="2" Seq="2" IVar="2" Cut="2.3791145533323288e-02" cType="0" nS="9.1991101074218750e+02" nB="1.3546887207031250e+03" nEv="2.2745998535156250e+03" nSuw="2.0100000000000000e+03" nBuw="1.2100000000000000e+02" nEvuw="2.1310000000000000e+03" sepI="2.4086593091487885e-01" sepG="3.7351531982421875e+01" res="-9.9000000000000000e+01" rms="0.0000000000000000e+00" nType="0" CC="0.0000000000000000e+00">
            <Node pos="l" depth="3" Seq="2" IVar="-1" Cut="0.0000000000000000e+00" cType="1" nS="1.0064337921142578e+02" nB="0.0000000000000000e+00" nEv="1.0064337921142578e+02" nSuw="6.6700000000000000e+02" nBuw="1.0000000000000000e+00" nEvuw="6.6800000000000000e+02" sepI="0.0000000000000000e+00" sepG="-1.0000000000000000e+00" res="-9.9000000000000000e+01" rms="0.0000000000000000e+00" nType="1" CC="0.0000000000000000e+00"/>
            <Node pos="r" depth="3" Seq="6" IVar="-1" Cut="0.0000000000000000e+00" cType="1" nS="8.1926763916015625e+02" nB="1.3546887207031250e+03" nEv="2.1739562988281250e+03" nSuw="1.3430000000000000e+03" nBuw="1.2000000000000000e+02" nEvuw="1.4630000000000000e+03" sepI="2.3483546078205109e-01" sepG="-1.0000000000000000e+00" res="-9.9000000000000000e+01" rms="0.0000000000000000e+00" nType="-1" CC="0.0000000000000000e+00"/>
          </Node>
        </Node>
        <Node pos="r" depth="1" Seq="1" IVar="2" Cut="7.2828163392841816e-03" cType="0" nS="7.8622055664062500e+03" nB="8.9101630859375000e+03" nEv="1.6772369140625000e+04" nSuw="1.7947000000000000e+04" nBuw="1.0410000000000000e+03" nEvuw="1.8988000000000000e+04" sepI="2.4902401864528656e-01" sepG="2.3569301605224609e+01" res="-9.9000000000000000e+01" rms="0.0000000000000000e+00" nType="0" CC="0.0000000000000000e+00">
          <Node pos="l" depth="2" Seq="1" IVar="0" Cut="1.3809523582458496e+00" cType="0" nS="2.8083981933593750e+03" nB="2.5571054687500000e+03" nEv="5.3655034179687500e+03" nSuw="8.2890000000000000e+03" nBuw="1.5200000000000000e+02" nEvuw="8.4410000000000000e+03" sepI="2.4945162236690521e-01" sepG="7.0789421081542969e+01" res="-9.9000000000000000e+01" rms="0.0000000000000000e+00" nType="0" CC="0.0000000000000000e+00">
            <Node pos="l" depth="3" Seq="1" IVar="-1" Cut="0.0000000000000000e+00" cType="1" nS="1.1172324218750000e+03" nB="4.7898587036132812e+02" nEv="1.5962183837890625e+03" nSuw="5.0560000000000000e+03" nBuw="1.9000000000000000e+01" nEvuw="5.0750000000000000e+03" sepI="2.1003015339374542e-01" sepG="-1.0000000000000000e+00" res="-9.9000000000000000e+01" rms="0.0000000000000000e+00" nType="1" CC="0.0000000000000000e+00"/>
            <Node pos="r" depth="3" Seq="5" IVar="-1" Cut="0.0000000000000000e+00" cType="1" nS="1.6911656494140625e+03" nB="2.0781196289062500e+03" nEv="3.7692854003906250e+03" nSuw="3.2330000000000000e+03" nBuw="1.3300000000000000e+02" nEvuw="3.3660000000000000e+03" sepI="2.4736525118350983e-01" sepG="-1.0000000000000000e+00" res="-9.9000000000000000e+01" rms="0.0000000000000000e+00" nType="-1" CC="0.0000000000000000e+00"/>
          </Node>
          <Node pos="r" depth="2" Seq="3" IVar="-1" Cut="3.8531625270843506e-01" cType="0" nS="5.0538071289062500e+03" nB="6.3530581054687500e+03" nEv="1.1406865234375000e+04" nSuw="9.6580000000000000e+03" nBuw="8.8900000000000000e+02" nEvuw="1.0547000000000000e+04" sepI="2.4675665795803070e-01" sepG="-1.0000000000000000e+00" res="-9.9000000000000000e+01" rms="0.0000000000000000e+00" nType="-1" CC="0.0000000000000000e+00"/>
        </Node>
      </Node>
    </BinaryTree>
    <BinaryTree type="DecisionTree" boostWeight="2.8060247221202306e-01" itree="18">
      <Node pos="s" depth="0" Seq="0" IVar="4" Cut="3.3666047453880310e-01" cType="0" nS="1.2978437500000000e+04" nB="1.1752938476562500e+04" nEv="2.4731376953125000e+04" nSuw="2.3200000000000000e+04" nBuw="1.5000000000000000e+03" nEvuw="2.4700000000000000e+04" sepI="2.4938614666461945e-01" sepG="2.3586082458496094e+01" res="-9.9000000000000000e+01" rms="0.0000000000000000e+00" nType="0" CC="0.0000000000000000e+00">
        <Node pos="l" depth="1" Seq="0" IVar="3" Cut="3.0608827248215675e-02" cType="0" nS="6.9577163085937500e+03" nB="5.5731005859375000e+03" nEv="1.2530817382812500e+04" nSuw="1.4454000000000000e+04" nBuw="6.5600000000000000e+02" nEvuw="1.5110000000000000e+04" sepI="2.4694761633872986e-01" sepG="2.8214271545410156e+01" res="-9.9000000000000000e+01" rms="0.0000000000000000e+00" nType="0" CC="0.0000000000000000e+00">
          <Node pos="l" depth="2" Seq="0" IVar="-1" Cut="8.6289316415786743e-01" cType="1" nS="1.5014896240234375e+03" nB="7.8881579589843750e+02" nEv="2.2903054199218750e+03" nSuw="3.5360000000000000e+03" nBuw="6.4000000000000000e+01" nEvuw="3.6000000000000000e+03" sepI="2.2579334676265717e-01" sepG="-1.0000000000000000e+00" res="-9.9000000000000000e+01" rms="0.0000000000000000e+00" nType="1" CC="0.0000000000000000e+00"/>
          <Node pos="r" depth="2" Seq="2" IVar="0" Cut="1.3809523582458496e+00" cType="0" nS="5.4562265625000000e+03" nB="4.7842851562500000e+03" nEv="1.0240511718750000e+04" nSuw="1.0918000000000000e+04" nBuw="5.9200000000000000e+02" nEvuw="1.1510000000000000e+04" sepI="2.4892362952232361e-01" sepG="3.5644454956054688e+01" res="-9.9000000000000000e+01" rms="0.0000000000000000e+00" nType="0" CC="0.0000000000000000e+00">
            <Node pos="l" depth="3" Seq="2" IVar="-1" Cut="0.0000000000000000e+00" cType="1" nS="2.2614597167968750e+03" nB="1.4382498779296875e+03" nEv="3.6997094726562500e+03" nSuw="6.4140000000000000e+03" nBuw="1.9800000000000000e+02" nEvuw="6.6120000000000000e+03" sepI="2.3762270808219910e-01" sepG="-1.0000000000000000e+00" res="-9.9000000000000000e+01" rms="0.0000000000000000e+00" nType="1" CC="0.0000000000000000e+00"/>
            <Node pos="r" depth="3" Seq="6" IVar="-1" Cut="0.0000000000000000e+00" cType="1" nS="3.1947670898437500e+03" nB="3.3460351562500000e+03" nEv="6.5408022460937500e+03" nSuw="4.5040000000000000e+03" nBuw="3.9400000000000000e+02" nEvuw="4.8980000000000000e+03" sepI="2.4986629188060760e-01" sepG="-1.0000000000000000e+00" res="-9.9000000000000000e+01" rms="0.0000000000000000e+00" nType="-1" CC="0.0000000000000000e+00"/>
          </Node>
        </Node>
        <Node pos="r" depth="1" Seq="1" IVar="1" Cut="5.6736510992050171e-01" cType="1" nS="6.0207216796875000e+03" nB="6.1798374023437500e+03" nEv="1.2200558593750000e+04" nSuw="8.7460000000000000e+03" nBuw="8.4400000000000000e+02" nEvuw="9.5900000000000000e+03" sepI="2.4995747208595276e-01" sepG="2.6656576156616211e+01" res="-9.9000000000000000e+01" rms="0.0000000000000000e+00" nType="0" CC="0.0000000000000000e+00">
          <Node pos="l" depth="2" Seq="1" IVar="4" Cut="2.5856178998947144e-01" cType="1" nS="1.9598474121093750e+03" nB="1.4911562500000000e+03" nEv="3.4510036621093750e+03" nSuw="1.1750000000000000e+03" nBuw="3.9000000000000000e+02" nEvuw="1.5650000000000000e+03" sepI="2.4538870155811310e-01" sepG="1.7523403167724609e+01" res="-9.9000000000000000e+01" rms="0.0000000000000000e+00" nType="0" CC="0.0000000000000000e+00">
            <Node pos="l" depth="3" Seq="1" IVar="-1" Cut="0.0000000000000000e+00" cType="1" nS="1.5784261474609375e+03" nB="1.0137325439453125e+03" nEv="2.5921586914062500e+03" nSuw="8.7800000000000000e+02" nBuw="2.3000000000000000e+02" nEvuw="1.1080000000000000e+03" sepI="2.3813568055629730e-01" sepG="-1.0000000000000000e+00" res="-9.9000000000000000e+01" rms="0.0000000000000000e+00" nType="1" CC="0.0000000000000000e+00"/>
            <Node pos="r" depth="3" Seq="5" IVar="-1" Cut="0.0000000000000000e+00" cType="1" nS="3.8142126464843750e+02" nB="4.7742370605468750e+02" nEv="8.5884497070312500e+02" nSuw="2.9700000000000000e+02" nBuw="1.6000000000000000e+02" nEvuw="4.5700000000000000e+02" sepI="2.4687625467777252e-01" sepG="-1.0000000000000000e+00" res="-9.9000000000000000e+01" rms="0.0000000000000000e+00" nType="-1" CC="0.0000000000000000e+00"/>
          </Node>
          <Node pos="r" depth="2" Seq="3" IVar="2" Cut="-4.2477626353502274e-02" cType="1" nS="4.0608740234375000e+03" nB="4.6886811523437500e+03" nEv="8.7495556640625000e+03" nSuw="7.5710000000000000e+03" nBuw="4.5400000000000000e+02" nEvuw="8.0250000000000000e+03" sepI="2.4871288239955902e-01" sepG="3.1504867553710938e+01" res="-9.9000000000000000e+01" rms="0.0000000000000000e+00" nType="0" CC="0.0000000000000000e+00">
            <Node pos="l" depth="3" Seq="3" IVar="-1" Cut="0.0000000000000000e+00" cType="1" nS="4.7296670532226562e+02" nB="2.3716766357421875e+02" nEv="7.1013439941406250e+02" nSuw="1.6200000000000000e+03" nBuw="1.1000000000000000e+01" nEvuw="1.6310000000000000e+03" sepI="2.2243595123291016e-01" sepG="-1.0000000000000000e+00" res="-9.9000000000000000e+01" rms="0.0000000000000000e+00" nType="1" CC="0.0000000000000000e+00"/>
            <Node pos="r" depth="3" Seq="7" IVar="-1" Cut="0.0000000000000000e+00" cType="1" nS="3.5879072265625000e+03" nB="4.4515136718750000e+03" nEv="8.0394208984375000e+03" nSuw="5.9510000000000000e+03" nBuw="4.4300000000000000e+02" nEvuw="6.3940000000000000e+03" sepI="2.4711516499519348e-01" sepG="-1.0000000000000000e+00" res="-9.9000000000000000e+01" rms="0.0000000000000000e+00" nType="-1" CC="0.0000000000000000e+00"/>
          </Node>
        </Node>
      </Node>
    </BinaryTree>
    <BinaryTree type="DecisionTree" boostWeight="2.8875228150348531e-01" itree="19">
      <Node pos="s" depth="0" Seq="0" IVar="0" Cut="2.1428570747375488e+00" cType="1" nS="1.3427458984375000e+04" nB="1.1303916992187500e+04" nEv="2.4731376953125000e+04" nSuw="2.3200000000000000e+04" nBuw="1.5000000000000000e+03" nEvuw="2.4700000000000000e+04" sepI="2.4815683066844940e-01" sepG="1.6517892837524414e+01" res="-9.9000000000000000e+01" rms="0.0000000000000000e+00" nType="0" CC="0.0000000000000000e+00">
        <Node pos="l" depth="1" Seq="0" IVar="1" Cut="5.9697210788726807e-01" cType="0" nS="1.1499751953125000e+04" nB="9.2483457031250000e+03" nEv="2.0748097656250000e+04" nSuw="1.7243000000000000e+04" nBuw="1.2970000000000000e+03" nEvuw="1.8540000000000000e+04" sepI="2.4705632030963898e-01" sepG="1.9743799209594727e+01" res="-9.9000000000000000e+01" rms="0.0000000000000000e+00" nType="0" CC="0.0000000000000000e+00">
          <Node pos="l" depth="2" Seq="0" IVar="-1" Cut="2.4378578364849091e-01" cType="0" nS="7.7876948242187500e+03" nB="5.7124858398437500e+03" nEv="1.3500180664062500e+04" nSuw="1.4873000000000000e+04" nBuw="5.6600000000000000e+02" nEvuw="1.5439000000000000e+04" sepI="2.4409276247024536e-01" sepG="-1.0000000000000000e+00" res="-9.9000000000000000e+01" rms="0.0000000000000000e+00" nType="1" CC="0.0000000000000000e+00"/>
          <Node pos="r" depth="2" Seq="2" IVar="2" Cut="-3.7199053913354874e-02" cType="0" nS="3.7120573730468750e+03" nB="3.5358601074218750e+03" nEv="7.2479174804687500e+03" nSuw="2.3700000000000000e+03" nBuw="7.3100000000000000e+02" nEvuw="3.1010000000000000e+03" sepI="2.4985225498676300e-01" sepG="2.1510387420654297e+01" res="-9.9000000000000000e+01" rms="0.0000000000000000e+00" nType="0" CC="0.0000000000000000e+00">
            <Node pos="l" depth="3" Seq="2" IVar="-1" Cut="0.0000000000000000e+00" cType="1" nS="3.6250993652343750e+03" nB="3.2921608886718750e+03" nEv="6.9172602539062500e+03" nSuw="2.2380000000000000e+03" nBuw="7.2200000000000000e+02" nEvuw="2.9600000000000000e+03" sepI="2.4942083656787872e-01" sepG="-1.0000000000000000e+00" res="-9.9000000000000000e+01" rms="0.0000000000000000e+00" nType="1" CC="0.0000000000000000e+00"/>
            <Node pos="r" depth="3" Seq="6" IVar="-1" Cut="0.0000000000000000e+00" cType="1" nS="8.6957969665527344e+01" nB="2.4369934082031250e+02" nEv="3.3065731811523438e+02" nSuw="1.3200000000000000e+02" nBuw="9.0000000000000000e+00" nEvuw="1.4100000000000000e+02" sepI="1.9382397830486298e-01" sepG="-1.0000000000000000e+00" res="-9.9000000000000000e+01" rms="0.0000000000000000e+00" nType="-1" CC="0.0000000000000000e+00"/>
          </Node>
        </Node>
        <Node pos="r" depth="1" Seq="1" IVar="2" Cut="2.1061783656477928e-02" cType="0" nS="1.9277066650390625e+03" nB="2.0555715332031250e+03" nEv="3.9832783203125000e+03" nSuw="5.9570000000000000e+03" nBuw="2.0300000000000000e+02" nEvuw="6.1600000000000000e+03" sepI="2.4974238872528076e-01" sepG="3.9531929016113281e+01" res="-9.9000000000000000e+01" rms="0.0000000000000000e+00" nType="0" CC="0.0000000000000000e+00">
          <Node pos="l" depth="2" Seq="1" IVar="4" Cut="8.9713108539581299e-01" cType="1" nS="2.9944613647460938e+02" nB="7.8901321411132812e+01" nEv="3.7834744262695312e+02" nSuw="2.2900000000000000e+03" nBuw="4.0000000000000000e+00" nEvuw="2.2940000000000000e+03" sepI="1.6505222022533417e-01" sepG="3.8579307556152344e+01" res="-9.9000000000000000e+01" rms="0.0000000000000000e+00" nType="0" CC="0.0000000000000000e+00">
            <Node pos="l" depth="3" Seq="1" IVar="-1" Cut="0.0000000000000000e+00" cType="1" nS="2.7454074096679688e+02" nB="5.3663392066955566e+00" nEv="2.7990710449218750e+02" nSuw="2.1470000000000000e+03" nBuw="2.0000000000000000e+00" nEvuw="2.1490000000000000e+03" sepI="1.8804298713803291e-02" sepG="-1.0000000000000000e+00" res="-9.9000000000000000e+01" rms="0.0000000000000000e+00" nType="1" CC="0.0000000000000000e+00"/>
            <Node pos="r" depth="3" Seq="5" IVar="-1" Cut="0.0000000000000000e+00" cType="1" nS="2.4905368804931641e+01" nB="7.3534988403320312e+01" nEv="9.8440353393554688e+01" nSuw="1.4300000000000000e+02" nBuw="2.0000000000000000e+00" nEvuw="1.4500000000000000e+02" sepI="1.8899080157279968e-01" sepG="-1.0000000000000000e+00" res="-9.9000000000000000e+01" rms="0.0000000000000000e+00" nType="-1" CC="0.0000000000000000e+00"/>
          </Node>
          <Node pos="r" depth="2" Seq="3" IVar="2" Cut="-2.0093087106943130e-02" cType="1" nS="1.6282606201171875e+03" nB="1.9766702880859375e+03" nEv="3.6049309082031250e+03" nSuw="3.6670000000000000e+03" nBuw="1.9900000000000000e+02" nEvuw="3.8660000000000000e+03" sepI="2.4766477942466736e-01" sepG="2.3231189727783203e+01" res="-9.9000000000000000e+01" rms="0.0000000000000000e+00" nType="0" CC="0.0000000000000000e+00">
            <Node pos="l" depth="3" Seq="3" IVar="-1" Cut="0.0000000000000000e+00" cType="1" nS="3.7730468750000000e+02" nB="2.1984780883789062e+02" nEv="5.9715246582031250e+02" nSuw="2.3790000000000000e+03" nBuw="8.0000000000000000e+00" nEvuw="2.3870000000000000e+03" sepI="2.3261827230453491e-01" sepG="-1.0000000000000000e+00" res="-9.9000000000000000e+01" rms="0.0000000000000000e+00" nType="1" CC="0.0000000000000000e+00"/>
            <Node pos="r" depth="3" Seq="7" IVar="-1" Cut="0.0000000000000000e+00" cType="1" nS="1.2509559326171875e+03" nB="1.7568225097656250e+03" nEv="3.0077783203125000e+03" nSuw="1.2880000000000000e+03" nBuw="1.9100000000000000e+02" nEvuw="1.4790000000000000e+03" sepI="2.4292835593223572e-01" sepG="-1.0000000000000000e+00" res="-9.9000000000000000e+01" rms="0.0000000000000000e+00" nType="-1" CC="0.0000000000000000e+00"/>
          </Node>
        </Node>
      </Node>
    </BinaryTree>
    <BinaryTree type="DecisionTree" boostWeight="1.6367108351004295e-01" itree="20">
      <Node pos="s" depth="0" Seq="0" IVar="0" Cut="5.1904764175415039e+00" cType="0" nS="1.2142648437500000e+04" nB="1.2588727539062500e+04" nEv="2.4731376953125000e+04" nSuw="2.3200000000000000e+04" nBuw="1.5000000000000000e+03" nEvuw="2.4700000000000000e+04" sepI="2.4991866946220398e-01" sepG="1.6078851699829102e+01" res="-9.9000000000000000e+01" rms="0.0000000000000000e+00" nType="0" CC="0.0000000000000000e+00">
        <Node pos="l" depth="1" Seq="0" IVar="1" Cut="7.2650110721588135e-01" cType="0" nS="6.1901268005371094e+01" nB="0.0000000000000000e+00" nEv="6.1901268005371094e+01" nSuw="2.9700000000000000e+02" nBuw="0.0000000000000000e+00" nEvuw="2.9700000000000000e+02" sepI="0.0000000000000000e+00" sepG="0.0000000000000000e+00" res="-9.9000000000000000e+01" rms="0.0000000000000000e+00" nType="1" CC="0.0000000000000000e+00"/>
        <Node pos="r" depth="1" Seq="1" IVar="4" Cut="3.3666047453880310e-01" cType="0" nS="1.2080748046875000e+04" nB="1.2588727539062500e+04" nEv="2.4669474609375000e+04" nSuw="2.2903000000000000e+04" nBuw="1.5000000000000000e+03" nEvuw="2.4403000000000000e+04" sepI="2.4989399313926697e-01" sepG="9.7611160278320312e+00" res="-9.9000000000000000e+01" rms="0.0000000000000000e+00" nType="0" CC="0.0000000000000000e+00">
          <Node pos="l" depth="2" Seq="1" IVar="4" Cut="9.5582717657089233e-01" cType="1" nS="6.3194052734375000e+03" nB="6.0841035156250000e+03" nEv="1.2403508789062500e+04" nSuw="1.4172000000000000e+04" nBuw="6.5600000000000000e+02" nEvuw="1.4828000000000000e+04" sepI="2.4991002678871155e-01" sepG="2.2439897537231445e+01" res="-9.9000000000000000e+01" rms="0.0000000000000000e+00" nType="0" CC="0.0000000000000000e+00">
            <Node pos="l" depth="3" Seq="1" IVar="-1" Cut="0.0000000000000000e+00" cType="1" nS="5.8362397460937500e+03" nB="5.3059580078125000e+03" nEv="1.1142197265625000e+04" nSuw="1.3908000000000000e+04" nBuw="5.4200000000000000e+02" nEvuw="1.4450000000000000e+04" sepI="2.4943374097347260e-01" sepG="-1.0000000000000000e+00" res="-9.9000000000000000e+01" rms="0.0000000000000000e+00" nType="1" CC="0.0000000000000000e+00"/>
            <Node pos="r" depth="3" Seq="5" IVar="-1" Cut="0.0000000000000000e+00" cType="1" nS="4.8316586303710938e+02" nB="7.7814556884765625e+02" nEv="1.2613114013671875e+03" nSuw="2.6400000000000000e+02" nBuw="1.1400000000000000e+02" nEvuw="3.7800000000000000e+02" sepI="2.3632650077342987e-01" sepG="-1.0000000000000000e+00" res="-9.9000000000000000e+01" rms="0.0000000000000000e+00" nType="-1" CC="0.0000000000000000e+00"/>
          </Node>
          <Node pos="r" depth="2" Seq="3" IVar="2" Cut="3.4215759485960007e-02" cType="0" nS="5.7613422851562500e+03" nB="6.5046235351562500e+03" nEv="1.2265965820312500e+04" nSuw="8.7310000000000000e+03" nBuw="8.4400000000000000e+02" nEvuw="9.5750000000000000e+03" sepI="2.4908199906349182e-01" sepG="2.1078584671020508e+01" res="-9.9000000000000000e+01" rms="0.0000000000000000e+00" nType="0" CC="0.0000000000000000e+00">
            <Node pos="l" depth="3" Seq="3" IVar="-1" Cut="0.0000000000000000e+00" cType="1" nS="4.5233700561523438e+02" nB="2.5785922241210938e+02" nEv="7.1019622802734375e+02" nSuw="2.2250000000000000e+03" nBuw="1.0000000000000000e+01" nEvuw="2.2350000000000000e+03" sepI="2.3125337064266205e-01" sepG="-1.0000000000000000e+00" res="-9.9000000000000000e+01" rms="0.0000000000000000e+00" nType="1" CC="0.0000000000000000e+00"/>
            <Node pos="r" depth="3" Seq="7" IVar="-1" Cut="0.0000000000000000e+00" cType="1" nS="5.3090053710937500e+03" nB="6.2467646484375000e+03" nEv="1.1555769531250000e+04" nSuw="6.5060000000000000e+03" nBuw="8.3400000000000000e+02" nEvuw="7.3400000000000000e+03" sepI="2.4835364520549774e-01" sepG="-1.0000000000000000e+00" res="-9.9000000000000000e+01" rms="0.0000000000000000e+00" nType="-1" CC="0.0000000000000000e+00"/>
          </Node>
        </Node>
      </Node>
    </BinaryTree>
    <BinaryTree type="DecisionTree" boostWeight="1.2089115627469427e-01" itree="21">
      <Node pos="s" depth="0" Seq="0" IVar="0" Cut="5.1904764175415039e+00" cType="0" nS="1.2178256835937500e+04" nB="1.2553119140625000e+04" nEv="2.4731376953125000e+04" nSuw="2.3200000000000000e+04" nBuw="1.5000000000000000e+03" nEvuw="2.4700000000000000e+04" sepI="2.4994257092475891e-01" sepG="1.4778294563293457e+01" res="-9.9000000000000000e+01" rms="0.0000000000000000e+00" nType="0" CC="0.0000000000000000e+00">
        <Node pos="l" depth="1" Seq="0" IVar="1" Cut="7.2650110721588135e-01" cType="0" nS="5.7228378295898438e+01" nB="0.0000000000000000e+00" nEv="5.7228378295898438e+01" nSuw="2.9700000000000000e+02" nBuw="0.0000000000000000e+00" nEvuw="2.9700000000000000e+02" sepI="0.0000000000000000e+00" sepG="0.0000000000000000e+00" res="-9.9000000000000000e+01" rms="0.0000000000000000e+00" nType="1" CC="0.0000000000000000e+00"/>
        <Node pos="r" depth="1" Seq="1" IVar="4" Cut="6.6172188520431519e-01" cType="1" nS="1.2121028320312500e+04" nB="1.2553119140625000e+04" nEv="2.4674148437500000e+04" nSuw="2.2903000000000000e+04" nBuw="1.5000000000000000e+03" nEvuw="2.4403000000000000e+04" sepI="2.4992333352565765e-01" sepG="1.4678526878356934e+01" res="-9.9000000000000000e+01" rms="0.0000000000000000e+00" nType="0" CC="0.0000000000000000e+00">
          <Node pos="l" depth="2" Seq="1" IVar="2" Cut="-8.5261007770895958e-03" cType="1" nS="8.7076328125000000e+03" nB="8.4542880859375000e+03" nEv="1.7161919921875000e+04" nSuw="1.5123000000000000e+04" nBuw="1.1480000000000000e+03" nEvuw="1.6271000000000000e+04" sepI="2.4994552135467529e-01" sepG="1.3679694175720215e+01" res="-9.9000000000000000e+01" rms="0.0000000000000000e+00" nType="0" CC="0.0000000000000000e+00">
            <Node pos="l" depth="3" Seq="1" IVar="-1" Cut="0.0000000000000000e+00" cType="1" nS="2.6050810546875000e+03" nB="2.1031982421875000e+03" nEv="4.7082792968750000e+03" nSuw="6.6380000000000000e+03" nBuw="1.3900000000000000e+02" nEvuw="6.7770000000000000e+03" sepI="2.4715933203697205e-01" sepG="-1.0000000000000000e+00" res="-9.9000000000000000e+01" rms="0.0000000000000000e+00" nType="1" CC="0.0000000000000000e+00"/>
            <Node pos="r" depth="3" Seq="5" IVar="-1" Cut="0.0000000000000000e+00" cType="1" nS="6.1025512695312500e+03" nB="6.3510893554687500e+03" nEv="1.2453640625000000e+04" nSuw="8.4850000000000000e+03" nBuw="1.0090000000000000e+03" nEvuw="9.4940000000000000e+03" sepI="2.4990043044090271e-01" sepG="-1.0000000000000000e+00" res="-9.9000000000000000e+01" rms="0.0000000000000000e+00" nType="-1" CC="0.0000000000000000e+00"/>
          </Node>
          <Node pos="r" depth="2" Seq="3" IVar="-1" Cut="5.7671958208084106e-01" cType="0" nS="3.4133959960937500e+03" nB="4.0988315429687500e+03" nEv="7.5122275390625000e+03" nSuw="7.7800000000000000e+03" nBuw="3.5200000000000000e+02" nEvuw="8.1320000000000000e+03" sepI="2.4791869521141052e-01" sepG="-1.0000000000000000e+00" res="-9.9000000000000000e+01" rms="0.0000000000000000e+00" nType="-1" CC="0.0000000000000000e+00"/>
        </Node>
      </Node>
    </BinaryTree>
    <BinaryTree type="DecisionTree" boostWeight="1.3058449851471124e-01" itree="22">
      <Node pos="s" depth="0" Seq="0" IVar="0" Cut="5.1904764175415039e+00" cType="0" nS="1.2638088867187500e+04" nB="1.2093288085937500e+04" nEv="2.4731376953125000e+04" nSuw="2.3200000000000000e+04" nBuw="1.5000000000000000e+03" nEvuw="2.4700000000000000e+04" sepI="2.4987868964672089e-01" sepG="1.2932847023010254e+01" res="-9.9000000000000000e+01" rms="0.0000000000000000e+00" nType="0" CC="0.0000000000000000e+00">
        <Node pos="l" depth="1" Seq="0" IVar="1" Cut="7.2650110721588135e-01" cType="0" nS="5.3970092773437500e+01" nB="0.0000000000000000e+00" nEv="5.3970092773437500e+01" nSuw="2.9700000000000000e+02" nBuw="0.0000000000000000e+00" nEvuw="2.9700000000000000e+02" sepI="0.0000000000000000e+00" sepG="0.0000000000000000e+00" res="-9.9000000000000000e+01" rms="0.0000000000000000e+00" nType="1" CC="0.0000000000000000e+00"/>
        <Node pos="r" depth="1" Seq="1" IVar="4" Cut="4.7597250342369080e-01" cType="1" nS="1.2584118164062500e+04" nB="1.2093288085937500e+04" nEv="2.4677406250000000e+04" nSuw="2.2903000000000000e+04" nBuw="1.5000000000000000e+03" nEvuw="2.4403000000000000e+04" sepI="2.4990110099315643e-01" sepG="8.1534070968627930e+00" res="-9.9000000000000000e+01" rms="0.0000000000000000e+00" nType="0" CC="0.0000000000000000e+00">
          <Node pos="l" depth="2" Seq="1" IVar="-1" Cut="2.5383897591382265e-03" cType="0" nS="7.6009482421875000e+03" nB="6.8712954101562500e+03" nEv="1.4472244140625000e+04" nSuw="1.1489000000000000e+04" nBuw="9.9800000000000000e+02" nEvuw="1.2487000000000000e+04" sepI="2.4936452507972717e-01" sepG="-1.0000000000000000e+00" res="-9.9000000000000000e+01" rms="0.0000000000000000e+00" nType="1" CC="0.0000000000000000e+00"/>
          <Node pos="r" depth="2" Seq="3" IVar="1" Cut="5.2125340700149536e-01" cType="0" nS="4.9831699218750000e+03" nB="5.2219921875000000e+03" nEv="1.0205162109375000e+04" nSuw="1.1414000000000000e+04" nBuw="5.0200000000000000e+02" nEvuw="1.1916000000000000e+04" sepI="2.4986308813095093e-01" sepG="2.9738752365112305e+01" res="-9.9000000000000000e+01" rms="0.0000000000000000e+00" nType="0" CC="0.0000000000000000e+00">
            <Node pos="l" depth="3" Seq="3" IVar="-1" Cut="0.0000000000000000e+00" cType="1" nS="3.9915913085937500e+03" nB="3.6965761718750000e+03" nEv="7.6881674804687500e+03" nSuw="1.0820000000000000e+04" nBuw="2.7900000000000000e+02" nEvuw="1.1099000000000000e+04" sepI="2.4963188171386719e-01" sepG="-1.0000000000000000e+00" res="-9.9000000000000000e+01" rms="0.0000000000000000e+00" nType="1" CC="0.0000000000000000e+00"/>
            <Node pos="r" depth="3" Seq="7" IVar="-1" Cut="0.0000000000000000e+00" cType="1" nS="9.9157849121093750e+02" nB="1.5254162597656250e+03" nEv="2.5169948730468750e+03" nSuw="5.9400000000000000e+02" nBuw="2.2300000000000000e+02" nEvuw="8.1700000000000000e+02" sepI="2.3875410854816437e-01" sepG="-1.0000000000000000e+00" res="-9.9000000000000000e+01" rms="0.0000000000000000e+00" nType="-1" CC="0.0000000000000000e+00"/>
          </Node>
        </Node>
      </Node>
    </BinaryTree>
    <BinaryTree type="DecisionTree" boostWeight="1.3367533786845565e-01" itree="23">
