<?xml version="1.0"?>
<MethodSetup Method="BDT::BDT">
  <GeneralInfo>
    <Info name="TMVA Release" value="4.0.7 [262151]"/>
    <Info name="ROOT Release" value="5.27/06 [334598]"/>
    <Info name="Creator" value="lbianchini"/>
    <Info name="Date" value="Tue Nov  8 09:17:49 2011"/>
    <Info name="Host" value="Linux lxbuild142.cern.ch 2.6.18-238.1.1.el5 #1 SMP Wed Jan 19 11:06:36 CET 2011 x86_64 x86_64 x86_64 GNU/Linux"/>
    <Info name="Dir" value="/grid_mnt/vol__vol1__u/llr/cms/lbianchini/CMSSW_4_2_5/src/Bianchi/TauTauStudies/test/Macro/tmva"/>
    <Info name="Training events" value="5292"/>
    <Info name="TrainingTime" value="1.39139"/>
    <Info name="AnalysisType" value="Classification"/>
  </GeneralInfo>
  <Options>
    <Option name="V" modified="Yes">False</Option>
    <Option name="VerbosityLevel" modified="No">Default</Option>
    <Option name="VarTransform" modified="No">None</Option>
    <Option name="H" modified="Yes">False</Option>
    <Option name="CreateMVAPdfs" modified="No">False</Option>
    <Option name="IgnoreNegWeightsInTraining" modified="No">False</Option>
    <Option name="NTrees" modified="Yes">400</Option>
    <Option name="BoostType" modified="Yes">AdaBoost</Option>
    <Option name="AdaBoostR2Loss" modified="No">quadratic</Option>
    <Option name="UseBaggedGrad" modified="No">False</Option>
    <Option name="GradBaggingFraction" modified="No">6.000000e-01</Option>
    <Option name="Shrinkage" modified="No">1.000000e+00</Option>
    <Option name="AdaBoostBeta" modified="No">1.000000e+00</Option>
    <Option name="UseRandomisedTrees" modified="No">False</Option>
    <Option name="UseNvars" modified="No">2</Option>
    <Option name="UseNTrainEvents" modified="No">5292</Option>
    <Option name="UseWeightedTrees" modified="No">True</Option>
    <Option name="UseYesNoLeaf" modified="No">True</Option>
    <Option name="NodePurityLimit" modified="No">5.000000e-01</Option>
    <Option name="SeparationType" modified="Yes">giniindex</Option>
    <Option name="nEventsMin" modified="No">40</Option>
    <Option name="nCuts" modified="Yes">20</Option>
    <Option name="PruneStrength" modified="No">-1.000000e+00</Option>
    <Option name="PruneMethod" modified="Yes">nopruning</Option>
    <Option name="PruneBeforeBoost" modified="No">False</Option>
    <Option name="PruningValFraction" modified="No">5.000000e-01</Option>
    <Option name="NNodesMax" modified="No">100000</Option>
    <Option name="MaxDepth" modified="No">3</Option>
  </Options>
  <Variables NVar="4">
    <Variable VarIndex="0" Expression="mva" Label="mva" Title="mva" Unit="  " Internal="mva" Type="F" Min="-1" Max="-0.103406"/>
    <Variable VarIndex="1" Expression="HoP" Label="HoP" Title="HoP" Unit="" Internal="HoP" Type="F" Min="0" Max="1.21655"/>
    <Variable VarIndex="2" Expression="emFraction" Label="emFraction" Title="emFraction" Unit="" Internal="emFraction" Type="F" Min="0" Max="1"/>
    <Variable VarIndex="3" Expression="hasGsf" Label="hasGsf" Title="hasGsf" Unit="" Internal="hasGsf" Type="F" Min="0" Max="1"/>
  </Variables>
  <Spectators NSpec="0"/>
  <Transformations NTransformations="0"/>
  <MVAPdfs/>
  <Weights NTrees="400" TreeType="0">
    <BinaryTree type="DecisionTree" boostWeight="3.8139036008380143e+00" itree="0">
      <Node pos="s" depth="0" Seq="0" IVar="2" Cut="9.0476191043853760e-01" cType="1" nS="5.1449409179687500e+03" nB="1.5561083984375000e+02" nEv="5.3005517578125000e+03" nSuw="5.1580000000000000e+03" nBuw="1.3400000000000000e+02" nEvuw="5.2920000000000000e+03" sepI="2.8495619073510170e-02" sepG="5.1891723632812500e+01" res="-9.9000000000000000e+01" rms="0.0000000000000000e+00" nType="0" CC="0.0000000000000000e+00">
        <Node pos="l" depth="1" Seq="0" IVar="-1" Cut="8.1766808032989502e-01" cType="1" nS="5.1025541992187500e+03" nB="7.2029335021972656e+01" nEv="5.1745834960937500e+03" nSuw="5.1210000000000000e+03" nBuw="6.3000000000000000e+01" nEvuw="5.1840000000000000e+03" sepI="1.3726070523262024e-02" sepG="-1.0000000000000000e+00" res="-9.9000000000000000e+01" rms="0.0000000000000000e+00" nType="1" CC="0.0000000000000000e+00"/>
        <Node pos="r" depth="1" Seq="1" IVar="-1" Cut="4.1349634528160095e-02" cType="0" nS="4.2386619567871094e+01" nB="8.3581504821777344e+01" nEv="1.2596812438964844e+02" nSuw="3.7000000000000000e+01" nBuw="7.1000000000000000e+01" nEvuw="1.0800000000000000e+02" sepI="2.2326345741748810e-01" sepG="-1.0000000000000000e+00" res="-9.9000000000000000e+01" rms="0.0000000000000000e+00" nType="-1" CC="0.0000000000000000e+00"/>
      </Node>
    </BinaryTree>
    <BinaryTree type="DecisionTree" boostWeight="1.6054514028269073e+00" itree="1">
      <Node pos="s" depth="0" Seq="0" IVar="2" Cut="2.8571429848670959e-01" cType="1" nS="3.5893859863281250e+03" nB="1.7111655273437500e+03" nEv="5.3005517578125000e+03" nSuw="5.1580000000000000e+03" nBuw="1.3400000000000000e+02" nEvuw="5.2920000000000000e+03" sepI="2.1861001849174500e-01" sepG="1.6807052612304688e+02" res="-9.9000000000000000e+01" rms="0.0000000000000000e+00" nType="0" CC="0.0000000000000000e+00">
        <Node pos="l" depth="1" Seq="0" IVar="-1" Cut="2.1759389340877533e-01" cType="1" nS="1.2844508056640625e+03" nB="1.3047790527343750e+01" nEv="1.2974986572265625e+03" nSuw="2.5110000000000000e+03" nBuw="2.0000000000000000e+00" nEvuw="2.5130000000000000e+03" sepI="9.9549861624836922e-03" sepG="-1.0000000000000000e+00" res="-9.9000000000000000e+01" rms="0.0000000000000000e+00" nType="1" CC="0.0000000000000000e+00"/>
        <Node pos="r" depth="1" Seq="1" IVar="2" Cut="8.9797306060791016e-01" cType="0" nS="2.3049353027343750e+03" nB="1.6981176757812500e+03" nEv="4.0030529785156250e+03" nSuw="2.6470000000000000e+03" nBuw="1.3200000000000000e+02" nEvuw="2.7790000000000000e+03" sepI="2.4425521492958069e-01" sepG="1.9670645141601562e+02" res="-9.9000000000000000e+01" rms="0.0000000000000000e+00" nType="0" CC="0.0000000000000000e+00">
          <Node pos="l" depth="2" Seq="1" IVar="-1" Cut="4.6518340706825256e-02" cType="0" nS="9.8320697021484375e+02" nB="4.9980087280273438e+01" nEv="1.0331871337890625e+03" nSuw="4.0000000000000000e+01" nBuw="7.2000000000000000e+01" nEvuw="1.1200000000000000e+02" sepI="4.6034563332796097e-02" sepG="-1.0000000000000000e+00" res="-9.9000000000000000e+01" rms="0.0000000000000000e+00" nType="1" CC="0.0000000000000000e+00"/>
          <Node pos="r" depth="2" Seq="3" IVar="2" Cut="6.6445261240005493e-01" cType="1" nS="1.3217282714843750e+03" nB="1.6481375732421875e+03" nEv="2.9698659667968750e+03" nSuw="2.6070000000000000e+03" nBuw="6.0000000000000000e+01" nEvuw="2.6670000000000000e+03" sepI="2.4698010087013245e-01" sepG="1.4303521728515625e+02" res="-9.9000000000000000e+01" rms="0.0000000000000000e+00" nType="0" CC="0.0000000000000000e+00">
            <Node pos="l" depth="3" Seq="3" IVar="-1" Cut="0.0000000000000000e+00" cType="1" nS="9.3963940429687500e+02" nB="4.4124722290039062e+02" nEv="1.3808865966796875e+03" nSuw="1.8370000000000000e+03" nBuw="1.6000000000000000e+01" nEvuw="1.8530000000000000e+03" sepI="2.1743385493755341e-01" sepG="-1.0000000000000000e+00" res="-9.9000000000000000e+01" rms="0.0000000000000000e+00" nType="1" CC="0.0000000000000000e+00"/>
            <Node pos="r" depth="3" Seq="7" IVar="-1" Cut="0.0000000000000000e+00" cType="1" nS="3.8208886718750000e+02" nB="1.2068903808593750e+03" nEv="1.5889792480468750e+03" nSuw="7.7000000000000000e+02" nBuw="4.4000000000000000e+01" nEvuw="8.1400000000000000e+02" sepI="1.8263994157314301e-01" sepG="-1.0000000000000000e+00" res="-9.9000000000000000e+01" rms="0.0000000000000000e+00" nType="-1" CC="0.0000000000000000e+00"/>
          </Node>
        </Node>
      </Node>
    </BinaryTree>
    <BinaryTree type="DecisionTree" boostWeight="1.1263884908987551e+00" itree="2">
      <Node pos="s" depth="0" Seq="0" IVar="2" Cut="1.9047619402408600e-01" cType="1" nS="3.0681257324218750e+03" nB="2.2324257812500000e+03" nEv="5.3005517578125000e+03" nSuw="5.1580000000000000e+03" nBuw="1.3400000000000000e+02" nEvuw="5.2920000000000000e+03" sepI="2.4378560483455658e-01" sepG="1.3667057800292969e+02" res="-9.9000000000000000e+01" rms="0.0000000000000000e+00" nType="0" CC="0.0000000000000000e+00">
        <Node pos="l" depth="1" Seq="0" IVar="0" Cut="-9.6313846111297607e-01" cType="0" nS="6.7270001220703125e+02" nB="0.0000000000000000e+00" nEv="6.7270001220703125e+02" nSuw="2.1800000000000000e+03" nBuw="0.0000000000000000e+00" nEvuw="2.1800000000000000e+03" sepI="0.0000000000000000e+00" sepG="0.0000000000000000e+00" res="-9.9000000000000000e+01" rms="0.0000000000000000e+00" nType="1" CC="0.0000000000000000e+00"/>
        <Node pos="r" depth="1" Seq="1" IVar="1" Cut="3.5114589333534241e-01" cType="1" nS="2.3954257812500000e+03" nB="2.2324257812500000e+03" nEv="4.6278515625000000e+03" nSuw="2.9780000000000000e+03" nBuw="1.3400000000000000e+02" nEvuw="3.1120000000000000e+03" sepI="2.4968986213207245e-01" sepG="1.8558132934570312e+02" res="-9.9000000000000000e+01" rms="0.0000000000000000e+00" nType="0" CC="0.0000000000000000e+00">
          <Node pos="l" depth="2" Seq="1" IVar="-1" Cut="8.0956190824508667e-01" cType="1" nS="1.8776149902343750e+03" nB="8.7054772949218750e+02" nEv="2.7481628417968750e+03" nSuw="1.2920000000000000e+03" nBuw="1.1500000000000000e+02" nEvuw="1.4070000000000000e+03" sepI="2.1642839908599854e-01" sepG="-1.0000000000000000e+00" res="-9.9000000000000000e+01" rms="0.0000000000000000e+00" nType="1" CC="0.0000000000000000e+00"/>
          <Node pos="r" depth="2" Seq="3" IVar="2" Cut="3.1024545431137085e-01" cType="1" nS="5.1781066894531250e+02" nB="1.3618781738281250e+03" nEv="1.8796888427734375e+03" nSuw="1.6860000000000000e+03" nBuw="1.9000000000000000e+01" nEvuw="1.7050000000000000e+03" sepI="1.9958932697772980e-01" sepG="4.5071964263916016e+01" res="-9.9000000000000000e+01" rms="0.0000000000000000e+00" nType="0" CC="0.0000000000000000e+00">
            <Node pos="l" depth="3" Seq="3" IVar="-1" Cut="0.0000000000000000e+00" cType="1" nS="1.2964739990234375e+02" nB="3.9013591766357422e+01" nEv="1.6866099548339844e+02" nSuw="4.1200000000000000e+02" nBuw="2.0000000000000000e+00" nEvuw="4.1400000000000000e+02" sepI="1.7780764400959015e-01" sepG="-1.0000000000000000e+00" res="-9.9000000000000000e+01" rms="0.0000000000000000e+00" nType="1" CC="0.0000000000000000e+00"/>
            <Node pos="r" depth="3" Seq="7" IVar="-1" Cut="0.0000000000000000e+00" cType="1" nS="3.8816323852539062e+02" nB="1.3228646240234375e+03" nEv="1.7110278320312500e+03" nSuw="1.2740000000000000e+03" nBuw="1.7000000000000000e+01" nEvuw="1.2910000000000000e+03" sepI="1.7539437115192413e-01" sepG="-1.0000000000000000e+00" res="-9.9000000000000000e+01" rms="0.0000000000000000e+00" nType="-1" CC="0.0000000000000000e+00"/>
          </Node>
        </Node>
      </Node>
    </BinaryTree>
    <BinaryTree type="DecisionTree" boostWeight="7.6267904185548419e-01" itree="3">
      <Node pos="s" depth="0" Seq="0" IVar="2" Cut="1.9047619402408600e-01" cType="1" nS="2.5671315917968750e+03" nB="2.7334199218750000e+03" nEv="5.3005517578125000e+03" nSuw="5.1580000000000000e+03" nBuw="1.3400000000000000e+02" nEvuw="5.2920000000000000e+03" sepI="2.4975395202636719e-01" sepG="1.2931060791015625e+02" res="-9.9000000000000000e+01" rms="0.0000000000000000e+00" nType="0" CC="0.0000000000000000e+00">
        <Node pos="l" depth="1" Seq="0" IVar="0" Cut="-9.6313846111297607e-01" cType="0" nS="4.4539535522460938e+02" nB="0.0000000000000000e+00" nEv="4.4539535522460938e+02" nSuw="2.1800000000000000e+03" nBuw="0.0000000000000000e+00" nEvuw="2.1800000000000000e+03" sepI="0.0000000000000000e+00" sepG="0.0000000000000000e+00" res="-9.9000000000000000e+01" rms="0.0000000000000000e+00" nType="1" CC="0.0000000000000000e+00"/>
        <Node pos="r" depth="1" Seq="1" IVar="2" Cut="7.3037689924240112e-01" cType="1" nS="2.1217363281250000e+03" nB="2.7334199218750000e+03" nEv="4.8551562500000000e+03" nSuw="2.9780000000000000e+03" nBuw="1.3400000000000000e+02" nEvuw="3.1120000000000000e+03" sepI="2.4603185057640076e-01" sepG="2.7709018707275391e+01" res="-9.9000000000000000e+01" rms="0.0000000000000000e+00" nType="0" CC="0.0000000000000000e+00">
          <Node pos="l" depth="2" Seq="1" IVar="1" Cut="5.5180072784423828e-01" cType="1" nS="1.2911323242187500e+03" nB="1.2441143798828125e+03" nEv="2.5352465820312500e+03" nSuw="2.4850000000000000e+03" nBuw="2.9000000000000000e+01" nEvuw="2.5140000000000000e+03" sepI="2.4991402029991150e-01" sepG="4.2679031372070312e+01" res="-9.9000000000000000e+01" rms="0.0000000000000000e+00" nType="0" CC="0.0000000000000000e+00">
            <Node pos="l" depth="3" Seq="1" IVar="-1" Cut="0.0000000000000000e+00" cType="1" nS="9.4042285156250000e+02" nB="5.9025543212890625e+02" nEv="1.5306783447265625e+03" nSuw="1.6730000000000000e+03" nBuw="1.7000000000000000e+01" nEvuw="1.6900000000000000e+03" sepI="2.3691651225090027e-01" sepG="-1.0000000000000000e+00" res="-9.9000000000000000e+01" rms="0.0000000000000000e+00" nType="1" CC="0.0000000000000000e+00"/>
            <Node pos="r" depth="3" Seq="5" IVar="-1" Cut="0.0000000000000000e+00" cType="1" nS="3.5070944213867188e+02" nB="6.5385888671875000e+02" nEv="1.0045683593750000e+03" nSuw="8.1200000000000000e+02" nBuw="1.2000000000000000e+01" nEvuw="8.2400000000000000e+02" sepI="2.2723358869552612e-01" sepG="-1.0000000000000000e+00" res="-9.9000000000000000e+01" rms="0.0000000000000000e+00" nType="-1" CC="0.0000000000000000e+00"/>
          </Node>
          <Node pos="r" depth="2" Seq="3" IVar="2" Cut="8.9752578735351562e-01" cType="0" nS="8.3060400390625000e+02" nB="1.4893056640625000e+03" nEv="2.3199096679687500e+03" nSuw="4.9300000000000000e+02" nBuw="1.0500000000000000e+02" nEvuw="5.9800000000000000e+02" sepI="2.2984534502029419e-01" sepG="4.1177444458007812e+01" res="-9.9000000000000000e+01" rms="0.0000000000000000e+00" nType="0" CC="0.0000000000000000e+00">
            <Node pos="l" depth="3" Seq="3" IVar="-1" Cut="0.0000000000000000e+00" cType="1" nS="3.9084945678710938e+02" nB="3.0520001220703125e+02" nEv="6.9604943847656250e+02" nSuw="4.0000000000000000e+01" nBuw="7.2000000000000000e+01" nEvuw="1.1200000000000000e+02" sepI="2.4621462821960449e-01" sepG="-1.0000000000000000e+00" res="-9.9000000000000000e+01" rms="0.0000000000000000e+00" nType="1" CC="0.0000000000000000e+00"/>
            <Node pos="r" depth="3" Seq="7" IVar="-1" Cut="0.0000000000000000e+00" cType="1" nS="4.3975451660156250e+02" nB="1.1841057128906250e+03" nEv="1.6238602294921875e+03" nSuw="4.5300000000000000e+02" nBuw="3.3000000000000000e+01" nEvuw="4.8600000000000000e+02" sepI="1.9747108221054077e-01" sepG="-1.0000000000000000e+00" res="-9.9000000000000000e+01" rms="0.0000000000000000e+00" nType="-1" CC="0.0000000000000000e+00"/>
          </Node>
        </Node>
      </Node>
    </BinaryTree>
    <BinaryTree type="DecisionTree" boostWeight="9.0246866248511981e-01" itree="4">
      <Node pos="s" depth="0" Seq="0" IVar="2" Cut="4.7619047760963440e-01" cType="1" nS="2.5452805175781250e+03" nB="2.7552712402343750e+03" nEv="5.3005517578125000e+03" nSuw="5.1580000000000000e+03" nBuw="1.3400000000000000e+02" nEvuw="5.2920000000000000e+03" sepI="2.4960762262344360e-01" sepG="1.1683469390869141e+02" res="-9.9000000000000000e+01" rms="0.0000000000000000e+00" nType="0" CC="0.0000000000000000e+00">
        <Node pos="l" depth="1" Seq="0" IVar="2" Cut="2.0399098098278046e-01" cType="1" nS="1.0013966064453125e+03" nB="3.6685250854492188e+02" nEv="1.3682491455078125e+03" nSuw="3.3390000000000000e+03" nBuw="1.0000000000000000e+01" nEvuw="3.3490000000000000e+03" sepI="1.9623084366321564e-01" sepG="3.2934291839599609e+01" res="-9.9000000000000000e+01" rms="0.0000000000000000e+00" nType="0" CC="0.0000000000000000e+00">
          <Node pos="l" depth="2" Seq="0" IVar="0" Cut="-9.6313846111297607e-01" cType="0" nS="3.4321652221679688e+02" nB="0.0000000000000000e+00" nEv="3.4321652221679688e+02" nSuw="2.2310000000000000e+03" nBuw="0.0000000000000000e+00" nEvuw="2.2310000000000000e+03" sepI="0.0000000000000000e+00" sepG="0.0000000000000000e+00" res="-9.9000000000000000e+01" rms="0.0000000000000000e+00" nType="1" CC="0.0000000000000000e+00"/>
          <Node pos="r" depth="2" Seq="2" IVar="1" Cut="6.4372628927230835e-01" cType="1" nS="6.5818011474609375e+02" nB="3.6685250854492188e+02" nEv="1.0250325927734375e+03" nSuw="1.1080000000000000e+03" nBuw="1.0000000000000000e+01" nEvuw="1.1180000000000000e+03" sepI="2.2980573773384094e-01" sepG="5.6409709930419922e+01" res="-9.9000000000000000e+01" rms="0.0000000000000000e+00" nType="0" CC="0.0000000000000000e+00">
            <Node pos="l" depth="3" Seq="2" IVar="-1" Cut="0.0000000000000000e+00" cType="1" nS="4.2663330078125000e+02" nB="5.0984573364257812e+01" nEv="4.7761785888671875e+02" nSuw="6.6600000000000000e+02" nBuw="2.0000000000000000e+00" nEvuw="6.6800000000000000e+02" sepI="9.5352567732334137e-02" sepG="-1.0000000000000000e+00" res="-9.9000000000000000e+01" rms="0.0000000000000000e+00" nType="1" CC="0.0000000000000000e+00"/>
            <Node pos="r" depth="3" Seq="6" IVar="-1" Cut="0.0000000000000000e+00" cType="1" nS="2.3154679870605469e+02" nB="3.1586791992187500e+02" nEv="5.4741473388671875e+02" nSuw="4.4200000000000000e+02" nBuw="8.0000000000000000e+00" nEvuw="4.5000000000000000e+02" sepI="2.4406829476356506e-01" sepG="-1.0000000000000000e+00" res="-9.9000000000000000e+01" rms="0.0000000000000000e+00" nType="-1" CC="0.0000000000000000e+00"/>
          </Node>
        </Node>
        <Node pos="r" depth="1" Seq="1" IVar="1" Cut="2.9050534963607788e-01" cType="1" nS="1.5438839111328125e+03" nB="2.3884187011718750e+03" nEv="3.9323024902343750e+03" nSuw="1.8190000000000000e+03" nBuw="1.2400000000000000e+02" nEvuw="1.9430000000000000e+03" sepI="2.3846861720085144e-01" sepG="2.9234777450561523e+01" res="-9.9000000000000000e+01" rms="0.0000000000000000e+00" nType="0" CC="0.0000000000000000e+00">
          <Node pos="l" depth="2" Seq="1" IVar="2" Cut="8.2569760084152222e-01" cType="1" nS="1.1934295654296875e+03" nB="1.4401018066406250e+03" nEv="2.6335314941406250e+03" nSuw="9.7900000000000000e+02" nBuw="1.0800000000000000e+02" nEvuw="1.0870000000000000e+03" sepI="2.4780666828155518e-01" sepG="6.2553924560546875e+01" res="-9.9000000000000000e+01" rms="0.0000000000000000e+00" nType="0" CC="0.0000000000000000e+00">
            <Node pos="l" depth="3" Seq="1" IVar="-1" Cut="0.0000000000000000e+00" cType="1" nS="7.0234899902343750e+02" nB="4.0537322998046875e+02" nEv="1.1077222900390625e+03" nSuw="8.1500000000000000e+02" nBuw="1.5000000000000000e+01" nEvuw="8.3000000000000000e+02" sepI="2.3203115165233612e-01" sepG="-1.0000000000000000e+00" res="-9.9000000000000000e+01" rms="0.0000000000000000e+00" nType="1" CC="0.0000000000000000e+00"/>
            <Node pos="r" depth="3" Seq="5" IVar="-1" Cut="0.0000000000000000e+00" cType="1" nS="4.9108059692382812e+02" nB="1.0347285156250000e+03" nEv="1.5258090820312500e+03" nSuw="1.6400000000000000e+02" nBuw="9.3000000000000000e+01" nEvuw="2.5700000000000000e+02" sepI="2.1826232969760895e-01" sepG="-1.0000000000000000e+00" res="-9.9000000000000000e+01" rms="0.0000000000000000e+00" nType="-1" CC="0.0000000000000000e+00"/>
          </Node>
          <Node pos="r" depth="2" Seq="3" IVar="-1" Cut="-8.6589986085891724e-01" cType="1" nS="3.5045425415039062e+02" nB="9.4831695556640625e+02" nEv="1.2987712402343750e+03" nSuw="8.4000000000000000e+02" nBuw="1.6000000000000000e+01" nEvuw="8.5600000000000000e+02" sepI="1.9702418148517609e-01" sepG="-1.0000000000000000e+00" res="-9.9000000000000000e+01" rms="0.0000000000000000e+00" nType="-1" CC="0.0000000000000000e+00"/>
        </Node>
      </Node>
    </BinaryTree>
    <BinaryTree type="DecisionTree" boostWeight="6.2645725454745071e-01" itree="5">
      <Node pos="s" depth="0" Seq="0" IVar="2" Cut="5.2380955219268799e-01" cType="1" nS="2.8941174316406250e+03" nB="2.4064343261718750e+03" nEv="5.3005517578125000e+03" nSuw="5.1580000000000000e+03" nBuw="1.3400000000000000e+02" nEvuw="5.2920000000000000e+03" sepI="2.4788372218608856e-01" sepG="7.7621910095214844e+01" res="-9.9000000000000000e+01" rms="0.0000000000000000e+00" nType="0" CC="0.0000000000000000e+00">
        <Node pos="l" depth="1" Seq="0" IVar="-1" Cut="3.2415446639060974e-01" cType="1" nS="1.1369138183593750e+03" nB="4.1115051269531250e+02" nEv="1.5480643310546875e+03" nSuw="3.5950000000000000e+03" nBuw="1.3000000000000000e+01" nEvuw="3.6080000000000000e+03" sepI="1.9505198299884796e-01" sepG="-1.0000000000000000e+00" res="-9.9000000000000000e+01" rms="0.0000000000000000e+00" nType="1" CC="0.0000000000000000e+00"/>
        <Node pos="r" depth="1" Seq="1" IVar="2" Cut="7.7326709032058716e-01" cType="0" nS="1.7572036132812500e+03" nB="1.9952838134765625e+03" nEv="3.7524873046875000e+03" nSuw="1.5630000000000000e+03" nBuw="1.2100000000000000e+02" nEvuw="1.6840000000000000e+03" sepI="2.4899365007877350e-01" sepG="2.2993474960327148e+01" res="-9.9000000000000000e+01" rms="0.0000000000000000e+00" nType="0" CC="0.0000000000000000e+00">
          <Node pos="l" depth="2" Seq="1" IVar="3" Cut="4.7619048506021500e-02" cType="0" nS="1.0180922241210938e+03" nB="8.4240441894531250e+02" nEv="1.8604967041015625e+03" nSuw="3.3700000000000000e+02" nBuw="9.6000000000000000e+01" nEvuw="4.3300000000000000e+02" sepI="2.4777071177959442e-01" sepG="2.5491914749145508e+01" res="-9.9000000000000000e+01" rms="0.0000000000000000e+00" nType="0" CC="0.0000000000000000e+00">
            <Node pos="l" depth="3" Seq="1" IVar="-1" Cut="0.0000000000000000e+00" cType="1" nS="8.2992266845703125e+02" nB="5.0782644653320312e+02" nEv="1.3377491455078125e+03" nSuw="2.6000000000000000e+02" nBuw="6.5000000000000000e+01" nEvuw="3.2500000000000000e+02" sepI="2.3550687730312347e-01" sepG="-1.0000000000000000e+00" res="-9.9000000000000000e+01" rms="0.0000000000000000e+00" nType="1" CC="0.0000000000000000e+00"/>
            <Node pos="r" depth="3" Seq="5" IVar="-1" Cut="0.0000000000000000e+00" cType="1" nS="1.8816957092285156e+02" nB="3.3457800292968750e+02" nEv="5.2274755859375000e+02" nSuw="7.7000000000000000e+01" nBuw="3.1000000000000000e+01" nEvuw="1.0800000000000000e+02" sepI="2.3038952052593231e-01" sepG="-1.0000000000000000e+00" res="-9.9000000000000000e+01" rms="0.0000000000000000e+00" nType="-1" CC="0.0000000000000000e+00"/>
          </Node>
          <Node pos="r" depth="2" Seq="3" IVar="-1" Cut="-8.7511718273162842e-01" cType="1" nS="7.3911132812500000e+02" nB="1.1528793945312500e+03" nEv="1.8919907226562500e+03" nSuw="1.2260000000000000e+03" nBuw="2.5000000000000000e+01" nEvuw="1.2510000000000000e+03" sepI="2.3804317414760590e-01" sepG="-1.0000000000000000e+00" res="-9.9000000000000000e+01" rms="0.0000000000000000e+00" nType="-1" CC="0.0000000000000000e+00"/>
        </Node>
      </Node>
    </BinaryTree>
    <BinaryTree type="DecisionTree" boostWeight="4.1746128057848952e-01" itree="6">
      <Node pos="s" depth="0" Seq="0" IVar="1" Cut="8.1103128194808960e-01" cType="0" nS="2.8401354980468750e+03" nB="2.4604162597656250e+03" nEv="5.3005517578125000e+03" nSuw="5.1580000000000000e+03" nBuw="1.3400000000000000e+02" nEvuw="5.2920000000000000e+03" sepI="2.4871701002120972e-01" sepG="4.4671596527099609e+01" res="-9.9000000000000000e+01" rms="0.0000000000000000e+00" nType="0" CC="0.0000000000000000e+00">
        <Node pos="l" depth="1" Seq="0" IVar="0" Cut="-9.6313846111297607e-01" cType="0" nS="1.9952310180664062e+02" nB="0.0000000000000000e+00" nEv="1.9952310180664062e+02" nSuw="2.0950000000000000e+03" nBuw="0.0000000000000000e+00" nEvuw="2.0950000000000000e+03" sepI="0.0000000000000000e+00" sepG="0.0000000000000000e+00" res="-9.9000000000000000e+01" rms="0.0000000000000000e+00" nType="1" CC="0.0000000000000000e+00"/>
        <Node pos="r" depth="1" Seq="1" IVar="0" Cut="-8.7191510200500488e-01" cType="1" nS="2.6406125488281250e+03" nB="2.4604162597656250e+03" nEv="5.1010288085937500e+03" nSuw="3.0630000000000000e+03" nBuw="1.3400000000000000e+02" nEvuw="3.1970000000000000e+03" sepI="2.4968802928924561e-01" sepG="2.7193159103393555e+01" res="-9.9000000000000000e+01" rms="0.0000000000000000e+00" nType="0" CC="0.0000000000000000e+00">
          <Node pos="l" depth="2" Seq="1" IVar="-1" Cut="-9.7619456052780151e-01" cType="0" nS="1.7829887695312500e+03" nB="1.3098078613281250e+03" nEv="3.0927966308593750e+03" nSuw="2.5110000000000000e+03" nBuw="5.7000000000000000e+01" nEvuw="2.5680000000000000e+03" sepI="2.4414816498756409e-01" sepG="-1.0000000000000000e+00" res="-9.9000000000000000e+01" rms="0.0000000000000000e+00" nType="1" CC="0.0000000000000000e+00"/>
          <Node pos="r" depth="2" Seq="3" IVar="2" Cut="5.5230683088302612e-01" cType="1" nS="8.5762371826171875e+02" nB="1.1506083984375000e+03" nEv="2.0082320556640625e+03" nSuw="5.5200000000000000e+02" nBuw="7.7000000000000000e+01" nEvuw="6.2900000000000000e+02" sepI="2.4467889964580536e-01" sepG="2.1159309387207031e+01" res="-9.9000000000000000e+01" rms="0.0000000000000000e+00" nType="0" CC="0.0000000000000000e+00">
            <Node pos="l" depth="3" Seq="3" IVar="-1" Cut="0.0000000000000000e+00" cType="1" nS="6.2453079223632812e+01" nB="0.0000000000000000e+00" nEv="6.2453079223632812e+01" nSuw="1.0000000000000000e+02" nBuw="0.0000000000000000e+00" nEvuw="1.0000000000000000e+02" sepI="0.0000000000000000e+00" sepG="-1.0000000000000000e+00" res="-9.9000000000000000e+01" rms="0.0000000000000000e+00" nType="1" CC="0.0000000000000000e+00"/>
            <Node pos="r" depth="3" Seq="7" IVar="-1" Cut="0.0000000000000000e+00" cType="1" nS="7.9517065429687500e+02" nB="1.1506083984375000e+03" nEv="1.9457789306640625e+03" nSuw="4.5200000000000000e+02" nBuw="7.7000000000000000e+01" nEvuw="5.2900000000000000e+02" sepI="2.4165780842304230e-01" sepG="-1.0000000000000000e+00" res="-9.9000000000000000e+01" rms="0.0000000000000000e+00" nType="-1" CC="0.0000000000000000e+00"/>
          </Node>
        </Node>
      </Node>
    </BinaryTree>
    <BinaryTree type="DecisionTree" boostWeight="2.9452700337577609e-01" itree="7">
      <Node pos="s" depth="0" Seq="0" IVar="1" Cut="8.1103128194808960e-01" cType="0" nS="2.6971696777343750e+03" nB="2.6033820800781250e+03" nEv="5.3005517578125000e+03" nSuw="5.1580000000000000e+03" nBuw="1.3400000000000000e+02" nEvuw="5.2920000000000000e+03" sepI="2.4992172420024872e-01" sepG="4.1204380035400391e+01" res="-9.9000000000000000e+01" rms="0.0000000000000000e+00" nType="0" CC="0.0000000000000000e+00">
        <Node pos="l" depth="1" Seq="0" IVar="0" Cut="-9.6313846111297607e-01" cType="0" nS="1.6547618103027344e+02" nB="0.0000000000000000e+00" nEv="1.6547618103027344e+02" nSuw="2.0950000000000000e+03" nBuw="0.0000000000000000e+00" nEvuw="2.0950000000000000e+03" sepI="0.0000000000000000e+00" sepG="0.0000000000000000e+00" res="-9.9000000000000000e+01" rms="0.0000000000000000e+00" nType="1" CC="0.0000000000000000e+00"/>
        <Node pos="r" depth="1" Seq="1" IVar="1" Cut="5.4066634178161621e-01" cType="1" nS="2.5316936035156250e+03" nB="2.6033820800781250e+03" nEv="5.1350756835937500e+03" nSuw="3.0630000000000000e+03" nBuw="1.3400000000000000e+02" nEvuw="3.1970000000000000e+03" sepI="2.4995127320289612e-01" sepG="1.4825109481811523e+01" res="-9.9000000000000000e+01" rms="0.0000000000000000e+00" nType="0" CC="0.0000000000000000e+00">
          <Node pos="l" depth="2" Seq="1" IVar="2" Cut="6.6666668653488159e-01" cType="1" nS="2.1170402832031250e+03" nB="1.9498344726562500e+03" nEv="4.0668747558593750e+03" nSuw="2.1190000000000000e+03" nBuw="1.2200000000000000e+02" nEvuw="2.2410000000000000e+03" sepI="2.4957740306854248e-01" sepG="1.9106073379516602e+01" res="-9.9000000000000000e+01" rms="0.0000000000000000e+00" nType="0" CC="0.0000000000000000e+00">
            <Node pos="l" depth="3" Seq="1" IVar="-1" Cut="0.0000000000000000e+00" cType="1" nS="5.8624334716796875e+02" nB="3.1733392333984375e+02" nEv="9.0357727050781250e+02" nSuw="1.3240000000000000e+03" nBuw="6.0000000000000000e+00" nEvuw="1.3300000000000000e+03" sepI="2.2785775363445282e-01" sepG="-1.0000000000000000e+00" res="-9.9000000000000000e+01" rms="0.0000000000000000e+00" nType="1" CC="0.0000000000000000e+00"/>
            <Node pos="r" depth="3" Seq="5" IVar="-1" Cut="0.0000000000000000e+00" cType="1" nS="1.5307968750000000e+03" nB="1.6325006103515625e+03" nEv="3.1632976074218750e+03" nSuw="7.9500000000000000e+02" nBuw="1.1600000000000000e+02" nEvuw="9.1100000000000000e+02" sepI="2.4974156916141510e-01" sepG="-1.0000000000000000e+00" res="-9.9000000000000000e+01" rms="0.0000000000000000e+00" nType="-1" CC="0.0000000000000000e+00"/>
          </Node>
          <Node pos="r" depth="2" Seq="3" IVar="-1" Cut="4.7427085041999817e-01" cType="1" nS="4.1465325927734375e+02" nB="6.5354754638671875e+02" nEv="1.0682008056640625e+03" nSuw="9.4400000000000000e+02" nBuw="1.2000000000000000e+01" nEvuw="9.5600000000000000e+02" sepI="2.3749609291553497e-01" sepG="-1.0000000000000000e+00" res="-9.9000000000000000e+01" rms="0.0000000000000000e+00" nType="-1" CC="0.0000000000000000e+00"/>
        </Node>
      </Node>
    </BinaryTree>
    <BinaryTree type="DecisionTree" boostWeight="3.1438201985705588e-01" itree="8">
      <Node pos="s" depth="0" Seq="0" IVar="1" Cut="8.1103128194808960e-01" cType="0" nS="2.9344316406250000e+03" nB="2.3661201171875000e+03" nEv="5.3005517578125000e+03" nSuw="5.1580000000000000e+03" nBuw="1.3400000000000000e+02" nEvuw="5.2920000000000000e+03" sepI="2.4712610244750977e-01" sepG="2.9573053359985352e+01" res="-9.9000000000000000e+01" rms="0.0000000000000000e+00" nType="0" CC="0.0000000000000000e+00">
        <Node pos="l" depth="1" Seq="0" IVar="0" Cut="-9.6313846111297607e-01" cType="0" nS="1.4436836242675781e+02" nB="0.0000000000000000e+00" nEv="1.4436836242675781e+02" nSuw="2.0950000000000000e+03" nBuw="0.0000000000000000e+00" nEvuw="2.0950000000000000e+03" sepI="0.0000000000000000e+00" sepG="0.0000000000000000e+00" res="-9.9000000000000000e+01" rms="0.0000000000000000e+00" nType="1" CC="0.0000000000000000e+00"/>
        <Node pos="r" depth="1" Seq="1" IVar="1" Cut="2.3171414434909821e-01" cType="1" nS="2.7900632324218750e+03" nB="2.3661201171875000e+03" nEv="5.1561835937500000e+03" nSuw="3.0630000000000000e+03" nBuw="1.3400000000000000e+02" nEvuw="3.1970000000000000e+03" sepI="2.4830995500087738e-01" sepG="1.8253547668457031e+01" res="-9.9000000000000000e+01" rms="0.0000000000000000e+00" nType="0" CC="0.0000000000000000e+00">
          <Node pos="l" depth="2" Seq="1" IVar="-1" Cut="1.8757723271846771e-01" cType="0" nS="1.5148697509765625e+03" nB="1.0012910766601562e+03" nEv="2.5161608886718750e+03" nSuw="7.3800000000000000e+02" nBuw="1.0200000000000000e+02" nEvuw="8.4000000000000000e+02" sepI="2.3958456516265869e-01" sepG="-1.0000000000000000e+00" res="-9.9000000000000000e+01" rms="0.0000000000000000e+00" nType="1" CC="0.0000000000000000e+00"/>
          <Node pos="r" depth="2" Seq="3" IVar="2" Cut="7.2379863262176514e-01" cType="1" nS="1.2751934814453125e+03" nB="1.3648291015625000e+03" nEv="2.6400227050781250e+03" nSuw="2.3250000000000000e+03" nBuw="3.2000000000000000e+01" nEvuw="2.3570000000000000e+03" sepI="2.4971181154251099e-01" sepG="1.1385598182678223e+01" res="-9.9000000000000000e+01" rms="0.0000000000000000e+00" nType="0" CC="0.0000000000000000e+00">
            <Node pos="l" depth="3" Seq="3" IVar="-1" Cut="0.0000000000000000e+00" cType="1" nS="1.1659163818359375e+03" nB="1.1265058593750000e+03" nEv="2.2924221191406250e+03" nSuw="2.2500000000000000e+03" nBuw="2.6000000000000000e+01" nEvuw="2.2760000000000000e+03" sepI="2.4992610514163971e-01" sepG="-1.0000000000000000e+00" res="-9.9000000000000000e+01" rms="0.0000000000000000e+00" nType="1" CC="0.0000000000000000e+00"/>
            <Node pos="r" depth="3" Seq="7" IVar="-1" Cut="0.0000000000000000e+00" cType="1" nS="1.0927711486816406e+02" nB="2.3832328796386719e+02" nEv="3.4760040283203125e+02" nSuw="7.5000000000000000e+01" nBuw="6.0000000000000000e+00" nEvuw="8.1000000000000000e+01" sepI="2.1554361283779144e-01" sepG="-1.0000000000000000e+00" res="-9.9000000000000000e+01" rms="0.0000000000000000e+00" nType="-1" CC="0.0000000000000000e+00"/>
          </Node>
        </Node>
      </Node>
    </BinaryTree>
    <BinaryTree type="DecisionTree" boostWeight="3.8319742955364344e-01" itree="9">
      <Node pos="s" depth="0" Seq="0" IVar="1" Cut="8.1103128194808960e-01" cType="0" nS="2.5735588378906250e+03" nB="2.7269929199218750e+03" nEv="5.3005517578125000e+03" nSuw="5.1580000000000000e+03" nBuw="1.3400000000000000e+02" nEvuw="5.2920000000000000e+03" sepI="2.4979051947593689e-01" sepG="3.3855552673339844e+01" res="-9.9000000000000000e+01" rms="0.0000000000000000e+00" nType="0" CC="0.0000000000000000e+00">
        <Node pos="l" depth="1" Seq="0" IVar="0" Cut="-9.6313846111297607e-01" cType="0" nS="1.2489595031738281e+02" nB="0.0000000000000000e+00" nEv="1.2489595031738281e+02" nSuw="2.0950000000000000e+03" nBuw="0.0000000000000000e+00" nEvuw="2.0950000000000000e+03" sepI="0.0000000000000000e+00" sepG="0.0000000000000000e+00" res="-9.9000000000000000e+01" rms="0.0000000000000000e+00" nType="1" CC="0.0000000000000000e+00"/>
        <Node pos="r" depth="1" Seq="1" IVar="0" Cut="-8.2922017574310303e-01" cType="0" nS="2.4486630859375000e+03" nB="2.7269929199218750e+03" nEv="5.1756557617187500e+03" nSuw="3.0630000000000000e+03" nBuw="1.3400000000000000e+02" nEvuw="3.1970000000000000e+03" sepI="2.4927701056003571e-01" sepG="1.6208160400390625e+01" res="-9.9000000000000000e+01" rms="0.0000000000000000e+00" nType="0" CC="0.0000000000000000e+00">
          <Node pos="l" depth="2" Seq="1" IVar="1" Cut="7.6927505433559418e-02" cType="0" nS="9.2589068603515625e+02" nB="7.4490161132812500e+02" nEv="1.6707922363281250e+03" nSuw="4.5100000000000000e+02" nBuw="6.9000000000000000e+01" nEvuw="5.2000000000000000e+02" sepI="2.4706640839576721e-01" sepG="1.9667121887207031e+01" res="-9.9000000000000000e+01" rms="0.0000000000000000e+00" nType="0" CC="0.0000000000000000e+00">
            <Node pos="l" depth="3" Seq="1" IVar="-1" Cut="0.0000000000000000e+00" cType="1" nS="5.7025921630859375e+02" nB="2.9533914184570312e+02" nEv="8.6559838867187500e+02" nSuw="3.8700000000000000e+02" nBuw="1.9000000000000000e+01" nEvuw="4.0600000000000000e+02" sepI="2.2478145360946655e-01" sepG="-1.0000000000000000e+00" res="-9.9000000000000000e+01" rms="0.0000000000000000e+00" nType="1" CC="0.0000000000000000e+00"/>
            <Node pos="r" depth="3" Seq="5" IVar="-1" Cut="0.0000000000000000e+00" cType="1" nS="3.5563146972656250e+02" nB="4.4956246948242188e+02" nEv="8.0519390869140625e+02" nSuw="6.4000000000000000e+01" nBuw="5.0000000000000000e+01" nEvuw="1.1400000000000000e+02" sepI="2.4659782648086548e-01" sepG="-1.0000000000000000e+00" res="-9.9000000000000000e+01" rms="0.0000000000000000e+00" nType="-1" CC="0.0000000000000000e+00"/>
          </Node>
          <Node pos="r" depth="2" Seq="3" IVar="1" Cut="7.7238047122955322e-01" cType="0" nS="1.5227723388671875e+03" nB="1.9820913085937500e+03" nEv="3.5048635253906250e+03" nSuw="2.6120000000000000e+03" nBuw="6.5000000000000000e+01" nEvuw="2.6770000000000000e+03" sepI="2.4570634961128235e-01" sepG="8.0959815979003906e+00" res="-9.9000000000000000e+01" rms="0.0000000000000000e+00" nType="0" CC="0.0000000000000000e+00">
            <Node pos="l" depth="3" Seq="3" IVar="-1" Cut="0.0000000000000000e+00" cType="1" nS="2.5132690429687500e+01" nB="0.0000000000000000e+00" nEv="2.5132690429687500e+01" nSuw="1.2700000000000000e+02" nBuw="0.0000000000000000e+00" nEvuw="1.2700000000000000e+02" sepI="0.0000000000000000e+00" sepG="-1.0000000000000000e+00" res="-9.9000000000000000e+01" rms="0.0000000000000000e+00" nType="1" CC="0.0000000000000000e+00"/>
            <Node pos="r" depth="3" Seq="7" IVar="-1" Cut="0.0000000000000000e+00" cType="1" nS="1.4976396484375000e+03" nB="1.9820913085937500e+03" nEv="3.4797309570312500e+03" nSuw="2.4850000000000000e+03" nBuw="6.5000000000000000e+01" nEvuw="2.5500000000000000e+03" sepI="2.4515438079833984e-01" sepG="-1.0000000000000000e+00" res="-9.9000000000000000e+01" rms="0.0000000000000000e+00" nType="-1" CC="0.0000000000000000e+00"/>
          </Node>
        </Node>
      </Node>
    </BinaryTree>
    <BinaryTree type="DecisionTree" boostWeight="2.8414454620936819e-01" itree="10">
      <Node pos="s" depth="0" Seq="0" IVar="1" Cut="8.1103128194808960e-01" cType="0" nS="2.8916259765625000e+03" nB="2.4089257812500000e+03" nEv="5.3005517578125000e+03" nSuw="5.1580000000000000e+03" nBuw="1.3400000000000000e+02" nEvuw="5.2920000000000000e+03" sepI="2.4792674183845520e-01" sepG="2.2128746032714844e+01" res="-9.9000000000000000e+01" rms="0.0000000000000000e+00" nType="0" CC="0.0000000000000000e+00">
        <Node pos="l" depth="1" Seq="0" IVar="0" Cut="-9.6313846111297607e-01" cType="0" nS="1.0501741027832031e+02" nB="0.0000000000000000e+00" nEv="1.0501741027832031e+02" nSuw="2.0950000000000000e+03" nBuw="0.0000000000000000e+00" nEvuw="2.0950000000000000e+03" sepI="0.0000000000000000e+00" sepG="0.0000000000000000e+00" res="-9.9000000000000000e+01" rms="0.0000000000000000e+00" nType="1" CC="0.0000000000000000e+00"/>
        <Node pos="r" depth="1" Seq="1" IVar="2" Cut="9.0476191043853760e-01" cType="0" nS="2.7866086425781250e+03" nB="2.4089257812500000e+03" nEv="5.1955341796875000e+03" nSuw="3.0630000000000000e+03" nBuw="1.3400000000000000e+02" nEvuw="3.1970000000000000e+03" sepI="2.4867890775203705e-01" sepG="1.9492692947387695e+01" res="-9.9000000000000000e+01" rms="0.0000000000000000e+00" nType="0" CC="0.0000000000000000e+00">
          <Node pos="l" depth="2" Seq="1" IVar="-1" Cut="4.1349634528160095e-02" cType="0" nS="5.8829406738281250e+02" nB="2.8652908325195312e+02" nEv="8.7482318115234375e+02" nSuw="3.7000000000000000e+01" nBuw="7.1000000000000000e+01" nEvuw="1.0800000000000000e+02" sepI="2.2025340795516968e-01" sepG="-1.0000000000000000e+00" res="-9.9000000000000000e+01" rms="0.0000000000000000e+00" nType="1" CC="0.0000000000000000e+00"/>
          <Node pos="r" depth="2" Seq="3" IVar="1" Cut="7.7238045632839203e-02" cType="0" nS="2.1983144531250000e+03" nB="2.1223967285156250e+03" nEv="4.3207109375000000e+03" nSuw="3.0260000000000000e+03" nBuw="6.3000000000000000e+01" nEvuw="3.0890000000000000e+03" sepI="2.4992281198501587e-01" sepG="1.2226416587829590e+01" res="-9.9000000000000000e+01" rms="0.0000000000000000e+00" nType="0" CC="0.0000000000000000e+00">
            <Node pos="l" depth="3" Seq="3" IVar="-1" Cut="0.0000000000000000e+00" cType="1" nS="2.0389721679687500e+03" nB="1.8303867187500000e+03" nEv="3.8693588867187500e+03" nSuw="2.9480000000000000e+03" nBuw="4.7000000000000000e+01" nEvuw="2.9950000000000000e+03" sepI="2.4927350878715515e-01" sepG="-1.0000000000000000e+00" res="-9.9000000000000000e+01" rms="0.0000000000000000e+00" nType="1" CC="0.0000000000000000e+00"/>
            <Node pos="r" depth="3" Seq="7" IVar="-1" Cut="0.0000000000000000e+00" cType="1" nS="1.5934239196777344e+02" nB="2.9200985717773438e+02" nEv="4.5135226440429688e+02" nSuw="7.8000000000000000e+01" nBuw="1.6000000000000000e+01" nEvuw="9.4000000000000000e+01" sepI="2.2840079665184021e-01" sepG="-1.0000000000000000e+00" res="-9.9000000000000000e+01" rms="0.0000000000000000e+00" nType="-1" CC="0.0000000000000000e+00"/>
          </Node>
        </Node>
      </Node>
    </BinaryTree>
    <BinaryTree type="DecisionTree" boostWeight="2.6730776465776412e-01" itree="11">
      <Node pos="s" depth="0" Seq="0" IVar="1" Cut="8.1103128194808960e-01" cType="0" nS="2.5799035644531250e+03" nB="2.7206481933593750e+03" nEv="5.3005517578125000e+03" nSuw="5.1580000000000000e+03" nBuw="1.3400000000000000e+02" nEvuw="5.2920000000000000e+03" sepI="2.4982373416423798e-01" sepG="2.4673891067504883e+01" res="-9.9000000000000000e+01" rms="0.0000000000000000e+00" nType="0" CC="0.0000000000000000e+00">
        <Node pos="l" depth="1" Seq="0" IVar="0" Cut="-9.6313846111297607e-01" cType="0" nS="9.2029792785644531e+01" nB="0.0000000000000000e+00" nEv="9.2029792785644531e+01" nSuw="2.0950000000000000e+03" nBuw="0.0000000000000000e+00" nEvuw="2.0950000000000000e+03" sepI="0.0000000000000000e+00" sepG="0.0000000000000000e+00" res="-9.9000000000000000e+01" rms="0.0000000000000000e+00" nType="1" CC="0.0000000000000000e+00"/>
        <Node pos="r" depth="1" Seq="1" IVar="1" Cut="2.3171414434909821e-01" cType="1" nS="2.4878737792968750e+03" nB="2.7206481933593750e+03" nEv="5.2085219726562500e+03" nSuw="3.0630000000000000e+03" nBuw="1.3400000000000000e+02" nEvuw="3.1970000000000000e+03" sepI="2.4950067698955536e-01" sepG="1.7217933654785156e+01" res="-9.9000000000000000e+01" rms="0.0000000000000000e+00" nType="0" CC="0.0000000000000000e+00">
          <Node pos="l" depth="2" Seq="1" IVar="-1" Cut="1.8757723271846771e-01" cType="0" nS="1.3162001953125000e+03" nB="1.1264769287109375e+03" nEv="2.4426772460937500e+03" nSuw="7.3800000000000000e+02" nBuw="1.0200000000000000e+02" nEvuw="8.4000000000000000e+02" sepI="2.4849183857440948e-01" sepG="-1.0000000000000000e+00" res="-9.9000000000000000e+01" rms="0.0000000000000000e+00" nType="1" CC="0.0000000000000000e+00"/>
          <Node pos="r" depth="2" Seq="3" IVar="-1" Cut="-6.8157672882080078e-01" cType="1" nS="1.1716734619140625e+03" nB="1.5941712646484375e+03" nEv="2.7658447265625000e+03" nSuw="2.3250000000000000e+03" nBuw="3.2000000000000000e+01" nEvuw="2.3570000000000000e+03" sepI="2.4416644871234894e-01" sepG="-1.0000000000000000e+00" res="-9.9000000000000000e+01" rms="0.0000000000000000e+00" nType="-1" CC="0.0000000000000000e+00"/>
        </Node>
      </Node>
    </BinaryTree>
    <BinaryTree type="DecisionTree" boostWeight="1.5933973964627729e-01" itree="12">
      <Node pos="s" depth="0" Seq="0" IVar="1" Cut="8.1103128194808960e-01" cType="0" nS="2.5942697753906250e+03" nB="2.7062819824218750e+03" nEv="5.3005517578125000e+03" nSuw="5.1580000000000000e+03" nBuw="1.3400000000000000e+02" nEvuw="5.2920000000000000e+03" sepI="2.4988836050033569e-01" sepG="2.1506130218505859e+01" res="-9.9000000000000000e+01" rms="0.0000000000000000e+00" nType="0" CC="0.0000000000000000e+00">
        <Node pos="l" depth="1" Seq="0" IVar="0" Cut="-9.6313846111297607e-01" cType="0" nS="8.1236427307128906e+01" nB="0.0000000000000000e+00" nEv="8.1236427307128906e+01" nSuw="2.0950000000000000e+03" nBuw="0.0000000000000000e+00" nEvuw="2.0950000000000000e+03" sepI="0.0000000000000000e+00" sepG="0.0000000000000000e+00" res="-9.9000000000000000e+01" rms="0.0000000000000000e+00" nType="1" CC="0.0000000000000000e+00"/>
        <Node pos="r" depth="1" Seq="1" IVar="0" Cut="-3.1688064336776733e-01" cType="0" nS="2.5130334472656250e+03" nB="2.7062819824218750e+03" nEv="5.2193154296875000e+03" nSuw="3.0630000000000000e+03" nBuw="1.3400000000000000e+02" nEvuw="3.1970000000000000e+03" sepI="2.4965727329254150e-01" sepG="8.7040920257568359e+00" res="-9.9000000000000000e+01" rms="0.0000000000000000e+00" nType="0" CC="0.0000000000000000e+00">
          <Node pos="l" depth="2" Seq="1" IVar="-1" Cut="0.0000000000000000e+00" cType="1" nS="1.3372596740722656e+02" nB="6.0266952514648438e+01" nEv="1.9399291992187500e+02" nSuw="3.3000000000000000e+01" nBuw="1.0000000000000000e+01" nEvuw="4.3000000000000000e+01" sepI="2.1415252983570099e-01" sepG="-1.0000000000000000e+00" res="-9.9000000000000000e+01" rms="0.0000000000000000e+00" nType="1" CC="0.0000000000000000e+00"/>
          <Node pos="r" depth="2" Seq="3" IVar="-1" Cut="-6.1119502782821655e-01" cType="1" nS="2.3793073730468750e+03" nB="2.6460151367187500e+03" nEv="5.0253222656250000e+03" nSuw="3.0300000000000000e+03" nBuw="1.2400000000000000e+02" nEvuw="3.1540000000000000e+03" sepI="2.4929581582546234e-01" sepG="-1.0000000000000000e+00" res="-9.9000000000000000e+01" rms="0.0000000000000000e+00" nType="-1" CC="0.0000000000000000e+00"/>
        </Node>
      </Node>
    </BinaryTree>
    <BinaryTree type="DecisionTree" boostWeight="2.6228251077496428e-01" itree="13">
      <Node pos="s" depth="0" Seq="0" IVar="1" Cut="8.1103128194808960e-01" cType="0" nS="2.7839350585937500e+03" nB="2.5166166992187500e+03" nEv="5.3005517578125000e+03" nSuw="5.1580000000000000e+03" nBuw="1.3400000000000000e+02" nEvuw="5.2920000000000000e+03" sepI="2.4936415255069733e-01" sepG="1.7207963943481445e+01" res="-9.9000000000000000e+01" rms="0.0000000000000000e+00" nType="0" CC="0.0000000000000000e+00">
        <Node pos="l" depth="1" Seq="0" IVar="0" Cut="-9.6313846111297607e-01" cType="0" nS="7.5253631591796875e+01" nB="0.0000000000000000e+00" nEv="7.5253631591796875e+01" nSuw="2.0950000000000000e+03" nBuw="0.0000000000000000e+00" nEvuw="2.0950000000000000e+03" sepI="0.0000000000000000e+00" sepG="0.0000000000000000e+00" res="-9.9000000000000000e+01" rms="0.0000000000000000e+00" nType="1" CC="0.0000000000000000e+00"/>
        <Node pos="r" depth="1" Seq="1" IVar="0" Cut="-6.1574536561965942e-01" cType="1" nS="2.7086813964843750e+03" nB="2.5166166992187500e+03" nEv="5.2252983398437500e+03" nSuw="3.0630000000000000e+03" nBuw="1.3400000000000000e+02" nEvuw="3.1970000000000000e+03" sepI="2.4966223537921906e-01" sepG="1.0893145561218262e+01" res="-9.9000000000000000e+01" rms="0.0000000000000000e+00" nType="0" CC="0.0000000000000000e+00">
          <Node pos="l" depth="2" Seq="1" IVar="-1" Cut="-7.6311516761779785e-01" cType="0" nS="2.3752348632812500e+03" nB="2.0402604980468750e+03" nEv="4.4154951171875000e+03" nSuw="2.9210000000000000e+03" nBuw="8.9000000000000000e+01" nEvuw="3.0100000000000000e+03" sepI="2.4856118857860565e-01" sepG="-1.0000000000000000e+00" res="-9.9000000000000000e+01" rms="0.0000000000000000e+00" nType="1" CC="0.0000000000000000e+00"/>
          <Node pos="r" depth="2" Seq="3" IVar="0" Cut="-3.7146127223968506e-01" cType="0" nS="3.3344659423828125e+02" nB="4.7635632324218750e+02" nEv="8.0980291748046875e+02" nSuw="1.4200000000000000e+02" nBuw="4.5000000000000000e+01" nEvuw="1.8700000000000000e+02" sepI="2.4221417307853699e-01" sepG="1.8341749191284180e+01" res="-9.9000000000000000e+01" rms="0.0000000000000000e+00" nType="0" CC="0.0000000000000000e+00">
            <Node pos="l" depth="3" Seq="3" IVar="-1" Cut="0.0000000000000000e+00" cType="1" nS="1.5380662536621094e+02" nB="8.4793792724609375e+01" nEv="2.3860041809082031e+02" nSuw="3.8000000000000000e+01" nBuw="1.5000000000000000e+01" nEvuw="5.3000000000000000e+01" sepI="2.2908502817153931e-01" sepG="-1.0000000000000000e+00" res="-9.9000000000000000e+01" rms="0.0000000000000000e+00" nType="1" CC="0.0000000000000000e+00"/>
            <Node pos="r" depth="3" Seq="7" IVar="-1" Cut="0.0000000000000000e+00" cType="1" nS="1.7963995361328125e+02" nB="3.9156253051757812e+02" nEv="5.7120251464843750e+02" nSuw="1.0400000000000000e+02" nBuw="3.0000000000000000e+01" nEvuw="1.3400000000000000e+02" sepI="2.1558764576911926e-01" sepG="-1.0000000000000000e+00" res="-9.9000000000000000e+01" rms="0.0000000000000000e+00" nType="-1" CC="0.0000000000000000e+00"/>
          </Node>
        </Node>
      </Node>
    </BinaryTree>
    <BinaryTree type="DecisionTree" boostWeight="1.7359747568389175e-01" itree="14">
      <Node pos="s" depth="0" Seq="0" IVar="1" Cut="8.1103128194808960e-01" cType="0" nS="2.5104577636718750e+03" nB="2.7900939941406250e+03" nEv="5.3005517578125000e+03" nSuw="5.1580000000000000e+03" nBuw="1.3400000000000000e+02" nEvuw="5.2920000000000000e+03" sepI="2.4930420517921448e-01" sepG="1.8680221557617188e+01" res="-9.9000000000000000e+01" rms="0.0000000000000000e+00" nType="0" CC="0.0000000000000000e+00">
        <Node pos="l" depth="1" Seq="0" IVar="0" Cut="-9.6313846111297607e-01" cType="0" nS="6.6572883605957031e+01" nB="0.0000000000000000e+00" nEv="6.6572883605957031e+01" nSuw="2.0950000000000000e+03" nBuw="0.0000000000000000e+00" nEvuw="2.0950000000000000e+03" sepI="0.0000000000000000e+00" sepG="0.0000000000000000e+00" res="-9.9000000000000000e+01" rms="0.0000000000000000e+00" nType="1" CC="0.0000000000000000e+00"/>
        <Node pos="r" depth="1" Seq="1" IVar="1" Cut="7.7238047122955322e-01" cType="0" nS="2.4438847656250000e+03" nB="2.7900939941406250e+03" nEv="5.2339790039062500e+03" nSuw="3.0630000000000000e+03" nBuw="1.3400000000000000e+02" nEvuw="3.1970000000000000e+03" sepI="2.4890616536140442e-01" sepG="6.5857787132263184e+00" res="-9.9000000000000000e+01" rms="0.0000000000000000e+00" nType="0" CC="0.0000000000000000e+00">
          <Node pos="l" depth="2" Seq="1" IVar="1" Cut="7.8343647718429565e-01" cType="0" nS="2.3073558807373047e+01" nB="0.0000000000000000e+00" nEv="2.3073558807373047e+01" nSuw="1.3100000000000000e+02" nBuw="0.0000000000000000e+00" nEvuw="1.3100000000000000e+02" sepI="0.0000000000000000e+00" sepG="0.0000000000000000e+00" res="-9.9000000000000000e+01" rms="0.0000000000000000e+00" nType="1" CC="0.0000000000000000e+00"/>
          <Node pos="r" depth="2" Seq="3" IVar="-1" Cut="1.8384012579917908e-01" cType="0" nS="2.4208112792968750e+03" nB="2.7900939941406250e+03" nEv="5.2109052734375000e+03" nSuw="2.9320000000000000e+03" nBuw="1.3400000000000000e+02" nEvuw="3.0660000000000000e+03" sepI="2.4874445796012878e-01" sepG="-1.0000000000000000e+00" res="-9.9000000000000000e+01" rms="0.0000000000000000e+00" nType="-1" CC="0.0000000000000000e+00"/>
        </Node>
      </Node>
    </BinaryTree>
    <BinaryTree type="DecisionTree" boostWeight="2.1300680508076270e-01" itree="15">
      <Node pos="s" depth="0" Seq="0" IVar="2" Cut="1.9047619402408600e-01" cType="1" nS="2.7327790527343750e+03" nB="2.5677727050781250e+03" nEv="5.3005517578125000e+03" nSuw="5.1580000000000000e+03" nBuw="1.3400000000000000e+02" nEvuw="5.2920000000000000e+03" sepI="2.4975773692131042e-01" sepG="1.4778939247131348e+01" res="-9.9000000000000000e+01" rms="0.0000000000000000e+00" nType="0" CC="0.0000000000000000e+00">
        <Node pos="l" depth="1" Seq="0" IVar="0" Cut="-9.6313846111297607e-01" cType="0" nS="6.2236167907714844e+01" nB="0.0000000000000000e+00" nEv="6.2236167907714844e+01" nSuw="2.1800000000000000e+03" nBuw="0.0000000000000000e+00" nEvuw="2.1800000000000000e+03" sepI="0.0000000000000000e+00" sepG="0.0000000000000000e+00" res="-9.9000000000000000e+01" rms="0.0000000000000000e+00" nType="1" CC="0.0000000000000000e+00"/>
        <Node pos="r" depth="1" Seq="1" IVar="1" Cut="6.0196441411972046e-01" cType="1" nS="2.6705429687500000e+03" nB="2.5677727050781250e+03" nEv="5.2383154296875000e+03" nSuw="2.9780000000000000e+03" nBuw="1.3400000000000000e+02" nEvuw="3.1120000000000000e+03" sepI="2.4990376830101013e-01" sepG="6.7611598968505859e+00" res="-9.9000000000000000e+01" rms="0.0000000000000000e+00" nType="0" CC="0.0000000000000000e+00">
          <Node pos="l" depth="2" Seq="1" IVar="-1" Cut="4.6356150507926941e-01" cType="1" nS="2.3019335937500000e+03" nB="2.0766193847656250e+03" nEv="4.3785532226562500e+03" nSuw="2.3610000000000000e+03" nBuw="1.2400000000000000e+02" nEvuw="2.4850000000000000e+03" sepI="2.4933800101280212e-01" sepG="-1.0000000000000000e+00" res="-9.9000000000000000e+01" rms="0.0000000000000000e+00" nType="1" CC="0.0000000000000000e+00"/>
          <Node pos="r" depth="2" Seq="3" IVar="2" Cut="3.1684485077857971e-01" cType="1" nS="3.6860925292968750e+02" nB="4.9115338134765625e+02" nEv="8.5976263427734375e+02" nSuw="6.1700000000000000e+02" nBuw="1.0000000000000000e+01" nEvuw="6.2700000000000000e+02" sepI="2.4492111802101135e-01" sepG="1.7767799377441406e+01" res="-9.9000000000000000e+01" rms="0.0000000000000000e+00" nType="0" CC="0.0000000000000000e+00">
            <Node pos="l" depth="3" Seq="3" IVar="-1" Cut="0.0000000000000000e+00" cType="1" nS="1.4113064575195312e+02" nB="6.4976966857910156e+01" nEv="2.0610760498046875e+02" nSuw="3.7900000000000000e+02" nBuw="2.0000000000000000e+00" nEvuw="3.8100000000000000e+02" sepI="2.1587020158767700e-01" sepG="-1.0000000000000000e+00" res="-9.9000000000000000e+01" rms="0.0000000000000000e+00" nType="1" CC="0.0000000000000000e+00"/>
            <Node pos="r" depth="3" Seq="7" IVar="-1" Cut="0.0000000000000000e+00" cType="1" nS="2.2747862243652344e+02" nB="4.2617639160156250e+02" nEv="6.5365502929687500e+02" nSuw="2.3800000000000000e+02" nBuw="8.0000000000000000e+00" nEvuw="2.4600000000000000e+02" sepI="2.2689910233020782e-01" sepG="-1.0000000000000000e+00" res="-9.9000000000000000e+01" rms="0.0000000000000000e+00" nType="-1" CC="0.0000000000000000e+00"/>
          </Node>
        </Node>
      </Node>
    </BinaryTree>
    <BinaryTree type="DecisionTree" boostWeight="2.5902683952549271e-01" itree="16">
      <Node pos="s" depth="0" Seq="0" IVar="2" Cut="1.9047619402408600e-01" cType="1" nS="2.5194599609375000e+03" nB="2.7810917968750000e+03" nEv="5.3005517578125000e+03" nSuw="5.1580000000000000e+03" nBuw="1.3400000000000000e+02" nEvuw="5.2920000000000000e+03" sepI="2.4939091503620148e-01" sepG="1.5655636787414551e+01" res="-9.9000000000000000e+01" rms="0.0000000000000000e+00" nType="0" CC="0.0000000000000000e+00">
        <Node pos="l" depth="1" Seq="0" IVar="0" Cut="-9.6313846111297607e-01" cType="0" nS="5.6266185760498047e+01" nB="0.0000000000000000e+00" nEv="5.6266185760498047e+01" nSuw="2.1800000000000000e+03" nBuw="0.0000000000000000e+00" nEvuw="2.1800000000000000e+03" sepI="0.0000000000000000e+00" sepG="0.0000000000000000e+00" res="-9.9000000000000000e+01" rms="0.0000000000000000e+00" nType="1" CC="0.0000000000000000e+00"/>
        <Node pos="r" depth="1" Seq="1" IVar="2" Cut="4.6075385808944702e-01" cType="1" nS="2.4631936035156250e+03" nB="2.7810917968750000e+03" nEv="5.2442856445312500e+03" nSuw="2.9780000000000000e+03" nBuw="1.3400000000000000e+02" nEvuw="3.1120000000000000e+03" sepI="2.4908135831356049e-01" sepG="1.4765050888061523e+01" res="-9.9000000000000000e+01" rms="0.0000000000000000e+00" nType="0" CC="0.0000000000000000e+00">
          <Node pos="l" depth="2" Seq="1" IVar="-1" Cut="6.0195297002792358e-01" cType="1" nS="5.1173892211914062e+02" nB="3.5748120117187500e+02" nEv="8.6922009277343750e+02" nSuw="1.0790000000000000e+03" nBuw="9.0000000000000000e+00" nEvuw="1.0880000000000000e+03" sepI="2.4212639033794403e-01" sepG="-1.0000000000000000e+00" res="-9.9000000000000000e+01" rms="0.0000000000000000e+00" nType="1" CC="0.0000000000000000e+00"/>
          <Node pos="r" depth="2" Seq="3" IVar="-1" Cut="4.8463338613510132e-01" cType="1" nS="1.9514547119140625e+03" nB="2.4236105957031250e+03" nEv="4.3750654296875000e+03" nSuw="1.8990000000000000e+03" nBuw="1.2500000000000000e+02" nEvuw="2.0240000000000000e+03" sepI="2.4708832800388336e-01" sepG="-1.0000000000000000e+00" res="-9.9000000000000000e+01" rms="0.0000000000000000e+00" nType="-1" CC="0.0000000000000000e+00"/>
        </Node>
      </Node>
    </BinaryTree>
    <BinaryTree type="DecisionTree" boostWeight="2.2028455955526541e-01" itree="17">
      <Node pos="s" depth="0" Seq="0" IVar="2" Cut="1.9047619402408600e-01" cType="1" nS="2.7431430664062500e+03" nB="2.5574086914062500e+03" nEv="5.3005517578125000e+03" nSuw="5.1580000000000000e+03" nBuw="1.3400000000000000e+02" nEvuw="5.2920000000000000e+03" sepI="2.4969303607940674e-01" sepG="1.1713705062866211e+01" res="-9.9000000000000000e+01" rms="0.0000000000000000e+00" nType="0" CC="0.0000000000000000e+00">
        <Node pos="l" depth="1" Seq="0" IVar="0" Cut="-9.6313846111297607e-01" cType="0" nS="4.9846279144287109e+01" nB="0.0000000000000000e+00" nEv="4.9846279144287109e+01" nSuw="2.1800000000000000e+03" nBuw="0.0000000000000000e+00" nEvuw="2.1800000000000000e+03" sepI="0.0000000000000000e+00" sepG="0.0000000000000000e+00" res="-9.9000000000000000e+01" rms="0.0000000000000000e+00" nType="1" CC="0.0000000000000000e+00"/>
        <Node pos="r" depth="1" Seq="1" IVar="1" Cut="6.0196441411972046e-01" cType="1" nS="2.6932968750000000e+03" nB="2.5574086914062500e+03" nEv="5.2507055664062500e+03" nSuw="2.9780000000000000e+03" nBuw="1.3400000000000000e+02" nEvuw="3.1120000000000000e+03" sepI="2.4983255565166473e-01" sepG="1.1715329170227051e+01" res="-9.9000000000000000e+01" rms="0.0000000000000000e+00" nType="0" CC="0.0000000000000000e+00">
          <Node pos="l" depth="2" Seq="1" IVar="-1" Cut="4.6356150507926941e-01" cType="1" nS="2.3539533691406250e+03" nB="2.0580429687500000e+03" nEv="4.4119960937500000e+03" nSuw="2.3610000000000000e+03" nBuw="1.2400000000000000e+02" nEvuw="2.4850000000000000e+03" sepI="2.4887542426586151e-01" sepG="-1.0000000000000000e+00" res="-9.9000000000000000e+01" rms="0.0000000000000000e+00" nType="1" CC="0.0000000000000000e+00"/>
          <Node pos="r" depth="2" Seq="3" IVar="0" Cut="-9.6962302923202515e-01" cType="0" nS="3.3934353637695312e+02" nB="4.9936569213867188e+02" nEv="8.3870922851562500e+02" nSuw="6.1700000000000000e+02" nBuw="1.0000000000000000e+01" nEvuw="6.2700000000000000e+02" sepI="2.4089924991130829e-01" sepG="1.4049336433410645e+01" res="-9.9000000000000000e+01" rms="0.0000000000000000e+00" nType="0" CC="0.0000000000000000e+00">
            <Node pos="l" depth="3" Seq="3" IVar="-1" Cut="0.0000000000000000e+00" cType="1" nS="3.7843353271484375e+01" nB="0.0000000000000000e+00" nEv="3.7843353271484375e+01" nSuw="5.4000000000000000e+01" nBuw="0.0000000000000000e+00" nEvuw="5.4000000000000000e+01" sepI="0.0000000000000000e+00" sepG="-1.0000000000000000e+00" res="-9.9000000000000000e+01" rms="0.0000000000000000e+00" nType="1" CC="0.0000000000000000e+00"/>
            <Node pos="r" depth="3" Seq="7" IVar="-1" Cut="0.0000000000000000e+00" cType="1" nS="3.0150018310546875e+02" nB="4.9936569213867188e+02" nEv="8.0086584472656250e+02" nSuw="5.6300000000000000e+02" nBuw="1.0000000000000000e+01" nEvuw="5.7300000000000000e+02" sepI="2.3473978042602539e-01" sepG="-1.0000000000000000e+00" res="-9.9000000000000000e+01" rms="0.0000000000000000e+00" nType="-1" CC="0.0000000000000000e+00"/>
          </Node>
        </Node>
      </Node>
    </BinaryTree>
    <BinaryTree type="DecisionTree" boostWeight="2.6058580847342866e-01" itree="18">
      <Node pos="s" depth="0" Seq="0" IVar="1" Cut="8.1103128194808960e-01" cType="0" nS="2.5389245605468750e+03" nB="2.7616271972656250e+03" nEv="5.3005517578125000e+03" nSuw="5.1580000000000000e+03" nBuw="1.3400000000000000e+02" nEvuw="5.2920000000000000e+03" sepI="2.4955868721008301e-01" sepG="1.2790495872497559e+01" res="-9.9000000000000000e+01" rms="0.0000000000000000e+00" nType="0" CC="0.0000000000000000e+00">
        <Node pos="l" depth="1" Seq="0" IVar="0" Cut="-9.6313846111297607e-01" cType="0" nS="4.6704189300537109e+01" nB="0.0000000000000000e+00" nEv="4.6704189300537109e+01" nSuw="2.0950000000000000e+03" nBuw="0.0000000000000000e+00" nEvuw="2.0950000000000000e+03" sepI="0.0000000000000000e+00" sepG="0.0000000000000000e+00" res="-9.9000000000000000e+01" rms="0.0000000000000000e+00" nType="1" CC="0.0000000000000000e+00"/>
        <Node pos="r" depth="1" Seq="1" IVar="1" Cut="1.9309511780738831e-01" cType="0" nS="2.4922204589843750e+03" nB="2.7616271972656250e+03" nEv="5.2538476562500000e+03" nSuw="3.0630000000000000e+03" nBuw="1.3400000000000000e+02" nEvuw="3.1970000000000000e+03" sepI="2.4934263527393341e-01" sepG="6.3376584053039551e+00" res="-9.9000000000000000e+01" rms="0.0000000000000000e+00" nType="0" CC="0.0000000000000000e+00">
          <Node pos="l" depth="2" Seq="1" IVar="1" Cut="2.5253492593765259e-01" cType="1" nS="1.4445997314453125e+03" nB="1.4091403808593750e+03" nEv="2.8537402343750000e+03" nSuw="2.4960000000000000e+03" nBuw="3.3000000000000000e+01" nEvuw="2.5290000000000000e+03" sepI="2.4996140599250793e-01" sepG="2.2742904663085938e+01" res="-9.9000000000000000e+01" rms="0.0000000000000000e+00" nType="0" CC="0.0000000000000000e+00">
            <Node pos="l" depth="3" Seq="1" IVar="-1" Cut="0.0000000000000000e+00" cType="1" nS="2.2308464050292969e+02" nB="6.5805824279785156e+01" nEv="2.8889047241210938e+02" nSuw="2.7400000000000000e+02" nBuw="3.0000000000000000e+00" nEvuw="2.7700000000000000e+02" sepI="1.7590069770812988e-01" sepG="-1.0000000000000000e+00" res="-9.9000000000000000e+01" rms="0.0000000000000000e+00" nType="1" CC="0.0000000000000000e+00"/>
            <Node pos="r" depth="3" Seq="5" IVar="-1" Cut="0.0000000000000000e+00" cType="1" nS="1.2215151367187500e+03" nB="1.3433345947265625e+03" nEv="2.5648496093750000e+03" nSuw="2.2220000000000000e+03" nBuw="3.0000000000000000e+01" nEvuw="2.2520000000000000e+03" sepI="2.4943603575229645e-01" sepG="-1.0000000000000000e+00" res="-9.9000000000000000e+01" rms="0.0000000000000000e+00" nType="-1" CC="0.0000000000000000e+00"/>
          </Node>
          <Node pos="r" depth="2" Seq="3" IVar="0" Cut="-9.5730501413345337e-01" cType="0" nS="1.0476206054687500e+03" nB="1.3524868164062500e+03" nEv="2.4001074218750000e+03" nSuw="5.6700000000000000e+02" nBuw="1.0100000000000000e+02" nEvuw="6.6800000000000000e+02" sepI="2.4596635997295380e-01" sepG="2.0416599273681641e+01" res="-9.9000000000000000e+01" rms="0.0000000000000000e+00" nType="0" CC="0.0000000000000000e+00">
            <Node pos="l" depth="3" Seq="3" IVar="-1" Cut="0.0000000000000000e+00" cType="1" nS="7.5175756835937500e+02" nB="7.2372052001953125e+02" nEv="1.4754781494140625e+03" nSuw="3.2500000000000000e+02" nBuw="6.6000000000000000e+01" nEvuw="3.9100000000000000e+02" sepI="2.4990972876548767e-01" sepG="-1.0000000000000000e+00" res="-9.9000000000000000e+01" rms="0.0000000000000000e+00" nType="1" CC="0.0000000000000000e+00"/>
            <Node pos="r" depth="3" Seq="7" IVar="-1" Cut="0.0000000000000000e+00" cType="1" nS="2.9586309814453125e+02" nB="6.2876623535156250e+02" nEv="9.2462933349609375e+02" nSuw="2.4200000000000000e+02" nBuw="3.5000000000000000e+01" nEvuw="2.7700000000000000e+02" sepI="2.1759288012981415e-01" sepG="-1.0000000000000000e+00" res="-9.9000000000000000e+01" rms="0.0000000000000000e+00" nType="-1" CC="0.0000000000000000e+00"/>
          </Node>
        </Node>
      </Node>
    </BinaryTree>
    <BinaryTree type="DecisionTree" boostWeight="3.7298801258687347e-01" itree="19">
      <Node pos="s" depth="0" Seq="0" IVar="2" Cut="7.1428573131561279e-01" cType="1" nS="2.6476074218750000e+03" nB="2.6529443359375000e+03" nEv="5.3005517578125000e+03" nSuw="5.1580000000000000e+03" nBuw="1.3400000000000000e+02" nEvuw="5.2920000000000000e+03" sepI="2.4999974668025970e-01" sepG="3.0352991104125977e+01" res="-9.9000000000000000e+01" rms="0.0000000000000000e+00" nType="0" CC="0.0000000000000000e+00">
        <Node pos="l" depth="1" Seq="0" IVar="-1" Cut="2.8965401649475098e-01" cType="1" nS="1.4554561767578125e+03" nB="1.0574177246093750e+03" nEv="2.5128740234375000e+03" nSuw="4.5840000000000000e+03" nBuw="2.7000000000000000e+01" nEvuw="4.6110000000000000e+03" sepI="2.4372738599777222e-01" sepG="-1.0000000000000000e+00" res="-9.9000000000000000e+01" rms="0.0000000000000000e+00" nType="1" CC="0.0000000000000000e+00"/>
        <Node pos="r" depth="1" Seq="1" IVar="2" Cut="9.0482395887374878e-01" cType="0" nS="1.1921512451171875e+03" nB="1.5955266113281250e+03" nEv="2.7876777343750000e+03" nSuw="5.7400000000000000e+02" nBuw="1.0700000000000000e+02" nEvuw="6.8100000000000000e+02" sepI="2.4476552009582520e-01" sepG="6.4192991256713867e+00" res="-9.9000000000000000e+01" rms="0.0000000000000000e+00" nType="0" CC="0.0000000000000000e+00">
          <Node pos="l" depth="2" Seq="1" IVar="1" Cut="4.1349634528160095e-02" cType="0" nS="4.2482678222656250e+02" nB="4.2459136962890625e+02" nEv="8.4941815185546875e+02" nSuw="3.7000000000000000e+01" nBuw="7.1000000000000000e+01" nEvuw="1.0800000000000000e+02" sepI="2.4999998509883881e-01" sepG="9.4270563125610352e+00" res="-9.9000000000000000e+01" rms="0.0000000000000000e+00" nType="0" CC="0.0000000000000000e+00">
            <Node pos="l" depth="3" Seq="1" IVar="-1" Cut="0.0000000000000000e+00" cType="1" nS="2.1537977600097656e+02" nB="1.2747762298583984e+02" nEv="3.4285739135742188e+02" nSuw="2.4000000000000000e+01" nBuw="1.9000000000000000e+01" nEvuw="4.3000000000000000e+01" sepI="2.3356717824935913e-01" sepG="-1.0000000000000000e+00" res="-9.9000000000000000e+01" rms="0.0000000000000000e+00" nType="1" CC="0.0000000000000000e+00"/>
            <Node pos="r" depth="3" Seq="5" IVar="-1" Cut="0.0000000000000000e+00" cType="1" nS="2.0944699096679688e+02" nB="2.9711373901367188e+02" nEv="5.0656072998046875e+02" nSuw="1.3000000000000000e+01" nBuw="5.2000000000000000e+01" nEvuw="6.5000000000000000e+01" sepI="2.4251233041286469e-01" sepG="-1.0000000000000000e+00" res="-9.9000000000000000e+01" rms="0.0000000000000000e+00" nType="-1" CC="0.0000000000000000e+00"/>
          </Node>
          <Node pos="r" depth="2" Seq="3" IVar="-1" Cut="1.1196196824312210e-01" cType="0" nS="7.6732452392578125e+02" nB="1.1709351806640625e+03" nEv="1.9382597656250000e+03" nSuw="5.3700000000000000e+02" nBuw="3.6000000000000000e+01" nEvuw="5.7300000000000000e+02" sepI="2.3915970325469971e-01" sepG="-1.0000000000000000e+00" res="-9.9000000000000000e+01" rms="0.0000000000000000e+00" nType="-1" CC="0.0000000000000000e+00"/>
        </Node>
      </Node>
    </BinaryTree>
    <BinaryTree type="DecisionTree" boostWeight="1.5176427458104438e-01" itree="20">
      <Node pos="s" depth="0" Seq="0" IVar="2" Cut="1.9047619402408600e-01" cType="1" nS="2.6083027343750000e+03" nB="2.6922490234375000e+03" nEv="5.3005517578125000e+03" nSuw="5.1580000000000000e+03" nBuw="1.3400000000000000e+02" nEvuw="5.2920000000000000e+03" sepI="2.4993729591369629e-01" sepG="9.2427310943603516e+00" res="-9.9000000000000000e+01" rms="0.0000000000000000e+00" nType="0" CC="0.0000000000000000e+00">
        <Node pos="l" depth="1" Seq="0" IVar="0" Cut="-9.6313846111297607e-01" cType="0" nS="3.5586597442626953e+01" nB="0.0000000000000000e+00" nEv="3.5586597442626953e+01" nSuw="2.1800000000000000e+03" nBuw="0.0000000000000000e+00" nEvuw="2.1800000000000000e+03" sepI="0.0000000000000000e+00" sepG="0.0000000000000000e+00" res="-9.9000000000000000e+01" rms="0.0000000000000000e+00" nType="1" CC="0.0000000000000000e+00"/>
        <Node pos="r" depth="1" Seq="1" IVar="0" Cut="-4.8766049742698669e-01" cType="1" nS="2.5727160644531250e+03" nB="2.6922490234375000e+03" nEv="5.2649653320312500e+03" nSuw="2.9780000000000000e+03" nBuw="1.3400000000000000e+02" nEvuw="3.1120000000000000e+03" sepI="2.4987113475799561e-01" sepG="5.5762147903442383e+00" res="-9.9000000000000000e+01" rms="0.0000000000000000e+00" nType="0" CC="0.0000000000000000e+00">
          <Node pos="l" depth="2" Seq="1" IVar="1" Cut="6.0196441411972046e-01" cType="1" nS="2.4054865722656250e+03" nB="2.4202915039062500e+03" nEv="4.8257778320312500e+03" nSuw="2.9110000000000000e+03" nBuw="1.0200000000000000e+02" nEvuw="3.0130000000000000e+03" sepI="2.4999764561653137e-01" sepG="5.9283299446105957e+00" res="-9.9000000000000000e+01" rms="0.0000000000000000e+00" nType="0" CC="0.0000000000000000e+00">
            <Node pos="l" depth="3" Seq="1" IVar="-1" Cut="0.0000000000000000e+00" cType="1" nS="2.0482521972656250e+03" nB="1.9318570556640625e+03" nEv="3.9801093750000000e+03" nSuw="2.2950000000000000e+03" nBuw="9.2000000000000000e+01" nEvuw="2.3870000000000000e+03" sepI="2.4978619813919067e-01" sepG="-1.0000000000000000e+00" res="-9.9000000000000000e+01" rms="0.0000000000000000e+00" nType="1" CC="0.0000000000000000e+00"/>
            <Node pos="r" depth="3" Seq="5" IVar="-1" Cut="0.0000000000000000e+00" cType="1" nS="3.5723431396484375e+02" nB="4.8843438720703125e+02" nEv="8.4566870117187500e+02" nSuw="6.1600000000000000e+02" nBuw="1.0000000000000000e+01" nEvuw="6.2600000000000000e+02" sepI="2.4398261308670044e-01" sepG="-1.0000000000000000e+00" res="-9.9000000000000000e+01" rms="0.0000000000000000e+00" nType="-1" CC="0.0000000000000000e+00"/>
          </Node>
          <Node pos="r" depth="2" Seq="3" IVar="0" Cut="-3.2167342305183411e-01" cType="0" nS="1.6722962951660156e+02" nB="2.7195748901367188e+02" nEv="4.3918713378906250e+02" nSuw="6.7000000000000000e+01" nBuw="3.2000000000000000e+01" nEvuw="9.9000000000000000e+01" sepI="2.3578439652919769e-01" sepG="8.2102003097534180e+00" res="-9.9000000000000000e+01" rms="0.0000000000000000e+00" nType="0" CC="0.0000000000000000e+00">
            <Node pos="l" depth="3" Seq="3" IVar="-1" Cut="0.0000000000000000e+00" cType="1" nS="1.1508260345458984e+02" nB="1.0831398010253906e+02" nEv="2.2339657592773438e+02" nSuw="3.4000000000000000e+01" nBuw="1.2000000000000000e+01" nEvuw="4.6000000000000000e+01" sepI="2.4977049231529236e-01" sepG="-1.0000000000000000e+00" res="-9.9000000000000000e+01" rms="0.0000000000000000e+00" nType="1" CC="0.0000000000000000e+00"/>
            <Node pos="r" depth="3" Seq="7" IVar="-1" Cut="0.0000000000000000e+00" cType="1" nS="5.2147018432617188e+01" nB="1.6364352416992188e+02" nEv="2.1579054260253906e+02" nSuw="3.3000000000000000e+01" nBuw="2.0000000000000000e+01" nEvuw="5.3000000000000000e+01" sepI="1.8325823545455933e-01" sepG="-1.0000000000000000e+00" res="-9.9000000000000000e+01" rms="0.0000000000000000e+00" nType="-1" CC="0.0000000000000000e+00"/>
          </Node>
        </Node>
      </Node>
    </BinaryTree>
    <BinaryTree type="DecisionTree" boostWeight="3.2881239178176913e-01" itree="21">
      <Node pos="s" depth="0" Seq="0" IVar="2" Cut="3.3333334326744080e-01" cType="1" nS="2.4870344238281250e+03" nB="2.8135173339843750e+03" nEv="5.3005517578125000e+03" nSuw="5.1580000000000000e+03" nBuw="1.3400000000000000e+02" nEvuw="5.2920000000000000e+03" sepI="2.4905154109001160e-01" sepG="1.0640820503234863e+01" res="-9.9000000000000000e+01" rms="0.0000000000000000e+00" nType="0" CC="0.0000000000000000e+00">
        <Node pos="l" depth="1" Seq="0" IVar="2" Cut="2.0634785294532776e-01" cType="1" nS="2.2630261230468750e+02" nB="1.2937060546875000e+02" nEv="3.5567321777343750e+02" nSuw="2.6860000000000000e+03" nBuw="4.0000000000000000e+00" nEvuw="2.6900000000000000e+03" sepI="2.3143170773983002e-01" sepG="5.8992166519165039e+00" res="-9.9000000000000000e+01" rms="0.0000000000000000e+00" nType="0" CC="0.0000000000000000e+00">
          <Node pos="l" depth="2" Seq="0" IVar="0" Cut="-9.6313846111297607e-01" cType="0" nS="3.9621623992919922e+01" nB="0.0000000000000000e+00" nEv="3.9621623992919922e+01" nSuw="2.2410000000000000e+03" nBuw="0.0000000000000000e+00" nEvuw="2.2410000000000000e+03" sepI="0.0000000000000000e+00" sepG="0.0000000000000000e+00" res="-9.9000000000000000e+01" rms="0.0000000000000000e+00" nType="1" CC="0.0000000000000000e+00"/>
          <Node pos="r" depth="2" Seq="2" IVar="2" Cut="2.5472912192344666e-01" cType="0" nS="1.8668098449707031e+02" nB="1.2937060546875000e+02" nEv="3.1605160522460938e+02" nSuw="4.4500000000000000e+02" nBuw="4.0000000000000000e+00" nEvuw="4.4900000000000000e+02" sepI="2.4177964031696320e-01" sepG="1.1107098579406738e+01" res="-9.9000000000000000e+01" rms="0.0000000000000000e+00" nType="0" CC="0.0000000000000000e+00">
            <Node pos="l" depth="3" Seq="2" IVar="-1" Cut="0.0000000000000000e+00" cType="1" nS="1.4692784118652344e+02" nB="5.3507194519042969e+01" nEv="2.0043504333496094e+02" nSuw="2.8900000000000000e+02" nBuw="2.0000000000000000e+00" nEvuw="2.9100000000000000e+02" sepI="1.9569015502929688e-01" sepG="-1.0000000000000000e+00" res="-9.9000000000000000e+01" rms="0.0000000000000000e+00" nType="1" CC="0.0000000000000000e+00"/>
            <Node pos="r" depth="3" Seq="6" IVar="-1" Cut="0.0000000000000000e+00" cType="1" nS="3.9753139495849609e+01" nB="7.5863410949707031e+01" nEv="1.1561655426025391e+02" nSuw="1.5600000000000000e+02" nBuw="2.0000000000000000e+00" nEvuw="1.5800000000000000e+02" sepI="2.2561283409595490e-01" sepG="-1.0000000000000000e+00" res="-9.9000000000000000e+01" rms="0.0000000000000000e+00" nType="-1" CC="0.0000000000000000e+00"/>
          </Node>
        </Node>
        <Node pos="r" depth="1" Seq="1" IVar="1" Cut="6.7103087902069092e-01" cType="1" nS="2.2607319335937500e+03" nB="2.6841467285156250e+03" nEv="4.9448784179687500e+03" nSuw="2.4720000000000000e+03" nBuw="1.3000000000000000e+02" nEvuw="2.6020000000000000e+03" sepI="2.4816700816154480e-01" sepG="5.0471057891845703e+00" res="-9.9000000000000000e+01" rms="0.0000000000000000e+00" nType="0" CC="0.0000000000000000e+00">
          <Node pos="l" depth="2" Seq="1" IVar="2" Cut="4.6033227443695068e-01" cType="1" nS="2.1785803222656250e+03" nB="2.5100073242187500e+03" nEv="4.6885878906250000e+03" nSuw="2.4140000000000000e+03" nBuw="1.2700000000000000e+02" nEvuw="2.5410000000000000e+03" sepI="2.4875080585479736e-01" sepG="2.3216352462768555e+01" res="-9.9000000000000000e+01" rms="0.0000000000000000e+00" nType="0" CC="0.0000000000000000e+00">
            <Node pos="l" depth="3" Seq="1" IVar="-1" Cut="0.0000000000000000e+00" cType="1" nS="2.0513464355468750e+02" nB="6.9580345153808594e+01" nEv="2.7471499633789062e+02" nSuw="5.1600000000000000e+02" nBuw="2.0000000000000000e+00" nEvuw="5.1800000000000000e+02" sepI="1.8913020193576813e-01" sepG="-1.0000000000000000e+00" res="-9.9000000000000000e+01" rms="0.0000000000000000e+00" nType="1" CC="0.0000000000000000e+00"/>
            <Node pos="r" depth="3" Seq="5" IVar="-1" Cut="0.0000000000000000e+00" cType="1" nS="1.9734456787109375e+03" nB="2.4404270019531250e+03" nEv="4.4138725585937500e+03" nSuw="1.8980000000000000e+03" nBuw="1.2500000000000000e+02" nEvuw="2.0230000000000000e+03" sepI="2.4720166623592377e-01" sepG="-1.0000000000000000e+00" res="-9.9000000000000000e+01" rms="0.0000000000000000e+00" nType="-1" CC="0.0000000000000000e+00"/>
          </Node>
          <Node pos="r" depth="2" Seq="3" IVar="-1" Cut="0.0000000000000000e+00" cType="1" nS="8.2151527404785156e+01" nB="1.7413932800292969e+02" nEv="2.5629086303710938e+02" nSuw="5.8000000000000000e+01" nBuw="3.0000000000000000e+00" nEvuw="6.1000000000000000e+01" sepI="2.1779419481754303e-01" sepG="-1.0000000000000000e+00" res="-9.9000000000000000e+01" rms="0.0000000000000000e+00" nType="-1" CC="0.0000000000000000e+00"/>
        </Node>
      </Node>
    </BinaryTree>
    <BinaryTree type="DecisionTree" boostWeight="2.6028977014053334e-01" itree="22">
      <Node pos="s" depth="0" Seq="0" IVar="1" Cut="8.1103128194808960e-01" cType="0" nS="2.8400332031250000e+03" nB="2.4605185546875000e+03" nEv="5.3005517578125000e+03" nSuw="5.1580000000000000e+03" nBuw="1.3400000000000000e+02" nEvuw="5.2920000000000000e+03" sepI="2.4871839582920074e-01" sepG="6.5673289299011230e+00" res="-9.9000000000000000e+01" rms="0.0000000000000000e+00" nType="0" CC="0.0000000000000000e+00">
        <Node pos="l" depth="1" Seq="0" IVar="0" Cut="-9.6313846111297607e-01" cType="0" nS="3.0303142547607422e+01" nB="0.0000000000000000e+00" nEv="3.0303142547607422e+01" nSuw="2.0950000000000000e+03" nBuw="0.0000000000000000e+00" nEvuw="2.0950000000000000e+03" sepI="0.0000000000000000e+00" sepG="0.0000000000000000e+00" res="-9.9000000000000000e+01" rms="0.0000000000000000e+00" nType="1" CC="0.0000000000000000e+00"/>
        <Node pos="r" depth="1" Seq="1" IVar="1" Cut="4.6342828869819641e-01" cType="1" nS="2.8097299804687500e+03" nB="2.4605185546875000e+03" nEv="5.2702485351562500e+03" nSuw="3.0630000000000000e+03" nBuw="1.3400000000000000e+02" nEvuw="3.1970000000000000e+03" sepI="2.4890238046646118e-01" sepG="6.8871717453002930e+00" res="-9.9000000000000000e+01" rms="0.0000000000000000e+00" nType="0" CC="0.0000000000000000e+00">
          <Node pos="l" depth="2" Seq="1" IVar="-1" Cut="3.9719271659851074e-01" cType="0" nS="2.2119555664062500e+03" nB="1.7840318603515625e+03" nEv="3.9959873046875000e+03" nSuw="1.8060000000000000e+03" nBuw="1.2000000000000000e+02" nEvuw="1.9260000000000000e+03" sepI="2.4713301658630371e-01" sepG="-1.0000000000000000e+00" res="-9.9000000000000000e+01" rms="0.0000000000000000e+00" nType="1" CC="0.0000000000000000e+00"/>
          <Node pos="r" depth="2" Seq="3" IVar="2" Cut="4.5389366149902344e-01" cType="1" nS="5.9777447509765625e+02" nB="6.7648669433593750e+02" nEv="1.2742612304687500e+03" nSuw="1.2570000000000000e+03" nBuw="1.4000000000000000e+01" nEvuw="1.2710000000000000e+03" sepI="2.4904608726501465e-01" sepG="1.2861917495727539e+01" res="-9.9000000000000000e+01" rms="0.0000000000000000e+00" nType="0" CC="0.0000000000000000e+00">
            <Node pos="l" depth="3" Seq="3" IVar="-1" Cut="0.0000000000000000e+00" cType="1" nS="4.3653826904296875e+02" nB="3.6202218627929688e+02" nEv="7.9856048583984375e+02" nSuw="1.0100000000000000e+03" nBuw="9.0000000000000000e+00" nEvuw="1.0190000000000000e+03" sepI="2.4782316386699677e-01" sepG="-1.0000000000000000e+00" res="-9.9000000000000000e+01" rms="0.0000000000000000e+00" nType="1" CC="0.0000000000000000e+00"/>
            <Node pos="r" depth="3" Seq="7" IVar="-1" Cut="0.0000000000000000e+00" cType="1" nS="1.6123620605468750e+02" nB="3.1446450805664062e+02" nEv="4.7570071411132812e+02" nSuw="2.4700000000000000e+02" nBuw="5.0000000000000000e+00" nEvuw="2.5200000000000000e+02" sepI="2.2406117618083954e-01" sepG="-1.0000000000000000e+00" res="-9.9000000000000000e+01" rms="0.0000000000000000e+00" nType="-1" CC="0.0000000000000000e+00"/>
          </Node>
        </Node>
      </Node>
    </BinaryTree>
    <BinaryTree type="DecisionTree" boostWeight="2.7653989852594257e-01" itree="23">
      <Node pos="s" depth="0" Seq="0" IVar="1" Cut="8.1103128194808960e-01" cType="0" nS="2.5570490722656250e+03" nB="2.7435026855468750e+03" nEv="5.3005517578125000e+03" nSuw="5.1580000000000000e+03" nBuw="1.3400000000000000e+02" nEvuw="5.2920000000000000e+03" sepI="2.4969065189361572e-01" sepG="7.2244811058044434e+00" res="-9.9000000000000000e+01" rms="0.0000000000000000e+00" nType="0" CC="0.0000000000000000e+00">
        <Node pos="l" depth="1" Seq="0" IVar="0" Cut="-9.6313846111297607e-01" cType="0" nS="2.6830827713012695e+01" nB="0.0000000000000000e+00" nEv="2.6830827713012695e+01" nSuw="2.0950000000000000e+03" nBuw="0.0000000000000000e+00" nEvuw="2.0950000000000000e+03" sepI="0.0000000000000000e+00" sepG="0.0000000000000000e+00" res="-9.9000000000000000e+01" rms="0.0000000000000000e+00" nType="1" CC="0.0000000000000000e+00"/>
        <Node pos="r" depth="1" Seq="1" IVar="2" Cut="8.0952382087707520e-01" cType="1" nS="2.5302182617187500e+03" nB="2.7435026855468750e+03" nEv="5.2737207031250000e+03" nSuw="3.0630000000000000e+03" nBuw="1.3400000000000000e+02" nEvuw="3.1970000000000000e+03" sepI="2.4959109723567963e-01" sepG="4.6945457458496094e+00" res="-9.9000000000000000e+01" rms="0.0000000000000000e+00" nType="0" CC="0.0000000000000000e+00">
          <Node pos="l" depth="2" Seq="1" IVar="2" Cut="7.3224908113479614e-01" cType="0" nS="1.7116704101562500e+03" nB="1.6992014160156250e+03" nEv="3.4108718261718750e+03" nSuw="2.8520000000000000e+03" nBuw="4.0000000000000000e+01" nEvuw="2.8920000000000000e+03" sepI="2.4999666213989258e-01" sepG="1.2318061828613281e+01" res="-9.9000000000000000e+01" rms="0.0000000000000000e+00" nType="0" CC="0.0000000000000000e+00">
            <Node pos="l" depth="3" Seq="1" IVar="-1" Cut="0.0000000000000000e+00" cType="1" nS="4.4582247924804688e+02" nB="2.7575613403320312e+02" nEv="7.2157861328125000e+02" nSuw="2.7700000000000000e+02" nBuw="1.1000000000000000e+01" nEvuw="2.8800000000000000e+02" sepI="2.3611296713352203e-01" sepG="-1.0000000000000000e+00" res="-9.9000000000000000e+01" rms="0.0000000000000000e+00" nType="1" CC="0.0000000000000000e+00"/>
            <Node pos="r" depth="3" Seq="5" IVar="-1" Cut="0.0000000000000000e+00" cType="1" nS="1.2658479003906250e+03" nB="1.4234453125000000e+03" nEv="2.6892932128906250e+03" nSuw="2.5750000000000000e+03" nBuw="2.9000000000000000e+01" nEvuw="2.6040000000000000e+03" sepI="2.4914145469665527e-01" sepG="-1.0000000000000000e+00" res="-9.9000000000000000e+01" rms="0.0000000000000000e+00" nType="-1" CC="0.0000000000000000e+00"/>
          </Node>
          <Node pos="r" depth="2" Seq="3" IVar="1" Cut="1.1022742837667465e-02" cType="1" nS="8.1854772949218750e+02" nB="1.0443012695312500e+03" nEv="1.8628489990234375e+03" nSuw="2.1100000000000000e+02" nBuw="9.4000000000000000e+01" nEvuw="3.0500000000000000e+02" sepI="2.4632841348648071e-01" sepG="1.1943683624267578e+01" res="-9.9000000000000000e+01" rms="0.0000000000000000e+00" nType="0" CC="0.0000000000000000e+00">
            <Node pos="l" depth="3" Seq="3" IVar="-1" Cut="0.0000000000000000e+00" cType="1" nS="2.3771415710449219e+02" nB="1.6370230102539062e+02" nEv="4.0141644287109375e+02" nSuw="2.1000000000000000e+01" nBuw="2.4000000000000000e+01" nEvuw="4.5000000000000000e+01" sepI="2.4150130152702332e-01" sepG="-1.0000000000000000e+00" res="-9.9000000000000000e+01" rms="0.0000000000000000e+00" nType="1" CC="0.0000000000000000e+00"/>
            <Node pos="r" depth="3" Seq="7" IVar="-1" Cut="0.0000000000000000e+00" cType="1" nS="5.8083361816406250e+02" nB="8.8059893798828125e+02" nEv="1.4614324951171875e+03" nSuw="1.9000000000000000e+02" nBuw="7.0000000000000000e+01" nEvuw="2.6000000000000000e+02" sepI="2.3948170244693756e-01" sepG="-1.0000000000000000e+00" res="-9.9000000000000000e+01" rms="0.0000000000000000e+00" nType="-1" CC="0.0000000000000000e+00"/>
          </Node>
        </Node>
      </Node>
    </BinaryTree>
    <BinaryTree type="DecisionTree" boostWeight="3.0828995172879919e-01" itree="24">
      <Node pos="s" depth="0" Seq="0" IVar="1" Cut="1.1586160957813263e-01" cType="0" nS="2.7653767089843750e+03" nB="2.5351748046875000e+03" nEv="5.3005517578125000e+03" nSuw="5.1580000000000000e+03" nBuw="1.3400000000000000e+02" nEvuw="5.2920000000000000e+03" sepI="2.4952846765518188e-01" sepG="8.1535654067993164e+00" res="-9.9000000000000000e+01" rms="0.0000000000000000e+00" nType="0" CC="0.0000000000000000e+00">
        <Node pos="l" depth="1" Seq="0" IVar="-1" Cut="1.6831037402153015e-01" cType="1" nS="1.9683494873046875e+03" nB="1.6181020507812500e+03" nEv="3.5864514160156250e+03" nSuw="4.9300000000000000e+03" nBuw="4.1000000000000000e+01" nEvuw="4.9710000000000000e+03" sepI="2.4761570990085602e-01" sepG="-1.0000000000000000e+00" res="-9.9000000000000000e+01" rms="0.0000000000000000e+00" nType="1" CC="0.0000000000000000e+00"/>
        <Node pos="r" depth="1" Seq="1" IVar="2" Cut="8.5714286565780640e-01" cType="0" nS="7.9702734375000000e+02" nB="9.1707275390625000e+02" nEv="1.7141000976562500e+03" nSuw="2.2800000000000000e+02" nBuw="9.3000000000000000e+01" nEvuw="3.2100000000000000e+02" sepI="2.4877381324768066e-01" sepG="8.2323856353759766e+00" res="-9.9000000000000000e+01" rms="0.0000000000000000e+00" nType="0" CC="0.0000000000000000e+00">
          <Node pos="l" depth="2" Seq="1" IVar="1" Cut="5.3276564925909042e-02" cType="0" nS="6.0951965332031250e+02" nB="5.8383197021484375e+02" nEv="1.1933516845703125e+03" nSuw="8.2000000000000000e+01" nBuw="8.1000000000000000e+01" nEvuw="1.6300000000000000e+02" sepI="2.4988415837287903e-01" sepG="1.6729593276977539e+01" res="-9.9000000000000000e+01" rms="0.0000000000000000e+00" nType="0" CC="0.0000000000000000e+00">
            <Node pos="l" depth="3" Seq="1" IVar="-1" Cut="0.0000000000000000e+00" cType="1" nS="2.9717041015625000e+02" nB="1.5069923400878906e+02" nEv="4.4786962890625000e+02" nSuw="5.2000000000000000e+01" nBuw="1.6000000000000000e+01" nEvuw="6.8000000000000000e+01" sepI="2.2326125204563141e-01" sepG="-1.0000000000000000e+00" res="-9.9000000000000000e+01" rms="0.0000000000000000e+00" nType="1" CC="0.0000000000000000e+00"/>
            <Node pos="r" depth="3" Seq="5" IVar="-1" Cut="0.0000000000000000e+00" cType="1" nS="3.1234924316406250e+02" nB="4.3313272094726562e+02" nEv="7.4548199462890625e+02" nSuw="3.0000000000000000e+01" nBuw="6.5000000000000000e+01" nEvuw="9.5000000000000000e+01" sepI="2.4343731999397278e-01" sepG="-1.0000000000000000e+00" res="-9.9000000000000000e+01" rms="0.0000000000000000e+00" nType="-1" CC="0.0000000000000000e+00"/>
          </Node>
          <Node pos="r" depth="2" Seq="3" IVar="2" Cut="7.3295235633850098e-01" cType="1" nS="1.8750769042968750e+02" nB="3.3324078369140625e+02" nEv="5.2074847412109375e+02" nSuw="1.4600000000000000e+02" nBuw="1.2000000000000000e+01" nEvuw="1.5800000000000000e+02" sepI="2.3042055964469910e-01" sepG="1.0169840812683105e+01" res="-9.9000000000000000e+01" rms="0.0000000000000000e+00" nType="0" CC="0.0000000000000000e+00">
            <Node pos="l" depth="3" Seq="3" IVar="-1" Cut="0.0000000000000000e+00" cType="1" nS="2.3703973770141602e+01" nB="0.0000000000000000e+00" nEv="2.3703973770141602e+01" nSuw="5.2000000000000000e+01" nBuw="0.0000000000000000e+00" nEvuw="5.2000000000000000e+01" sepI="0.0000000000000000e+00" sepG="-1.0000000000000000e+00" res="-9.9000000000000000e+01" rms="0.0000000000000000e+00" nType="1" CC="0.0000000000000000e+00"/>
            <Node pos="r" depth="3" Seq="7" IVar="-1" Cut="0.0000000000000000e+00" cType="1" nS="1.6380372619628906e+02" nB="3.3324078369140625e+02" nEv="4.9704449462890625e+02" nSuw="9.4000000000000000e+01" nBuw="1.2000000000000000e+01" nEvuw="1.0600000000000000e+02" sepI="2.2094865143299103e-01" sepG="-1.0000000000000000e+00" res="-9.9000000000000000e+01" rms="0.0000000000000000e+00" nType="-1" CC="0.0000000000000000e+00"/>
          </Node>
        </Node>
      </Node>
    </BinaryTree>
    <BinaryTree type="DecisionTree" boostWeight="2.8867855639351198e-01" itree="25">
      <Node pos="s" depth="0" Seq="0" IVar="1" Cut="1.7379240691661835e-01" cType="1" nS="2.5476821289062500e+03" nB="2.7528693847656250e+03" nEv="5.3005517578125000e+03" nSuw="5.1580000000000000e+03" nBuw="1.3400000000000000e+02" nEvuw="5.2920000000000000e+03" sepI="2.4962536990642548e-01" sepG="6.1455502510070801e+00" res="-9.9000000000000000e+01" rms="0.0000000000000000e+00" nType="0" CC="0.0000000000000000e+00">
        <Node pos="l" depth="1" Seq="0" IVar="2" Cut="8.0952382087707520e-01" cType="1" nS="1.0846025390625000e+03" nB="9.8870532226562500e+02" nEv="2.0733078613281250e+03" nSuw="4.8100000000000000e+02" nBuw="9.8000000000000000e+01" nEvuw="5.7900000000000000e+02" sepI="2.4946515262126923e-01" sepG="1.0294520378112793e+01" res="-9.9000000000000000e+01" rms="0.0000000000000000e+00" nType="0" CC="0.0000000000000000e+00">
          <Node pos="l" depth="2" Seq="0" IVar="0" Cut="-6.8763947486877441e-01" cType="1" nS="2.0988658142089844e+02" nB="9.2728126525878906e+01" nEv="3.0261471557617188e+02" nSuw="2.8700000000000000e+02" nBuw="5.0000000000000000e+00" nEvuw="2.9200000000000000e+02" sepI="2.1252797544002533e-01" sepG="9.8938770294189453e+00" res="-9.9000000000000000e+01" rms="0.0000000000000000e+00" nType="0" CC="0.0000000000000000e+00">
            <Node pos="l" depth="3" Seq="0" IVar="-1" Cut="0.0000000000000000e+00" cType="1" nS="1.7416452026367188e+02" nB="4.1210739135742188e+01" nEv="2.1537525939941406e+02" nSuw="2.4800000000000000e+02" nBuw="2.0000000000000000e+00" nEvuw="2.5000000000000000e+02" sepI="1.5473140776157379e-01" sepG="-1.0000000000000000e+00" res="-9.9000000000000000e+01" rms="0.0000000000000000e+00" nType="1" CC="0.0000000000000000e+00"/>
            <Node pos="r" depth="3" Seq="4" IVar="-1" Cut="0.0000000000000000e+00" cType="1" nS="3.5722053527832031e+01" nB="5.1517387390136719e+01" nEv="8.7239440917968750e+01" nSuw="3.9000000000000000e+01" nBuw="3.0000000000000000e+00" nEvuw="4.2000000000000000e+01" sepI="2.4180456995964050e-01" sepG="-1.0000000000000000e+00" res="-9.9000000000000000e+01" rms="0.0000000000000000e+00" nType="-1" CC="0.0000000000000000e+00"/>
          </Node>
          <Node pos="r" depth="2" Seq="2" IVar="2" Cut="8.5517746210098267e-01" cType="0" nS="8.7471600341796875e+02" nB="8.9597723388671875e+02" nEv="1.7706932373046875e+03" nSuw="1.9400000000000000e+02" nBuw="9.3000000000000000e+01" nEvuw="2.8700000000000000e+02" sepI="2.4996395409107208e-01" sepG="9.1919393539428711e+00" res="-9.9000000000000000e+01" rms="0.0000000000000000e+00" nType="0" CC="0.0000000000000000e+00">
            <Node pos="l" depth="3" Seq="2" IVar="-1" Cut="0.0000000000000000e+00" cType="1" nS="6.5766186523437500e+02" nB="5.5358581542968750e+02" nEv="1.2112476806640625e+03" nSuw="9.7000000000000000e+01" nBuw="8.1000000000000000e+01" nEvuw="1.7800000000000000e+02" sepI="2.4815423786640167e-01" sepG="-1.0000000000000000e+00" res="-9.9000000000000000e+01" rms="0.0000000000000000e+00" nType="1" CC="0.0000000000000000e+00"/>
            <Node pos="r" depth="3" Seq="6" IVar="-1" Cut="0.0000000000000000e+00" cType="1" nS="2.1705413818359375e+02" nB="3.4239138793945312e+02" nEv="5.5944555664062500e+02" nSuw="9.7000000000000000e+01" nBuw="1.2000000000000000e+01" nEvuw="1.0900000000000000e+02" sepI="2.3745170235633850e-01" sepG="-1.0000000000000000e+00" res="-9.9000000000000000e+01" rms="0.0000000000000000e+00" nType="-1" CC="0.0000000000000000e+00"/>
          </Node>
        </Node>
        <Node pos="r" depth="1" Seq="1" IVar="1" Cut="7.6973032951354980e-01" cType="0" nS="1.4630797119140625e+03" nB="1.7641640625000000e+03" nEv="3.2272436523437500e+03" nSuw="4.6770000000000000e+03" nBuw="3.6000000000000000e+01" nEvuw="4.7130000000000000e+03" sepI="2.4782402813434601e-01" sepG="1.2188998222351074e+01" res="-9.9000000000000000e+01" rms="0.0000000000000000e+00" nType="0" CC="0.0000000000000000e+00">
          <Node pos="l" depth="2" Seq="1" IVar="0" Cut="-9.6313846111297607e-01" cType="0" nS="4.0280872344970703e+01" nB="0.0000000000000000e+00" nEv="4.0280872344970703e+01" nSuw="2.2360000000000000e+03" nBuw="0.0000000000000000e+00" nEvuw="2.2360000000000000e+03" sepI="0.0000000000000000e+00" sepG="0.0000000000000000e+00" res="-9.9000000000000000e+01" rms="0.0000000000000000e+00" nType="1" CC="0.0000000000000000e+00"/>
          <Node pos="r" depth="2" Seq="3" IVar="-1" Cut="2.0232778787612915e-01" cType="0" nS="1.4227988281250000e+03" nB="1.7641640625000000e+03" nEv="3.1869628906250000e+03" nSuw="2.4410000000000000e+03" nBuw="3.6000000000000000e+01" nEvuw="2.4770000000000000e+03" sepI="2.4713170528411865e-01" sepG="-1.0000000000000000e+00" res="-9.9000000000000000e+01" rms="0.0000000000000000e+00" nType="-1" CC="0.0000000000000000e+00"/>
        </Node>
      </Node>
    </BinaryTree>
    <BinaryTree type="DecisionTree" boostWeight="1.9857583693452713e-01" itree="26">
      <Node pos="s" depth="0" Seq="0" IVar="1" Cut="1.1586160957813263e-01" cType="0" nS="2.7187192382812500e+03" nB="2.5818322753906250e+03" nEv="5.3005517578125000e+03" nSuw="5.1580000000000000e+03" nBuw="1.3400000000000000e+02" nEvuw="5.2920000000000000e+03" sepI="2.4983327090740204e-01" sepG="6.8511352539062500e+00" res="-9.9000000000000000e+01" rms="0.0000000000000000e+00" nType="0" CC="0.0000000000000000e+00">
        <Node pos="l" depth="1" Seq="0" IVar="1" Cut="1.6831037402153015e-01" cType="1" nS="1.9416066894531250e+03" nB="1.6707524414062500e+03" nEv="3.6123591308593750e+03" nSuw="4.9300000000000000e+03" nBuw="4.1000000000000000e+01" nEvuw="4.9710000000000000e+03" sepI="2.4859450757503510e-01" sepG="7.6723198890686035e+00" res="-9.9000000000000000e+01" rms="0.0000000000000000e+00" nType="0" CC="0.0000000000000000e+00">
          <Node pos="l" depth="2" Seq="0" IVar="3" Cut="4.7619048506021500e-02" cType="0" nS="2.0929745483398438e+02" nB="9.4179153442382812e+01" nEv="3.0347659301757812e+02" nSuw="2.2700000000000000e+02" nBuw="4.0000000000000000e+00" nEvuw="2.3100000000000000e+02" sepI="2.1402686834335327e-01" sepG="1.3026729583740234e+01" res="-9.9000000000000000e+01" rms="0.0000000000000000e+00" nType="0" CC="0.0000000000000000e+00">
            <Node pos="l" depth="3" Seq="0" IVar="-1" Cut="0.0000000000000000e+00" cType="1" nS="1.4599508666992188e+02" nB="2.0321460723876953e+01" nEv="1.6631654357910156e+02" nSuw="1.2400000000000000e+02" nBuw="2.0000000000000000e+00" nEvuw="1.2600000000000000e+02" sepI="1.0725616663694382e-01" sepG="-1.0000000000000000e+00" res="-9.9000000000000000e+01" rms="0.0000000000000000e+00" nType="1" CC="0.0000000000000000e+00"/>
            <Node pos="r" depth="3" Seq="4" IVar="-1" Cut="0.0000000000000000e+00" cType="1" nS="6.3302375793457031e+01" nB="7.3857688903808594e+01" nEv="1.3716006469726562e+02" nSuw="1.0300000000000000e+02" nBuw="2.0000000000000000e+00" nEvuw="1.0500000000000000e+02" sepI="2.4851943552494049e-01" sepG="-1.0000000000000000e+00" res="-9.9000000000000000e+01" rms="0.0000000000000000e+00" nType="-1" CC="0.0000000000000000e+00"/>
          </Node>
          <Node pos="r" depth="2" Seq="2" IVar="-1" Cut="3.2504639029502869e-01" cType="1" nS="1.7323092041015625e+03" nB="1.5765733642578125e+03" nEv="3.3088825683593750e+03" nSuw="4.7030000000000000e+03" nBuw="3.7000000000000000e+01" nEvuw="4.7400000000000000e+03" sepI="2.4944619834423065e-01" sepG="-1.0000000000000000e+00" res="-9.9000000000000000e+01" rms="0.0000000000000000e+00" nType="1" CC="0.0000000000000000e+00"/>
        </Node>
        <Node pos="r" depth="1" Seq="1" IVar="1" Cut="5.4551917128264904e-03" cType="1" nS="7.7711254882812500e+02" nB="9.1107989501953125e+02" nEv="1.6881925048828125e+03" nSuw="2.2800000000000000e+02" nBuw="9.3000000000000000e+01" nEvuw="3.2100000000000000e+02" sepI="2.4842567741870880e-01" sepG="5.3999595642089844e+00" res="-9.9000000000000000e+01" rms="0.0000000000000000e+00" nType="0" CC="0.0000000000000000e+00">
          <Node pos="l" depth="2" Seq="1" IVar="-1" Cut="0.0000000000000000e+00" cType="1" nS="2.3118556213378906e+02" nB="1.8187254333496094e+02" nEv="4.1305810546875000e+02" nSuw="3.4000000000000000e+01" nBuw="2.4000000000000000e+01" nEvuw="5.8000000000000000e+01" sepI="2.4643678963184357e-01" sepG="-1.0000000000000000e+00" res="-9.9000000000000000e+01" rms="0.0000000000000000e+00" nType="1" CC="0.0000000000000000e+00"/>
          <Node pos="r" depth="2" Seq="3" IVar="-1" Cut="5.0896629691123962e-02" cType="0" nS="5.4592700195312500e+02" nB="7.2920733642578125e+02" nEv="1.2751343994140625e+03" nSuw="1.9400000000000000e+02" nBuw="6.9000000000000000e+01" nEvuw="2.6300000000000000e+02" sepI="2.4483512341976166e-01" sepG="-1.0000000000000000e+00" res="-9.9000000000000000e+01" rms="0.0000000000000000e+00" nType="-1" CC="0.0000000000000000e+00"/>
        </Node>
      </Node>
    </BinaryTree>
    <BinaryTree type="DecisionTree" boostWeight="1.4130612457427008e-01" itree="27">
      <Node pos="s" depth="0" Seq="0" IVar="2" Cut="1.9047619402408600e-01" cType="1" nS="2.5956701660156250e+03" nB="2.7048813476562500e+03" nEv="5.3005517578125000e+03" nSuw="5.1580000000000000e+03" nBuw="1.3400000000000000e+02" nEvuw="5.2920000000000000e+03" sepI="2.4989387392997742e-01" sepG="4.5914554595947266e+00" res="-9.9000000000000000e+01" rms="0.0000000000000000e+00" nType="0" CC="0.0000000000000000e+00">
        <Node pos="l" depth="1" Seq="0" IVar="0" Cut="-9.6313846111297607e-01" cType="0" nS="1.7573318481445312e+01" nB="0.0000000000000000e+00" nEv="1.7573318481445312e+01" nSuw="2.1800000000000000e+03" nBuw="0.0000000000000000e+00" nEvuw="2.1800000000000000e+03" sepI="0.0000000000000000e+00" sepG="0.0000000000000000e+00" res="-9.9000000000000000e+01" rms="0.0000000000000000e+00" nType="1" CC="0.0000000000000000e+00"/>
        <Node pos="r" depth="1" Seq="1" IVar="1" Cut="6.0196441411972046e-01" cType="1" nS="2.5780969238281250e+03" nB="2.7048813476562500e+03" nEv="5.2829780273437500e+03" nSuw="2.9780000000000000e+03" nBuw="1.3400000000000000e+02" nEvuw="3.1120000000000000e+03" sepI="2.4985601007938385e-01" sepG="4.5350255966186523e+00" res="-9.9000000000000000e+01" rms="0.0000000000000000e+00" nType="0" CC="0.0000000000000000e+00">
          <Node pos="l" depth="2" Seq="1" IVar="2" Cut="4.6356150507926941e-01" cType="1" nS="2.2295732421875000e+03" nB="2.2238181152343750e+03" nEv="4.4533916015625000e+03" nSuw="2.3610000000000000e+03" nBuw="1.2400000000000000e+02" nEvuw="2.4850000000000000e+03" sepI="2.4999958276748657e-01" sepG="2.0855665206909180e+01" res="-9.9000000000000000e+01" rms="0.0000000000000000e+00" nType="0" CC="0.0000000000000000e+00">
            <Node pos="l" depth="3" Seq="1" IVar="-1" Cut="0.0000000000000000e+00" cType="1" nS="8.2096847534179688e+01" nB="0.0000000000000000e+00" nEv="8.2096847534179688e+01" nSuw="4.7600000000000000e+02" nBuw="0.0000000000000000e+00" nEvuw="4.7600000000000000e+02" sepI="0.0000000000000000e+00" sepG="-1.0000000000000000e+00" res="-9.9000000000000000e+01" rms="0.0000000000000000e+00" nType="1" CC="0.0000000000000000e+00"/>
            <Node pos="r" depth="3" Seq="5" IVar="-1" Cut="0.0000000000000000e+00" cType="1" nS="2.1474765625000000e+03" nB="2.2238181152343750e+03" nEv="4.3712944335937500e+03" nSuw="1.8850000000000000e+03" nBuw="1.2400000000000000e+02" nEvuw="2.0090000000000000e+03" sepI="2.4992375075817108e-01" sepG="-1.0000000000000000e+00" res="-9.9000000000000000e+01" rms="0.0000000000000000e+00" nType="-1" CC="0.0000000000000000e+00"/>
          </Node>
          <Node pos="r" depth="2" Seq="3" IVar="0" Cut="-9.6962302923202515e-01" cType="0" nS="3.4852352905273438e+02" nB="4.8106320190429688e+02" nEv="8.2958673095703125e+02" nSuw="6.1700000000000000e+02" nBuw="1.0000000000000000e+01" nEvuw="6.2700000000000000e+02" sepI="2.4361871182918549e-01" sepG="1.1433712005615234e+01" res="-9.9000000000000000e+01" rms="0.0000000000000000e+00" nType="0" CC="0.0000000000000000e+00">
            <Node pos="l" depth="3" Seq="3" IVar="-1" Cut="0.0000000000000000e+00" cType="1" nS="3.2663394927978516e+01" nB="0.0000000000000000e+00" nEv="3.2663394927978516e+01" nSuw="5.4000000000000000e+01" nBuw="0.0000000000000000e+00" nEvuw="5.4000000000000000e+01" sepI="0.0000000000000000e+00" sepG="-1.0000000000000000e+00" res="-9.9000000000000000e+01" rms="0.0000000000000000e+00" nType="1" CC="0.0000000000000000e+00"/>
            <Node pos="r" depth="3" Seq="7" IVar="-1" Cut="0.0000000000000000e+00" cType="1" nS="3.1586013793945312e+02" nB="4.8106320190429688e+02" nEv="7.9692333984375000e+02" nSuw="5.6300000000000000e+02" nBuw="1.0000000000000000e+01" nEvuw="5.7300000000000000e+02" sepI="2.3925656080245972e-01" sepG="-1.0000000000000000e+00" res="-9.9000000000000000e+01" rms="0.0000000000000000e+00" nType="-1" CC="0.0000000000000000e+00"/>
          </Node>
        </Node>
      </Node>
    </BinaryTree>
    <BinaryTree type="DecisionTree" boostWeight="1.7640056303643814e-01" itree="28">
      <Node pos="s" depth="0" Seq="0" IVar="2" Cut="1.9047619402408600e-01" cType="1" nS="2.7738901367187500e+03" nB="2.5266613769531250e+03" nEv="5.3005517578125000e+03" nSuw="5.1580000000000000e+03" nBuw="1.3400000000000000e+02" nEvuw="5.2920000000000000e+03" sepI="2.4945612251758575e-01" sepG="3.7415511608123779e+00" res="-9.9000000000000000e+01" rms="0.0000000000000000e+00" nType="0" CC="0.0000000000000000e+00">
        <Node pos="l" depth="1" Seq="0" IVar="0" Cut="-9.6313846111297607e-01" cType="0" nS="1.6415443420410156e+01" nB="0.0000000000000000e+00" nEv="1.6415443420410156e+01" nSuw="2.1800000000000000e+03" nBuw="0.0000000000000000e+00" nEvuw="2.1800000000000000e+03" sepI="0.0000000000000000e+00" sepG="0.0000000000000000e+00" res="-9.9000000000000000e+01" rms="0.0000000000000000e+00" nType="1" CC="0.0000000000000000e+00"/>
        <Node pos="r" depth="1" Seq="1" IVar="1" Cut="6.0196441411972046e-01" cType="1" nS="2.7574746093750000e+03" nB="2.5266613769531250e+03" nEv="5.2841362304687500e+03" nSuw="2.9780000000000000e+03" nBuw="1.3400000000000000e+02" nEvuw="3.1120000000000000e+03" sepI="2.4952299892902374e-01" sepG="4.7599534988403320e+00" res="-9.9000000000000000e+01" rms="0.0000000000000000e+00" nType="0" CC="0.0000000000000000e+00">
          <Node pos="l" depth="2" Seq="1" IVar="-1" Cut="4.6356150507926941e-01" cType="1" nS="2.3871330566406250e+03" nB="2.0772946777343750e+03" nEv="4.4644277343750000e+03" nSuw="2.3610000000000000e+03" nBuw="1.2400000000000000e+02" nEvuw="2.4850000000000000e+03" sepI="2.4879585206508636e-01" sepG="-1.0000000000000000e+00" res="-9.9000000000000000e+01" rms="0.0000000000000000e+00" nType="1" CC="0.0000000000000000e+00"/>
          <Node pos="r" depth="2" Seq="3" IVar="0" Cut="-9.6962302923202515e-01" cType="0" nS="3.7034158325195312e+02" nB="4.4936679077148438e+02" nEv="8.1970837402343750e+02" nSuw="6.1700000000000000e+02" nBuw="1.0000000000000000e+01" nEvuw="6.2700000000000000e+02" sepI="2.4767644703388214e-01" sepG="9.5239534378051758e+00" res="-9.9000000000000000e+01" rms="0.0000000000000000e+00" nType="0" CC="0.0000000000000000e+00">
