<?xml version="1.0"?>
<MethodSetup Method="BDT::BDT">
  <GeneralInfo>
    <Info name="TMVA Release" value="4.0.7 [262151]"/>
    <Info name="ROOT Release" value="5.27/06 [334598]"/>
    <Info name="Creator" value="lbianchini"/>
    <Info name="Date" value="Tue Nov  8 09:17:39 2011"/>
    <Info name="Host" value="Linux lxbuild142.cern.ch 2.6.18-238.1.1.el5 #1 SMP Wed Jan 19 11:06:36 CET 2011 x86_64 x86_64 x86_64 GNU/Linux"/>
    <Info name="Dir" value="/grid_mnt/vol__vol1__u/llr/cms/lbianchini/CMSSW_4_2_5/src/Bianchi/TauTauStudies/test/Macro/tmva"/>
    <Info name="Training events" value="8102"/>
    <Info name="TrainingTime" value="2.69574"/>
    <Info name="AnalysisType" value="Classification"/>
  </GeneralInfo>
  <Options>
    <Option name="V" modified="Yes">False</Option>
    <Option name="VerbosityLevel" modified="No">Default</Option>
    <Option name="VarTransform" modified="No">None</Option>
    <Option name="H" modified="Yes">False</Option>
    <Option name="CreateMVAPdfs" modified="No">False</Option>
    <Option name="IgnoreNegWeightsInTraining" modified="No">False</Option>
    <Option name="NTrees" modified="Yes">400</Option>
    <Option name="BoostType" modified="Yes">AdaBoost</Option>
    <Option name="AdaBoostR2Loss" modified="No">quadratic</Option>
    <Option name="UseBaggedGrad" modified="No">False</Option>
    <Option name="GradBaggingFraction" modified="No">6.000000e-01</Option>
    <Option name="Shrinkage" modified="No">1.000000e+00</Option>
    <Option name="AdaBoostBeta" modified="No">1.000000e+00</Option>
    <Option name="UseRandomisedTrees" modified="No">False</Option>
    <Option name="UseNvars" modified="No">2</Option>
    <Option name="UseNTrainEvents" modified="No">8102</Option>
    <Option name="UseWeightedTrees" modified="No">True</Option>
    <Option name="UseYesNoLeaf" modified="No">True</Option>
    <Option name="NodePurityLimit" modified="No">5.000000e-01</Option>
    <Option name="SeparationType" modified="Yes">giniindex</Option>
    <Option name="nEventsMin" modified="No">40</Option>
    <Option name="nCuts" modified="Yes">20</Option>
    <Option name="PruneStrength" modified="No">-1.000000e+00</Option>
    <Option name="PruneMethod" modified="Yes">nopruning</Option>
    <Option name="PruneBeforeBoost" modified="No">False</Option>
    <Option name="PruningValFraction" modified="No">5.000000e-01</Option>
    <Option name="NNodesMax" modified="No">100000</Option>
    <Option name="MaxDepth" modified="No">3</Option>
  </Options>
  <Variables NVar="5">
    <Variable VarIndex="0" Expression="signalPFGammaCands" Label="signalPFGammaCands" Title="signalPFGammaCands" Unit="" Internal="signalPFGammaCands" Type="I" Min="1" Max="7"/>
    <Variable VarIndex="1" Expression="visMass" Label="visMass" Title="visMass" Unit="GeV/c" Internal="visMass" Type="F" Min="0.300903" Max="1.47093"/>
    <Variable VarIndex="2" Expression="etaMom1" Label="etaMom1" Title="etaMom1" Unit="     " Internal="etaMom1" Type="F" Min="-0.126312" Max="0.119997"/>
    <Variable VarIndex="3" Expression="phiMom1" Label="phiMom1" Title="phiMom1" Unit="     " Internal="phiMom1" Type="F" Min="-0.12238" Max="0.12418"/>
    <Variable VarIndex="4" Expression="gammaFrac" Label="gammaFrac" Title="gammaFrac" Unit="     " Internal="gammaFrac" Type="F" Min="0.0127019" Max="0.986173"/>
  </Variables>
  <Spectators NSpec="0"/>
  <Transformations NTransformations="0"/>
  <MVAPdfs/>
  <Weights NTrees="400" TreeType="0">
    <BinaryTree type="DecisionTree" boostWeight="2.7139256930307489e+00" itree="0">
      <Node pos="s" depth="0" Seq="0" IVar="1" Cut="4.6804869174957275e-01" cType="0" nS="7.5959643554687500e+03" nB="5.1754138183593750e+02" nEv="8.1135058593750000e+03" nSuw="7.5650000000000000e+03" nBuw="5.3700000000000000e+02" nEvuw="8.1020000000000000e+03" sepI="5.9718776494264603e-02" sepG="3.9000614166259766e+01" res="-9.9000000000000000e+01" rms="0.0000000000000000e+00" nType="0" CC="0.0000000000000000e+00">
        <Node pos="l" depth="1" Seq="0" IVar="4" Cut="9.3981695175170898e-01" cType="1" nS="6.8644248046875000e+03" nB="2.7216052246093750e+02" nEv="7.1365849609375000e+03" nSuw="6.8330000000000000e+03" nBuw="2.9200000000000000e+02" nEvuw="7.1250000000000000e+03" sepI="3.6681607365608215e-02" sepG="1.1781944274902344e+01" res="-9.9000000000000000e+01" rms="0.0000000000000000e+00" nType="0" CC="0.0000000000000000e+00">
          <Node pos="l" depth="2" Seq="0" IVar="-1" Cut="5.6370854377746582e-01" cType="0" nS="6.6224272460937500e+03" nB="2.0079742431640625e+02" nEv="6.8232250976562500e+03" nSuw="6.6080000000000000e+03" nBuw="2.1900000000000000e+02" nEvuw="6.8270000000000000e+03" sepI="2.8562484309077263e-02" sepG="-1.0000000000000000e+00" res="-9.9000000000000000e+01" rms="0.0000000000000000e+00" nType="1" CC="0.0000000000000000e+00"/>
          <Node pos="r" depth="2" Seq="2" IVar="4" Cut="9.6633893251419067e-01" cType="1" nS="2.4199714660644531e+02" nB="7.1363098144531250e+01" nEv="3.1336022949218750e+02" nSuw="2.2500000000000000e+02" nBuw="7.3000000000000000e+01" nEvuw="2.9800000000000000e+02" sepI="1.7587177455425262e-01" sepG="1.1794261932373047e+01" res="-9.9000000000000000e+01" rms="0.0000000000000000e+00" nType="0" CC="0.0000000000000000e+00">
            <Node pos="l" depth="3" Seq="2" IVar="-1" Cut="0.0000000000000000e+00" cType="1" nS="2.1487127685546875e+02" nB="3.1003904342651367e+01" nEv="2.4587518310546875e+02" nSuw="2.0100000000000000e+02" nBuw="3.2000000000000000e+01" nEvuw="2.3300000000000000e+02" sepI="1.1019588261842728e-01" sepG="-1.0000000000000000e+00" res="-9.9000000000000000e+01" rms="0.0000000000000000e+00" nType="1" CC="0.0000000000000000e+00"/>
            <Node pos="r" depth="3" Seq="6" IVar="-1" Cut="0.0000000000000000e+00" cType="1" nS="2.7125871658325195e+01" nB="4.0359191894531250e+01" nEv="6.7485061645507812e+01" nSuw="2.4000000000000000e+01" nBuw="4.1000000000000000e+01" nEvuw="6.5000000000000000e+01" sepI="2.4038691818714142e-01" sepG="-1.0000000000000000e+00" res="-9.9000000000000000e+01" rms="0.0000000000000000e+00" nType="-1" CC="0.0000000000000000e+00"/>
          </Node>
        </Node>
        <Node pos="r" depth="1" Seq="1" IVar="-1" Cut="3.6248296499252319e-01" cType="1" nS="7.3153961181640625e+02" nB="2.4538085937500000e+02" nEv="9.7692047119140625e+02" nSuw="7.3200000000000000e+02" nBuw="2.4500000000000000e+02" nEvuw="9.7700000000000000e+02" sepI="1.8808756768703461e-01" sepG="-1.0000000000000000e+00" res="-9.9000000000000000e+01" rms="0.0000000000000000e+00" nType="1" CC="0.0000000000000000e+00"/>
      </Node>
    </BinaryTree>
    <BinaryTree type="DecisionTree" boostWeight="1.2336917678076722e+00" itree="1">
      <Node pos="s" depth="0" Seq="0" IVar="1" Cut="5.7947939634323120e-01" cType="0" nS="4.2534414062500000e+03" nB="3.8600642089843750e+03" nEv="8.1135053710937500e+03" nSuw="7.5650000000000000e+03" nBuw="5.3700000000000000e+02" nEvuw="8.1020000000000000e+03" sepI="2.4941231310367584e-01" sepG="4.8673117065429688e+02" res="-9.9000000000000000e+01" rms="0.0000000000000000e+00" nType="0" CC="0.0000000000000000e+00">
        <Node pos="l" depth="1" Seq="0" IVar="-1" Cut="2.6164814829826355e-02" cType="0" nS="3.3402292480468750e+03" nB="1.1466546630859375e+03" nEv="4.4868842773437500e+03" nSuw="5.8480000000000000e+03" nBuw="1.9500000000000000e+02" nEvuw="6.0430000000000000e+03" sepI="1.9024762511253357e-01" sepG="-1.0000000000000000e+00" res="-9.9000000000000000e+01" rms="0.0000000000000000e+00" nType="1" CC="0.0000000000000000e+00"/>
        <Node pos="r" depth="1" Seq="1" IVar="2" Cut="1.9541168585419655e-02" cType="0" nS="9.1321209716796875e+02" nB="2.7134094238281250e+03" nEv="3.6266215820312500e+03" nSuw="1.7170000000000000e+03" nBuw="3.4200000000000000e+02" nEvuw="2.0590000000000000e+03" sepI="1.8840070068836212e-01" sepG="6.5654281616210938e+01" res="-9.9000000000000000e+01" rms="0.0000000000000000e+00" nType="0" CC="0.0000000000000000e+00">
          <Node pos="l" depth="2" Seq="1" IVar="-1" Cut="5.4866355657577515e-01" cType="1" nS="1.7008695983886719e+02" nB="4.6335018157958984e+01" nEv="2.1642198181152344e+02" nSuw="3.0100000000000000e+02" nBuw="7.0000000000000000e+00" nEvuw="3.0800000000000000e+02" sepI="1.6825874149799347e-01" sepG="-1.0000000000000000e+00" res="-9.9000000000000000e+01" rms="0.0000000000000000e+00" nType="1" CC="0.0000000000000000e+00"/>
          <Node pos="r" depth="2" Seq="3" IVar="2" Cut="-1.6262311488389969e-02" cType="1" nS="7.4312512207031250e+02" nB="2.6670744628906250e+03" nEv="3.4101994628906250e+03" nSuw="1.4160000000000000e+03" nBuw="3.3500000000000000e+02" nEvuw="1.7510000000000000e+03" sepI="1.7042665183544159e-01" sepG="7.3206062316894531e+01" res="-9.9000000000000000e+01" rms="0.0000000000000000e+00" nType="0" CC="0.0000000000000000e+00">
            <Node pos="l" depth="3" Seq="3" IVar="-1" Cut="0.0000000000000000e+00" cType="1" nS="2.2693368530273438e+02" nB="1.2070587921142578e+02" nEv="3.4763955688476562e+02" nSuw="4.3000000000000000e+02" nBuw="1.9000000000000000e+01" nEvuw="4.4900000000000000e+02" sepI="2.2665692865848541e-01" sepG="-1.0000000000000000e+00" res="-9.9000000000000000e+01" rms="0.0000000000000000e+00" nType="1" CC="0.0000000000000000e+00"/>
            <Node pos="r" depth="3" Seq="7" IVar="-1" Cut="0.0000000000000000e+00" cType="1" nS="5.1619146728515625e+02" nB="2.5463686523437500e+03" nEv="3.0625600585937500e+03" nSuw="9.8600000000000000e+02" nBuw="3.1600000000000000e+02" nEvuw="1.3020000000000000e+03" sepI="1.4014023542404175e-01" sepG="-1.0000000000000000e+00" res="-9.9000000000000000e+01" rms="0.0000000000000000e+00" nType="-1" CC="0.0000000000000000e+00"/>
          </Node>
        </Node>
      </Node>
    </BinaryTree>
    <BinaryTree type="DecisionTree" boostWeight="5.6032510945744607e-01" itree="2">
      <Node pos="s" depth="0" Seq="0" IVar="4" Cut="2.9083639383316040e-01" cType="1" nS="3.5571638183593750e+03" nB="4.5563417968750000e+03" nEv="8.1135053710937500e+03" nSuw="7.5650000000000000e+03" nBuw="5.3700000000000000e+02" nEvuw="8.1020000000000000e+03" sepI="2.4620851874351501e-01" sepG="8.6653236389160156e+01" res="-9.9000000000000000e+01" rms="0.0000000000000000e+00" nType="0" CC="0.0000000000000000e+00">
        <Node pos="l" depth="1" Seq="0" IVar="2" Cut="2.8511792421340942e-02" cType="0" nS="1.4296912841796875e+03" nB="9.5954846191406250e+02" nEv="2.3892397460937500e+03" nSuw="2.8090000000000000e+03" nBuw="1.1400000000000000e+02" nEvuw="2.9230000000000000e+03" sepI="2.4031989276409149e-01" sepG="3.5384189605712891e+01" res="-9.9000000000000000e+01" rms="0.0000000000000000e+00" nType="0" CC="0.0000000000000000e+00">
          <Node pos="l" depth="2" Seq="0" IVar="-1" Cut="2.6442673802375793e-01" cType="1" nS="2.3337451171875000e+02" nB="9.7320966720581055e+00" nEv="2.4310659790039062e+02" nSuw="6.8900000000000000e+02" nBuw="2.0000000000000000e+00" nEvuw="6.9100000000000000e+02" sepI="3.8429640233516693e-02" sepG="-1.0000000000000000e+00" res="-9.9000000000000000e+01" rms="0.0000000000000000e+00" nType="1" CC="0.0000000000000000e+00"/>
          <Node pos="r" depth="2" Seq="2" IVar="2" Cut="-1.1647322215139866e-02" cType="1" nS="1.1963167724609375e+03" nB="9.4981640625000000e+02" nEv="2.1461330566406250e+03" nSuw="2.1200000000000000e+03" nBuw="1.1200000000000000e+02" nEvuw="2.2320000000000000e+03" sepI="2.4670191109180450e-01" sepG="4.6660755157470703e+01" res="-9.9000000000000000e+01" rms="0.0000000000000000e+00" nType="0" CC="0.0000000000000000e+00">
            <Node pos="l" depth="3" Seq="2" IVar="-1" Cut="0.0000000000000000e+00" cType="1" nS="4.2853018188476562e+02" nB="9.6236351013183594e+01" nEv="5.2476654052734375e+02" nSuw="1.0660000000000000e+03" nBuw="1.2000000000000000e+01" nEvuw="1.0780000000000000e+03" sepI="1.4975740015506744e-01" sepG="-1.0000000000000000e+00" res="-9.9000000000000000e+01" rms="0.0000000000000000e+00" nType="1" CC="0.0000000000000000e+00"/>
            <Node pos="r" depth="3" Seq="6" IVar="-1" Cut="0.0000000000000000e+00" cType="1" nS="7.6778656005859375e+02" nB="8.5358001708984375e+02" nEv="1.6213665771484375e+03" nSuw="1.0540000000000000e+03" nBuw="1.0000000000000000e+02" nEvuw="1.1540000000000000e+03" sepI="2.4930001795291901e-01" sepG="-1.0000000000000000e+00" res="-9.9000000000000000e+01" rms="0.0000000000000000e+00" nType="-1" CC="0.0000000000000000e+00"/>
          </Node>
        </Node>
        <Node pos="r" depth="1" Seq="1" IVar="1" Cut="4.4340586662292480e-01" cType="0" nS="2.1274726562500000e+03" nB="3.5967932128906250e+03" nEv="5.7242656250000000e+03" nSuw="4.7560000000000000e+03" nBuw="4.2300000000000000e+02" nEvuw="5.1790000000000000e+03" sepI="2.3352849483489990e-01" sepG="5.0258327484130859e+01" res="-9.9000000000000000e+01" rms="0.0000000000000000e+00" nType="0" CC="0.0000000000000000e+00">
          <Node pos="l" depth="2" Seq="1" IVar="-1" Cut="9.1995358467102051e-01" cType="1" nS="1.8700040283203125e+03" nB="2.5573864746093750e+03" nEv="4.4273906250000000e+03" nSuw="4.4690000000000000e+03" nBuw="2.6000000000000000e+02" nEvuw="4.7290000000000000e+03" sepI="2.4397383630275726e-01" sepG="-1.0000000000000000e+00" res="-9.9000000000000000e+01" rms="0.0000000000000000e+00" nType="-1" CC="0.0000000000000000e+00"/>
          <Node pos="r" depth="2" Seq="3" IVar="2" Cut="1.1860321275889874e-02" cType="0" nS="2.5746856689453125e+02" nB="1.0394066162109375e+03" nEv="1.2968752441406250e+03" nSuw="2.8700000000000000e+02" nBuw="1.6300000000000000e+02" nEvuw="4.5000000000000000e+02" sepI="1.5911580622196198e-01" sepG="3.3777832031250000e+01" res="-9.9000000000000000e+01" rms="0.0000000000000000e+00" nType="0" CC="0.0000000000000000e+00">
            <Node pos="l" depth="3" Seq="3" IVar="-1" Cut="0.0000000000000000e+00" cType="1" nS="7.0335243225097656e+01" nB="1.8141580581665039e+01" nEv="8.8476821899414062e+01" nSuw="8.2000000000000000e+01" nBuw="4.0000000000000000e+00" nEvuw="8.6000000000000000e+01" sepI="1.6300055384635925e-01" sepG="-1.0000000000000000e+00" res="-9.9000000000000000e+01" rms="0.0000000000000000e+00" nType="1" CC="0.0000000000000000e+00"/>
            <Node pos="r" depth="3" Seq="7" IVar="-1" Cut="0.0000000000000000e+00" cType="1" nS="1.8713333129882812e+02" nB="1.0212650146484375e+03" nEv="1.2083984375000000e+03" nSuw="2.0500000000000000e+02" nBuw="1.5900000000000000e+02" nEvuw="3.6400000000000000e+02" sepI="1.3087882101535797e-01" sepG="-1.0000000000000000e+00" res="-9.9000000000000000e+01" rms="0.0000000000000000e+00" nType="-1" CC="0.0000000000000000e+00"/>
          </Node>
        </Node>
      </Node>
    </BinaryTree>
    <BinaryTree type="DecisionTree" boostWeight="7.7014824839010287e-01" itree="3">
      <Node pos="s" depth="0" Seq="0" IVar="2" Cut="1.4435819350183010e-02" cType="0" nS="4.4612075195312500e+03" nB="3.6522980957031250e+03" nEv="8.1135053710937500e+03" nSuw="7.5650000000000000e+03" nBuw="5.3700000000000000e+02" nEvuw="8.1020000000000000e+03" sepI="2.4751502275466919e-01" sepG="5.8859062194824219e+01" res="-9.9000000000000000e+01" rms="0.0000000000000000e+00" nType="0" CC="0.0000000000000000e+00">
        <Node pos="l" depth="1" Seq="0" IVar="4" Cut="9.3747556209564209e-01" cType="1" nS="1.4614710693359375e+03" nB="6.4542163085937500e+02" nEv="2.1068928222656250e+03" nSuw="2.9450000000000000e+03" nBuw="7.3000000000000000e+01" nEvuw="3.0180000000000000e+03" sepI="2.1249508857727051e-01" sepG="2.0265401840209961e+01" res="-9.9000000000000000e+01" rms="0.0000000000000000e+00" nType="0" CC="0.0000000000000000e+00">
          <Node pos="l" depth="2" Seq="0" IVar="1" Cut="1.1309064626693726e+00" cType="1" nS="1.3545451660156250e+03" nB="5.0177239990234375e+02" nEv="1.8563176269531250e+03" nSuw="2.8510000000000000e+03" nBuw="4.6000000000000000e+01" nEvuw="2.8970000000000000e+03" sepI="1.9724032282829285e-01" sepG="2.2676509857177734e+01" res="-9.9000000000000000e+01" rms="0.0000000000000000e+00" nType="0" CC="0.0000000000000000e+00">
            <Node pos="l" depth="3" Seq="0" IVar="-1" Cut="0.0000000000000000e+00" cType="1" nS="1.3084016113281250e+03" nB="4.1124942016601562e+02" nEv="1.7196511230468750e+03" nSuw="2.7420000000000000e+03" nBuw="4.0000000000000000e+01" nEvuw="2.7820000000000000e+03" sepI="1.8195572495460510e-01" sepG="-1.0000000000000000e+00" res="-9.9000000000000000e+01" rms="0.0000000000000000e+00" nType="1" CC="0.0000000000000000e+00"/>
            <Node pos="r" depth="3" Seq="4" IVar="-1" Cut="0.0000000000000000e+00" cType="1" nS="4.6143566131591797e+01" nB="9.0522987365722656e+01" nEv="1.3666654968261719e+02" nSuw="1.0900000000000000e+02" nBuw="6.0000000000000000e+00" nEvuw="1.1500000000000000e+02" sepI="2.2363796830177307e-01" sepG="-1.0000000000000000e+00" res="-9.9000000000000000e+01" rms="0.0000000000000000e+00" nType="-1" CC="0.0000000000000000e+00"/>
          </Node>
          <Node pos="r" depth="2" Seq="2" IVar="2" Cut="4.0334600955247879e-02" cType="0" nS="1.0692589569091797e+02" nB="1.4364923095703125e+02" nEv="2.5057513427734375e+02" nSuw="9.4000000000000000e+01" nBuw="2.7000000000000000e+01" nEvuw="1.2100000000000000e+02" sepI="2.4463032186031342e-01" sepG="7.1799612045288086e+00" res="-9.9000000000000000e+01" rms="0.0000000000000000e+00" nType="0" CC="0.0000000000000000e+00">
            <Node pos="l" depth="3" Seq="2" IVar="-1" Cut="0.0000000000000000e+00" cType="1" nS="7.9815391540527344e+01" nB="5.7767776489257812e+01" nEv="1.3758317565917969e+02" nSuw="4.7000000000000000e+01" nBuw="1.3000000000000000e+01" nEvuw="6.0000000000000000e+01" sepI="2.4358004331588745e-01" sepG="-1.0000000000000000e+00" res="-9.9000000000000000e+01" rms="0.0000000000000000e+00" nType="1" CC="0.0000000000000000e+00"/>
            <Node pos="r" depth="3" Seq="6" IVar="-1" Cut="0.0000000000000000e+00" cType="1" nS="2.7110507965087891e+01" nB="8.5881454467773438e+01" nEv="1.1299195861816406e+02" nSuw="4.7000000000000000e+01" nBuw="1.4000000000000000e+01" nEvuw="6.1000000000000000e+01" sepI="1.8236519396305084e-01" sepG="-1.0000000000000000e+00" res="-9.9000000000000000e+01" rms="0.0000000000000000e+00" nType="-1" CC="0.0000000000000000e+00"/>
          </Node>
        </Node>
        <Node pos="r" depth="1" Seq="1" IVar="2" Cut="-2.5796256959438324e-02" cType="1" nS="2.9997363281250000e+03" nB="3.0068764648437500e+03" nEv="6.0066127929687500e+03" nSuw="4.6200000000000000e+03" nBuw="4.6400000000000000e+02" nEvuw="5.0840000000000000e+03" sepI="2.4999964237213135e-01" sepG="5.3507137298583984e+01" res="-9.9000000000000000e+01" rms="0.0000000000000000e+00" nType="0" CC="0.0000000000000000e+00">
          <Node pos="l" depth="2" Seq="1" IVar="4" Cut="9.3708699941635132e-01" cType="1" nS="9.6896319580078125e+02" nB="4.8503085327148438e+02" nEv="1.4539940185546875e+03" nSuw="2.3410000000000000e+03" nBuw="4.5000000000000000e+01" nEvuw="2.3860000000000000e+03" sepI="2.2230610251426697e-01" sepG="4.9485343933105469e+01" res="-9.9000000000000000e+01" rms="0.0000000000000000e+00" nType="0" CC="0.0000000000000000e+00">
            <Node pos="l" depth="3" Seq="1" IVar="-1" Cut="0.0000000000000000e+00" cType="1" nS="9.0459588623046875e+02" nB="3.0142169189453125e+02" nEv="1.2060175781250000e+03" nSuw="2.2620000000000000e+03" nBuw="2.3000000000000000e+01" nEvuw="2.2850000000000000e+03" sepI="1.8746571242809296e-01" sepG="-1.0000000000000000e+00" res="-9.9000000000000000e+01" rms="0.0000000000000000e+00" nType="1" CC="0.0000000000000000e+00"/>
            <Node pos="r" depth="3" Seq="5" IVar="-1" Cut="0.0000000000000000e+00" cType="1" nS="6.4367301940917969e+01" nB="1.8360916137695312e+02" nEv="2.4797645568847656e+02" nSuw="7.9000000000000000e+01" nBuw="2.2000000000000000e+01" nEvuw="1.0100000000000000e+02" sepI="1.9219350814819336e-01" sepG="-1.0000000000000000e+00" res="-9.9000000000000000e+01" rms="0.0000000000000000e+00" nType="-1" CC="0.0000000000000000e+00"/>
          </Node>
          <Node pos="r" depth="2" Seq="3" IVar="4" Cut="3.3719214797019958e-01" cType="1" nS="2.0307730712890625e+03" nB="2.5218457031250000e+03" nEv="4.5526186523437500e+03" nSuw="2.2790000000000000e+03" nBuw="4.1900000000000000e+02" nEvuw="2.6980000000000000e+03" sepI="2.4709123373031616e-01" sepG="7.4145042419433594e+01" res="-9.9000000000000000e+01" rms="0.0000000000000000e+00" nType="0" CC="0.0000000000000000e+00">
            <Node pos="l" depth="3" Seq="3" IVar="-1" Cut="0.0000000000000000e+00" cType="1" nS="1.1091751708984375e+03" nB="7.3783660888671875e+02" nEv="1.8470118408203125e+03" nSuw="1.2250000000000000e+03" nBuw="1.2200000000000000e+02" nEvuw="1.3470000000000000e+03" sepI="2.3989489674568176e-01" sepG="-1.0000000000000000e+00" res="-9.9000000000000000e+01" rms="0.0000000000000000e+00" nType="1" CC="0.0000000000000000e+00"/>
            <Node pos="r" depth="3" Seq="7" IVar="-1" Cut="0.0000000000000000e+00" cType="1" nS="9.2159790039062500e+02" nB="1.7840090332031250e+03" nEv="2.7056069335937500e+03" nSuw="1.0540000000000000e+03" nBuw="2.9700000000000000e+02" nEvuw="1.3510000000000000e+03" sepI="2.2459967434406281e-01" sepG="-1.0000000000000000e+00" res="-9.9000000000000000e+01" rms="0.0000000000000000e+00" nType="-1" CC="0.0000000000000000e+00"/>
          </Node>
        </Node>
      </Node>
    </BinaryTree>
    <BinaryTree type="DecisionTree" boostWeight="3.5860571807210756e-01" itree="4">
      <Node pos="s" depth="0" Seq="0" IVar="1" Cut="6.9091016054153442e-01" cType="0" nS="4.1620717773437500e+03" nB="3.9514333496093750e+03" nEv="8.1135053710937500e+03" nSuw="7.5650000000000000e+03" nBuw="5.3700000000000000e+02" nEvuw="8.1020000000000000e+03" sepI="2.4983149766921997e-01" sepG="1.4795350074768066e+01" res="-9.9000000000000000e+01" rms="0.0000000000000000e+00" nType="0" CC="0.0000000000000000e+00">
        <Node pos="l" depth="1" Seq="0" IVar="3" Cut="-8.7157361209392548e-02" cType="0" nS="1.9267364501953125e+03" nB="1.4956765136718750e+03" nEv="3.4224128417968750e+03" nSuw="4.5570000000000000e+03" nBuw="1.4300000000000000e+02" nEvuw="4.7000000000000000e+03" sepI="2.4603402614593506e-01" sepG="1.9382478713989258e+01" res="-9.9000000000000000e+01" rms="0.0000000000000000e+00" nType="0" CC="0.0000000000000000e+00">
          <Node pos="l" depth="2" Seq="0" IVar="-1" Cut="-5.6909885257482529e-02" cType="1" nS="1.8587043457031250e+03" nB="1.3267214355468750e+03" nEv="3.1854257812500000e+03" nSuw="4.4330000000000000e+03" nBuw="1.3600000000000000e+02" nEvuw="4.5690000000000000e+03" sepI="2.4302731454372406e-01" sepG="-1.0000000000000000e+00" res="-9.9000000000000000e+01" rms="0.0000000000000000e+00" nType="1" CC="0.0000000000000000e+00"/>
          <Node pos="r" depth="2" Seq="2" IVar="3" Cut="-9.5646753907203674e-02" cType="1" nS="6.8032104492187500e+01" nB="1.6895503234863281e+02" nEv="2.3698715209960938e+02" nSuw="1.2400000000000000e+02" nBuw="7.0000000000000000e+00" nEvuw="1.3100000000000000e+02" sepI="2.0466119050979614e-01" sepG="1.5973693847656250e+01" res="-9.9000000000000000e+01" rms="0.0000000000000000e+00" nType="0" CC="0.0000000000000000e+00">
            <Node pos="l" depth="3" Seq="2" IVar="-1" Cut="0.0000000000000000e+00" cType="1" nS="2.7747949600219727e+01" nB="0.0000000000000000e+00" nEv="2.7747949600219727e+01" nSuw="6.1000000000000000e+01" nBuw="1.0000000000000000e+00" nEvuw="6.2000000000000000e+01" sepI="0.0000000000000000e+00" sepG="-1.0000000000000000e+00" res="-9.9000000000000000e+01" rms="0.0000000000000000e+00" nType="1" CC="0.0000000000000000e+00"/>
            <Node pos="r" depth="3" Seq="6" IVar="-1" Cut="0.0000000000000000e+00" cType="1" nS="4.0284156799316406e+01" nB="1.6895503234863281e+02" nEv="2.0923919677734375e+02" nSuw="6.3000000000000000e+01" nBuw="6.0000000000000000e+00" nEvuw="6.9000000000000000e+01" sepI="1.5546025335788727e-01" sepG="-1.0000000000000000e+00" res="-9.9000000000000000e+01" rms="0.0000000000000000e+00" nType="-1" CC="0.0000000000000000e+00"/>
          </Node>
        </Node>
        <Node pos="r" depth="1" Seq="1" IVar="1" Cut="6.1661469936370850e-01" cType="1" nS="2.2353354492187500e+03" nB="2.4557570800781250e+03" nEv="4.6910922851562500e+03" nSuw="3.0080000000000000e+03" nBuw="3.9400000000000000e+02" nEvuw="3.4020000000000000e+03" sepI="2.4944804608821869e-01" sepG="1.9018962860107422e+01" res="-9.9000000000000000e+01" rms="0.0000000000000000e+00" nType="0" CC="0.0000000000000000e+00">
          <Node pos="l" depth="2" Seq="1" IVar="4" Cut="1.8616332113742828e-01" cType="1" nS="1.8873970947265625e+03" nB="1.8181495361328125e+03" nEv="3.7055466308593750e+03" nSuw="2.0890000000000000e+03" nBuw="3.5800000000000000e+02" nEvuw="2.4470000000000000e+03" sepI="2.4991269409656525e-01" sepG="1.8526332855224609e+01" res="-9.9000000000000000e+01" rms="0.0000000000000000e+00" nType="0" CC="0.0000000000000000e+00">
            <Node pos="l" depth="3" Seq="1" IVar="-1" Cut="0.0000000000000000e+00" cType="1" nS="4.1139617919921875e+02" nB="2.0476991271972656e+02" nEv="6.1616607666015625e+02" nSuw="5.4100000000000000e+02" nBuw="2.9000000000000000e+01" nEvuw="5.7000000000000000e+02" sepI="2.2188645601272583e-01" sepG="-1.0000000000000000e+00" res="-9.9000000000000000e+01" rms="0.0000000000000000e+00" nType="1" CC="0.0000000000000000e+00"/>
            <Node pos="r" depth="3" Seq="5" IVar="-1" Cut="0.0000000000000000e+00" cType="1" nS="1.4760009765625000e+03" nB="1.6133796386718750e+03" nEv="3.0893806152343750e+03" nSuw="1.5480000000000000e+03" nBuw="3.2900000000000000e+02" nEvuw="1.8770000000000000e+03" sepI="2.4950565397739410e-01" sepG="-1.0000000000000000e+00" res="-9.9000000000000000e+01" rms="0.0000000000000000e+00" nType="-1" CC="0.0000000000000000e+00"/>
          </Node>
          <Node pos="r" depth="2" Seq="3" IVar="2" Cut="2.2339662536978722e-02" cType="0" nS="3.4793838500976562e+02" nB="6.3760742187500000e+02" nEv="9.8554577636718750e+02" nSuw="9.1900000000000000e+02" nBuw="3.6000000000000000e+01" nEvuw="9.5500000000000000e+02" sepI="2.2840313613414764e-01" sepG="2.1179283142089844e+01" res="-9.9000000000000000e+01" rms="0.0000000000000000e+00" nType="0" CC="0.0000000000000000e+00">
            <Node pos="l" depth="3" Seq="3" IVar="-1" Cut="0.0000000000000000e+00" cType="1" nS="1.2010064697265625e+02" nB="6.1447246551513672e+01" nEv="1.8154789733886719e+02" nSuw="3.6000000000000000e+02" nBuw="3.0000000000000000e+00" nEvuw="3.6300000000000000e+02" sepI="2.2390580177307129e-01" sepG="-1.0000000000000000e+00" res="-9.9000000000000000e+01" rms="0.0000000000000000e+00" nType="1" CC="0.0000000000000000e+00"/>
            <Node pos="r" depth="3" Seq="7" IVar="-1" Cut="0.0000000000000000e+00" cType="1" nS="2.2783772277832031e+02" nB="5.7616015625000000e+02" nEv="8.0399792480468750e+02" nSuw="5.5900000000000000e+02" nBuw="3.3000000000000000e+01" nEvuw="5.9200000000000000e+02" sepI="2.0307621359825134e-01" sepG="-1.0000000000000000e+00" res="-9.9000000000000000e+01" rms="0.0000000000000000e+00" nType="-1" CC="0.0000000000000000e+00"/>
          </Node>
        </Node>
      </Node>
    </BinaryTree>
    <BinaryTree type="DecisionTree" boostWeight="3.3204133116189305e-01" itree="5">
      <Node pos="s" depth="0" Seq="0" IVar="1" Cut="5.7947939634323120e-01" cType="1" nS="4.1738955078125000e+03" nB="3.9396098632812500e+03" nEv="8.1135053710937500e+03" nSuw="7.5650000000000000e+03" nBuw="5.3700000000000000e+02" nEvuw="8.1020000000000000e+03" sepI="2.4979154765605927e-01" sepG="2.2355699539184570e+01" res="-9.9000000000000000e+01" rms="0.0000000000000000e+00" nType="0" CC="0.0000000000000000e+00">
        <Node pos="l" depth="1" Seq="0" IVar="3" Cut="1.5414225868880749e-02" cType="0" nS="1.9687937011718750e+03" nB="1.4495034179687500e+03" nEv="3.4182971191406250e+03" nSuw="1.7170000000000000e+03" nBuw="3.4200000000000000e+02" nEvuw="2.0590000000000000e+03" sepI="2.4423046410083771e-01" sepG="2.2939975738525391e+01" res="-9.9000000000000000e+01" rms="0.0000000000000000e+00" nType="0" CC="0.0000000000000000e+00">
          <Node pos="l" depth="2" Seq="0" IVar="-1" Cut="4.4110941886901855e-01" cType="0" nS="6.0273822021484375e+02" nB="2.3466021728515625e+02" nEv="8.3739843750000000e+02" nSuw="4.6100000000000000e+02" nBuw="5.5000000000000000e+01" nEvuw="5.1600000000000000e+02" sepI="2.0169907808303833e-01" sepG="-1.0000000000000000e+00" res="-9.9000000000000000e+01" rms="0.0000000000000000e+00" nType="1" CC="0.0000000000000000e+00"/>
          <Node pos="r" depth="2" Seq="2" IVar="0" Cut="1.2380952835083008e+00" cType="0" nS="1.3660555419921875e+03" nB="1.2148432617187500e+03" nEv="2.5808986816406250e+03" nSuw="1.2560000000000000e+03" nBuw="2.8700000000000000e+02" nEvuw="1.5430000000000000e+03" sepI="2.4914182722568512e-01" sepG="2.0228416442871094e+01" res="-9.9000000000000000e+01" rms="0.0000000000000000e+00" nType="0" CC="0.0000000000000000e+00">
            <Node pos="l" depth="3" Seq="2" IVar="-1" Cut="0.0000000000000000e+00" cType="1" nS="5.0163970947265625e+02" nB="2.4998463439941406e+02" nEv="7.5162432861328125e+02" nSuw="4.3800000000000000e+02" nBuw="6.6000000000000000e+01" nEvuw="5.0400000000000000e+02" sepI="2.2197473049163818e-01" sepG="-1.0000000000000000e+00" res="-9.9000000000000000e+01" rms="0.0000000000000000e+00" nType="1" CC="0.0000000000000000e+00"/>
            <Node pos="r" depth="3" Seq="6" IVar="-1" Cut="0.0000000000000000e+00" cType="1" nS="8.6441577148437500e+02" nB="9.6485858154296875e+02" nEv="1.8292744140625000e+03" nSuw="8.1800000000000000e+02" nBuw="2.2100000000000000e+02" nEvuw="1.0390000000000000e+03" sepI="2.4924626946449280e-01" sepG="-1.0000000000000000e+00" res="-9.9000000000000000e+01" rms="0.0000000000000000e+00" nType="-1" CC="0.0000000000000000e+00"/>
          </Node>
        </Node>
        <Node pos="r" depth="1" Seq="1" IVar="4" Cut="3.3719214797019958e-01" cType="0" nS="2.2051018066406250e+03" nB="2.4901064453125000e+03" nEv="4.6952080078125000e+03" nSuw="5.8480000000000000e+03" nBuw="1.9500000000000000e+02" nEvuw="6.0430000000000000e+03" sepI="2.4907884001731873e-01" sepG="2.4987962722778320e+01" res="-9.9000000000000000e+01" rms="0.0000000000000000e+00" nType="0" CC="0.0000000000000000e+00">
          <Node pos="l" depth="2" Seq="1" IVar="3" Cut="-5.0882820039987564e-02" cType="1" nS="1.6839399414062500e+03" nB="1.5648640136718750e+03" nEv="3.2488039550781250e+03" nSuw="3.5790000000000000e+03" nBuw="1.5700000000000000e+02" nEvuw="3.7360000000000000e+03" sepI="2.4966415762901306e-01" sepG="1.7978023529052734e+01" res="-9.9000000000000000e+01" rms="0.0000000000000000e+00" nType="0" CC="0.0000000000000000e+00">
            <Node pos="l" depth="3" Seq="1" IVar="-1" Cut="0.0000000000000000e+00" cType="1" nS="2.6211911010742188e+02" nB="9.7324966430664062e+01" nEv="3.5944409179687500e+02" nSuw="4.5700000000000000e+02" nBuw="1.5000000000000000e+01" nEvuw="4.7200000000000000e+02" sepI="1.9745142757892609e-01" sepG="-1.0000000000000000e+00" res="-9.9000000000000000e+01" rms="0.0000000000000000e+00" nType="1" CC="0.0000000000000000e+00"/>
            <Node pos="r" depth="3" Seq="5" IVar="-1" Cut="0.0000000000000000e+00" cType="1" nS="1.4218208007812500e+03" nB="1.4675390625000000e+03" nEv="2.8893598632812500e+03" nSuw="3.1220000000000000e+03" nBuw="1.4200000000000000e+02" nEvuw="3.2640000000000000e+03" sepI="2.4993741512298584e-01" sepG="-1.0000000000000000e+00" res="-9.9000000000000000e+01" rms="0.0000000000000000e+00" nType="-1" CC="0.0000000000000000e+00"/>
          </Node>
          <Node pos="r" depth="2" Seq="3" IVar="-1" Cut="1.1904761791229248e+00" cType="1" nS="5.2116192626953125e+02" nB="9.2524243164062500e+02" nEv="1.4464042968750000e+03" nSuw="2.2690000000000000e+03" nBuw="3.8000000000000000e+01" nEvuw="2.3070000000000000e+03" sepI="2.3048824071884155e-01" sepG="-1.0000000000000000e+00" res="-9.9000000000000000e+01" rms="0.0000000000000000e+00" nType="-1" CC="0.0000000000000000e+00"/>
        </Node>
      </Node>
    </BinaryTree>
    <BinaryTree type="DecisionTree" boostWeight="4.9498719855380002e-01" itree="6">
      <Node pos="s" depth="0" Seq="0" IVar="2" Cut="-9.0221734717488289e-03" cType="1" nS="4.5336401367187500e+03" nB="3.5798649902343750e+03" nEv="8.1135053710937500e+03" nSuw="7.5650000000000000e+03" nBuw="5.3700000000000000e+02" nEvuw="8.1020000000000000e+03" sepI="2.4654525518417358e-01" sepG="1.3133959770202637e+01" res="-9.9000000000000000e+01" rms="0.0000000000000000e+00" nType="0" CC="0.0000000000000000e+00">
        <Node pos="l" depth="1" Seq="0" IVar="3" Cut="-8.7187319993972778e-02" cType="0" nS="1.6029104003906250e+03" nB="9.9318402099609375e+02" nEv="2.5960944824218750e+03" nSuw="3.2460000000000000e+03" nBuw="1.1800000000000000e+02" nEvuw="3.3640000000000000e+03" sepI="2.3620985448360443e-01" sepG="2.9151445388793945e+01" res="-9.9000000000000000e+01" rms="0.0000000000000000e+00" nType="0" CC="0.0000000000000000e+00">
          <Node pos="l" depth="2" Seq="0" IVar="4" Cut="8.0115759372711182e-01" cType="1" nS="1.5850653076171875e+03" nB="8.8714831542968750e+02" nEv="2.4722136230468750e+03" nSuw="3.1890000000000000e+03" nBuw="1.1300000000000000e+02" nEvuw="3.3020000000000000e+03" sepI="2.3007604479789734e-01" sepG="3.0978509902954102e+01" res="-9.9000000000000000e+01" rms="0.0000000000000000e+00" nType="0" CC="0.0000000000000000e+00">
            <Node pos="l" depth="3" Seq="0" IVar="-1" Cut="0.0000000000000000e+00" cType="1" nS="1.1675336914062500e+03" nB="4.4806628417968750e+02" nEv="1.6155999755859375e+03" nSuw="2.5970000000000000e+03" nBuw="6.2000000000000000e+01" nEvuw="2.6590000000000000e+03" sepI="2.0042136311531067e-01" sepG="-1.0000000000000000e+00" res="-9.9000000000000000e+01" rms="0.0000000000000000e+00" nType="1" CC="0.0000000000000000e+00"/>
            <Node pos="r" depth="3" Seq="4" IVar="-1" Cut="0.0000000000000000e+00" cType="1" nS="4.1753164672851562e+02" nB="4.3908206176757812e+02" nEv="8.5661370849609375e+02" nSuw="5.9200000000000000e+02" nBuw="5.1000000000000000e+01" nEvuw="6.4300000000000000e+02" sepI="2.4984177947044373e-01" sepG="-1.0000000000000000e+00" res="-9.9000000000000000e+01" rms="0.0000000000000000e+00" nType="-1" CC="0.0000000000000000e+00"/>
          </Node>
          <Node pos="r" depth="2" Seq="2" IVar="-1" Cut="0.0000000000000000e+00" cType="1" nS="1.7845094680786133e+01" nB="1.0603571319580078e+02" nEv="1.2388080596923828e+02" nSuw="5.7000000000000000e+01" nBuw="5.0000000000000000e+00" nEvuw="6.2000000000000000e+01" sepI="1.2329996377229691e-01" sepG="-1.0000000000000000e+00" res="-9.9000000000000000e+01" rms="0.0000000000000000e+00" nType="-1" CC="0.0000000000000000e+00"/>
        </Node>
        <Node pos="r" depth="1" Seq="1" IVar="2" Cut="2.7842726558446884e-02" cType="0" nS="2.9307299804687500e+03" nB="2.5866809082031250e+03" nEv="5.5174111328125000e+03" nSuw="4.3190000000000000e+03" nBuw="4.1900000000000000e+02" nEvuw="4.7380000000000000e+03" sepI="2.4902790784835815e-01" sepG="1.9590702056884766e+01" res="-9.9000000000000000e+01" rms="0.0000000000000000e+00" nType="0" CC="0.0000000000000000e+00">
          <Node pos="l" depth="2" Seq="1" IVar="-1" Cut="2.4521702527999878e-01" cType="1" nS="7.5532702636718750e+02" nB="4.1372845458984375e+02" nEv="1.1690555419921875e+03" nSuw="2.1890000000000000e+03" nBuw="3.4000000000000000e+01" nEvuw="2.2230000000000000e+03" sepI="2.2865471243858337e-01" sepG="-1.0000000000000000e+00" res="-9.9000000000000000e+01" rms="0.0000000000000000e+00" nType="1" CC="0.0000000000000000e+00"/>
          <Node pos="r" depth="2" Seq="3" IVar="1" Cut="5.7198923826217651e-01" cType="1" nS="2.1754028320312500e+03" nB="2.1729526367187500e+03" nEv="4.3483554687500000e+03" nSuw="2.1300000000000000e+03" nBuw="3.8500000000000000e+02" nEvuw="2.5150000000000000e+03" sepI="2.4999992549419403e-01" sepG="3.6832515716552734e+01" res="-9.9000000000000000e+01" rms="0.0000000000000000e+00" nType="0" CC="0.0000000000000000e+00">
            <Node pos="l" depth="3" Seq="3" IVar="-1" Cut="0.0000000000000000e+00" cType="1" nS="1.3873010253906250e+03" nB="9.8746868896484375e+02" nEv="2.3747697753906250e+03" nSuw="9.1500000000000000e+02" nBuw="2.8000000000000000e+02" nEvuw="1.1950000000000000e+03" sepI="2.4291315674781799e-01" sepG="-1.0000000000000000e+00" res="-9.9000000000000000e+01" rms="0.0000000000000000e+00" nType="1" CC="0.0000000000000000e+00"/>
            <Node pos="r" depth="3" Seq="7" IVar="-1" Cut="0.0000000000000000e+00" cType="1" nS="7.8810186767578125e+02" nB="1.1854838867187500e+03" nEv="1.9735858154296875e+03" nSuw="1.2150000000000000e+03" nBuw="1.0500000000000000e+02" nEvuw="1.3200000000000000e+03" sepI="2.3986451327800751e-01" sepG="-1.0000000000000000e+00" res="-9.9000000000000000e+01" rms="0.0000000000000000e+00" nType="-1" CC="0.0000000000000000e+00"/>
          </Node>
        </Node>
      </Node>
    </BinaryTree>
    <BinaryTree type="DecisionTree" boostWeight="4.0828059354620910e-01" itree="7">
      <Node pos="s" depth="0" Seq="0" IVar="1" Cut="4.6804869174957275e-01" cType="0" nS="4.2792666015625000e+03" nB="3.8342387695312500e+03" nEv="8.1135053710937500e+03" nSuw="7.5650000000000000e+03" nBuw="5.3700000000000000e+02" nEvuw="8.1020000000000000e+03" sepI="2.4924786388874054e-01" sepG="3.6890743255615234e+01" res="-9.9000000000000000e+01" rms="0.0000000000000000e+00" nType="0" CC="0.0000000000000000e+00">
        <Node pos="l" depth="1" Seq="0" IVar="4" Cut="4.2990365624427795e-01" cType="0" nS="3.4340234375000000e+03" nB="2.6258898925781250e+03" nEv="6.0599135742187500e+03" nSuw="6.8330000000000000e+03" nBuw="2.9200000000000000e+02" nEvuw="7.1250000000000000e+03" sepI="2.4555395543575287e-01" sepG="1.9742406845092773e+01" res="-9.9000000000000000e+01" rms="0.0000000000000000e+00" nType="0" CC="0.0000000000000000e+00">
          <Node pos="l" depth="2" Seq="0" IVar="2" Cut="1.4435819350183010e-02" cType="1" nS="2.1850573730468750e+03" nB="1.3702803955078125e+03" nEv="3.5553376464843750e+03" nSuw="3.4960000000000000e+03" nBuw="1.9200000000000000e+02" nEvuw="3.6880000000000000e+03" sepI="2.3687027394771576e-01" sepG="2.6907476425170898e+01" res="-9.9000000000000000e+01" rms="0.0000000000000000e+00" nType="0" CC="0.0000000000000000e+00">
            <Node pos="l" depth="3" Seq="0" IVar="-1" Cut="0.0000000000000000e+00" cType="1" nS="1.5952998046875000e+03" nB="7.6258428955078125e+02" nEv="2.3578840332031250e+03" nSuw="1.9950000000000000e+03" nBuw="1.4500000000000000e+02" nEvuw="2.1400000000000000e+03" sepI="2.1881911158561707e-01" sepG="-1.0000000000000000e+00" res="-9.9000000000000000e+01" rms="0.0000000000000000e+00" nType="1" CC="0.0000000000000000e+00"/>
            <Node pos="r" depth="3" Seq="4" IVar="-1" Cut="0.0000000000000000e+00" cType="1" nS="5.8975750732421875e+02" nB="6.0769610595703125e+02" nEv="1.1974536132812500e+03" nSuw="1.5010000000000000e+03" nBuw="4.7000000000000000e+01" nEvuw="1.5480000000000000e+03" sepI="2.4994389712810516e-01" sepG="-1.0000000000000000e+00" res="-9.9000000000000000e+01" rms="0.0000000000000000e+00" nType="-1" CC="0.0000000000000000e+00"/>
          </Node>
          <Node pos="r" depth="2" Seq="2" IVar="0" Cut="1.1904761791229248e+00" cType="1" nS="1.2489661865234375e+03" nB="1.2556096191406250e+03" nEv="2.5045756835937500e+03" nSuw="3.3370000000000000e+03" nBuw="1.0000000000000000e+02" nEvuw="3.4370000000000000e+03" sepI="2.4999824166297913e-01" sepG="1.3125864982604980e+01" res="-9.9000000000000000e+01" rms="0.0000000000000000e+00" nType="0" CC="0.0000000000000000e+00">
            <Node pos="l" depth="3" Seq="2" IVar="-1" Cut="0.0000000000000000e+00" cType="1" nS="8.3952819824218750e+02" nB="6.6595227050781250e+02" nEv="1.5054804687500000e+03" nSuw="2.2660000000000000e+03" nBuw="6.0000000000000000e+01" nEvuw="2.3260000000000000e+03" sepI="2.4667669832706451e-01" sepG="-1.0000000000000000e+00" res="-9.9000000000000000e+01" rms="0.0000000000000000e+00" nType="1" CC="0.0000000000000000e+00"/>
            <Node pos="r" depth="3" Seq="6" IVar="-1" Cut="0.0000000000000000e+00" cType="1" nS="4.0943792724609375e+02" nB="5.8965734863281250e+02" nEv="9.9909527587890625e+02" nSuw="1.0710000000000000e+03" nBuw="4.0000000000000000e+01" nEvuw="1.1110000000000000e+03" sepI="2.4186553061008453e-01" sepG="-1.0000000000000000e+00" res="-9.9000000000000000e+01" rms="0.0000000000000000e+00" nType="-1" CC="0.0000000000000000e+00"/>
          </Node>
        </Node>
        <Node pos="r" depth="1" Seq="1" IVar="2" Cut="1.8080301582813263e-02" cType="0" nS="8.4524328613281250e+02" nB="1.2083487548828125e+03" nEv="2.0535920410156250e+03" nSuw="7.3200000000000000e+02" nBuw="2.4500000000000000e+02" nEvuw="9.7700000000000000e+02" sepI="2.4218413233757019e-01" sepG="8.6762857437133789e+00" res="-9.9000000000000000e+01" rms="0.0000000000000000e+00" nType="0" CC="0.0000000000000000e+00">
          <Node pos="l" depth="2" Seq="1" IVar="-1" Cut="0.0000000000000000e+00" cType="1" nS="2.7243253707885742e+01" nB="1.1063350439071655e+00" nEv="2.8349588394165039e+01" nSuw="7.6000000000000000e+01" nBuw="2.0000000000000000e+00" nEvuw="7.8000000000000000e+01" sepI="3.7501800805330276e-02" sepG="-1.0000000000000000e+00" res="-9.9000000000000000e+01" rms="0.0000000000000000e+00" nType="1" CC="0.0000000000000000e+00"/>
          <Node pos="r" depth="2" Seq="3" IVar="1" Cut="4.4411832094192505e-01" cType="0" nS="8.1800000000000000e+02" nB="1.2072424316406250e+03" nEv="2.0252424316406250e+03" nSuw="6.5600000000000000e+02" nBuw="2.4300000000000000e+02" nEvuw="8.9900000000000000e+02" sepI="2.4076522886753082e-01" sepG="4.7721662521362305e+00" res="-9.9000000000000000e+01" rms="0.0000000000000000e+00" nType="0" CC="0.0000000000000000e+00">
            <Node pos="l" depth="3" Seq="3" IVar="-1" Cut="0.0000000000000000e+00" cType="1" nS="1.7917160034179688e+02" nB="1.7225459289550781e+02" nEv="3.5142617797851562e+02" nSuw="1.6700000000000000e+02" nBuw="3.1000000000000000e+01" nEvuw="1.9800000000000000e+02" sepI="2.4990314245223999e-01" sepG="-1.0000000000000000e+00" res="-9.9000000000000000e+01" rms="0.0000000000000000e+00" nType="1" CC="0.0000000000000000e+00"/>
            <Node pos="r" depth="3" Seq="7" IVar="-1" Cut="0.0000000000000000e+00" cType="1" nS="6.3882843017578125e+02" nB="1.0349877929687500e+03" nEv="1.6738161621093750e+03" nSuw="4.8900000000000000e+02" nBuw="2.1200000000000000e+02" nEvuw="7.0100000000000000e+02" sepI="2.3599560558795929e-01" sepG="-1.0000000000000000e+00" res="-9.9000000000000000e+01" rms="0.0000000000000000e+00" nType="-1" CC="0.0000000000000000e+00"/>
          </Node>
        </Node>
      </Node>
    </BinaryTree>
    <BinaryTree type="DecisionTree" boostWeight="2.6674509032687754e-01" itree="8">
      <Node pos="s" depth="0" Seq="0" IVar="4" Cut="3.3719214797019958e-01" cType="0" nS="4.2495541992187500e+03" nB="3.8639514160156250e+03" nEv="8.1135053710937500e+03" nSuw="7.5650000000000000e+03" nBuw="5.3700000000000000e+02" nEvuw="8.1020000000000000e+03" sepI="2.4943532049655914e-01" sepG="1.3768575668334961e+01" res="-9.9000000000000000e+01" rms="0.0000000000000000e+00" nType="0" CC="0.0000000000000000e+00">
        <Node pos="l" depth="1" Seq="0" IVar="3" Cut="3.0813254415988922e-02" cType="0" nS="2.9282331542968750e+03" nB="2.3584765625000000e+03" nEv="5.2867099609375000e+03" nSuw="4.3590000000000000e+03" nBuw="3.9500000000000000e+02" nEvuw="4.7540000000000000e+03" sepI="2.4709632992744446e-01" sepG="1.2312556266784668e+01" res="-9.9000000000000000e+01" rms="0.0000000000000000e+00" nType="0" CC="0.0000000000000000e+00">
          <Node pos="l" depth="2" Seq="0" IVar="-1" Cut="7.9875940084457397e-01" cType="1" nS="6.9252600097656250e+02" nB="3.7299670410156250e+02" nEv="1.0655227050781250e+03" nSuw="1.0530000000000000e+03" nBuw="5.3000000000000000e+01" nEvuw="1.1060000000000000e+03" sepI="2.2751794755458832e-01" sepG="-1.0000000000000000e+00" res="-9.9000000000000000e+01" rms="0.0000000000000000e+00" nType="1" CC="0.0000000000000000e+00"/>
          <Node pos="r" depth="2" Seq="2" IVar="3" Cut="-2.6997603476047516e-02" cType="1" nS="2.2357072753906250e+03" nB="1.9854798583984375e+03" nEv="4.2211870117187500e+03" nSuw="3.3060000000000000e+03" nBuw="3.4200000000000000e+02" nEvuw="3.6480000000000000e+03" sepI="2.4912150204181671e-01" sepG="1.8517049789428711e+01" res="-9.9000000000000000e+01" rms="0.0000000000000000e+00" nType="0" CC="0.0000000000000000e+00">
            <Node pos="l" depth="3" Seq="2" IVar="-1" Cut="0.0000000000000000e+00" cType="1" nS="6.9414959716796875e+02" nB="3.8611175537109375e+02" nEv="1.0802613525390625e+03" nSuw="1.1480000000000000e+03" nBuw="4.6000000000000000e+01" nEvuw="1.1940000000000000e+03" sepI="2.2967219352722168e-01" sepG="-1.0000000000000000e+00" res="-9.9000000000000000e+01" rms="0.0000000000000000e+00" nType="1" CC="0.0000000000000000e+00"/>
            <Node pos="r" depth="3" Seq="6" IVar="-1" Cut="0.0000000000000000e+00" cType="1" nS="1.5415576171875000e+03" nB="1.5993680419921875e+03" nEv="3.1409257812500000e+03" nSuw="2.1580000000000000e+03" nBuw="2.9600000000000000e+02" nEvuw="2.4540000000000000e+03" sepI="2.4991530179977417e-01" sepG="-1.0000000000000000e+00" res="-9.9000000000000000e+01" rms="0.0000000000000000e+00" nType="-1" CC="0.0000000000000000e+00"/>
          </Node>
        </Node>
        <Node pos="r" depth="1" Seq="1" IVar="3" Cut="8.0879196524620056e-02" cType="0" nS="1.3213206787109375e+03" nB="1.5054749755859375e+03" nEv="2.8267956542968750e+03" nSuw="3.2060000000000000e+03" nBuw="1.4200000000000000e+02" nEvuw="3.3480000000000000e+03" sepI="2.4893900752067566e-01" sepG="9.3952903747558594e+00" res="-9.9000000000000000e+01" rms="0.0000000000000000e+00" nType="0" CC="0.0000000000000000e+00">
          <Node pos="l" depth="2" Seq="1" IVar="0" Cut="1.1904761791229248e+00" cType="0" nS="3.2741039276123047e+01" nB="0.0000000000000000e+00" nEv="3.2741039276123047e+01" nSuw="1.1300000000000000e+02" nBuw="0.0000000000000000e+00" nEvuw="1.1300000000000000e+02" sepI="0.0000000000000000e+00" sepG="0.0000000000000000e+00" res="-9.9000000000000000e+01" rms="0.0000000000000000e+00" nType="1" CC="0.0000000000000000e+00"/>
          <Node pos="r" depth="2" Seq="3" IVar="4" Cut="1.6719767451286316e-01" cType="1" nS="1.2885795898437500e+03" nB="1.5054749755859375e+03" nEv="2.7940546875000000e+03" nSuw="3.0930000000000000e+03" nBuw="1.4200000000000000e+02" nEvuw="3.2350000000000000e+03" sepI="2.4849349260330200e-01" sepG="7.9158892631530762e+00" res="-9.9000000000000000e+01" rms="0.0000000000000000e+00" nType="0" CC="0.0000000000000000e+00">
            <Node pos="l" depth="3" Seq="3" IVar="-1" Cut="0.0000000000000000e+00" cType="1" nS="4.6765359497070312e+02" nB="3.9728665161132812e+02" nEv="8.6494024658203125e+02" nSuw="1.4600000000000000e+03" nBuw="2.8000000000000000e+01" nEvuw="1.4880000000000000e+03" sepI="2.4834536015987396e-01" sepG="-1.0000000000000000e+00" res="-9.9000000000000000e+01" rms="0.0000000000000000e+00" nType="1" CC="0.0000000000000000e+00"/>
            <Node pos="r" depth="3" Seq="7" IVar="-1" Cut="0.0000000000000000e+00" cType="1" nS="8.2092602539062500e+02" nB="1.1081882324218750e+03" nEv="1.9291143798828125e+03" nSuw="1.6330000000000000e+03" nBuw="1.1400000000000000e+02" nEvuw="1.7470000000000000e+03" sepI="2.4445652961730957e-01" sepG="-1.0000000000000000e+00" res="-9.9000000000000000e+01" rms="0.0000000000000000e+00" nType="-1" CC="0.0000000000000000e+00"/>
          </Node>
        </Node>
      </Node>
    </BinaryTree>
    <BinaryTree type="DecisionTree" boostWeight="3.1652526647739987e-01" itree="9">
      <Node pos="s" depth="0" Seq="0" IVar="4" Cut="3.3719214797019958e-01" cType="0" nS="4.3897568359375000e+03" nB="3.7237485351562500e+03" nEv="8.1135053710937500e+03" nSuw="7.5650000000000000e+03" nBuw="5.3700000000000000e+02" nEvuw="8.1020000000000000e+03" sepI="2.4831545352935791e-01" sepG="1.0653598785400391e+01" res="-9.9000000000000000e+01" rms="0.0000000000000000e+00" nType="0" CC="0.0000000000000000e+00">
        <Node pos="l" depth="1" Seq="0" IVar="3" Cut="8.9167594909667969e-02" cType="1" nS="3.0015336914062500e+03" nB="2.2872778320312500e+03" nEv="5.2888115234375000e+03" nSuw="4.3590000000000000e+03" nBuw="3.9500000000000000e+02" nEvuw="4.7540000000000000e+03" sepI="2.4544034898281097e-01" sepG="9.9588117599487305e+00" res="-9.9000000000000000e+01" rms="0.0000000000000000e+00" nType="0" CC="0.0000000000000000e+00">
          <Node pos="l" depth="2" Seq="0" IVar="-1" Cut="4.8948507755994797e-02" cType="0" nS="2.9731127929687500e+03" nB="2.2086811523437500e+03" nEv="5.1817939453125000e+03" nSuw="4.3080000000000000e+03" nBuw="3.9000000000000000e+02" nEvuw="4.6980000000000000e+03" sepI="2.4455927312374115e-01" sepG="-1.0000000000000000e+00" res="-9.9000000000000000e+01" rms="0.0000000000000000e+00" nType="1" CC="0.0000000000000000e+00"/>
          <Node pos="r" depth="2" Seq="2" IVar="-1" Cut="0.0000000000000000e+00" cType="1" nS="2.8421121597290039e+01" nB="7.8596626281738281e+01" nEv="1.0701774597167969e+02" nSuw="5.1000000000000000e+01" nBuw="5.0000000000000000e+00" nEvuw="5.6000000000000000e+01" sepI="1.9504441320896149e-01" sepG="-1.0000000000000000e+00" res="-9.9000000000000000e+01" rms="0.0000000000000000e+00" nType="-1" CC="0.0000000000000000e+00"/>
        </Node>
        <Node pos="r" depth="1" Seq="1" IVar="2" Cut="1.7700690776109695e-02" cType="0" nS="1.3882231445312500e+03" nB="1.4364707031250000e+03" nEv="2.8246938476562500e+03" nSuw="3.2060000000000000e+03" nBuw="1.4200000000000000e+02" nEvuw="3.3480000000000000e+03" sepI="2.4992705881595612e-01" sepG="7.5860414505004883e+00" res="-9.9000000000000000e+01" rms="0.0000000000000000e+00" nType="0" CC="0.0000000000000000e+00">
          <Node pos="l" depth="2" Seq="1" IVar="4" Cut="2.7535313367843628e-01" cType="1" nS="2.8152325439453125e+02" nB="1.8108081054687500e+02" nEv="4.6260406494140625e+02" nSuw="1.0300000000000000e+03" nBuw="9.0000000000000000e+00" nEvuw="1.0390000000000000e+03" sepI="2.3821429908275604e-01" sepG="2.4534027099609375e+01" res="-9.9000000000000000e+01" rms="0.0000000000000000e+00" nType="0" CC="0.0000000000000000e+00">
            <Node pos="l" depth="3" Seq="1" IVar="-1" Cut="0.0000000000000000e+00" cType="1" nS="2.0835325622558594e+02" nB="4.6959987640380859e+01" nEv="2.5531324768066406e+02" nSuw="8.4800000000000000e+02" nBuw="5.0000000000000000e+00" nEvuw="8.5300000000000000e+02" sepI="1.5010030567646027e-01" sepG="-1.0000000000000000e+00" res="-9.9000000000000000e+01" rms="0.0000000000000000e+00" nType="1" CC="0.0000000000000000e+00"/>
            <Node pos="r" depth="3" Seq="5" IVar="-1" Cut="0.0000000000000000e+00" cType="1" nS="7.3169982910156250e+01" nB="1.3412081909179688e+02" nEv="2.0729080200195312e+02" nSuw="1.8200000000000000e+02" nBuw="4.0000000000000000e+00" nEvuw="1.8600000000000000e+02" sepI="2.2838579118251801e-01" sepG="-1.0000000000000000e+00" res="-9.9000000000000000e+01" rms="0.0000000000000000e+00" nType="-1" CC="0.0000000000000000e+00"/>
          </Node>
          <Node pos="r" depth="2" Seq="3" IVar="3" Cut="1.3126037083566189e-02" cType="1" nS="1.1066999511718750e+03" nB="1.2553898925781250e+03" nEv="2.3620898437500000e+03" nSuw="2.1760000000000000e+03" nBuw="1.3300000000000000e+02" nEvuw="2.3090000000000000e+03" sepI="2.4900937080383301e-01" sepG="8.4722633361816406e+00" res="-9.9000000000000000e+01" rms="0.0000000000000000e+00" nType="0" CC="0.0000000000000000e+00">
            <Node pos="l" depth="3" Seq="3" IVar="-1" Cut="0.0000000000000000e+00" cType="1" nS="7.6083288574218750e+02" nB="7.1692822265625000e+02" nEv="1.4777611083984375e+03" nSuw="1.3160000000000000e+03" nBuw="9.1000000000000000e+01" nEvuw="1.4070000000000000e+03" sepI="2.4977932870388031e-01" sepG="-1.0000000000000000e+00" res="-9.9000000000000000e+01" rms="0.0000000000000000e+00" nType="1" CC="0.0000000000000000e+00"/>
            <Node pos="r" depth="3" Seq="7" IVar="-1" Cut="0.0000000000000000e+00" cType="1" nS="3.4586706542968750e+02" nB="5.3846166992187500e+02" nEv="8.8432873535156250e+02" nSuw="8.6000000000000000e+02" nBuw="4.2000000000000000e+01" nEvuw="9.0200000000000000e+02" sepI="2.3814229667186737e-01" sepG="-1.0000000000000000e+00" res="-9.9000000000000000e+01" rms="0.0000000000000000e+00" nType="-1" CC="0.0000000000000000e+00"/>
          </Node>
        </Node>
      </Node>
    </BinaryTree>
    <BinaryTree type="DecisionTree" boostWeight="2.5408373983573851e-01" itree="10">
      <Node pos="s" depth="0" Seq="0" IVar="2" Cut="1.4435819350183010e-02" cType="0" nS="3.9382436523437500e+03" nB="4.1752617187500000e+03" nEv="8.1135053710937500e+03" nSuw="7.5650000000000000e+03" nBuw="5.3700000000000000e+02" nEvuw="8.1020000000000000e+03" sepI="2.4978666007518768e-01" sepG="9.4643230438232422e+00" res="-9.9000000000000000e+01" rms="0.0000000000000000e+00" nType="0" CC="0.0000000000000000e+00">
        <Node pos="l" depth="1" Seq="0" IVar="0" Cut="2.1428570747375488e+00" cType="0" nS="1.1242369384765625e+03" nB="9.4312976074218750e+02" nEv="2.0673666992187500e+03" nSuw="2.9450000000000000e+03" nBuw="7.3000000000000000e+01" nEvuw="3.0180000000000000e+03" sepI="2.4808143079280853e-01" sepG="1.8861696243286133e+01" res="-9.9000000000000000e+01" rms="0.0000000000000000e+00" nType="0" CC="0.0000000000000000e+00">
          <Node pos="l" depth="2" Seq="0" IVar="-1" Cut="2.2276211529970169e-02" cType="0" nS="1.2050573730468750e+02" nB="1.2118736267089844e+01" nEv="1.3262446594238281e+02" nSuw="3.0100000000000000e+02" nBuw="3.0000000000000000e+00" nEvuw="3.0400000000000000e+02" sepI="8.3026684820652008e-02" sepG="-1.0000000000000000e+00" res="-9.9000000000000000e+01" rms="0.0000000000000000e+00" nType="1" CC="0.0000000000000000e+00"/>
          <Node pos="r" depth="2" Seq="2" IVar="3" Cut="5.3352393209934235e-02" cType="0" nS="1.0037312011718750e+03" nB="9.3101104736328125e+02" nEv="1.9347421875000000e+03" nSuw="2.6440000000000000e+03" nBuw="7.0000000000000000e+01" nEvuw="2.7140000000000000e+03" sepI="2.4964681267738342e-01" sepG="1.6862422943115234e+01" res="-9.9000000000000000e+01" rms="0.0000000000000000e+00" nType="0" CC="0.0000000000000000e+00">
            <Node pos="l" depth="3" Seq="2" IVar="-1" Cut="0.0000000000000000e+00" cType="1" nS="8.2161476135253906e+01" nB="4.2802171707153320e+00" nEv="8.6441696166992188e+01" nSuw="2.7700000000000000e+02" nBuw="4.0000000000000000e+00" nEvuw="2.8100000000000000e+02" sepI="4.7063853591680527e-02" sepG="-1.0000000000000000e+00" res="-9.9000000000000000e+01" rms="0.0000000000000000e+00" nType="1" CC="0.0000000000000000e+00"/>
            <Node pos="r" depth="3" Seq="6" IVar="-1" Cut="0.0000000000000000e+00" cType="1" nS="9.2156970214843750e+02" nB="9.2673083496093750e+02" nEv="1.8483005371093750e+03" nSuw="2.3670000000000000e+03" nBuw="6.6000000000000000e+01" nEvuw="2.4330000000000000e+03" sepI="2.4999804794788361e-01" sepG="-1.0000000000000000e+00" res="-9.9000000000000000e+01" rms="0.0000000000000000e+00" nType="-1" CC="0.0000000000000000e+00"/>
          </Node>
        </Node>
        <Node pos="r" depth="1" Seq="1" IVar="3" Cut="-8.7157361209392548e-02" cType="0" nS="2.8140068359375000e+03" nB="3.2321318359375000e+03" nEv="6.0461386718750000e+03" nSuw="4.6200000000000000e+03" nBuw="4.6400000000000000e+02" nEvuw="5.0840000000000000e+03" sepI="2.4880437552928925e-01" sepG="8.9117946624755859e+00" res="-9.9000000000000000e+01" rms="0.0000000000000000e+00" nType="0" CC="0.0000000000000000e+00">
          <Node pos="l" depth="2" Seq="1" IVar="1" Cut="8.5805624723434448e-01" cType="0" nS="2.7747373046875000e+03" nB="3.1055700683593750e+03" nEv="5.8803071289062500e+03" nSuw="4.5320000000000000e+03" nBuw="4.5800000000000000e+02" nEvuw="4.9900000000000000e+03" sepI="2.4920867383480072e-01" sepG="2.0962884902954102e+01" res="-9.9000000000000000e+01" rms="0.0000000000000000e+00" nType="0" CC="0.0000000000000000e+00">
            <Node pos="l" depth="3" Seq="1" IVar="-1" Cut="0.0000000000000000e+00" cType="1" nS="4.7495300292968750e+02" nB="2.8235128784179688e+02" nEv="7.5730432128906250e+02" nSuw="1.1020000000000000e+03" nBuw="3.7000000000000000e+01" nEvuw="1.1390000000000000e+03" sepI="2.3382964730262756e-01" sepG="-1.0000000000000000e+00" res="-9.9000000000000000e+01" rms="0.0000000000000000e+00" nType="1" CC="0.0000000000000000e+00"/>
            <Node pos="r" depth="3" Seq="5" IVar="-1" Cut="0.0000000000000000e+00" cType="1" nS="2.2997841796875000e+03" nB="2.8232187500000000e+03" nEv="5.1230029296875000e+03" nSuw="3.4300000000000000e+03" nBuw="4.2100000000000000e+02" nEvuw="3.8510000000000000e+03" sepI="2.4739015102386475e-01" sepG="-1.0000000000000000e+00" res="-9.9000000000000000e+01" rms="0.0000000000000000e+00" nType="-1" CC="0.0000000000000000e+00"/>
          </Node>
          <Node pos="r" depth="2" Seq="3" IVar="3" Cut="-9.5646753907203674e-02" cType="1" nS="3.9269565582275391e+01" nB="1.2656178283691406e+02" nEv="1.6583134460449219e+02" nSuw="8.8000000000000000e+01" nBuw="6.0000000000000000e+00" nEvuw="9.4000000000000000e+01" sepI="1.8072798848152161e-01" sepG="9.7777290344238281e+00" res="-9.9000000000000000e+01" rms="0.0000000000000000e+00" nType="0" CC="0.0000000000000000e+00">
            <Node pos="l" depth="3" Seq="3" IVar="-1" Cut="0.0000000000000000e+00" cType="1" nS="1.5243650436401367e+01" nB="0.0000000000000000e+00" nEv="1.5243650436401367e+01" nSuw="4.3000000000000000e+01" nBuw="1.0000000000000000e+00" nEvuw="4.4000000000000000e+01" sepI="0.0000000000000000e+00" sepG="-1.0000000000000000e+00" res="-9.9000000000000000e+01" rms="0.0000000000000000e+00" nType="1" CC="0.0000000000000000e+00"/>
            <Node pos="r" depth="3" Seq="7" IVar="-1" Cut="0.0000000000000000e+00" cType="1" nS="2.4025915145874023e+01" nB="1.2656178283691406e+02" nEv="1.5058769226074219e+02" nSuw="4.5000000000000000e+01" nBuw="5.0000000000000000e+00" nEvuw="5.0000000000000000e+01" sepI="1.3409221172332764e-01" sepG="-1.0000000000000000e+00" res="-9.9000000000000000e+01" rms="0.0000000000000000e+00" nType="-1" CC="0.0000000000000000e+00"/>
          </Node>
        </Node>
      </Node>
    </BinaryTree>
    <BinaryTree type="DecisionTree" boostWeight="2.2420847506618902e-01" itree="11">
      <Node pos="s" depth="0" Seq="0" IVar="1" Cut="1.1366331577301025e+00" cType="1" nS="4.3299252929687500e+03" nB="3.7835803222656250e+03" nEv="8.1135053710937500e+03" nSuw="7.5650000000000000e+03" nBuw="5.3700000000000000e+02" nEvuw="8.1020000000000000e+03" sepI="2.4886640906333923e-01" sepG="1.1036056518554688e+01" res="-9.9000000000000000e+01" rms="0.0000000000000000e+00" nType="0" CC="0.0000000000000000e+00">
        <Node pos="l" depth="1" Seq="0" IVar="2" Cut="2.3727742955088615e-02" cType="0" nS="4.2224863281250000e+03" nB="3.5824492187500000e+03" nEv="7.8049355468750000e+03" nSuw="7.2920000000000000e+03" nBuw="5.2100000000000000e+02" nEvuw="7.8130000000000000e+03" sepI="2.4831883609294891e-01" sepG="1.1178104400634766e+01" res="-9.9000000000000000e+01" rms="0.0000000000000000e+00" nType="0" CC="0.0000000000000000e+00">
          <Node pos="l" depth="2" Seq="0" IVar="4" Cut="8.9167511463165283e-01" cType="1" nS="7.8611267089843750e+02" nB="4.6654788208007812e+02" nEv="1.2526605224609375e+03" nSuw="2.3320000000000000e+03" nBuw="3.6000000000000000e+01" nEvuw="2.3680000000000000e+03" sepI="2.3372986912727356e-01" sepG="2.1318138122558594e+01" res="-9.9000000000000000e+01" rms="0.0000000000000000e+00" nType="0" CC="0.0000000000000000e+00">
            <Node pos="l" depth="3" Seq="0" IVar="-1" Cut="0.0000000000000000e+00" cType="1" nS="6.4614318847656250e+02" nB="2.6781945800781250e+02" nEv="9.1396264648437500e+02" nSuw="2.1110000000000000e+03" nBuw="1.2000000000000000e+01" nEvuw="2.1230000000000000e+03" sepI="2.0716385543346405e-01" sepG="-1.0000000000000000e+00" res="-9.9000000000000000e+01" rms="0.0000000000000000e+00" nType="1" CC="0.0000000000000000e+00"/>
            <Node pos="r" depth="3" Seq="4" IVar="-1" Cut="0.0000000000000000e+00" cType="1" nS="1.3996943664550781e+02" nB="1.9872845458984375e+02" nEv="3.3869787597656250e+02" nSuw="2.2100000000000000e+02" nBuw="2.4000000000000000e+01" nEvuw="2.4500000000000000e+02" sepI="2.4247573316097260e-01" sepG="-1.0000000000000000e+00" res="-9.9000000000000000e+01" rms="0.0000000000000000e+00" nType="-1" CC="0.0000000000000000e+00"/>
          </Node>
          <Node pos="r" depth="2" Seq="2" IVar="-1" Cut="1.0960826873779297e+00" cType="0" nS="3.4363735351562500e+03" nB="3.1159011230468750e+03" nEv="6.5522749023437500e+03" nSuw="4.9600000000000000e+03" nBuw="4.8500000000000000e+02" nEvuw="5.4450000000000000e+03" sepI="2.4940195679664612e-01" sepG="-1.0000000000000000e+00" res="-9.9000000000000000e+01" rms="0.0000000000000000e+00" nType="1" CC="0.0000000000000000e+00"/>
        </Node>
        <Node pos="r" depth="1" Seq="1" IVar="4" Cut="6.6168242692947388e-01" cType="1" nS="1.0743889617919922e+02" nB="2.0113116455078125e+02" nEv="3.0857006835937500e+02" nSuw="2.7300000000000000e+02" nBuw="1.6000000000000000e+01" nEvuw="2.8900000000000000e+02" sepI="2.2695164382457733e-01" sepG="1.0252152442932129e+01" res="-9.9000000000000000e+01" rms="0.0000000000000000e+00" nType="0" CC="0.0000000000000000e+00">
          <Node pos="l" depth="2" Seq="1" IVar="2" Cut="4.1541811078786850e-02" cType="0" nS="8.6047225952148438e+01" nB="8.0574081420898438e+01" nEv="1.6662130737304688e+02" nSuw="2.1100000000000000e+02" nBuw="9.0000000000000000e+00" nEvuw="2.2000000000000000e+02" sepI="2.4973025918006897e-01" sepG="7.6215243339538574e+00" res="-9.9000000000000000e+01" rms="0.0000000000000000e+00" nType="0" CC="0.0000000000000000e+00">
            <Node pos="l" depth="3" Seq="1" IVar="-1" Cut="0.0000000000000000e+00" cType="1" nS="2.7259893417358398e+01" nB="0.0000000000000000e+00" nEv="2.7259893417358398e+01" nSuw="4.8000000000000000e+01" nBuw="0.0000000000000000e+00" nEvuw="4.8000000000000000e+01" sepI="0.0000000000000000e+00" sepG="-1.0000000000000000e+00" res="-9.9000000000000000e+01" rms="0.0000000000000000e+00" nType="1" CC="0.0000000000000000e+00"/>
            <Node pos="r" depth="3" Seq="5" IVar="-1" Cut="0.0000000000000000e+00" cType="1" nS="5.8787330627441406e+01" nB="8.0574081420898438e+01" nEv="1.3936141967773438e+02" nSuw="1.6300000000000000e+02" nBuw="9.0000000000000000e+00" nEvuw="1.7200000000000000e+02" sepI="2.4389001727104187e-01" sepG="-1.0000000000000000e+00" res="-9.9000000000000000e+01" rms="0.0000000000000000e+00" nType="-1" CC="0.0000000000000000e+00"/>
          </Node>
          <Node pos="r" depth="2" Seq="3" IVar="-1" Cut="0.0000000000000000e+00" cType="1" nS="2.1391672134399414e+01" nB="1.2055708312988281e+02" nEv="1.4194876098632812e+02" nSuw="6.2000000000000000e+01" nBuw="7.0000000000000000e+00" nEvuw="6.9000000000000000e+01" sepI="1.2798948585987091e-01" sepG="-1.0000000000000000e+00" res="-9.9000000000000000e+01" rms="0.0000000000000000e+00" nType="-1" CC="0.0000000000000000e+00"/>
        </Node>
      </Node>
    </BinaryTree>
    <BinaryTree type="DecisionTree" boostWeight="1.9115156142786183e-01" itree="12">
      <Node pos="s" depth="0" Seq="0" IVar="2" Cut="1.4435819350183010e-02" cType="0" nS="3.9448627929687500e+03" nB="4.1686425781250000e+03" nEv="8.1135053710937500e+03" nSuw="7.5650000000000000e+03" nBuw="5.3700000000000000e+02" nEvuw="8.1020000000000000e+03" sepI="2.4980981647968292e-01" sepG="1.6531061172485352e+01" res="-9.9000000000000000e+01" rms="0.0000000000000000e+00" nType="0" CC="0.0000000000000000e+00">
        <Node pos="l" depth="1" Seq="0" IVar="-1" Cut="2.1428570747375488e+00" cType="0" nS="1.1509278564453125e+03" nB="8.8941650390625000e+02" nEv="2.0403443603515625e+03" nSuw="2.9450000000000000e+03" nBuw="7.3000000000000000e+01" nEvuw="3.0180000000000000e+03" sepI="2.4589310586452484e-01" sepG="-1.0000000000000000e+00" res="-9.9000000000000000e+01" rms="0.0000000000000000e+00" nType="1" CC="0.0000000000000000e+00"/>
        <Node pos="r" depth="1" Seq="1" IVar="3" Cut="-8.7157361209392548e-02" cType="0" nS="2.7939350585937500e+03" nB="3.2792260742187500e+03" nEv="6.0731611328125000e+03" nSuw="4.6200000000000000e+03" nBuw="4.6400000000000000e+02" nEvuw="5.0840000000000000e+03" sepI="2.4840369820594788e-01" sepG="7.9856615066528320e+00" res="-9.9000000000000000e+01" rms="0.0000000000000000e+00" nType="0" CC="0.0000000000000000e+00">
          <Node pos="l" depth="2" Seq="1" IVar="-1" Cut="-6.6002607345581055e-02" cType="0" nS="2.7555314941406250e+03" nB="3.1574392089843750e+03" nEv="5.9129707031250000e+03" nSuw="4.5320000000000000e+03" nBuw="4.5800000000000000e+02" nEvuw="4.9900000000000000e+03" sepI="2.4884499609470367e-01" sepG="-1.0000000000000000e+00" res="-9.9000000000000000e+01" rms="0.0000000000000000e+00" nType="-1" CC="0.0000000000000000e+00"/>
          <Node pos="r" depth="2" Seq="3" IVar="3" Cut="-9.5646753907203674e-02" cType="1" nS="3.8403549194335938e+01" nB="1.2178678894042969e+02" nEv="1.6019033813476562e+02" nSuw="8.8000000000000000e+01" nBuw="6.0000000000000000e+00" nEvuw="9.4000000000000000e+01" sepI="1.8226316571235657e-01" sepG="8.2803268432617188e+00" res="-9.9000000000000000e+01" rms="0.0000000000000000e+00" nType="0" CC="0.0000000000000000e+00">
            <Node pos="l" depth="3" Seq="3" IVar="-1" Cut="0.0000000000000000e+00" cType="1" nS="1.3149838447570801e+01" nB="0.0000000000000000e+00" nEv="1.3149838447570801e+01" nSuw="4.3000000000000000e+01" nBuw="1.0000000000000000e+00" nEvuw="4.4000000000000000e+01" sepI="0.0000000000000000e+00" sepG="-1.0000000000000000e+00" res="-9.9000000000000000e+01" rms="0.0000000000000000e+00" nType="1" CC="0.0000000000000000e+00"/>
            <Node pos="r" depth="3" Seq="7" IVar="-1" Cut="0.0000000000000000e+00" cType="1" nS="2.5253713607788086e+01" nB="1.2178678894042969e+02" nEv="1.4704049682617188e+02" nSuw="4.5000000000000000e+01" nBuw="5.0000000000000000e+00" nEvuw="5.0000000000000000e+01" sepI="1.4224973320960999e-01" sepG="-1.0000000000000000e+00" res="-9.9000000000000000e+01" rms="0.0000000000000000e+00" nType="-1" CC="0.0000000000000000e+00"/>
          </Node>
        </Node>
      </Node>
    </BinaryTree>
    <BinaryTree type="DecisionTree" boostWeight="1.6816350889397366e-01" itree="13">
      <Node pos="s" depth="0" Seq="0" IVar="3" Cut="1.8511418253183365e-02" cType="0" nS="4.1364687500000000e+03" nB="3.9770366210937500e+03" nEv="8.1135053710937500e+03" nSuw="7.5650000000000000e+03" nBuw="5.3700000000000000e+02" nEvuw="8.1020000000000000e+03" sepI="2.4990347027778625e-01" sepG="6.4848322868347168e+00" res="-9.9000000000000000e+01" rms="0.0000000000000000e+00" nType="0" CC="0.0000000000000000e+00">
        <Node pos="l" depth="1" Seq="0" IVar="2" Cut="2.7722913771867752e-02" cType="0" nS="1.3324221191406250e+03" nB="1.0755264892578125e+03" nEv="2.4079484863281250e+03" nSuw="2.6420000000000000e+03" nBuw="1.2800000000000000e+02" nEvuw="2.7700000000000000e+03" sepI="2.4715448915958405e-01" sepG="7.9806256294250488e+00" res="-9.9000000000000000e+01" rms="0.0000000000000000e+00" nType="0" CC="0.0000000000000000e+00">
          <Node pos="l" depth="2" Seq="0" IVar="4" Cut="8.9030033349990845e-01" cType="1" nS="1.9252297973632812e+02" nB="7.6484786987304688e+01" nEv="2.6900775146484375e+02" nSuw="7.4900000000000000e+02" nBuw="1.2000000000000000e+01" nEvuw="7.6100000000000000e+02" sepI="2.0348294079303741e-01" sepG="1.6956617355346680e+01" res="-9.9000000000000000e+01" rms="0.0000000000000000e+00" nType="0" CC="0.0000000000000000e+00">
            <Node pos="l" depth="3" Seq="0" IVar="-1" Cut="0.0000000000000000e+00" cType="1" nS="1.4777374267578125e+02" nB="1.2388445854187012e+01" nEv="1.6016218566894531e+02" nSuw="6.8000000000000000e+02" nBuw="2.0000000000000000e+00" nEvuw="6.8200000000000000e+02" sepI="7.1366451680660248e-02" sepG="-1.0000000000000000e+00" res="-9.9000000000000000e+01" rms="0.0000000000000000e+00" nType="1" CC="0.0000000000000000e+00"/>
            <Node pos="r" depth="3" Seq="4" IVar="-1" Cut="0.0000000000000000e+00" cType="1" nS="4.4749233245849609e+01" nB="6.4096343994140625e+01" nEv="1.0884557342529297e+02" nSuw="6.9000000000000000e+01" nBuw="1.0000000000000000e+01" nEvuw="7.9000000000000000e+01" sepI="2.4210138618946075e-01" sepG="-1.0000000000000000e+00" res="-9.9000000000000000e+01" rms="0.0000000000000000e+00" nType="-1" CC="0.0000000000000000e+00"/>
          </Node>
          <Node pos="r" depth="2" Seq="2" IVar="2" Cut="-6.0611655935645103e-03" cType="1" nS="1.1398991699218750e+03" nB="9.9904162597656250e+02" nEv="2.1389406738281250e+03" nSuw="1.8930000000000000e+03" nBuw="1.1600000000000000e+02" nEvuw="2.0090000000000000e+03" sepI="2.4891582131385803e-01" sepG="1.0836272239685059e+01" res="-9.9000000000000000e+01" rms="0.0000000000000000e+00" nType="0" CC="0.0000000000000000e+00">
            <Node pos="l" depth="3" Seq="2" IVar="-1" Cut="0.0000000000000000e+00" cType="1" nS="4.9555688476562500e+02" nB="2.9637701416015625e+02" nEv="7.9193389892578125e+02" nSuw="1.1710000000000000e+03" nBuw="3.4000000000000000e+01" nEvuw="1.2050000000000000e+03" sepI="2.3418559134006500e-01" sepG="-1.0000000000000000e+00" res="-9.9000000000000000e+01" rms="0.0000000000000000e+00" nType="1" CC="0.0000000000000000e+00"/>
            <Node pos="r" depth="3" Seq="6" IVar="-1" Cut="0.0000000000000000e+00" cType="1" nS="6.4434228515625000e+02" nB="7.0266461181640625e+02" nEv="1.3470069580078125e+03" nSuw="7.2200000000000000e+02" nBuw="8.2000000000000000e+01" nEvuw="8.0400000000000000e+02" sepI="2.4953132867813110e-01" sepG="-1.0000000000000000e+00" res="-9.9000000000000000e+01" rms="0.0000000000000000e+00" nType="-1" CC="0.0000000000000000e+00"/>
          </Node>
        </Node>
        <Node pos="r" depth="1" Seq="1" IVar="2" Cut="-6.7667156457901001e-02" cType="0" nS="2.8040466308593750e+03" nB="2.9015102539062500e+03" nEv="5.7055566406250000e+03" nSuw="4.9230000000000000e+03" nBuw="4.0900000000000000e+02" nEvuw="5.3320000000000000e+03" sepI="2.4992704391479492e-01" sepG="9.6957778930664062e+00" res="-9.9000000000000000e+01" rms="0.0000000000000000e+00" nType="0" CC="0.0000000000000000e+00">
          <Node pos="l" depth="2" Seq="1" IVar="2" Cut="-5.8692894876003265e-02" cType="1" nS="2.7415588378906250e+03" nB="2.7448825683593750e+03" nEv="5.4864414062500000e+03" nSuw="4.6730000000000000e+03" nBuw="4.0300000000000000e+02" nEvuw="5.0760000000000000e+03" sepI="2.4999991059303284e-01" sepG="1.2656981468200684e+01" res="-9.9000000000000000e+01" rms="0.0000000000000000e+00" nType="0" CC="0.0000000000000000e+00">
            <Node pos="l" depth="3" Seq="1" IVar="-1" Cut="0.0000000000000000e+00" cType="1" nS="6.1941509246826172e+01" nB="4.3849997520446777e+00" nEv="6.6326507568359375e+01" nSuw="1.9200000000000000e+02" nBuw="3.0000000000000000e+00" nEvuw="1.9500000000000000e+02" sepI="6.1741486191749573e-02" sepG="-1.0000000000000000e+00" res="-9.9000000000000000e+01" rms="0.0000000000000000e+00" nType="1" CC="0.0000000000000000e+00"/>
            <Node pos="r" depth="3" Seq="5" IVar="-1" Cut="0.0000000000000000e+00" cType="1" nS="2.6796174316406250e+03" nB="2.7404975585937500e+03" nEv="5.4201147460937500e+03" nSuw="4.4810000000000000e+03" nBuw="4.0000000000000000e+02" nEvuw="4.8810000000000000e+03" sepI="2.4996845424175262e-01" sepG="-1.0000000000000000e+00" res="-9.9000000000000000e+01" rms="0.0000000000000000e+00" nType="-1" CC="0.0000000000000000e+00"/>
          </Node>
          <Node pos="r" depth="2" Seq="3" IVar="4" Cut="7.8458720445632935e-01" cType="1" nS="6.2487670898437500e+01" nB="1.5662765502929688e+02" nEv="2.1911532592773438e+02" nSuw="2.5000000000000000e+02" nBuw="6.0000000000000000e+00" nEvuw="2.5600000000000000e+02" sepI="2.0385307073593140e-01" sepG="1.6330434799194336e+01" res="-9.9000000000000000e+01" rms="0.0000000000000000e+00" nType="0" CC="0.0000000000000000e+00">
            <Node pos="l" depth="3" Seq="3" IVar="-1" Cut="0.0000000000000000e+00" cType="1" nS="2.7891708374023438e+01" nB="0.0000000000000000e+00" nEv="2.7891708374023438e+01" nSuw="1.6300000000000000e+02" nBuw="0.0000000000000000e+00" nEvuw="1.6300000000000000e+02" sepI="0.0000000000000000e+00" sepG="-1.0000000000000000e+00" res="-9.9000000000000000e+01" rms="0.0000000000000000e+00" nType="1" CC="0.0000000000000000e+00"/>
            <Node pos="r" depth="3" Seq="7" IVar="-1" Cut="0.0000000000000000e+00" cType="1" nS="3.4595962524414062e+01" nB="1.5662765502929688e+02" nEv="1.9122361755371094e+02" nSuw="8.7000000000000000e+01" nBuw="6.0000000000000000e+00" nEvuw="9.3000000000000000e+01" sepI="1.4818723499774933e-01" sepG="-1.0000000000000000e+00" res="-9.9000000000000000e+01" rms="0.0000000000000000e+00" nType="-1" CC="0.0000000000000000e+00"/>
          </Node>
        </Node>
      </Node>
    </BinaryTree>
    <BinaryTree type="DecisionTree" boostWeight="2.9457343928415247e-01" itree="14">
      <Node pos="s" depth="0" Seq="0" IVar="2" Cut="-5.5938158184289932e-02" cType="0" nS="4.3913510742187500e+03" nB="3.7221540527343750e+03" nEv="8.1135053710937500e+03" nSuw="7.5650000000000000e+03" nBuw="5.3700000000000000e+02" nEvuw="8.1020000000000000e+03" sepI="2.4829928576946259e-01" sepG="9.1408958435058594e+00" res="-9.9000000000000000e+01" rms="0.0000000000000000e+00" nType="0" CC="0.0000000000000000e+00">
        <Node pos="l" depth="1" Seq="0" IVar="1" Cut="1.1923484802246094e+00" cType="1" nS="4.1826000976562500e+03" nB="3.4233684082031250e+03" nEv="7.6059682617187500e+03" nSuw="6.8050000000000000e+03" nBuw="5.1800000000000000e+02" nEvuw="7.3230000000000000e+03" sepI="2.4750897288322449e-01" sepG="8.3277292251586914e+00" res="-9.9000000000000000e+01" rms="0.0000000000000000e+00" nType="0" CC="0.0000000000000000e+00">
          <Node pos="l" depth="2" Seq="0" IVar="-1" Cut="3.4333175420761108e-01" cType="1" nS="4.1292998046875000e+03" nB="3.3134160156250000e+03" nEv="7.4427158203125000e+03" nSuw="6.6990000000000000e+03" nBuw="5.0800000000000000e+02" nEvuw="7.2070000000000000e+03" sepI="2.4699576199054718e-01" sepG="-1.0000000000000000e+00" res="-9.9000000000000000e+01" rms="0.0000000000000000e+00" nType="1" CC="0.0000000000000000e+00"/>
          <Node pos="r" depth="2" Seq="2" IVar="0" Cut="1.1904761791229248e+00" cType="0" nS="5.3300476074218750e+01" nB="1.0995227050781250e+02" nEv="1.6325274658203125e+02" nSuw="1.0600000000000000e+02" nBuw="1.0000000000000000e+01" nEvuw="1.1600000000000000e+02" sepI="2.1989446878433228e-01" sepG="5.6058216094970703e+00" res="-9.9000000000000000e+01" rms="0.0000000000000000e+00" nType="0" CC="0.0000000000000000e+00">
            <Node pos="l" depth="3" Seq="2" IVar="-1" Cut="0.0000000000000000e+00" cType="1" nS="3.3946475982666016e+01" nB="2.5449901580810547e+01" nEv="5.9396377563476562e+01" nSuw="6.2000000000000000e+01" nBuw="3.0000000000000000e+00" nEvuw="6.5000000000000000e+01" sepI="2.4488426744937897e-01" sepG="-1.0000000000000000e+00" res="-9.9000000000000000e+01" rms="0.0000000000000000e+00" nType="1" CC="0.0000000000000000e+00"/>
            <Node pos="r" depth="3" Seq="6" IVar="-1" Cut="0.0000000000000000e+00" cType="1" nS="1.9354001998901367e+01" nB="8.4502365112304688e+01" nEv="1.0385636901855469e+02" nSuw="4.4000000000000000e+01" nBuw="7.0000000000000000e+00" nEvuw="5.1000000000000000e+01" sepI="1.5162590146064758e-01" sepG="-1.0000000000000000e+00" res="-9.9000000000000000e+01" rms="0.0000000000000000e+00" nType="-1" CC="0.0000000000000000e+00"/>
          </Node>
        </Node>
        <Node pos="r" depth="1" Seq="1" IVar="3" Cut="-3.9741244167089462e-02" cType="0" nS="2.0875122070312500e+02" nB="2.9878573608398438e+02" nEv="5.0753695678710938e+02" nSuw="7.6000000000000000e+02" nBuw="1.9000000000000000e+01" nEvuw="7.7900000000000000e+02" sepI="2.4213275313377380e-01" sepG="1.8409126281738281e+01" res="-9.9000000000000000e+01" rms="0.0000000000000000e+00" nType="0" CC="0.0000000000000000e+00">
          <Node pos="l" depth="2" Seq="1" IVar="4" Cut="8.4391039609909058e-01" cType="1" nS="1.8762959289550781e+02" nB="1.5924270629882812e+02" nEv="3.4687228393554688e+02" nSuw="6.4500000000000000e+02" nBuw="1.3000000000000000e+01" nEvuw="6.5800000000000000e+02" sepI="2.4832569062709808e-01" sepG="2.6980981826782227e+01" res="-9.9000000000000000e+01" rms="0.0000000000000000e+00" nType="0" CC="0.0000000000000000e+00">
            <Node pos="l" depth="3" Seq="1" IVar="-1" Cut="0.0000000000000000e+00" cType="1" nS="1.1487989044189453e+02" nB="1.1439050674438477e+01" nEv="1.2631893920898438e+02" nSuw="5.2700000000000000e+02" nBuw="2.0000000000000000e+00" nEvuw="5.2900000000000000e+02" sepI="8.2356341183185577e-02" sepG="-1.0000000000000000e+00" res="-9.9000000000000000e+01" rms="0.0000000000000000e+00" nType="1" CC="0.0000000000000000e+00"/>
            <Node pos="r" depth="3" Seq="5" IVar="-1" Cut="0.0000000000000000e+00" cType="1" nS="7.2749702453613281e+01" nB="1.4780364990234375e+02" nEv="2.2055335998535156e+02" nSuw="1.1800000000000000e+02" nBuw="1.1000000000000000e+01" nEvuw="1.2900000000000000e+02" sepI="2.2104924917221069e-01" sepG="-1.0000000000000000e+00" res="-9.9000000000000000e+01" rms="0.0000000000000000e+00" nType="-1" CC="0.0000000000000000e+00"/>
          </Node>
          <Node pos="r" depth="2" Seq="3" IVar="-1" Cut="9.3847352266311646e-01" cType="1" nS="2.1121629714965820e+01" nB="1.3954304504394531e+02" nEv="1.6066467285156250e+02" nSuw="1.1500000000000000e+02" nBuw="6.0000000000000000e+00" nEvuw="1.2100000000000000e+02" sepI="1.1418126523494720e-01" sepG="-1.0000000000000000e+00" res="-9.9000000000000000e+01" rms="0.0000000000000000e+00" nType="-1" CC="0.0000000000000000e+00"/>
        </Node>
      </Node>
    </BinaryTree>
    <BinaryTree type="DecisionTree" boostWeight="1.9253448210581611e-01" itree="15">
      <Node pos="s" depth="0" Seq="0" IVar="0" Cut="3.2857143878936768e+00" cType="0" nS="3.8649606933593750e+03" nB="4.2485449218750000e+03" nEv="8.1135053710937500e+03" nSuw="7.5650000000000000e+03" nBuw="5.3700000000000000e+02" nEvuw="8.1020000000000000e+03" sepI="2.4944122135639191e-01" sepG="4.2624659538269043e+00" res="-9.9000000000000000e+01" rms="0.0000000000000000e+00" nType="0" CC="0.0000000000000000e+00">
        <Node pos="l" depth="1" Seq="0" IVar="4" Cut="7.2048151493072510e-01" cType="0" nS="7.9323036193847656e+01" nB="4.0169162750244141e+01" nEv="1.1949220275878906e+02" nSuw="1.6500000000000000e+02" nBuw="8.0000000000000000e+00" nEvuw="1.7300000000000000e+02" sepI="2.2315828502178192e-01" sepG="3.6575901508331299e+00" res="-9.9000000000000000e+01" rms="0.0000000000000000e+00" nType="0" CC="0.0000000000000000e+00">
          <Node pos="l" depth="2" Seq="0" IVar="-1" Cut="0.0000000000000000e+00" cType="1" nS="2.5467716217041016e+01" nB="0.0000000000000000e+00" nEv="2.5467716217041016e+01" nSuw="6.7000000000000000e+01" nBuw="0.0000000000000000e+00" nEvuw="6.7000000000000000e+01" sepI="0.0000000000000000e+00" sepG="-1.0000000000000000e+00" res="-9.9000000000000000e+01" rms="0.0000000000000000e+00" nType="1" CC="0.0000000000000000e+00"/>
          <Node pos="r" depth="2" Seq="2" IVar="4" Cut="4.8660257458686829e-01" cType="1" nS="5.3855319976806641e+01" nB="4.0169162750244141e+01" nEv="9.4024482727050781e+01" nSuw="9.8000000000000000e+01" nBuw="8.0000000000000000e+00" nEvuw="1.0600000000000000e+02" sepI="2.4470311403274536e-01" sepG="4.2866291999816895e+00" res="-9.9000000000000000e+01" rms="0.0000000000000000e+00" nType="0" CC="0.0000000000000000e+00">
            <Node pos="l" depth="3" Seq="2" IVar="-1" Cut="0.0000000000000000e+00" cType="1" nS="3.3604873657226562e+01" nB="7.6707749366760254e+00" nEv="4.1275646209716797e+01" nSuw="5.0000000000000000e+01" nBuw="4.0000000000000000e+00" nEvuw="5.4000000000000000e+01" sepI="1.5130515396595001e-01" sepG="-1.0000000000000000e+00" res="-9.9000000000000000e+01" rms="0.0000000000000000e+00" nType="1" CC="0.0000000000000000e+00"/>
            <Node pos="r" depth="3" Seq="6" IVar="-1" Cut="0.0000000000000000e+00" cType="1" nS="2.0250450134277344e+01" nB="3.2498386383056641e+01" nEv="5.2748836517333984e+01" nSuw="4.8000000000000000e+01" nBuw="4.0000000000000000e+00" nEvuw="5.2000000000000000e+01" sepI="2.3652154207229614e-01" sepG="-1.0000000000000000e+00" res="-9.9000000000000000e+01" rms="0.0000000000000000e+00" nType="-1" CC="0.0000000000000000e+00"/>
          </Node>
        </Node>
        <Node pos="r" depth="1" Seq="1" IVar="2" Cut="-9.0221734717488289e-03" cType="1" nS="3.7856374511718750e+03" nB="4.2083754882812500e+03" nEv="7.9940131835937500e+03" nSuw="7.4000000000000000e+03" nBuw="5.2900000000000000e+02" nEvuw="7.9290000000000000e+03" sepI="2.4930088222026825e-01" sepG="3.2920966148376465e+00" res="-9.9000000000000000e+01" rms="0.0000000000000000e+00" nType="0" CC="0.0000000000000000e+00">
          <Node pos="l" depth="2" Seq="1" IVar="3" Cut="-7.5456328690052032e-02" cType="0" nS="1.2171328125000000e+03" nB="1.1957912597656250e+03" nEv="2.4129240722656250e+03" nSuw="3.1820000000000000e+03" nBuw="1.1500000000000000e+02" nEvuw="3.2970000000000000e+03" sepI="2.4998044967651367e-01" sepG="1.2084638595581055e+01" res="-9.9000000000000000e+01" rms="0.0000000000000000e+00" nType="0" CC="0.0000000000000000e+00">
            <Node pos="l" depth="3" Seq="1" IVar="-1" Cut="0.0000000000000000e+00" cType="1" nS="1.1878010253906250e+03" nB="1.0888204345703125e+03" nEv="2.2766215820312500e+03" nSuw="3.0660000000000000e+03" nBuw="1.0900000000000000e+02" nEvuw="3.1750000000000000e+03" sepI="2.4952743947505951e-01" sepG="-1.0000000000000000e+00" res="-9.9000000000000000e+01" rms="0.0000000000000000e+00" nType="1" CC="0.0000000000000000e+00"/>
            <Node pos="r" depth="3" Seq="5" IVar="-1" Cut="0.0000000000000000e+00" cType="1" nS="2.9331699371337891e+01" nB="1.0697082519531250e+02" nEv="1.3630252075195312e+02" nSuw="1.1600000000000000e+02" nBuw="6.0000000000000000e+00" nEvuw="1.2200000000000000e+02" sepI="1.6888643801212311e-01" sepG="-1.0000000000000000e+00" res="-9.9000000000000000e+01" rms="0.0000000000000000e+00" nType="-1" CC="0.0000000000000000e+00"/>
          </Node>
          <Node pos="r" depth="2" Seq="3" IVar="3" Cut="7.7715694904327393e-02" cType="0" nS="2.5685048828125000e+03" nB="3.0125842285156250e+03" nEv="5.5810888671875000e+03" nSuw="4.2180000000000000e+03" nBuw="4.1400000000000000e+02" nEvuw="4.6320000000000000e+03" sepI="2.4841721355915070e-01" sepG="1.0015914916992188e+01" res="-9.9000000000000000e+01" rms="0.0000000000000000e+00" nType="0" CC="0.0000000000000000e+00">
            <Node pos="l" depth="3" Seq="3" IVar="-1" Cut="0.0000000000000000e+00" cType="1" nS="5.8752841949462891e+01" nB="1.1596886634826660e+01" nEv="7.0349723815917969e+01" nSuw="1.4000000000000000e+02" nBuw="6.0000000000000000e+00" nEvuw="1.4600000000000000e+02" sepI="1.3767194747924805e-01" sepG="-1.0000000000000000e+00" res="-9.9000000000000000e+01" rms="0.0000000000000000e+00" nType="1" CC="0.0000000000000000e+00"/>
            <Node pos="r" depth="3" Seq="7" IVar="-1" Cut="0.0000000000000000e+00" cType="1" nS="2.5097519531250000e+03" nB="3.0009873046875000e+03" nEv="5.5107392578125000e+03" nSuw="4.0780000000000000e+03" nBuw="4.0800000000000000e+02" nEvuw="4.4860000000000000e+03" sepI="2.4801345169544220e-01" sepG="-1.0000000000000000e+00" res="-9.9000000000000000e+01" rms="0.0000000000000000e+00" nType="-1" CC="0.0000000000000000e+00"/>
          </Node>
        </Node>
      </Node>
    </BinaryTree>
    <BinaryTree type="DecisionTree" boostWeight="1.8477255910823145e-01" itree="16">
      <Node pos="s" depth="0" Seq="0" IVar="2" Cut="2.7068229392170906e-03" cType="0" nS="4.0223273925781250e+03" nB="4.0911779785156250e+03" nEv="8.1135053710937500e+03" nSuw="7.5650000000000000e+03" nBuw="5.3700000000000000e+02" nEvuw="8.1020000000000000e+03" sepI="2.4998199939727783e-01" sepG="1.0886407852172852e+01" res="-9.9000000000000000e+01" rms="0.0000000000000000e+00" nType="0" CC="0.0000000000000000e+00">
        <Node pos="l" depth="1" Seq="0" IVar="-1" Cut="2.1428570747375488e+00" cType="0" nS="2.0745046386718750e+03" nB="1.8105406494140625e+03" nEv="3.8850454101562500e+03" nSuw="3.6600000000000000e+03" nBuw="2.1400000000000000e+02" nEvuw="3.8740000000000000e+03" sepI="2.4884591996669769e-01" sepG="-1.0000000000000000e+00" res="-9.9000000000000000e+01" rms="0.0000000000000000e+00" nType="1" CC="0.0000000000000000e+00"/>
        <Node pos="r" depth="1" Seq="1" IVar="4" Cut="1.5360468626022339e-01" cType="1" nS="1.9478227539062500e+03" nB="2.2806372070312500e+03" nEv="4.2284599609375000e+03" nSuw="3.9050000000000000e+03" nBuw="3.2300000000000000e+02" nEvuw="4.2280000000000000e+03" sepI="2.4845124781131744e-01" sepG="6.9374003410339355e+00" res="-9.9000000000000000e+01" rms="0.0000000000000000e+00" nType="0" CC="0.0000000000000000e+00">
          <Node pos="l" depth="2" Seq="1" IVar="3" Cut="1.4117076716502197e-05" cType="1" nS="1.9599105834960938e+02" nB="1.3026477050781250e+02" nEv="3.2625582885742188e+02" nSuw="7.4700000000000000e+02" nBuw="1.0000000000000000e+01" nEvuw="7.5700000000000000e+02" sepI="2.3985384404659271e-01" sepG="1.1423420906066895e+01" res="-9.9000000000000000e+01" rms="0.0000000000000000e+00" nType="0" CC="0.0000000000000000e+00">
            <Node pos="l" depth="3" Seq="1" IVar="-1" Cut="0.0000000000000000e+00" cType="1" nS="8.6150939941406250e+01" nB="1.0814545631408691e+01" nEv="9.6965484619140625e+01" nSuw="3.6300000000000000e+02" nBuw="2.0000000000000000e+00" nEvuw="3.6500000000000000e+02" sepI="9.9090941250324249e-02" sepG="-1.0000000000000000e+00" res="-9.9000000000000000e+01" rms="0.0000000000000000e+00" nType="1" CC="0.0000000000000000e+00"/>
            <Node pos="r" depth="3" Seq="5" IVar="-1" Cut="0.0000000000000000e+00" cType="1" nS="1.0984012603759766e+02" nB="1.1945021820068359e+02" nEv="2.2929034423828125e+02" nSuw="3.8400000000000000e+02" nBuw="8.0000000000000000e+00" nEvuw="3.9200000000000000e+02" sepI="2.4956083297729492e-01" sepG="-1.0000000000000000e+00" res="-9.9000000000000000e+01" rms="0.0000000000000000e+00" nType="-1" CC="0.0000000000000000e+00"/>
          </Node>
          <Node pos="r" depth="2" Seq="3" IVar="-1" Cut="8.8777527213096619e-02" cType="1" nS="1.7518317871093750e+03" nB="2.1503725585937500e+03" nEv="3.9022041015625000e+03" nSuw="3.1580000000000000e+03" nBuw="3.1300000000000000e+02" nEvuw="3.4710000000000000e+03" sepI="2.4739225208759308e-01" sepG="-1.0000000000000000e+00" res="-9.9000000000000000e+01" rms="0.0000000000000000e+00" nType="-1" CC="0.0000000000000000e+00"/>
        </Node>
      </Node>
    </BinaryTree>
    <BinaryTree type="DecisionTree" boostWeight="1.8674478344232306e-01" itree="17">
      <Node pos="s" depth="0" Seq="0" IVar="1" Cut="3.5661795735359192e-01" cType="1" nS="4.0289772949218750e+03" nB="4.0845280761718750e+03" nEv="8.1135053710937500e+03" nSuw="7.5650000000000000e+03" nBuw="5.3700000000000000e+02" nEvuw="8.1020000000000000e+03" sepI="2.4998828768730164e-01" sepG="4.5517525672912598e+00" res="-9.9000000000000000e+01" rms="0.0000000000000000e+00" nType="0" CC="0.0000000000000000e+00">
        <Node pos="l" depth="1" Seq="0" IVar="2" Cut="1.1967477621510625e-03" cType="0" nS="3.2578890991210938e+02" nB="2.3233369445800781e+02" nEv="5.5812261962890625e+02" nSuw="1.3000000000000000e+02" nBuw="8.2000000000000000e+01" nEvuw="2.1200000000000000e+02" sepI="2.4299047887325287e-01" sepG="5.4430818557739258e+00" res="-9.9000000000000000e+01" rms="0.0000000000000000e+00" nType="0" CC="0.0000000000000000e+00">
          <Node pos="l" depth="2" Seq="0" IVar="-1" Cut="3.4024089574813843e-01" cType="1" nS="1.6311776733398438e+02" nB="6.9765174865722656e+01" nEv="2.3288293457031250e+02" nSuw="7.4000000000000000e+01" nBuw="2.5000000000000000e+01" nEvuw="9.9000000000000000e+01" sepI="2.0982855558395386e-01" sepG="-1.0000000000000000e+00" res="-9.9000000000000000e+01" rms="0.0000000000000000e+00" nType="1" CC="0.0000000000000000e+00"/>
          <Node pos="r" depth="2" Seq="2" IVar="1" Cut="3.3292239904403687e-01" cType="1" nS="1.6267115783691406e+02" nB="1.6256851196289062e+02" nEv="3.2523968505859375e+02" nSuw="5.6000000000000000e+01" nBuw="5.7000000000000000e+01" nEvuw="1.1300000000000000e+02" sepI="2.4999997019767761e-01" sepG="3.0988435745239258e+00" res="-9.9000000000000000e+01" rms="0.0000000000000000e+00" nType="0" CC="0.0000000000000000e+00">
            <Node pos="l" depth="3" Seq="2" IVar="-1" Cut="0.0000000000000000e+00" cType="1" nS="9.5755722045898438e+01" nB="6.3963451385498047e+01" nEv="1.5971917724609375e+02" nSuw="2.7000000000000000e+01" nBuw="2.8000000000000000e+01" nEvuw="5.5000000000000000e+01" sepI="2.4009466171264648e-01" sepG="-1.0000000000000000e+00" res="-9.9000000000000000e+01" rms="0.0000000000000000e+00" nType="1" CC="0.0000000000000000e+00"/>
            <Node pos="r" depth="3" Seq="6" IVar="-1" Cut="0.0000000000000000e+00" cType="1" nS="6.6915435791015625e+01" nB="9.8605064392089844e+01" nEv="1.6552050781250000e+02" nSuw="2.9000000000000000e+01" nBuw="2.9000000000000000e+01" nEvuw="5.8000000000000000e+01" sepI="2.4083630740642548e-01" sepG="-1.0000000000000000e+00" res="-9.9000000000000000e+01" rms="0.0000000000000000e+00" nType="-1" CC="0.0000000000000000e+00"/>
          </Node>
        </Node>
        <Node pos="r" depth="1" Seq="1" IVar="1" Cut="9.4042289257049561e-01" cType="1" nS="3.7031882324218750e+03" nB="3.8521943359375000e+03" nEv="7.5553828125000000e+03" nSuw="7.4350000000000000e+03" nBuw="4.5500000000000000e+02" nEvuw="7.8900000000000000e+03" sepI="2.4990275502204895e-01" sepG="4.8944411277770996e+00" res="-9.9000000000000000e+01" rms="0.0000000000000000e+00" nType="0" CC="0.0000000000000000e+00">
          <Node pos="l" depth="2" Seq="1" IVar="1" Cut="8.5702949762344360e-01" cType="0" nS="3.3024890136718750e+03" nB="3.3054401855468750e+03" nEv="6.6079291992187500e+03" nSuw="6.2480000000000000e+03" nBuw="4.0300000000000000e+02" nEvuw="6.6510000000000000e+03" sepI="2.4999995529651642e-01" sepG="1.9383731842041016e+01" res="-9.9000000000000000e+01" rms="0.0000000000000000e+00" nType="0" CC="0.0000000000000000e+00">
            <Node pos="l" depth="3" Seq="1" IVar="-1" Cut="0.0000000000000000e+00" cType="1" nS="3.0219815063476562e+02" nB="1.2615312194824219e+02" nEv="4.2835125732421875e+02" nSuw="8.4600000000000000e+02" nBuw="2.0000000000000000e+01" nEvuw="8.6600000000000000e+02" sepI="2.0777326822280884e-01" sepG="-1.0000000000000000e+00" res="-9.9000000000000000e+01" rms="0.0000000000000000e+00" nType="1" CC="0.0000000000000000e+00"/>
            <Node pos="r" depth="3" Seq="5" IVar="-1" Cut="0.0000000000000000e+00" cType="1" nS="3.0002910156250000e+03" nB="3.1792871093750000e+03" nEv="6.1795781250000000e+03" nSuw="5.4020000000000000e+03" nBuw="3.8300000000000000e+02" nEvuw="5.7850000000000000e+03" sepI="2.4979025125503540e-01" sepG="-1.0000000000000000e+00" res="-9.9000000000000000e+01" rms="0.0000000000000000e+00" nType="-1" CC="0.0000000000000000e+00"/>
          </Node>
          <Node pos="r" depth="2" Seq="3" IVar="3" Cut="5.3734343498945236e-02" cType="0" nS="4.0069927978515625e+02" nB="5.4675415039062500e+02" nEv="9.4745343017578125e+02" nSuw="1.1870000000000000e+03" nBuw="5.2000000000000000e+01" nEvuw="1.2390000000000000e+03" sepI="2.4405904114246368e-01" sepG="1.0175049781799316e+01" res="-9.9000000000000000e+01" rms="0.0000000000000000e+00" nType="0" CC="0.0000000000000000e+00">
            <Node pos="l" depth="3" Seq="3" IVar="-1" Cut="0.0000000000000000e+00" cType="1" nS="1.0159049987792969e+02" nB="5.2864078521728516e+01" nEv="1.5445457458496094e+02" nSuw="2.9100000000000000e+02" nBuw="6.0000000000000000e+00" nEvuw="2.9700000000000000e+02" sepI="2.2511902451515198e-01" sepG="-1.0000000000000000e+00" res="-9.9000000000000000e+01" rms="0.0000000000000000e+00" nType="1" CC="0.0000000000000000e+00"/>
            <Node pos="r" depth="3" Seq="7" IVar="-1" Cut="0.0000000000000000e+00" cType="1" nS="2.9910876464843750e+02" nB="4.9389007568359375e+02" nEv="7.9299884033203125e+02" nSuw="8.9600000000000000e+02" nBuw="4.6000000000000000e+01" nEvuw="9.4200000000000000e+02" sepI="2.3491694033145905e-01" sepG="-1.0000000000000000e+00" res="-9.9000000000000000e+01" rms="0.0000000000000000e+00" nType="-1" CC="0.0000000000000000e+00"/>
          </Node>
        </Node>
      </Node>
    </BinaryTree>
    <BinaryTree type="DecisionTree" boostWeight="1.5643309964394603e-01" itree="18">
      <Node pos="s" depth="0" Seq="0" IVar="3" Cut="8.8957272469997406e-02" cType="1" nS="4.3181220703125000e+03" nB="3.7953833007812500e+03" nEv="8.1135053710937500e+03" nSuw="7.5650000000000000e+03" nBuw="5.3700000000000000e+02" nEvuw="8.1020000000000000e+03" sepI="2.4896225333213806e-01" sepG="4.3920040130615234e+00" res="-9.9000000000000000e+01" rms="0.0000000000000000e+00" nType="0" CC="0.0000000000000000e+00">
        <Node pos="l" depth="1" Seq="0" IVar="-1" Cut="3.2857143878936768e+00" cType="0" nS="4.2793906250000000e+03" nB="3.7194792480468750e+03" nEv="7.9988701171875000e+03" nSuw="7.4510000000000000e+03" nBuw="5.3200000000000000e+02" nEvuw="7.9830000000000000e+03" sepI="2.4877503514289856e-01" sepG="-1.0000000000000000e+00" res="-9.9000000000000000e+01" rms="0.0000000000000000e+00" nType="1" CC="0.0000000000000000e+00"/>
        <Node pos="r" depth="1" Seq="1" IVar="3" Cut="9.4185642898082733e-02" cType="1" nS="3.8731246948242188e+01" nB="7.5903991699218750e+01" nEv="1.1463523864746094e+02" nSuw="1.1400000000000000e+02" nBuw="5.0000000000000000e+00" nEvuw="1.1900000000000000e+02" sepI="2.2371228039264679e-01" sepG="9.4341516494750977e+00" res="-9.9000000000000000e+01" rms="0.0000000000000000e+00" nType="0" CC="0.0000000000000000e+00">
          <Node pos="l" depth="2" Seq="1" IVar="-1" Cut="0.0000000000000000e+00" cType="1" nS="1.8117521286010742e+01" nB="0.0000000000000000e+00" nEv="1.8117521286010742e+01" nSuw="5.1000000000000000e+01" nBuw="0.0000000000000000e+00" nEvuw="5.1000000000000000e+01" sepI="0.0000000000000000e+00" sepG="-1.0000000000000000e+00" res="-9.9000000000000000e+01" rms="0.0000000000000000e+00" nType="1" CC="0.0000000000000000e+00"/>
          <Node pos="r" depth="2" Seq="3" IVar="-1" Cut="0.0000000000000000e+00" cType="1" nS="2.0613725662231445e+01" nB="7.5903991699218750e+01" nEv="9.6517715454101562e+01" nSuw="6.3000000000000000e+01" nBuw="5.0000000000000000e+00" nEvuw="6.8000000000000000e+01" sepI="1.6796045005321503e-01" sepG="-1.0000000000000000e+00" res="-9.9000000000000000e+01" rms="0.0000000000000000e+00" nType="-1" CC="0.0000000000000000e+00"/>
        </Node>
      </Node>
    </BinaryTree>
    <BinaryTree type="DecisionTree" boostWeight="1.8511677098998866e-01" itree="19">
      <Node pos="s" depth="0" Seq="0" IVar="0" Cut="3.2857143878936768e+00" cType="0" nS="4.0087036132812500e+03" nB="4.1048017578125000e+03" nEv="8.1135053710937500e+03" nSuw="7.5650000000000000e+03" nBuw="5.3700000000000000e+02" nEvuw="8.1020000000000000e+03" sepI="2.4996492266654968e-01" sepG="4.0617780685424805e+00" res="-9.9000000000000000e+01" rms="0.0000000000000000e+00" nType="0" CC="0.0000000000000000e+00">
        <Node pos="l" depth="1" Seq="0" IVar="1" Cut="8.7252575159072876e-01" cType="1" nS="7.7716964721679688e+01" nB="3.6326290130615234e+01" nEv="1.1404325866699219e+02" nSuw="1.6500000000000000e+02" nBuw="8.0000000000000000e+00" nEvuw="1.7300000000000000e+02" sepI="2.1706894040107727e-01" sepG="3.2820625305175781e+00" res="-9.9000000000000000e+01" rms="0.0000000000000000e+00" nType="0" CC="0.0000000000000000e+00">
          <Node pos="l" depth="2" Seq="0" IVar="-1" Cut="6.1081391572952271e-01" cType="0" nS="6.5634040832519531e+01" nB="1.8143278121948242e+01" nEv="8.3777320861816406e+01" nSuw="1.2700000000000000e+02" nBuw="5.0000000000000000e+00" nEvuw="1.3200000000000000e+02" sepI="1.6966488957405090e-01" sepG="-1.0000000000000000e+00" res="-9.9000000000000000e+01" rms="0.0000000000000000e+00" nType="1" CC="0.0000000000000000e+00"/>
          <Node pos="r" depth="2" Seq="2" IVar="-1" Cut="0.0000000000000000e+00" cType="1" nS="1.2082921028137207e+01" nB="1.8183012008666992e+01" nEv="3.0265933990478516e+01" nSuw="3.8000000000000000e+01" nBuw="3.0000000000000000e+00" nEvuw="4.1000000000000000e+01" sepI="2.3984442651271820e-01" sepG="-1.0000000000000000e+00" res="-9.9000000000000000e+01" rms="0.0000000000000000e+00" nType="-1" CC="0.0000000000000000e+00"/>
        </Node>
        <Node pos="r" depth="1" Seq="1" IVar="4" Cut="8.9346116781234741e-01" cType="1" nS="3.9309865722656250e+03" nB="4.0684755859375000e+03" nEv="7.9994619140625000e+03" nSuw="7.4000000000000000e+03" nBuw="5.2900000000000000e+02" nEvuw="7.9290000000000000e+03" sepI="2.4992614984512329e-01" sepG="3.2454497814178467e+00" res="-9.9000000000000000e+01" rms="0.0000000000000000e+00" nType="0" CC="0.0000000000000000e+00">
          <Node pos="l" depth="2" Seq="1" IVar="1" Cut="9.1377162933349609e-01" cType="1" nS="3.3423293457031250e+03" nB="3.3375351562500000e+03" nEv="6.6798647460937500e+03" nSuw="6.7960000000000000e+03" nBuw="4.3100000000000000e+02" nEvuw="7.2270000000000000e+03" sepI="2.4999986588954926e-01" sepG="5.2590069770812988e+00" res="-9.9000000000000000e+01" rms="0.0000000000000000e+00" nType="0" CC="0.0000000000000000e+00">
            <Node pos="l" depth="3" Seq="1" IVar="-1" Cut="0.0000000000000000e+00" cType="1" nS="2.9798298339843750e+03" nB="2.8507697753906250e+03" nEv="5.8305996093750000e+03" nSuw="5.4590000000000000e+03" nBuw="4.0200000000000000e+02" nEvuw="5.8610000000000000e+03" sepI="2.4987751245498657e-01" sepG="-1.0000000000000000e+00" res="-9.9000000000000000e+01" rms="0.0000000000000000e+00" nType="1" CC="0.0000000000000000e+00"/>
            <Node pos="r" depth="3" Seq="5" IVar="-1" Cut="0.0000000000000000e+00" cType="1" nS="3.6249963378906250e+02" nB="4.8676531982421875e+02" nEv="8.4926495361328125e+02" nSuw="1.3370000000000000e+03" nBuw="2.9000000000000000e+01" nEvuw="1.3660000000000000e+03" sepI="2.4464750289916992e-01" sepG="-1.0000000000000000e+00" res="-9.9000000000000000e+01" rms="0.0000000000000000e+00" nType="-1" CC="0.0000000000000000e+00"/>
          </Node>
          <Node pos="r" depth="2" Seq="3" IVar="4" Cut="9.6410024166107178e-01" cType="0" nS="5.8865722656250000e+02" nB="7.3094036865234375e+02" nEv="1.3195975341796875e+03" nSuw="6.0400000000000000e+02" nBuw="9.8000000000000000e+01" nEvuw="7.0200000000000000e+02" sepI="2.4709354341030121e-01" sepG="3.6490642547607422e+01" res="-9.9000000000000000e+01" rms="0.0000000000000000e+00" nType="0" CC="0.0000000000000000e+00">
            <Node pos="l" depth="3" Seq="3" IVar="-1" Cut="0.0000000000000000e+00" cType="1" nS="2.1721064758300781e+02" nB="6.7392593383789062e+01" nEv="2.8460324096679688e+02" nSuw="3.6000000000000000e+01" nBuw="4.3000000000000000e+01" nEvuw="7.9000000000000000e+01" sepI="1.8072307109832764e-01" sepG="-1.0000000000000000e+00" res="-9.9000000000000000e+01" rms="0.0000000000000000e+00" nType="1" CC="0.0000000000000000e+00"/>
            <Node pos="r" depth="3" Seq="7" IVar="-1" Cut="0.0000000000000000e+00" cType="1" nS="3.7144656372070312e+02" nB="6.6354779052734375e+02" nEv="1.0349943847656250e+03" nSuw="5.6800000000000000e+02" nBuw="5.5000000000000000e+01" nEvuw="6.2300000000000000e+02" sepI="2.3008728027343750e-01" sepG="-1.0000000000000000e+00" res="-9.9000000000000000e+01" rms="0.0000000000000000e+00" nType="-1" CC="0.0000000000000000e+00"/>
          </Node>
        </Node>
      </Node>
    </BinaryTree>
    <BinaryTree type="DecisionTree" boostWeight="1.6685221504172035e-01" itree="20">
      <Node pos="s" depth="0" Seq="0" IVar="0" Cut="3.2857143878936768e+00" cType="0" nS="3.8088752441406250e+03" nB="4.3046298828125000e+03" nEv="8.1135053710937500e+03" nSuw="7.5650000000000000e+03" nBuw="5.3700000000000000e+02" nEvuw="8.1020000000000000e+03" sepI="2.4906662106513977e-01" sepG="4.3560037612915039e+00" res="-9.9000000000000000e+01" rms="0.0000000000000000e+00" nType="0" CC="0.0000000000000000e+00">
