<?xml version="1.0"?>
<MethodSetup Method="BDT::BDT">
  <GeneralInfo>
    <Info name="TMVA Release" value="4.0.7 [262151]"/>
    <Info name="ROOT Release" value="5.27/06 [334598]"/>
    <Info name="Creator" value="lbianchini"/>
    <Info name="Date" value="Fri Nov  4 16:29:01 2011"/>
    <Info name="Host" value="Linux lxbuild142.cern.ch 2.6.18-238.1.1.el5 #1 SMP Wed Jan 19 11:06:36 CET 2011 x86_64 x86_64 x86_64 GNU/Linux"/>
    <Info name="Dir" value="/grid_mnt/vol__vol1__u/llr/cms/lbianchini/CMSSW_4_2_5/src/Bianchi/TauTauStudies/test/Macro/tmva"/>
    <Info name="Training events" value="4604"/>
    <Info name="TrainingTime" value="1.91417"/>
    <Info name="AnalysisType" value="Classification"/>
  </GeneralInfo>
  <Options>
    <Option name="V" modified="Yes">False</Option>
    <Option name="VerbosityLevel" modified="No">Default</Option>
    <Option name="VarTransform" modified="No">None</Option>
    <Option name="H" modified="Yes">False</Option>
    <Option name="CreateMVAPdfs" modified="No">False</Option>
    <Option name="IgnoreNegWeightsInTraining" modified="No">False</Option>
    <Option name="NTrees" modified="Yes">400</Option>
    <Option name="BoostType" modified="Yes">AdaBoost</Option>
    <Option name="AdaBoostR2Loss" modified="No">quadratic</Option>
    <Option name="UseBaggedGrad" modified="No">False</Option>
    <Option name="GradBaggingFraction" modified="No">6.000000e-01</Option>
    <Option name="Shrinkage" modified="No">1.000000e+00</Option>
    <Option name="AdaBoostBeta" modified="No">1.000000e+00</Option>
    <Option name="UseRandomisedTrees" modified="No">False</Option>
    <Option name="UseNvars" modified="No">2</Option>
    <Option name="UseNTrainEvents" modified="No">4604</Option>
    <Option name="UseWeightedTrees" modified="No">True</Option>
    <Option name="UseYesNoLeaf" modified="No">True</Option>
    <Option name="NodePurityLimit" modified="No">5.000000e-01</Option>
    <Option name="SeparationType" modified="Yes">giniindex</Option>
    <Option name="nEventsMin" modified="No">40</Option>
    <Option name="nCuts" modified="Yes">20</Option>
    <Option name="PruneStrength" modified="No">-1.000000e+00</Option>
    <Option name="PruneMethod" modified="Yes">nopruning</Option>
    <Option name="PruneBeforeBoost" modified="No">False</Option>
    <Option name="PruningValFraction" modified="No">5.000000e-01</Option>
    <Option name="NNodesMax" modified="No">100000</Option>
    <Option name="MaxDepth" modified="No">3</Option>
  </Options>
  <Variables NVar="6">
    <Variable VarIndex="0" Expression="TMath::Max(leadPFChargedHadrMva,-1.0)" Label="mva" Title="mva" Unit="     " Internal="mva" Type="F" Min="-1" Max="-0.10047"/>
    <Variable VarIndex="1" Expression="signalPFGammaCands" Label="signalPFGammaCands" Title="signalPFGammaCands" Unit="     " Internal="signalPFGammaCands" Type="I" Min="1" Max="6"/>
    <Variable VarIndex="2" Expression="visMass" Label="visMass" Title="visMass" Unit="GeV/c" Internal="visMass" Type="F" Min="0.301369" Max="1.36886"/>
    <Variable VarIndex="3" Expression="abs(gammadEta[0])" Label="dEtaG" Title="dEtaG" Unit="     " Internal="dEtaG" Type="F" Min="9.05991e-06" Max="0.120722"/>
    <Variable VarIndex="4" Expression="TMath::Min(abs(gammadPhi[0]),0.3)" Label="dPhiG" Title="dPhiG" Unit="     " Internal="dPhiG" Type="F" Min="8.22544e-06" Max="0.3"/>
    <Variable VarIndex="5" Expression="gammaPt[0]/pt" Label="dPtG" Title="dPtG" Unit="     " Internal="dPtG" Type="F" Min="0.0180791" Max="0.965813"/>
  </Variables>
  <Spectators NSpec="0"/>
  <Transformations NTransformations="0"/>
  <MVAPdfs/>
  <Weights NTrees="400" TreeType="0">
    <BinaryTree type="DecisionTree" boostWeight="1.5667074195056401e+00" itree="0">
      <Node pos="s" depth="0" Seq="0" IVar="0" Cut="-5.2881759405136108e-01" cType="1" nS="3.6396687011718750e+03" nB="9.4420605468750000e+02" nEv="4.5838750000000000e+03" nSuw="3.6650000000000000e+03" nBuw="9.3900000000000000e+02" nEvuw="4.6040000000000000e+03" sepI="1.6355474293231964e-01" sepG="1.0140607452392578e+02" res="-9.9000000000000000e+01" rms="0.0000000000000000e+00" nType="0" CC="0.0000000000000000e+00">
        <Node pos="l" depth="1" Seq="0" IVar="-1" Cut="-7.0848894119262695e-01" cType="1" nS="2.6922187500000000e+03" nB="2.8896307373046875e+02" nEv="2.9811818847656250e+03" nSuw="2.7370000000000000e+03" nBuw="2.7300000000000000e+02" nEvuw="3.0100000000000000e+03" sepI="8.7533786892890930e-02" sepG="-1.0000000000000000e+00" res="-9.9000000000000000e+01" rms="0.0000000000000000e+00" nType="1" CC="0.0000000000000000e+00"/>
        <Node pos="r" depth="1" Seq="1" IVar="5" Cut="5.5319577455520630e-01" cType="0" nS="9.4744989013671875e+02" nB="6.5524304199218750e+02" nEv="1.6026928710937500e+03" nSuw="9.2800000000000000e+02" nBuw="6.6600000000000000e+02" nEvuw="1.5940000000000000e+03" sepI="2.4168963730335236e-01" sepG="4.0558387756347656e+01" res="-9.9000000000000000e+01" rms="0.0000000000000000e+00" nType="0" CC="0.0000000000000000e+00">
          <Node pos="l" depth="2" Seq="1" IVar="2" Cut="4.8495334386825562e-01" cType="0" nS="4.3551528930664062e+02" nB="9.7960739135742188e+01" nEv="5.3347601318359375e+02" nSuw="4.3000000000000000e+02" nBuw="9.6000000000000000e+01" nEvuw="5.2600000000000000e+02" sepI="1.4990828931331635e-01" sepG="1.3265837669372559e+01" res="-9.9000000000000000e+01" rms="0.0000000000000000e+00" nType="0" CC="0.0000000000000000e+00">
            <Node pos="l" depth="3" Seq="1" IVar="-1" Cut="0.0000000000000000e+00" cType="1" nS="3.9294024658203125e+02" nB="4.9641990661621094e+01" nEv="4.4258221435546875e+02" nSuw="3.8200000000000000e+02" nBuw="4.9000000000000000e+01" nEvuw="4.3100000000000000e+02" sepI="9.9583581089973450e-02" sepG="-1.0000000000000000e+00" res="-9.9000000000000000e+01" rms="0.0000000000000000e+00" nType="1" CC="0.0000000000000000e+00"/>
            <Node pos="r" depth="3" Seq="5" IVar="-1" Cut="0.0000000000000000e+00" cType="1" nS="4.2575065612792969e+01" nB="4.8318748474121094e+01" nEv="9.0893814086914062e+01" nSuw="4.8000000000000000e+01" nBuw="4.7000000000000000e+01" nEvuw="9.5000000000000000e+01" sepI="2.4900172650814056e-01" sepG="-1.0000000000000000e+00" res="-9.9000000000000000e+01" rms="0.0000000000000000e+00" nType="-1" CC="0.0000000000000000e+00"/>
          </Node>
          <Node pos="r" depth="2" Seq="3" IVar="0" Cut="-3.2430553436279297e-01" cType="1" nS="5.1193457031250000e+02" nB="5.5728228759765625e+02" nEv="1.0692167968750000e+03" nSuw="4.9800000000000000e+02" nBuw="5.7000000000000000e+02" nEvuw="1.0680000000000000e+03" sepI="2.4955029785633087e-01" sepG="1.4621470451354980e+01" res="-9.9000000000000000e+01" rms="0.0000000000000000e+00" nType="0" CC="0.0000000000000000e+00">
            <Node pos="l" depth="3" Seq="3" IVar="-1" Cut="0.0000000000000000e+00" cType="1" nS="3.2691146850585938e+02" nB="2.2536907958984375e+02" nEv="5.5228051757812500e+02" nSuw="3.1400000000000000e+02" nBuw="2.3200000000000000e+02" nEvuw="5.4600000000000000e+02" sepI="2.4154886603355408e-01" sepG="-1.0000000000000000e+00" res="-9.9000000000000000e+01" rms="0.0000000000000000e+00" nType="1" CC="0.0000000000000000e+00"/>
            <Node pos="r" depth="3" Seq="7" IVar="-1" Cut="0.0000000000000000e+00" cType="1" nS="1.8502310180664062e+02" nB="3.3191320800781250e+02" nEv="5.1693627929687500e+02" nSuw="1.8400000000000000e+02" nBuw="3.3800000000000000e+02" nEvuw="5.2200000000000000e+02" sepI="2.2981396317481995e-01" sepG="-1.0000000000000000e+00" res="-9.9000000000000000e+01" rms="0.0000000000000000e+00" nType="-1" CC="0.0000000000000000e+00"/>
          </Node>
        </Node>
      </Node>
    </BinaryTree>
    <BinaryTree type="DecisionTree" boostWeight="1.0128186884618449e+00" itree="1">
      <Node pos="s" depth="0" Seq="0" IVar="0" Cut="-7.4299138784408569e-01" cType="1" nS="2.7211313476562500e+03" nB="1.8627432861328125e+03" nEv="4.5838745117187500e+03" nSuw="3.6650000000000000e+03" nBuw="9.3900000000000000e+02" nEvuw="4.6040000000000000e+03" sepI="2.4123318493366241e-01" sepG="9.2826255798339844e+01" res="-9.9000000000000000e+01" rms="0.0000000000000000e+00" nType="0" CC="0.0000000000000000e+00">
        <Node pos="l" depth="1" Seq="0" IVar="-1" Cut="2.0821413025259972e-02" cType="0" nS="1.0249151611328125e+03" nB="2.1364811706542969e+02" nEv="1.2385633544921875e+03" nSuw="1.7320000000000000e+03" nBuw="6.6000000000000000e+01" nEvuw="1.7980000000000000e+03" sepI="1.4274160563945770e-01" sepG="-1.0000000000000000e+00" res="-9.9000000000000000e+01" rms="0.0000000000000000e+00" nType="1" CC="0.0000000000000000e+00"/>
        <Node pos="r" depth="1" Seq="1" IVar="5" Cut="4.6406346559524536e-01" cType="0" nS="1.6962161865234375e+03" nB="1.6490952148437500e+03" nEv="3.3453112792968750e+03" nSuw="1.9330000000000000e+03" nBuw="8.7300000000000000e+02" nEvuw="2.8060000000000000e+03" sepI="2.4995039403438568e-01" sepG="6.0991573333740234e+01" res="-9.9000000000000000e+01" rms="0.0000000000000000e+00" nType="0" CC="0.0000000000000000e+00">
          <Node pos="l" depth="2" Seq="1" IVar="-1" Cut="4.2864196002483368e-02" cType="0" nS="8.2368145751953125e+02" nB="3.7372808837890625e+02" nEv="1.1974095458984375e+03" nSuw="1.0370000000000000e+03" nBuw="2.2000000000000000e+02" nEvuw="1.2570000000000000e+03" sepI="2.1469879150390625e-01" sepG="-1.0000000000000000e+00" res="-9.9000000000000000e+01" rms="0.0000000000000000e+00" nType="1" CC="0.0000000000000000e+00"/>
          <Node pos="r" depth="2" Seq="3" IVar="0" Cut="-3.4518197178840637e-01" cType="0" nS="8.7253472900390625e+02" nB="1.2753670654296875e+03" nEv="2.1479018554687500e+03" nSuw="8.9600000000000000e+02" nBuw="6.5300000000000000e+02" nEvuw="1.5490000000000000e+03" sepI="2.4120654165744781e-01" sepG="7.1554519653320312e+01" res="-9.9000000000000000e+01" rms="0.0000000000000000e+00" nType="0" CC="0.0000000000000000e+00">
            <Node pos="l" depth="3" Seq="3" IVar="-1" Cut="0.0000000000000000e+00" cType="1" nS="4.3816537475585938e+02" nB="1.9952975463867188e+02" nEv="6.3769512939453125e+02" nSuw="1.6300000000000000e+02" nBuw="3.0600000000000000e+02" nEvuw="4.6900000000000000e+02" sepI="2.1499061584472656e-01" sepG="-1.0000000000000000e+00" res="-9.9000000000000000e+01" rms="0.0000000000000000e+00" nType="1" CC="0.0000000000000000e+00"/>
            <Node pos="r" depth="3" Seq="7" IVar="-1" Cut="0.0000000000000000e+00" cType="1" nS="4.3436932373046875e+02" nB="1.0758374023437500e+03" nEv="1.5102066650390625e+03" nSuw="7.3300000000000000e+02" nBuw="3.4700000000000000e+02" nEvuw="1.0800000000000000e+03" sepI="2.0489577949047089e-01" sepG="-1.0000000000000000e+00" res="-9.9000000000000000e+01" rms="0.0000000000000000e+00" nType="-1" CC="0.0000000000000000e+00"/>
          </Node>
        </Node>
      </Node>
    </BinaryTree>
    <BinaryTree type="DecisionTree" boostWeight="6.0142904861747037e-01" itree="2">
      <Node pos="s" depth="0" Seq="0" IVar="0" Cut="-6.5732187032699585e-01" cType="1" nS="2.3738203125000000e+03" nB="2.2100544433593750e+03" nEv="4.5838745117187500e+03" nSuw="3.6650000000000000e+03" nBuw="9.3900000000000000e+02" nEvuw="4.6040000000000000e+03" sepI="2.4968090653419495e-01" sepG="5.1680759429931641e+01" res="-9.9000000000000000e+01" rms="0.0000000000000000e+00" nType="0" CC="0.0000000000000000e+00">
        <Node pos="l" depth="1" Seq="0" IVar="-1" Cut="2.3001965135335922e-02" cType="0" nS="1.1188409423828125e+03" nB="5.8732843017578125e+02" nEv="1.7061694335937500e+03" nSuw="2.2430000000000000e+03" nBuw="1.3500000000000000e+02" nEvuw="2.3780000000000000e+03" sepI="2.2573821246623993e-01" sepG="-1.0000000000000000e+00" res="-9.9000000000000000e+01" rms="0.0000000000000000e+00" nType="1" CC="0.0000000000000000e+00"/>
        <Node pos="r" depth="1" Seq="1" IVar="4" Cut="4.2864196002483368e-02" cType="0" nS="1.2549792480468750e+03" nB="1.6227260742187500e+03" nEv="2.8777053222656250e+03" nSuw="1.4220000000000000e+03" nBuw="8.0400000000000000e+02" nEvuw="2.2260000000000000e+03" sepI="2.4591732025146484e-01" sepG="3.1830198287963867e+01" res="-9.9000000000000000e+01" rms="0.0000000000000000e+00" nType="0" CC="0.0000000000000000e+00">
          <Node pos="l" depth="2" Seq="1" IVar="-1" Cut="5.8495062589645386e-01" cType="0" nS="3.5353421020507812e+02" nB="1.8622190856933594e+02" nEv="5.3975610351562500e+02" nSuw="4.7100000000000000e+02" nBuw="9.8000000000000000e+01" nEvuw="5.6900000000000000e+02" sepI="2.2597847878932953e-01" sepG="-1.0000000000000000e+00" res="-9.9000000000000000e+01" rms="0.0000000000000000e+00" nType="1" CC="0.0000000000000000e+00"/>
          <Node pos="r" depth="2" Seq="3" IVar="1" Cut="1.2380952835083008e+00" cType="0" nS="9.0144506835937500e+02" nB="1.4365041503906250e+03" nEv="2.3379492187500000e+03" nSuw="9.5100000000000000e+02" nBuw="7.0600000000000000e+02" nEvuw="1.6570000000000000e+03" sepI="2.3690597712993622e-01" sepG="2.3108045578002930e+01" res="-9.9000000000000000e+01" rms="0.0000000000000000e+00" nType="0" CC="0.0000000000000000e+00">
            <Node pos="l" depth="3" Seq="3" IVar="-1" Cut="0.0000000000000000e+00" cType="1" nS="3.7780581665039062e+02" nB="3.2557913208007812e+02" nEv="7.0338494873046875e+02" nSuw="3.6200000000000000e+02" nBuw="1.8000000000000000e+02" nEvuw="5.4200000000000000e+02" sepI="2.4862171709537506e-01" sepG="-1.0000000000000000e+00" res="-9.9000000000000000e+01" rms="0.0000000000000000e+00" nType="1" CC="0.0000000000000000e+00"/>
            <Node pos="r" depth="3" Seq="7" IVar="-1" Cut="0.0000000000000000e+00" cType="1" nS="5.2363922119140625e+02" nB="1.1109250488281250e+03" nEv="1.6345642089843750e+03" nSuw="5.8900000000000000e+02" nBuw="5.2600000000000000e+02" nEvuw="1.1150000000000000e+03" sepI="2.1772733330726624e-01" sepG="-1.0000000000000000e+00" res="-9.9000000000000000e+01" rms="0.0000000000000000e+00" nType="-1" CC="0.0000000000000000e+00"/>
          </Node>
        </Node>
      </Node>
    </BinaryTree>
    <BinaryTree type="DecisionTree" boostWeight="4.0434635862080492e-01" itree="3">
      <Node pos="s" depth="0" Seq="0" IVar="4" Cut="2.8578871861100197e-02" cType="0" nS="2.1716342773437500e+03" nB="2.4122404785156250e+03" nEv="4.5838745117187500e+03" nSuw="3.6650000000000000e+03" nBuw="9.3900000000000000e+02" nEvuw="4.6040000000000000e+03" sepI="2.4931120872497559e-01" sepG="2.0990810394287109e+01" res="-9.9000000000000000e+01" rms="0.0000000000000000e+00" nType="0" CC="0.0000000000000000e+00">
        <Node pos="l" depth="1" Seq="0" IVar="-1" Cut="-8.7155193090438843e-01" cType="1" nS="1.0230609130859375e+03" nB="8.1550378417968750e+02" nEv="1.8385646972656250e+03" nSuw="1.9080000000000000e+03" nBuw="2.7200000000000000e+02" nEvuw="2.1800000000000000e+03" sepI="2.4681390821933746e-01" sepG="-1.0000000000000000e+00" res="-9.9000000000000000e+01" rms="0.0000000000000000e+00" nType="1" CC="0.0000000000000000e+00"/>
        <Node pos="r" depth="1" Seq="1" IVar="3" Cut="2.2216683253645897e-02" cType="0" nS="1.1485732421875000e+03" nB="1.5967366943359375e+03" nEv="2.7453100585937500e+03" nSuw="1.7570000000000000e+03" nBuw="6.6700000000000000e+02" nEvuw="2.4240000000000000e+03" sepI="2.4333761632442474e-01" sepG="1.5099763870239258e+01" res="-9.9000000000000000e+01" rms="0.0000000000000000e+00" nType="0" CC="0.0000000000000000e+00">
          <Node pos="l" depth="2" Seq="1" IVar="0" Cut="-7.0498991012573242e-01" cType="1" nS="3.6325930786132812e+02" nB="2.9701107788085938e+02" nEv="6.6027038574218750e+02" nSuw="7.9500000000000000e+02" nBuw="1.0100000000000000e+02" nEvuw="8.9600000000000000e+02" sepI="2.4748322367668152e-01" sepG="1.0241922378540039e+01" res="-9.9000000000000000e+01" rms="0.0000000000000000e+00" nType="0" CC="0.0000000000000000e+00">
            <Node pos="l" depth="3" Seq="1" IVar="-1" Cut="0.0000000000000000e+00" cType="1" nS="1.6877172851562500e+02" nB="6.6414726257324219e+01" nEv="2.3518644714355469e+02" nSuw="5.0800000000000000e+02" nBuw="7.0000000000000000e+00" nEvuw="5.1500000000000000e+02" sepI="2.0264667272567749e-01" sepG="-1.0000000000000000e+00" res="-9.9000000000000000e+01" rms="0.0000000000000000e+00" nType="1" CC="0.0000000000000000e+00"/>
            <Node pos="r" depth="3" Seq="5" IVar="-1" Cut="0.0000000000000000e+00" cType="1" nS="1.9448757934570312e+02" nB="2.3059634399414062e+02" nEv="4.2508392333984375e+02" nSuw="2.8700000000000000e+02" nBuw="9.4000000000000000e+01" nEvuw="3.8100000000000000e+02" sepI="2.4819608032703400e-01" sepG="-1.0000000000000000e+00" res="-9.9000000000000000e+01" rms="0.0000000000000000e+00" nType="-1" CC="0.0000000000000000e+00"/>
          </Node>
          <Node pos="r" depth="2" Seq="3" IVar="5" Cut="1.2748043239116669e-01" cType="1" nS="7.8531402587890625e+02" nB="1.2997257080078125e+03" nEv="2.0850395507812500e+03" nSuw="9.6200000000000000e+02" nBuw="5.6600000000000000e+02" nEvuw="1.5280000000000000e+03" sepI="2.3478285968303680e-01" sepG="7.1450853347778320e+00" res="-9.9000000000000000e+01" rms="0.0000000000000000e+00" nType="0" CC="0.0000000000000000e+00">
            <Node pos="l" depth="3" Seq="3" IVar="-1" Cut="0.0000000000000000e+00" cType="1" nS="7.8631767272949219e+01" nB="5.1692481994628906e+01" nEv="1.3032424926757812e+02" nSuw="8.5000000000000000e+01" nBuw="1.0000000000000000e+01" nEvuw="9.5000000000000000e+01" sepI="2.3931777477264404e-01" sepG="-1.0000000000000000e+00" res="-9.9000000000000000e+01" rms="0.0000000000000000e+00" nType="1" CC="0.0000000000000000e+00"/>
            <Node pos="r" depth="3" Seq="7" IVar="-1" Cut="0.0000000000000000e+00" cType="1" nS="7.0668225097656250e+02" nB="1.2480332031250000e+03" nEv="1.9547154541015625e+03" nSuw="8.7700000000000000e+02" nBuw="5.5600000000000000e+02" nEvuw="1.4330000000000000e+03" sepI="2.3082520067691803e-01" sepG="-1.0000000000000000e+00" res="-9.9000000000000000e+01" rms="0.0000000000000000e+00" nType="-1" CC="0.0000000000000000e+00"/>
          </Node>
        </Node>
      </Node>
    </BinaryTree>
    <BinaryTree type="DecisionTree" boostWeight="3.4316787115999697e-01" itree="4">
      <Node pos="s" depth="0" Seq="0" IVar="5" Cut="7.8529220819473267e-01" cType="0" nS="2.1849008789062500e+03" nB="2.3989738769531250e+03" nEv="4.5838745117187500e+03" nSuw="3.6650000000000000e+03" nBuw="9.3900000000000000e+02" nEvuw="4.6040000000000000e+03" sepI="2.4945475161075592e-01" sepG="1.9827411651611328e+01" res="-9.9000000000000000e+01" rms="0.0000000000000000e+00" nType="0" CC="0.0000000000000000e+00">
        <Node pos="l" depth="1" Seq="0" IVar="-1" Cut="-2.2369381785392761e-01" cType="1" nS="1.3296162414550781e+02" nB="2.9163042068481445e+01" nEv="1.6212467956542969e+02" nSuw="3.3900000000000000e+02" nBuw="1.0000000000000000e+01" nEvuw="3.4900000000000000e+02" sepI="1.4752340316772461e-01" sepG="-1.0000000000000000e+00" res="-9.9000000000000000e+01" rms="0.0000000000000000e+00" nType="1" CC="0.0000000000000000e+00"/>
        <Node pos="r" depth="1" Seq="1" IVar="0" Cut="-9.1433048248291016e-01" cType="1" nS="2.0519392089843750e+03" nB="2.3698107910156250e+03" nEv="4.4217500000000000e+03" nSuw="3.3260000000000000e+03" nBuw="9.2900000000000000e+02" nEvuw="4.2550000000000000e+03" sepI="2.4870802462100983e-01" sepG="1.5563785552978516e+01" res="-9.9000000000000000e+01" rms="0.0000000000000000e+00" nType="0" CC="0.0000000000000000e+00">
          <Node pos="l" depth="2" Seq="1" IVar="-1" Cut="3.4262922406196594e-01" cType="0" nS="1.1627384948730469e+02" nB="3.2388950347900391e+01" nEv="1.4866279602050781e+02" nSuw="4.0700000000000000e+02" nBuw="3.0000000000000000e+00" nEvuw="4.1000000000000000e+02" sepI="1.7040184140205383e-01" sepG="-1.0000000000000000e+00" res="-9.9000000000000000e+01" rms="0.0000000000000000e+00" nType="1" CC="0.0000000000000000e+00"/>
          <Node pos="r" depth="2" Seq="3" IVar="1" Cut="2.1904761791229248e+00" cType="0" nS="1.9356654052734375e+03" nB="2.3374218750000000e+03" nEv="4.2730874023437500e+03" nSuw="2.9190000000000000e+03" nBuw="9.2600000000000000e+02" nEvuw="3.8450000000000000e+03" sepI="2.4779005348682404e-01" sepG="1.1796295166015625e+01" res="-9.9000000000000000e+01" rms="0.0000000000000000e+00" nType="0" CC="0.0000000000000000e+00">
            <Node pos="l" depth="3" Seq="3" IVar="-1" Cut="0.0000000000000000e+00" cType="1" nS="2.6312677001953125e+02" nB="1.6840144348144531e+02" nEv="4.3152819824218750e+02" nSuw="3.6600000000000000e+02" nBuw="5.3000000000000000e+01" nEvuw="4.1900000000000000e+02" sepI="2.3795369267463684e-01" sepG="-1.0000000000000000e+00" res="-9.9000000000000000e+01" rms="0.0000000000000000e+00" nType="1" CC="0.0000000000000000e+00"/>
            <Node pos="r" depth="3" Seq="7" IVar="-1" Cut="0.0000000000000000e+00" cType="1" nS="1.6725386962890625e+03" nB="2.1690202636718750e+03" nEv="3.8415590820312500e+03" nSuw="2.5530000000000000e+03" nBuw="8.7300000000000000e+02" nEvuw="3.4260000000000000e+03" sepI="2.4582427740097046e-01" sepG="-1.0000000000000000e+00" res="-9.9000000000000000e+01" rms="0.0000000000000000e+00" nType="-1" CC="0.0000000000000000e+00"/>
          </Node>
        </Node>
      </Node>
    </BinaryTree>
    <BinaryTree type="DecisionTree" boostWeight="3.5250945210630985e-01" itree="5">
      <Node pos="s" depth="0" Seq="0" IVar="5" Cut="6.9503182172775269e-01" cType="0" nS="2.4528583984375000e+03" nB="2.1310163574218750e+03" nEv="4.5838745117187500e+03" nSuw="3.6650000000000000e+03" nBuw="9.3900000000000000e+02" nEvuw="4.6040000000000000e+03" sepI="2.4876756966114044e-01" sepG="1.0378638267517090e+01" res="-9.9000000000000000e+01" rms="0.0000000000000000e+00" nType="0" CC="0.0000000000000000e+00">
        <Node pos="l" depth="1" Seq="0" IVar="0" Cut="-2.2670467197895050e-01" cType="1" nS="2.4182479858398438e+02" nB="1.0263703918457031e+02" nEv="3.4446182250976562e+02" nSuw="6.2000000000000000e+02" nBuw="3.3000000000000000e+01" nEvuw="6.5300000000000000e+02" sepI="2.0918123424053192e-01" sepG="1.1863638877868652e+01" res="-9.9000000000000000e+01" rms="0.0000000000000000e+00" nType="0" CC="0.0000000000000000e+00">
          <Node pos="l" depth="2" Seq="0" IVar="-1" Cut="1.1428571939468384e+00" cType="1" nS="2.1324537658691406e+02" nB="5.2227069854736328e+01" nEv="2.6547244262695312e+02" nSuw="5.6000000000000000e+02" nBuw="1.9000000000000000e+01" nEvuw="5.7900000000000000e+02" sepI="1.5802885591983795e-01" sepG="-1.0000000000000000e+00" res="-9.9000000000000000e+01" rms="0.0000000000000000e+00" nType="1" CC="0.0000000000000000e+00"/>
          <Node pos="r" depth="2" Seq="2" IVar="-1" Cut="0.0000000000000000e+00" cType="1" nS="2.8579427719116211e+01" nB="5.0409965515136719e+01" nEv="7.8989395141601562e+01" nSuw="6.0000000000000000e+01" nBuw="1.4000000000000000e+01" nEvuw="7.4000000000000000e+01" sepI="2.3090448975563049e-01" sepG="-1.0000000000000000e+00" res="-9.9000000000000000e+01" rms="0.0000000000000000e+00" nType="-1" CC="0.0000000000000000e+00"/>
        </Node>
        <Node pos="r" depth="1" Seq="1" IVar="2" Cut="9.1136276721954346e-01" cType="1" nS="2.2110334472656250e+03" nB="2.0283792724609375e+03" nEv="4.2394125976562500e+03" nSuw="3.0450000000000000e+03" nBuw="9.0600000000000000e+02" nEvuw="3.9510000000000000e+03" sepI="2.4953591823577881e-01" sepG="8.6713399887084961e+00" res="-9.9000000000000000e+01" rms="0.0000000000000000e+00" nType="0" CC="0.0000000000000000e+00">
          <Node pos="l" depth="2" Seq="1" IVar="4" Cut="7.1434840559959412e-02" cType="1" nS="1.9904927978515625e+03" nB="1.7029135742187500e+03" nEv="3.6934064941406250e+03" nSuw="2.5990000000000000e+03" nBuw="8.0700000000000000e+02" nEvuw="3.4060000000000000e+03" sepI="2.4848434329032898e-01" sepG="1.0562505722045898e+01" res="-9.9000000000000000e+01" rms="0.0000000000000000e+00" nType="0" CC="0.0000000000000000e+00">
            <Node pos="l" depth="3" Seq="1" IVar="-1" Cut="0.0000000000000000e+00" cType="1" nS="1.9403135986328125e+03" nB="1.5832133789062500e+03" nEv="3.5235268554687500e+03" nSuw="2.4860000000000000e+03" nBuw="7.8400000000000000e+02" nEvuw="3.2700000000000000e+03" sepI="2.4743217229843140e-01" sepG="-1.0000000000000000e+00" res="-9.9000000000000000e+01" rms="0.0000000000000000e+00" nType="1" CC="0.0000000000000000e+00"/>
            <Node pos="r" depth="3" Seq="5" IVar="-1" Cut="0.0000000000000000e+00" cType="1" nS="5.0179214477539062e+01" nB="1.1970022583007812e+02" nEv="1.6987944030761719e+02" nSuw="1.1300000000000000e+02" nBuw="2.3000000000000000e+01" nEvuw="1.3600000000000000e+02" sepI="2.0813119411468506e-01" sepG="-1.0000000000000000e+00" res="-9.9000000000000000e+01" rms="0.0000000000000000e+00" nType="-1" CC="0.0000000000000000e+00"/>
          </Node>
          <Node pos="r" depth="2" Seq="3" IVar="0" Cut="-8.3124291896820068e-01" cType="1" nS="2.2054069519042969e+02" nB="3.2546569824218750e+02" nEv="5.4600640869140625e+02" nSuw="4.4600000000000000e+02" nBuw="9.9000000000000000e+01" nEvuw="5.4500000000000000e+02" sepI="2.4076785147190094e-01" sepG="1.4066116333007812e+01" res="-9.9000000000000000e+01" rms="0.0000000000000000e+00" nType="0" CC="0.0000000000000000e+00">
            <Node pos="l" depth="3" Seq="3" IVar="-1" Cut="0.0000000000000000e+00" cType="1" nS="4.9807430267333984e+01" nB="7.1720013618469238e+00" nEv="5.6979431152343750e+01" nSuw="1.7400000000000000e+02" nBuw="2.0000000000000000e+00" nEvuw="1.7600000000000000e+02" sepI="1.1002674698829651e-01" sepG="-1.0000000000000000e+00" res="-9.9000000000000000e+01" rms="0.0000000000000000e+00" nType="1" CC="0.0000000000000000e+00"/>
            <Node pos="r" depth="3" Seq="7" IVar="-1" Cut="0.0000000000000000e+00" cType="1" nS="1.7073327636718750e+02" nB="3.1829370117187500e+02" nEv="4.8902697753906250e+02" nSuw="2.7200000000000000e+02" nBuw="9.7000000000000000e+01" nEvuw="3.6900000000000000e+02" sepI="2.2723780572414398e-01" sepG="-1.0000000000000000e+00" res="-9.9000000000000000e+01" rms="0.0000000000000000e+00" nType="-1" CC="0.0000000000000000e+00"/>
          </Node>
        </Node>
      </Node>
    </BinaryTree>
    <BinaryTree type="DecisionTree" boostWeight="2.9509661206884225e-01" itree="6">
      <Node pos="s" depth="0" Seq="0" IVar="5" Cut="6.9503182172775269e-01" cType="0" nS="2.1782941894531250e+03" nB="2.4055805664062500e+03" nEv="4.5838745117187500e+03" nSuw="3.6650000000000000e+03" nBuw="9.3900000000000000e+02" nEvuw="4.6040000000000000e+03" sepI="2.4938535690307617e-01" sepG="1.3240564346313477e+01" res="-9.9000000000000000e+01" rms="0.0000000000000000e+00" nType="0" CC="0.0000000000000000e+00">
        <Node pos="l" depth="1" Seq="0" IVar="0" Cut="-6.0352492332458496e-01" cType="1" nS="2.1618884277343750e+02" nB="1.0618563079833984e+02" nEv="3.2237448120117188e+02" nSuw="6.2000000000000000e+02" nBuw="3.3000000000000000e+01" nEvuw="6.5300000000000000e+02" sepI="2.2089084982872009e-01" sepG="9.3142738342285156e+00" res="-9.9000000000000000e+01" rms="0.0000000000000000e+00" nType="0" CC="0.0000000000000000e+00">
          <Node pos="l" depth="2" Seq="0" IVar="-1" Cut="5.7629132270812988e-01" cType="0" nS="6.9822509765625000e+01" nB="5.4214715957641602e-01" nEv="7.0364654541015625e+01" nSuw="2.8100000000000000e+02" nBuw="1.0000000000000000e+00" nEvuw="2.8200000000000000e+02" sepI="7.6454575173556805e-03" sepG="-1.0000000000000000e+00" res="-9.9000000000000000e+01" rms="0.0000000000000000e+00" nType="1" CC="0.0000000000000000e+00"/>
          <Node pos="r" depth="2" Seq="2" IVar="3" Cut="4.0099591016769409e-02" cType="1" nS="1.4636633300781250e+02" nB="1.0564348602294922e+02" nEv="2.5200981140136719e+02" nSuw="3.3900000000000000e+02" nBuw="3.2000000000000000e+01" nEvuw="3.7100000000000000e+02" sepI="2.4347198009490967e-01" sepG="3.2171599864959717e+00" res="-9.9000000000000000e+01" rms="0.0000000000000000e+00" nType="0" CC="0.0000000000000000e+00">
            <Node pos="l" depth="3" Seq="2" IVar="-1" Cut="0.0000000000000000e+00" cType="1" nS="1.2399846649169922e+02" nB="6.8701591491699219e+01" nEv="1.9270005798339844e+02" nSuw="2.8900000000000000e+02" nBuw="2.9000000000000000e+01" nEvuw="3.1800000000000000e+02" sepI="2.2941373288631439e-01" sepG="-1.0000000000000000e+00" res="-9.9000000000000000e+01" rms="0.0000000000000000e+00" nType="1" CC="0.0000000000000000e+00"/>
            <Node pos="r" depth="3" Seq="6" IVar="-1" Cut="0.0000000000000000e+00" cType="1" nS="2.2367860794067383e+01" nB="3.6941894531250000e+01" nEv="5.9309757232666016e+01" nSuw="5.0000000000000000e+01" nBuw="3.0000000000000000e+00" nEvuw="5.3000000000000000e+01" sepI="2.3490451276302338e-01" sepG="-1.0000000000000000e+00" res="-9.9000000000000000e+01" rms="0.0000000000000000e+00" nType="-1" CC="0.0000000000000000e+00"/>
          </Node>
        </Node>
        <Node pos="r" depth="1" Seq="1" IVar="3" Cut="6.3239552080631256e-02" cType="0" nS="1.9621053466796875e+03" nB="2.2993947753906250e+03" nEv="4.2615000000000000e+03" nSuw="3.0450000000000000e+03" nBuw="9.0600000000000000e+02" nEvuw="3.9510000000000000e+03" sepI="2.4843388795852661e-01" sepG="6.3831038475036621e+00" res="-9.9000000000000000e+01" rms="0.0000000000000000e+00" nType="0" CC="0.0000000000000000e+00">
          <Node pos="l" depth="2" Seq="1" IVar="-1" Cut="1.7585577070713043e-01" cType="1" nS="7.6249229431152344e+01" nB="3.2794273376464844e+01" nEv="1.0904349517822266e+02" nSuw="1.5100000000000000e+02" nBuw="1.8000000000000000e+01" nEvuw="1.6900000000000000e+02" sepI="2.1029739081859589e-01" sepG="-1.0000000000000000e+00" res="-9.9000000000000000e+01" rms="0.0000000000000000e+00" nType="1" CC="0.0000000000000000e+00"/>
          <Node pos="r" depth="2" Seq="3" IVar="0" Cut="-8.7149572372436523e-01" cType="1" nS="1.8858560791015625e+03" nB="2.2666005859375000e+03" nEv="4.1524565429687500e+03" nSuw="2.8940000000000000e+03" nBuw="8.8800000000000000e+02" nEvuw="3.7820000000000000e+03" sepI="2.4789817631244659e-01" sepG="6.1529812812805176e+00" res="-9.9000000000000000e+01" rms="0.0000000000000000e+00" nType="0" CC="0.0000000000000000e+00">
            <Node pos="l" depth="3" Seq="3" IVar="-1" Cut="0.0000000000000000e+00" cType="1" nS="1.6199140930175781e+02" nB="1.0792818450927734e+02" nEv="2.6991958618164062e+02" nSuw="6.6400000000000000e+02" nBuw="1.0000000000000000e+01" nEvuw="6.7400000000000000e+02" sepI="2.3997059464454651e-01" sepG="-1.0000000000000000e+00" res="-9.9000000000000000e+01" rms="0.0000000000000000e+00" nType="1" CC="0.0000000000000000e+00"/>
            <Node pos="r" depth="3" Seq="7" IVar="-1" Cut="0.0000000000000000e+00" cType="1" nS="1.7238646240234375e+03" nB="2.1586723632812500e+03" nEv="3.8825371093750000e+03" nSuw="2.2300000000000000e+03" nBuw="8.7800000000000000e+02" nEvuw="3.1080000000000000e+03" sepI="2.4686452746391296e-01" sepG="-1.0000000000000000e+00" res="-9.9000000000000000e+01" rms="0.0000000000000000e+00" nType="-1" CC="0.0000000000000000e+00"/>
          </Node>
        </Node>
      </Node>
    </BinaryTree>
    <BinaryTree type="DecisionTree" boostWeight="1.7714702023855397e-01" itree="7">
      <Node pos="s" depth="0" Seq="0" IVar="1" Cut="3.1428570747375488e+00" cType="0" nS="2.4227919921875000e+03" nB="2.1610825195312500e+03" nEv="4.5838745117187500e+03" nSuw="3.6650000000000000e+03" nBuw="9.3900000000000000e+02" nEvuw="4.6040000000000000e+03" sepI="2.4918508529663086e-01" sepG="4.8005347251892090e+00" res="-9.9000000000000000e+01" rms="0.0000000000000000e+00" nType="0" CC="0.0000000000000000e+00">
        <Node pos="l" depth="1" Seq="0" IVar="-1" Cut="3.6344308406114578e-02" cType="1" nS="6.5830627441406250e+01" nB="2.0555728912353516e+01" nEv="8.6386352539062500e+01" nSuw="8.9000000000000000e+01" nBuw="6.0000000000000000e+00" nEvuw="9.5000000000000000e+01" sepI="1.8133036792278290e-01" sepG="-1.0000000000000000e+00" res="-9.9000000000000000e+01" rms="0.0000000000000000e+00" nType="1" CC="0.0000000000000000e+00"/>
        <Node pos="r" depth="1" Seq="1" IVar="5" Cut="7.8529220819473267e-01" cType="0" nS="2.3569614257812500e+03" nB="2.1405268554687500e+03" nEv="4.4974882812500000e+03" nSuw="3.5760000000000000e+03" nBuw="9.3300000000000000e+02" nEvuw="4.5090000000000000e+03" sepI="2.4942103028297424e-01" sepG="4.6202988624572754e+00" res="-9.9000000000000000e+01" rms="0.0000000000000000e+00" nType="0" CC="0.0000000000000000e+00">
          <Node pos="l" depth="2" Seq="1" IVar="2" Cut="6.0657262802124023e-01" cType="0" nS="9.2013877868652344e+01" nB="3.7554256439208984e+01" nEv="1.2956813049316406e+02" nSuw="3.3900000000000000e+02" nBuw="1.0000000000000000e+01" nEvuw="3.4900000000000000e+02" sepI="2.0583350956439972e-01" sepG="5.1058011054992676e+00" res="-9.9000000000000000e+01" rms="0.0000000000000000e+00" nType="0" CC="0.0000000000000000e+00">
            <Node pos="l" depth="3" Seq="1" IVar="-1" Cut="0.0000000000000000e+00" cType="1" nS="6.3472229003906250e+01" nB="7.8898892402648926e+00" nEv="7.1362121582031250e+01" nSuw="2.8100000000000000e+02" nBuw="1.0000000000000000e+00" nEvuw="2.8200000000000000e+02" sepI="9.8337508738040924e-02" sepG="-1.0000000000000000e+00" res="-9.9000000000000000e+01" rms="0.0000000000000000e+00" nType="1" CC="0.0000000000000000e+00"/>
            <Node pos="r" depth="3" Seq="5" IVar="-1" Cut="0.0000000000000000e+00" cType="1" nS="2.8541648864746094e+01" nB="2.9664365768432617e+01" nEv="5.8206016540527344e+01" nSuw="5.8000000000000000e+01" nBuw="9.0000000000000000e+00" nEvuw="6.7000000000000000e+01" sepI="2.4990698695182800e-01" sepG="-1.0000000000000000e+00" res="-9.9000000000000000e+01" rms="0.0000000000000000e+00" nType="-1" CC="0.0000000000000000e+00"/>
          </Node>
          <Node pos="r" depth="2" Seq="3" IVar="0" Cut="-7.4299138784408569e-01" cType="0" nS="2.2649475097656250e+03" nB="2.1029726562500000e+03" nEv="4.3679199218750000e+03" nSuw="3.2370000000000000e+03" nBuw="9.2300000000000000e+02" nEvuw="4.1600000000000000e+03" sepI="2.4965621531009674e-01" sepG="3.7522072792053223e+00" res="-9.9000000000000000e+01" rms="0.0000000000000000e+00" nType="0" CC="0.0000000000000000e+00">
            <Node pos="l" depth="3" Seq="3" IVar="-1" Cut="0.0000000000000000e+00" cType="1" nS="1.7957846679687500e+03" nB="1.5633114013671875e+03" nEv="3.3590959472656250e+03" nSuw="1.6150000000000000e+03" nBuw="8.5700000000000000e+02" nEvuw="2.4720000000000000e+03" sepI="2.4880260229110718e-01" sepG="-1.0000000000000000e+00" res="-9.9000000000000000e+01" rms="0.0000000000000000e+00" nType="1" CC="0.0000000000000000e+00"/>
            <Node pos="r" depth="3" Seq="7" IVar="-1" Cut="0.0000000000000000e+00" cType="1" nS="4.6916290283203125e+02" nB="5.3966113281250000e+02" nEv="1.0088240356445312e+03" nSuw="1.6220000000000000e+03" nBuw="6.6000000000000000e+01" nEvuw="1.6880000000000000e+03" sepI="2.4877913296222687e-01" sepG="-1.0000000000000000e+00" res="-9.9000000000000000e+01" rms="0.0000000000000000e+00" nType="-1" CC="0.0000000000000000e+00"/>
          </Node>
        </Node>
      </Node>
    </BinaryTree>
    <BinaryTree type="DecisionTree" boostWeight="2.7126809799056201e-01" itree="8">
      <Node pos="s" depth="0" Seq="0" IVar="0" Cut="-5.2881759405136108e-01" cType="1" nS="2.3147585449218750e+03" nB="2.2691159667968750e+03" nEv="4.5838745117187500e+03" nSuw="3.6650000000000000e+03" nBuw="9.3900000000000000e+02" nEvuw="4.6040000000000000e+03" sepI="2.4997521936893463e-01" sepG="6.9305415153503418e+00" res="-9.9000000000000000e+01" rms="0.0000000000000000e+00" nType="0" CC="0.0000000000000000e+00">
        <Node pos="l" depth="1" Seq="0" IVar="5" Cut="6.4990162849426270e-01" cType="0" nS="1.2818917236328125e+03" nB="1.0802172851562500e+03" nEv="2.3621091308593750e+03" nSuw="2.7370000000000000e+03" nBuw="2.7300000000000000e+02" nEvuw="3.0100000000000000e+03" sepI="2.4817760288715363e-01" sepG="8.7299299240112305e+00" res="-9.9000000000000000e+01" rms="0.0000000000000000e+00" nType="0" CC="0.0000000000000000e+00">
          <Node pos="l" depth="2" Seq="0" IVar="2" Cut="9.8034310340881348e-01" cType="1" nS="1.2038815307617188e+02" nB="3.5711250305175781e+01" nEv="1.5609941101074219e+02" nSuw="4.5400000000000000e+02" nBuw="8.0000000000000000e+00" nEvuw="4.6200000000000000e+02" sepI="1.7643564939498901e-01" sepG="1.4008071899414062e+01" res="-9.9000000000000000e+01" rms="0.0000000000000000e+00" nType="0" CC="0.0000000000000000e+00">
            <Node pos="l" depth="3" Seq="0" IVar="-1" Cut="0.0000000000000000e+00" cType="1" nS="1.0833100128173828e+02" nB="5.1152172088623047e+00" nEv="1.1344622039794922e+02" nSuw="4.1200000000000000e+02" nBuw="5.0000000000000000e+00" nEvuw="4.1700000000000000e+02" sepI="4.3056309223175049e-02" sepG="-1.0000000000000000e+00" res="-9.9000000000000000e+01" rms="0.0000000000000000e+00" nType="1" CC="0.0000000000000000e+00"/>
            <Node pos="r" depth="3" Seq="4" IVar="-1" Cut="0.0000000000000000e+00" cType="1" nS="1.2057153701782227e+01" nB="3.0596033096313477e+01" nEv="4.2653186798095703e+01" nSuw="4.2000000000000000e+01" nBuw="3.0000000000000000e+00" nEvuw="4.5000000000000000e+01" sepI="2.0277151465415955e-01" sepG="-1.0000000000000000e+00" res="-9.9000000000000000e+01" rms="0.0000000000000000e+00" nType="-1" CC="0.0000000000000000e+00"/>
          </Node>
          <Node pos="r" depth="2" Seq="2" IVar="4" Cut="4.2870428413152695e-02" cType="0" nS="1.1615035400390625e+03" nB="1.0445061035156250e+03" nEv="2.2060095214843750e+03" nSuw="2.2830000000000000e+03" nBuw="2.6500000000000000e+02" nEvuw="2.5480000000000000e+03" sepI="2.4929679930210114e-01" sepG="9.0357322692871094e+00" res="-9.9000000000000000e+01" rms="0.0000000000000000e+00" nType="0" CC="0.0000000000000000e+00">
            <Node pos="l" depth="3" Seq="2" IVar="-1" Cut="0.0000000000000000e+00" cType="1" nS="2.7865396118164062e+02" nB="1.4496356201171875e+02" nEv="4.2361752319335938e+02" nSuw="6.9400000000000000e+02" nBuw="3.1000000000000000e+01" nEvuw="7.2500000000000000e+02" sepI="2.2510038316249847e-01" sepG="-1.0000000000000000e+00" res="-9.9000000000000000e+01" rms="0.0000000000000000e+00" nType="1" CC="0.0000000000000000e+00"/>
            <Node pos="r" depth="3" Seq="6" IVar="-1" Cut="0.0000000000000000e+00" cType="1" nS="8.8284960937500000e+02" nB="8.9954254150390625e+02" nEv="1.7823920898437500e+03" nSuw="1.5890000000000000e+03" nBuw="2.3400000000000000e+02" nEvuw="1.8230000000000000e+03" sepI="2.4997806549072266e-01" sepG="-1.0000000000000000e+00" res="-9.9000000000000000e+01" rms="0.0000000000000000e+00" nType="-1" CC="0.0000000000000000e+00"/>
          </Node>
        </Node>
        <Node pos="r" depth="1" Seq="1" IVar="5" Cut="1.5210041403770447e-01" cType="1" nS="1.0328669433593750e+03" nB="1.1888985595703125e+03" nEv="2.2217656250000000e+03" nSuw="9.2800000000000000e+02" nBuw="6.6600000000000000e+02" nEvuw="1.5940000000000000e+03" sepI="2.4876698851585388e-01" sepG="1.0354754447937012e+01" res="-9.9000000000000000e+01" rms="0.0000000000000000e+00" nType="0" CC="0.0000000000000000e+00">
          <Node pos="l" depth="2" Seq="1" IVar="-1" Cut="5.7658165693283081e-01" cType="1" nS="1.1974377441406250e+02" nB="5.0943702697753906e+01" nEv="1.7068748474121094e+02" nSuw="7.2000000000000000e+01" nBuw="3.4000000000000000e+01" nEvuw="1.0600000000000000e+02" sepI="2.0938238501548767e-01" sepG="-1.0000000000000000e+00" res="-9.9000000000000000e+01" rms="0.0000000000000000e+00" nType="1" CC="0.0000000000000000e+00"/>
          <Node pos="r" depth="2" Seq="3" IVar="2" Cut="4.9145224690437317e-01" cType="1" nS="9.1312316894531250e+02" nB="1.1379549560546875e+03" nEv="2.0510781250000000e+03" nSuw="8.5600000000000000e+02" nBuw="6.3200000000000000e+02" nEvuw="1.4880000000000000e+03" sepI="2.4699606001377106e-01" sepG="6.6548395156860352e+00" res="-9.9000000000000000e+01" rms="0.0000000000000000e+00" nType="0" CC="0.0000000000000000e+00">
            <Node pos="l" depth="3" Seq="3" IVar="-1" Cut="0.0000000000000000e+00" cType="1" nS="4.1417706298828125e+02" nB="3.8808956909179688e+02" nEv="8.0226666259765625e+02" nSuw="2.0500000000000000e+02" nBuw="3.1400000000000000e+02" nEvuw="5.1900000000000000e+02" sepI="2.4973565340042114e-01" sepG="-1.0000000000000000e+00" res="-9.9000000000000000e+01" rms="0.0000000000000000e+00" nType="1" CC="0.0000000000000000e+00"/>
            <Node pos="r" depth="3" Seq="7" IVar="-1" Cut="0.0000000000000000e+00" cType="1" nS="4.9894610595703125e+02" nB="7.4986535644531250e+02" nEv="1.2488114013671875e+03" nSuw="6.5100000000000000e+02" nBuw="3.1800000000000000e+02" nEvuw="9.6900000000000000e+02" sepI="2.3990714550018311e-01" sepG="-1.0000000000000000e+00" res="-9.9000000000000000e+01" rms="0.0000000000000000e+00" nType="-1" CC="0.0000000000000000e+00"/>
          </Node>
        </Node>
      </Node>
    </BinaryTree>
    <BinaryTree type="DecisionTree" boostWeight="3.3386095273537608e-01" itree="9">
      <Node pos="s" depth="0" Seq="0" IVar="0" Cut="-5.2881759405136108e-01" cType="1" nS="2.4225415039062500e+03" nB="2.1613330078125000e+03" nEv="4.5838745117187500e+03" nSuw="3.6650000000000000e+03" nBuw="9.3900000000000000e+02" nEvuw="4.6040000000000000e+03" sepI="2.4918819963932037e-01" sepG="1.3355300903320312e+01" res="-9.9000000000000000e+01" rms="0.0000000000000000e+00" nType="0" CC="0.0000000000000000e+00">
        <Node pos="l" depth="1" Seq="0" IVar="2" Cut="1.1147363185882568e+00" cType="1" nS="1.3753586425781250e+03" nB="9.9310675048828125e+02" nEv="2.3684653320312500e+03" nSuw="2.7370000000000000e+03" nBuw="2.7300000000000000e+02" nEvuw="3.0100000000000000e+03" sepI="2.4348813295364380e-01" sepG="6.4865756034851074e+00" res="-9.9000000000000000e+01" rms="0.0000000000000000e+00" nType="0" CC="0.0000000000000000e+00">
          <Node pos="l" depth="2" Seq="0" IVar="-1" Cut="6.4990162849426270e-01" cType="0" nS="1.3349136962890625e+03" nB="9.1790240478515625e+02" nEv="2.2528159179687500e+03" nSuw="2.6470000000000000e+03" nBuw="2.5800000000000000e+02" nEvuw="2.9050000000000000e+03" sepI="2.4143387377262115e-01" sepG="-1.0000000000000000e+00" res="-9.9000000000000000e+01" rms="0.0000000000000000e+00" nType="1" CC="0.0000000000000000e+00"/>
          <Node pos="r" depth="2" Seq="2" IVar="0" Cut="-8.2152932882308960e-01" cType="1" nS="4.0444995880126953e+01" nB="7.5204368591308594e+01" nEv="1.1564936828613281e+02" nSuw="9.0000000000000000e+01" nBuw="1.5000000000000000e+01" nEvuw="1.0500000000000000e+02" sepI="2.2741617262363434e-01" sepG="3.8679368495941162e+00" res="-9.9000000000000000e+01" rms="0.0000000000000000e+00" nType="0" CC="0.0000000000000000e+00">
            <Node pos="l" depth="3" Seq="2" IVar="-1" Cut="0.0000000000000000e+00" cType="1" nS="1.1505597114562988e+01" nB="1.9821993112564087e+00" nEv="1.3487795829772949e+01" nSuw="4.7000000000000000e+01" nBuw="1.0000000000000000e+00" nEvuw="4.8000000000000000e+01" sepI="1.2536448240280151e-01" sepG="-1.0000000000000000e+00" res="-9.9000000000000000e+01" rms="0.0000000000000000e+00" nType="1" CC="0.0000000000000000e+00"/>
            <Node pos="r" depth="3" Seq="6" IVar="-1" Cut="0.0000000000000000e+00" cType="1" nS="2.8939399719238281e+01" nB="7.3222175598144531e+01" nEv="1.0216156768798828e+02" nSuw="4.3000000000000000e+01" nBuw="1.4000000000000000e+01" nEvuw="5.7000000000000000e+01" sepI="2.0302850008010864e-01" sepG="-1.0000000000000000e+00" res="-9.9000000000000000e+01" rms="0.0000000000000000e+00" nType="-1" CC="0.0000000000000000e+00"/>
          </Node>
        </Node>
        <Node pos="r" depth="1" Seq="1" IVar="5" Cut="1.5210041403770447e-01" cType="1" nS="1.0471828613281250e+03" nB="1.1682263183593750e+03" nEv="2.2154091796875000e+03" nSuw="9.2800000000000000e+02" nBuw="6.6600000000000000e+02" nEvuw="1.5940000000000000e+03" sepI="2.4925369024276733e-01" sepG="5.0814051628112793e+00" res="-9.9000000000000000e+01" rms="0.0000000000000000e+00" nType="0" CC="0.0000000000000000e+00">
          <Node pos="l" depth="2" Seq="1" IVar="-1" Cut="5.7658165693283081e-01" cType="1" nS="1.0551893615722656e+02" nB="5.8881412506103516e+01" nEv="1.6440034484863281e+02" nSuw="7.2000000000000000e+01" nBuw="3.4000000000000000e+01" nEvuw="1.0600000000000000e+02" sepI="2.2988103330135345e-01" sepG="-1.0000000000000000e+00" res="-9.9000000000000000e+01" rms="0.0000000000000000e+00" nType="1" CC="0.0000000000000000e+00"/>
          <Node pos="r" depth="2" Seq="3" IVar="5" Cut="7.6332056522369385e-01" cType="0" nS="9.4166387939453125e+02" nB="1.1093449707031250e+03" nEv="2.0510087890625000e+03" nSuw="8.5600000000000000e+02" nBuw="6.3200000000000000e+02" nEvuw="1.4880000000000000e+03" sepI="2.4832901358604431e-01" sepG="5.0420098304748535e+00" res="-9.9000000000000000e+01" rms="0.0000000000000000e+00" nType="0" CC="0.0000000000000000e+00">
            <Node pos="l" depth="3" Seq="3" IVar="-1" Cut="0.0000000000000000e+00" cType="1" nS="7.1897209167480469e+01" nB="3.5385623931884766e+01" nEv="1.0728282928466797e+02" nSuw="1.8800000000000000e+02" nBuw="1.1000000000000000e+01" nEvuw="1.9900000000000000e+02" sepI="2.2104384005069733e-01" sepG="-1.0000000000000000e+00" res="-9.9000000000000000e+01" rms="0.0000000000000000e+00" nType="1" CC="0.0000000000000000e+00"/>
            <Node pos="r" depth="3" Seq="7" IVar="-1" Cut="0.0000000000000000e+00" cType="1" nS="8.6976666259765625e+02" nB="1.0739593505859375e+03" nEv="1.9437260742187500e+03" nSuw="6.6800000000000000e+02" nBuw="6.2100000000000000e+02" nEvuw="1.2890000000000000e+03" sepI="2.4724100530147552e-01" sepG="-1.0000000000000000e+00" res="-9.9000000000000000e+01" rms="0.0000000000000000e+00" nType="-1" CC="0.0000000000000000e+00"/>
          </Node>
        </Node>
      </Node>
    </BinaryTree>
    <BinaryTree type="DecisionTree" boostWeight="2.9272536922304992e-01" itree="10">
      <Node pos="s" depth="0" Seq="0" IVar="5" Cut="3.7912052869796753e-01" cType="0" nS="2.3843742675781250e+03" nB="2.1995002441406250e+03" nEv="4.5838745117187500e+03" nSuw="3.6650000000000000e+03" nBuw="9.3900000000000000e+02" nEvuw="4.6040000000000000e+03" sepI="2.4959334731101990e-01" sepG="6.0282163619995117e+00" res="-9.9000000000000000e+01" rms="0.0000000000000000e+00" nType="0" CC="0.0000000000000000e+00">
        <Node pos="l" depth="1" Seq="0" IVar="-1" Cut="-8.9658504724502563e-01" cType="1" nS="1.1730106201171875e+03" nB="9.2286004638671875e+02" nEv="2.0958706054687500e+03" nSuw="2.1000000000000000e+03" nBuw="3.8700000000000000e+02" nEvuw="2.4870000000000000e+03" sepI="2.4643865227699280e-01" sepG="-1.0000000000000000e+00" res="-9.9000000000000000e+01" rms="0.0000000000000000e+00" nType="1" CC="0.0000000000000000e+00"/>
        <Node pos="r" depth="1" Seq="1" IVar="0" Cut="-7.4299138784408569e-01" cType="0" nS="1.2113637695312500e+03" nB="1.2766402587890625e+03" nEv="2.4880041503906250e+03" nSuw="1.5650000000000000e+03" nBuw="5.5200000000000000e+02" nEvuw="2.1170000000000000e+03" sepI="2.4982790648937225e-01" sepG="6.8906688690185547e+00" res="-9.9000000000000000e+01" rms="0.0000000000000000e+00" nType="0" CC="0.0000000000000000e+00">
          <Node pos="l" depth="2" Seq="1" IVar="5" Cut="2.4157144129276276e-01" cType="1" nS="9.4645489501953125e+02" nB="8.7856005859375000e+02" nEv="1.8250150146484375e+03" nSuw="6.8800000000000000e+02" nBuw="5.0300000000000000e+02" nEvuw="1.1910000000000000e+03" sepI="2.4965399503707886e-01" sepG="8.8135128021240234e+00" res="-9.9000000000000000e+01" rms="0.0000000000000000e+00" nType="0" CC="0.0000000000000000e+00">
            <Node pos="l" depth="3" Seq="1" IVar="-1" Cut="0.0000000000000000e+00" cType="1" nS="4.8497686767578125e+02" nB="3.2863006591796875e+02" nEv="8.1360693359375000e+02" nSuw="3.8600000000000000e+02" nBuw="1.8800000000000000e+02" nEvuw="5.7400000000000000e+02" sepI="2.4076814949512482e-01" sepG="-1.0000000000000000e+00" res="-9.9000000000000000e+01" rms="0.0000000000000000e+00" nType="1" CC="0.0000000000000000e+00"/>
            <Node pos="r" depth="3" Seq="5" IVar="-1" Cut="0.0000000000000000e+00" cType="1" nS="4.6147802734375000e+02" nB="5.4993005371093750e+02" nEv="1.0114080810546875e+03" nSuw="3.0200000000000000e+02" nBuw="3.1500000000000000e+02" nEvuw="6.1700000000000000e+02" sepI="2.4808794260025024e-01" sepG="-1.0000000000000000e+00" res="-9.9000000000000000e+01" rms="0.0000000000000000e+00" nType="-1" CC="0.0000000000000000e+00"/>
          </Node>
          <Node pos="r" depth="2" Seq="3" IVar="1" Cut="2.1904761791229248e+00" cType="0" nS="2.6490887451171875e+02" nB="3.9808020019531250e+02" nEv="6.6298907470703125e+02" nSuw="8.7700000000000000e+02" nBuw="4.9000000000000000e+01" nEvuw="9.2600000000000000e+02" sepI="2.3991331458091736e-01" sepG="7.0591278076171875e+00" res="-9.9000000000000000e+01" rms="0.0000000000000000e+00" nType="0" CC="0.0000000000000000e+00">
            <Node pos="l" depth="3" Seq="3" IVar="-1" Cut="0.0000000000000000e+00" cType="1" nS="1.9018756866455078e+01" nB="0.0000000000000000e+00" nEv="1.9018756866455078e+01" nSuw="9.4000000000000000e+01" nBuw="0.0000000000000000e+00" nEvuw="9.4000000000000000e+01" sepI="0.0000000000000000e+00" sepG="-1.0000000000000000e+00" res="-9.9000000000000000e+01" rms="0.0000000000000000e+00" nType="1" CC="0.0000000000000000e+00"/>
            <Node pos="r" depth="3" Seq="7" IVar="-1" Cut="0.0000000000000000e+00" cType="1" nS="2.4589012145996094e+02" nB="3.9808020019531250e+02" nEv="6.4397033691406250e+02" nSuw="7.8300000000000000e+02" nBuw="4.9000000000000000e+01" nEvuw="8.3200000000000000e+02" sepI="2.3603692650794983e-01" sepG="-1.0000000000000000e+00" res="-9.9000000000000000e+01" rms="0.0000000000000000e+00" nType="-1" CC="0.0000000000000000e+00"/>
          </Node>
        </Node>
      </Node>
    </BinaryTree>
    <BinaryTree type="DecisionTree" boostWeight="1.4879143391384012e-01" itree="11">
      <Node pos="s" depth="0" Seq="0" IVar="1" Cut="3.1428570747375488e+00" cType="0" nS="2.2918640136718750e+03" nB="2.2920107421875000e+03" nEv="4.5838745117187500e+03" nSuw="3.6650000000000000e+03" nBuw="9.3900000000000000e+02" nEvuw="4.6040000000000000e+03" sepI="2.5000000000000000e-01" sepG="6.5329704284667969e+00" res="-9.9000000000000000e+01" rms="0.0000000000000000e+00" nType="0" CC="0.0000000000000000e+00">
        <Node pos="l" depth="1" Seq="0" IVar="-1" Cut="3.6344308406114578e-02" cType="1" nS="6.7334770202636719e+01" nB="2.0017578125000000e+01" nEv="8.7352355957031250e+01" nSuw="8.9000000000000000e+01" nBuw="6.0000000000000000e+00" nEvuw="9.5000000000000000e+01" sepI="1.7664515972137451e-01" sepG="-1.0000000000000000e+00" res="-9.9000000000000000e+01" rms="0.0000000000000000e+00" nType="1" CC="0.0000000000000000e+00"/>
        <Node pos="r" depth="1" Seq="1" IVar="3" Cut="2.3001965135335922e-02" cType="0" nS="2.2245292968750000e+03" nB="2.2719931640625000e+03" nEv="4.4965224609375000e+03" nSuw="3.5760000000000000e+03" nBuw="9.3300000000000000e+02" nEvuw="4.5090000000000000e+03" sepI="2.4997214972972870e-01" sepG="3.4319112300872803e+00" res="-9.9000000000000000e+01" rms="0.0000000000000000e+00" nType="0" CC="0.0000000000000000e+00">
          <Node pos="l" depth="2" Seq="1" IVar="-1" Cut="1.0625638812780380e-01" cType="1" nS="6.3745483398437500e+02" nB="5.4064178466796875e+02" nEv="1.1780965576171875e+03" nSuw="1.6100000000000000e+03" nBuw="1.7300000000000000e+02" nEvuw="1.7830000000000000e+03" sepI="2.4831171333789825e-01" sepG="-1.0000000000000000e+00" res="-9.9000000000000000e+01" rms="0.0000000000000000e+00" nType="1" CC="0.0000000000000000e+00"/>
          <Node pos="r" depth="2" Seq="3" IVar="5" Cut="4.7175896167755127e-01" cType="1" nS="1.5870743408203125e+03" nB="1.7313513183593750e+03" nEv="3.3184257812500000e+03" nSuw="1.9660000000000000e+03" nBuw="7.6000000000000000e+02" nEvuw="2.7260000000000000e+03" sepI="2.4952742457389832e-01" sepG="6.2019262313842773e+00" res="-9.9000000000000000e+01" rms="0.0000000000000000e+00" nType="0" CC="0.0000000000000000e+00">
            <Node pos="l" depth="3" Seq="3" IVar="-1" Cut="0.0000000000000000e+00" cType="1" nS="1.2015062255859375e+03" nB="1.1755133056640625e+03" nEv="2.3770195312500000e+03" nSuw="1.2230000000000000e+03" nBuw="5.8900000000000000e+02" nEvuw="1.8120000000000000e+03" sepI="2.4997010827064514e-01" sepG="-1.0000000000000000e+00" res="-9.9000000000000000e+01" rms="0.0000000000000000e+00" nType="1" CC="0.0000000000000000e+00"/>
            <Node pos="r" depth="3" Seq="7" IVar="-1" Cut="0.0000000000000000e+00" cType="1" nS="3.8556817626953125e+02" nB="5.5583795166015625e+02" nEv="9.4140612792968750e+02" nSuw="7.4300000000000000e+02" nBuw="1.7100000000000000e+02" nEvuw="9.1400000000000000e+02" sepI="2.4182173609733582e-01" sepG="-1.0000000000000000e+00" res="-9.9000000000000000e+01" rms="0.0000000000000000e+00" nType="-1" CC="0.0000000000000000e+00"/>
          </Node>
        </Node>
      </Node>
    </BinaryTree>
    <BinaryTree type="DecisionTree" boostWeight="2.0548388026989445e-01" itree="12">
      <Node pos="s" depth="0" Seq="0" IVar="1" Cut="3.1428570747375488e+00" cType="0" nS="2.1910185546875000e+03" nB="2.3928559570312500e+03" nEv="4.5838745117187500e+03" nSuw="3.6650000000000000e+03" nBuw="9.3900000000000000e+02" nEvuw="4.6040000000000000e+03" sepI="2.4951529502868652e-01" sepG="6.0549454689025879e+00" res="-9.9000000000000000e+01" rms="0.0000000000000000e+00" nType="0" CC="0.0000000000000000e+00">
        <Node pos="l" depth="1" Seq="0" IVar="4" Cut="3.6344308406114578e-02" cType="1" nS="6.2680217742919922e+01" nB="2.1623296737670898e+01" nEv="8.4303512573242188e+01" nSuw="8.9000000000000000e+01" nBuw="6.0000000000000000e+00" nEvuw="9.5000000000000000e+01" sepI="1.9070455431938171e-01" sepG="5.1978187561035156e+00" res="-9.9000000000000000e+01" rms="0.0000000000000000e+00" nType="0" CC="0.0000000000000000e+00">
          <Node pos="l" depth="2" Seq="0" IVar="-1" Cut="0.0000000000000000e+00" cType="1" nS="4.2336425781250000e+01" nB="5.2988398075103760e-01" nEv="4.2866310119628906e+01" nSuw="4.9000000000000000e+01" nBuw="1.0000000000000000e+00" nEvuw="5.0000000000000000e+01" sepI="1.2208513915538788e-02" sepG="-1.0000000000000000e+00" res="-9.9000000000000000e+01" rms="0.0000000000000000e+00" nType="1" CC="0.0000000000000000e+00"/>
          <Node pos="r" depth="2" Seq="2" IVar="-1" Cut="0.0000000000000000e+00" cType="1" nS="2.0343791961669922e+01" nB="2.1093414306640625e+01" nEv="4.1437206268310547e+01" nSuw="4.0000000000000000e+01" nBuw="5.0000000000000000e+00" nEvuw="4.5000000000000000e+01" sepI="2.4991817772388458e-01" sepG="-1.0000000000000000e+00" res="-9.9000000000000000e+01" rms="0.0000000000000000e+00" nType="-1" CC="0.0000000000000000e+00"/>
        </Node>
        <Node pos="r" depth="1" Seq="1" IVar="5" Cut="6.4990162849426270e-01" cType="0" nS="2.1283383789062500e+03" nB="2.3712326660156250e+03" nEv="4.4995712890625000e+03" nSuw="3.5760000000000000e+03" nBuw="9.3300000000000000e+02" nEvuw="4.5090000000000000e+03" sepI="2.4927149713039398e-01" sepG="2.6864175796508789e+00" res="-9.9000000000000000e+01" rms="0.0000000000000000e+00" nType="0" CC="0.0000000000000000e+00">
          <Node pos="l" depth="2" Seq="1" IVar="0" Cut="-6.0352492332458496e-01" cType="1" nS="2.3640228271484375e+02" nB="1.9495085144042969e+02" nEv="4.3135314941406250e+02" nSuw="7.8000000000000000e+02" nBuw="5.3000000000000000e+01" nEvuw="8.3300000000000000e+02" sepI="2.4769137799739838e-01" sepG="7.6571812629699707e+00" res="-9.9000000000000000e+01" rms="0.0000000000000000e+00" nType="0" CC="0.0000000000000000e+00">
            <Node pos="l" depth="3" Seq="1" IVar="-1" Cut="0.0000000000000000e+00" cType="1" nS="6.4275962829589844e+01" nB="1.2827410697937012e+01" nEv="7.7103370666503906e+01" nSuw="3.7400000000000000e+02" nBuw="5.0000000000000000e+00" nEvuw="3.7900000000000000e+02" sepI="1.3868862390518188e-01" sepG="-1.0000000000000000e+00" res="-9.9000000000000000e+01" rms="0.0000000000000000e+00" nType="1" CC="0.0000000000000000e+00"/>
            <Node pos="r" depth="3" Seq="5" IVar="-1" Cut="0.0000000000000000e+00" cType="1" nS="1.7212632751464844e+02" nB="1.8212344360351562e+02" nEv="3.5424975585937500e+02" nSuw="4.0600000000000000e+02" nBuw="4.8000000000000000e+01" nEvuw="4.5400000000000000e+02" sepI="2.4980090558528900e-01" sepG="-1.0000000000000000e+00" res="-9.9000000000000000e+01" rms="0.0000000000000000e+00" nType="-1" CC="0.0000000000000000e+00"/>
          </Node>
          <Node pos="r" depth="2" Seq="3" IVar="0" Cut="-2.2897423803806305e-01" cType="0" nS="1.8919361572265625e+03" nB="2.1762817382812500e+03" nEv="4.0682180175781250e+03" nSuw="2.7960000000000000e+03" nBuw="8.8000000000000000e+02" nEvuw="3.6760000000000000e+03" sepI="2.4877870082855225e-01" sepG="3.2432661056518555e+00" res="-9.9000000000000000e+01" rms="0.0000000000000000e+00" nType="0" CC="0.0000000000000000e+00">
            <Node pos="l" depth="3" Seq="3" IVar="-1" Cut="0.0000000000000000e+00" cType="1" nS="2.7034396362304688e+02" nB="2.2986468505859375e+02" nEv="5.0020864868164062e+02" nSuw="1.1600000000000000e+02" nBuw="2.0700000000000000e+02" nEvuw="3.2300000000000000e+02" sepI="2.4836279451847076e-01" sepG="-1.0000000000000000e+00" res="-9.9000000000000000e+01" rms="0.0000000000000000e+00" nType="1" CC="0.0000000000000000e+00"/>
            <Node pos="r" depth="3" Seq="7" IVar="-1" Cut="0.0000000000000000e+00" cType="1" nS="1.6215921630859375e+03" nB="1.9464171142578125e+03" nEv="3.5680092773437500e+03" nSuw="2.6800000000000000e+03" nBuw="6.7300000000000000e+02" nEvuw="3.3530000000000000e+03" sepI="2.4792800843715668e-01" sepG="-1.0000000000000000e+00" res="-9.9000000000000000e+01" rms="0.0000000000000000e+00" nType="-1" CC="0.0000000000000000e+00"/>
          </Node>
        </Node>
      </Node>
    </BinaryTree>
    <BinaryTree type="DecisionTree" boostWeight="1.3214295375698581e-01" itree="13">
      <Node pos="s" depth="0" Seq="0" IVar="4" Cut="1.1429081112146378e-01" cType="1" nS="2.3629206542968750e+03" nB="2.2209538574218750e+03" nEv="4.5838745117187500e+03" nSuw="3.6650000000000000e+03" nBuw="9.3900000000000000e+02" nEvuw="4.6040000000000000e+03" sepI="2.4976019561290741e-01" sepG="6.0054588317871094e+00" res="-9.9000000000000000e+01" rms="0.0000000000000000e+00" nType="0" CC="0.0000000000000000e+00">
        <Node pos="l" depth="1" Seq="0" IVar="4" Cut="3.7853956222534180e-02" cType="0" nS="2.3522224121093750e+03" nB="2.1754907226562500e+03" nEv="4.5277133789062500e+03" nSuw="3.6340000000000000e+03" nBuw="9.3000000000000000e+02" nEvuw="4.5640000000000000e+03" sepI="2.4961909651756287e-01" sepG="4.7983560562133789e+00" res="-9.9000000000000000e+01" rms="0.0000000000000000e+00" nType="0" CC="0.0000000000000000e+00">
          <Node pos="l" depth="2" Seq="0" IVar="5" Cut="3.3399033546447754e-01" cType="0" nS="6.2921087646484375e+02" nB="4.6064288330078125e+02" nEv="1.0898537597656250e+03" nSuw="1.3670000000000000e+03" nBuw="1.4900000000000000e+02" nEvuw="1.5160000000000000e+03" sepI="2.4401926994323730e-01" sepG="8.8575992584228516e+00" res="-9.9000000000000000e+01" rms="0.0000000000000000e+00" nType="0" CC="0.0000000000000000e+00">
            <Node pos="l" depth="3" Seq="0" IVar="-1" Cut="0.0000000000000000e+00" cType="1" nS="3.7393121337890625e+02" nB="1.8870745849609375e+02" nEv="5.6263867187500000e+02" nSuw="9.5000000000000000e+02" nBuw="7.0000000000000000e+01" nEvuw="1.0200000000000000e+03" sepI="2.2290593385696411e-01" sepG="-1.0000000000000000e+00" res="-9.9000000000000000e+01" rms="0.0000000000000000e+00" nType="1" CC="0.0000000000000000e+00"/>
            <Node pos="r" depth="3" Seq="4" IVar="-1" Cut="0.0000000000000000e+00" cType="1" nS="2.5527967834472656e+02" nB="2.7193542480468750e+02" nEv="5.2721508789062500e+02" nSuw="4.1700000000000000e+02" nBuw="7.9000000000000000e+01" nEvuw="4.9600000000000000e+02" sepI="2.4975049495697021e-01" sepG="-1.0000000000000000e+00" res="-9.9000000000000000e+01" rms="0.0000000000000000e+00" nType="-1" CC="0.0000000000000000e+00"/>
          </Node>
          <Node pos="r" depth="2" Seq="2" IVar="1" Cut="3.1428570747375488e+00" cType="0" nS="1.7230115966796875e+03" nB="1.7148479003906250e+03" nEv="3.4378596191406250e+03" nSuw="2.2670000000000000e+03" nBuw="7.8100000000000000e+02" nEvuw="3.0480000000000000e+03" sepI="2.4999858438968658e-01" sepG="8.6340112686157227e+00" res="-9.9000000000000000e+01" rms="0.0000000000000000e+00" nType="0" CC="0.0000000000000000e+00">
            <Node pos="l" depth="3" Seq="2" IVar="-1" Cut="0.0000000000000000e+00" cType="1" nS="3.8404499053955078e+01" nB="1.4331756830215454e+00" nEv="3.9837673187255859e+01" nSuw="4.9000000000000000e+01" nBuw="2.0000000000000000e+00" nEvuw="5.1000000000000000e+01" sepI="3.4681156277656555e-02" sepG="-1.0000000000000000e+00" res="-9.9000000000000000e+01" rms="0.0000000000000000e+00" nType="1" CC="0.0000000000000000e+00"/>
            <Node pos="r" depth="3" Seq="6" IVar="-1" Cut="0.0000000000000000e+00" cType="1" nS="1.6846070556640625e+03" nB="1.7134146728515625e+03" nEv="3.3980217285156250e+03" nSuw="2.2180000000000000e+03" nBuw="7.7900000000000000e+02" nEvuw="2.9970000000000000e+03" sepI="2.4998202919960022e-01" sepG="-1.0000000000000000e+00" res="-9.9000000000000000e+01" rms="0.0000000000000000e+00" nType="-1" CC="0.0000000000000000e+00"/>
          </Node>
        </Node>
        <Node pos="r" depth="1" Seq="1" IVar="-1" Cut="0.0000000000000000e+00" cType="1" nS="1.0698154449462891e+01" nB="4.5463153839111328e+01" nEv="5.6161308288574219e+01" nSuw="3.1000000000000000e+01" nBuw="9.0000000000000000e+00" nEvuw="4.0000000000000000e+01" sepI="1.5420341491699219e-01" sepG="-1.0000000000000000e+00" res="-9.9000000000000000e+01" rms="0.0000000000000000e+00" nType="-1" CC="0.0000000000000000e+00"/>
      </Node>
    </BinaryTree>
    <BinaryTree type="DecisionTree" boostWeight="1.8767403566165494e-01" itree="14">
      <Node pos="s" depth="0" Seq="0" IVar="4" Cut="1.1429081112146378e-01" cType="1" nS="2.4751813964843750e+03" nB="2.1086933593750000e+03" nEv="4.5838745117187500e+03" nSuw="3.6650000000000000e+03" nBuw="9.3900000000000000e+02" nEvuw="4.6040000000000000e+03" sepI="2.4840193986892700e-01" sepG="5.8999419212341309e+00" res="-9.9000000000000000e+01" rms="0.0000000000000000e+00" nType="0" CC="0.0000000000000000e+00">
        <Node pos="l" depth="1" Seq="0" IVar="-1" Cut="3.1428570747375488e+00" cType="0" nS="2.4637275390625000e+03" nB="2.0660439453125000e+03" nEv="4.5297714843750000e+03" nSuw="3.6340000000000000e+03" nBuw="9.3000000000000000e+02" nEvuw="4.5640000000000000e+03" sepI="2.4807308614253998e-01" sepG="-1.0000000000000000e+00" res="-9.9000000000000000e+01" rms="0.0000000000000000e+00" nType="1" CC="0.0000000000000000e+00"/>
        <Node pos="r" depth="1" Seq="1" IVar="-1" Cut="0.0000000000000000e+00" cType="1" nS="1.1453826904296875e+01" nB="4.2649341583251953e+01" nEv="5.4103168487548828e+01" nSuw="3.1000000000000000e+01" nBuw="9.0000000000000000e+00" nEvuw="4.0000000000000000e+01" sepI="1.6688509285449982e-01" sepG="-1.0000000000000000e+00" res="-9.9000000000000000e+01" rms="0.0000000000000000e+00" nType="-1" CC="0.0000000000000000e+00"/>
      </Node>
    </BinaryTree>
    <BinaryTree type="DecisionTree" boostWeight="1.6280031970931222e-01" itree="15">
      <Node pos="s" depth="0" Seq="0" IVar="1" Cut="3.1428570747375488e+00" cType="0" nS="2.2655729980468750e+03" nB="2.3183015136718750e+03" nEv="4.5838745117187500e+03" nSuw="3.6650000000000000e+03" nBuw="9.3900000000000000e+02" nEvuw="4.6040000000000000e+03" sepI="2.4996691942214966e-01" sepG="3.9391534328460693e+00" res="-9.9000000000000000e+01" rms="0.0000000000000000e+00" nType="0" CC="0.0000000000000000e+00">
        <Node pos="l" depth="1" Seq="0" IVar="-1" Cut="3.6344308406114578e-02" cType="1" nS="5.3714035034179688e+01" nB="2.0623430252075195e+01" nEv="7.4337463378906250e+01" nSuw="8.9000000000000000e+01" nBuw="6.0000000000000000e+00" nEvuw="9.5000000000000000e+01" sepI="2.0046252012252808e-01" sepG="-1.0000000000000000e+00" res="-9.9000000000000000e+01" rms="0.0000000000000000e+00" nType="1" CC="0.0000000000000000e+00"/>
        <Node pos="r" depth="1" Seq="1" IVar="0" Cut="-4.0031328797340393e-01" cType="1" nS="2.2118591308593750e+03" nB="2.2976782226562500e+03" nEv="4.5095371093750000e+03" nSuw="3.5760000000000000e+03" nBuw="9.3300000000000000e+02" nEvuw="4.5090000000000000e+03" sepI="2.4990946054458618e-01" sepG="2.7493064403533936e+00" res="-9.9000000000000000e+01" rms="0.0000000000000000e+00" nType="0" CC="0.0000000000000000e+00">
          <Node pos="l" depth="2" Seq="1" IVar="3" Cut="2.3001965135335922e-02" cType="0" nS="1.5656464843750000e+03" nB="1.5208914794921875e+03" nEv="3.0865380859375000e+03" nSuw="3.0670000000000000e+03" nBuw="4.4100000000000000e+02" nEvuw="3.5080000000000000e+03" sepI="2.4994744360446930e-01" sepG="5.0156788825988770e+00" res="-9.9000000000000000e+01" rms="0.0000000000000000e+00" nType="0" CC="0.0000000000000000e+00">
            <Node pos="l" depth="3" Seq="1" IVar="-1" Cut="0.0000000000000000e+00" cType="1" nS="5.1872259521484375e+02" nB="3.9202435302734375e+02" nEv="9.1074694824218750e+02" nSuw="1.4720000000000000e+03" nBuw="9.3000000000000000e+01" nEvuw="1.5650000000000000e+03" sepI="2.4516178667545319e-01" sepG="-1.0000000000000000e+00" res="-9.9000000000000000e+01" rms="0.0000000000000000e+00" nType="1" CC="0.0000000000000000e+00"/>
            <Node pos="r" depth="3" Seq="5" IVar="-1" Cut="0.0000000000000000e+00" cType="1" nS="1.0469239501953125e+03" nB="1.1288670654296875e+03" nEv="2.1757910156250000e+03" nSuw="1.5950000000000000e+03" nBuw="3.4800000000000000e+02" nEvuw="1.9430000000000000e+03" sepI="2.4964541196823120e-01" sepG="-1.0000000000000000e+00" res="-9.9000000000000000e+01" rms="0.0000000000000000e+00" nType="-1" CC="0.0000000000000000e+00"/>
          </Node>
          <Node pos="r" depth="2" Seq="3" IVar="-1" Cut="9.1913968324661255e-01" cType="1" nS="6.4621252441406250e+02" nB="7.7678668212890625e+02" nEv="1.4229991455078125e+03" nSuw="5.0900000000000000e+02" nBuw="4.9200000000000000e+02" nEvuw="1.0010000000000000e+03" sepI="2.4789503216743469e-01" sepG="-1.0000000000000000e+00" res="-9.9000000000000000e+01" rms="0.0000000000000000e+00" nType="-1" CC="0.0000000000000000e+00"/>
        </Node>
      </Node>
    </BinaryTree>
    <BinaryTree type="DecisionTree" boostWeight="1.4218801605648157e-01" itree="16">
      <Node pos="s" depth="0" Seq="0" IVar="4" Cut="1.1429081112146378e-01" cType="1" nS="2.3722465820312500e+03" nB="2.2116281738281250e+03" nEv="4.5838745117187500e+03" nSuw="3.6650000000000000e+03" nBuw="9.3900000000000000e+02" nEvuw="4.6040000000000000e+03" sepI="2.4969305098056793e-01" sepG="3.8762702941894531e+00" res="-9.9000000000000000e+01" rms="0.0000000000000000e+00" nType="0" CC="0.0000000000000000e+00">
        <Node pos="l" depth="1" Seq="0" IVar="2" Cut="1.0638612508773804e+00" cType="1" nS="2.3595725097656250e+03" nB="2.1726162109375000e+03" nEv="4.5321889648437500e+03" nSuw="3.6340000000000000e+03" nBuw="9.3000000000000000e+02" nEvuw="4.5640000000000000e+03" sepI="2.4957458674907684e-01" sepG="2.8765332698822021e+00" res="-9.9000000000000000e+01" rms="0.0000000000000000e+00" nType="0" CC="0.0000000000000000e+00">
          <Node pos="l" depth="2" Seq="0" IVar="-1" Cut="6.4990162849426270e-01" cType="0" nS="2.2693596191406250e+03" nB="2.0423729248046875e+03" nEv="4.3117324218750000e+03" nSuw="3.4530000000000000e+03" nBuw="8.8400000000000000e+02" nEvuw="4.3370000000000000e+03" sepI="2.4930715560913086e-01" sepG="-1.0000000000000000e+00" res="-9.9000000000000000e+01" rms="0.0000000000000000e+00" nType="1" CC="0.0000000000000000e+00"/>
          <Node pos="r" depth="2" Seq="2" IVar="0" Cut="-7.1345055103302002e-01" cType="1" nS="9.0212852478027344e+01" nB="1.3024331665039062e+02" nEv="2.2045617675781250e+02" nSuw="1.8100000000000000e+02" nBuw="4.6000000000000000e+01" nEvuw="2.2700000000000000e+02" sepI="2.4175715446472168e-01" sepG="4.1090331077575684e+00" res="-9.9000000000000000e+01" rms="0.0000000000000000e+00" nType="0" CC="0.0000000000000000e+00">
            <Node pos="l" depth="3" Seq="2" IVar="-1" Cut="0.0000000000000000e+00" cType="1" nS="3.6718891143798828e+01" nB="2.0727329254150391e+01" nEv="5.7446220397949219e+01" nSuw="1.2200000000000000e+02" nBuw="4.0000000000000000e+00" nEvuw="1.2600000000000000e+02" sepI="2.3062691092491150e-01" sepG="-1.0000000000000000e+00" res="-9.9000000000000000e+01" rms="0.0000000000000000e+00" nType="1" CC="0.0000000000000000e+00"/>
            <Node pos="r" depth="3" Seq="6" IVar="-1" Cut="0.0000000000000000e+00" cType="1" nS="5.3493961334228516e+01" nB="1.0951599121093750e+02" nEv="1.6300994873046875e+02" nSuw="5.9000000000000000e+01" nBuw="4.2000000000000000e+01" nEvuw="1.0100000000000000e+02" sepI="2.2047230601310730e-01" sepG="-1.0000000000000000e+00" res="-9.9000000000000000e+01" rms="0.0000000000000000e+00" nType="-1" CC="0.0000000000000000e+00"/>
          </Node>
        </Node>
        <Node pos="r" depth="1" Seq="1" IVar="-1" Cut="0.0000000000000000e+00" cType="1" nS="1.2674065589904785e+01" nB="3.9011856079101562e+01" nEv="5.1685920715332031e+01" nSuw="3.1000000000000000e+01" nBuw="9.0000000000000000e+00" nEvuw="4.0000000000000000e+01" sepI="1.8508364260196686e-01" sepG="-1.0000000000000000e+00" res="-9.9000000000000000e+01" rms="0.0000000000000000e+00" nType="-1" CC="0.0000000000000000e+00"/>
      </Node>
    </BinaryTree>
    <BinaryTree type="DecisionTree" boostWeight="1.2317383440186863e-01" itree="17">
      <Node pos="s" depth="0" Seq="0" IVar="1" Cut="3.1428570747375488e+00" cType="0" nS="2.2244755859375000e+03" nB="2.3593989257812500e+03" nEv="4.5838745117187500e+03" nSuw="3.6650000000000000e+03" nBuw="9.3900000000000000e+02" nEvuw="4.6040000000000000e+03" sepI="2.4978341162204742e-01" sepG="2.3698880672454834e+00" res="-9.9000000000000000e+01" rms="0.0000000000000000e+00" nType="0" CC="0.0000000000000000e+00">
        <Node pos="l" depth="1" Seq="0" IVar="4" Cut="3.6344308406114578e-02" cType="1" nS="4.7310066223144531e+01" nB="2.3662519454956055e+01" nEv="7.0972587585449219e+01" nSuw="8.9000000000000000e+01" nBuw="6.0000000000000000e+00" nEvuw="9.5000000000000000e+01" sepI="2.2224566340446472e-01" sepG="4.8368468284606934e+00" res="-9.9000000000000000e+01" rms="0.0000000000000000e+00" nType="0" CC="0.0000000000000000e+00">
          <Node pos="l" depth="2" Seq="0" IVar="-1" Cut="0.0000000000000000e+00" cType="1" nS="2.9071308135986328e+01" nB="8.1687253713607788e-01" nEv="2.9888181686401367e+01" nSuw="4.9000000000000000e+01" nBuw="1.0000000000000000e+00" nEvuw="5.0000000000000000e+01" sepI="2.6583973318338394e-02" sepG="-1.0000000000000000e+00" res="-9.9000000000000000e+01" rms="0.0000000000000000e+00" nType="1" CC="0.0000000000000000e+00"/>
          <Node pos="r" depth="2" Seq="2" IVar="-1" Cut="0.0000000000000000e+00" cType="1" nS="1.8238758087158203e+01" nB="2.2845647811889648e+01" nEv="4.1084403991699219e+01" nSuw="4.0000000000000000e+01" nBuw="5.0000000000000000e+00" nEvuw="4.5000000000000000e+01" sepI="2.4685658514499664e-01" sepG="-1.0000000000000000e+00" res="-9.9000000000000000e+01" rms="0.0000000000000000e+00" nType="-1" CC="0.0000000000000000e+00"/>
        </Node>
        <Node pos="r" depth="1" Seq="1" IVar="5" Cut="8.7555253505706787e-01" cType="0" nS="2.1771655273437500e+03" nB="2.3357365722656250e+03" nEv="4.5129018554687500e+03" nSuw="3.5760000000000000e+03" nBuw="9.3300000000000000e+02" nEvuw="4.5090000000000000e+03" sepI="2.4969133734703064e-01" sepG="2.1458721160888672e+00" res="-9.9000000000000000e+01" rms="0.0000000000000000e+00" nType="0" CC="0.0000000000000000e+00">
          <Node pos="l" depth="2" Seq="1" IVar="-1" Cut="8.9363741874694824e-01" cType="0" nS="1.4577609062194824e+01" nB="2.9512171745300293e+00" nEv="1.7528825759887695e+01" nSuw="8.1000000000000000e+01" nBuw="2.0000000000000000e+00" nEvuw="8.3000000000000000e+01" sepI="1.4001733064651489e-01" sepG="-1.0000000000000000e+00" res="-9.9000000000000000e+01" rms="0.0000000000000000e+00" nType="1" CC="0.0000000000000000e+00"/>
          <Node pos="r" depth="2" Seq="3" IVar="5" Cut="6.7114138603210449e-01" cType="0" nS="2.1625878906250000e+03" nB="2.3327854003906250e+03" nEv="4.4953730468750000e+03" nSuw="3.4950000000000000e+03" nBuw="9.3100000000000000e+02" nEvuw="4.4260000000000000e+03" sepI="2.4964164197444916e-01" sepG="1.7126768827438354e+00" res="-9.9000000000000000e+01" rms="0.0000000000000000e+00" nType="0" CC="0.0000000000000000e+00">
            <Node pos="l" depth="3" Seq="3" IVar="-1" Cut="0.0000000000000000e+00" cType="1" nS="1.8893469238281250e+02" nB="1.5530207824707031e+02" nEv="3.4423675537109375e+02" nSuw="6.3300000000000000e+02" nBuw="4.2000000000000000e+01" nEvuw="6.7500000000000000e+02" sepI="2.4761357903480530e-01" sepG="-1.0000000000000000e+00" res="-9.9000000000000000e+01" rms="0.0000000000000000e+00" nType="1" CC="0.0000000000000000e+00"/>
            <Node pos="r" depth="3" Seq="7" IVar="-1" Cut="0.0000000000000000e+00" cType="1" nS="1.9736531982421875e+03" nB="2.1774831542968750e+03" nEv="4.1511362304687500e+03" nSuw="2.8620000000000000e+03" nBuw="8.8900000000000000e+02" nEvuw="3.7510000000000000e+03" sepI="2.4939724802970886e-01" sepG="-1.0000000000000000e+00" res="-9.9000000000000000e+01" rms="0.0000000000000000e+00" nType="-1" CC="0.0000000000000000e+00"/>
          </Node>
        </Node>
      </Node>
    </BinaryTree>
    <BinaryTree type="DecisionTree" boostWeight="1.8382903557890770e-01" itree="18">
      <Node pos="s" depth="0" Seq="0" IVar="4" Cut="1.1429081112146378e-01" cType="1" nS="2.3415480957031250e+03" nB="2.2423264160156250e+03" nEv="4.5838745117187500e+03" nSuw="3.6650000000000000e+03" nBuw="9.3900000000000000e+02" nEvuw="4.6040000000000000e+03" sepI="2.4988286197185516e-01" sepG="2.2703714370727539e+00" res="-9.9000000000000000e+01" rms="0.0000000000000000e+00" nType="0" CC="0.0000000000000000e+00">
        <Node pos="l" depth="1" Seq="0" IVar="4" Cut="1.6227824613451958e-02" cType="0" nS="2.3271071777343750e+03" nB="2.2080107421875000e+03" nEv="4.5351181640625000e+03" nSuw="3.6340000000000000e+03" nBuw="9.3000000000000000e+02" nEvuw="4.5640000000000000e+03" sepI="2.4982759356498718e-01" sepG="1.9357041120529175e+00" res="-9.9000000000000000e+01" rms="0.0000000000000000e+00" nType="0" CC="0.0000000000000000e+00">
          <Node pos="l" depth="2" Seq="0" IVar="2" Cut="9.1289228200912476e-01" cType="1" nS="1.5357860107421875e+03" nB="1.3695766601562500e+03" nEv="2.9053627929687500e+03" nSuw="2.6670000000000000e+03" nBuw="5.2700000000000000e+02" nEvuw="3.1940000000000000e+03" sepI="2.4918182194232941e-01" sepG="3.5451486110687256e+00" res="-9.9000000000000000e+01" rms="0.0000000000000000e+00" nType="0" CC="0.0000000000000000e+00">
            <Node pos="l" depth="3" Seq="0" IVar="-1" Cut="0.0000000000000000e+00" cType="1" nS="1.3196159667968750e+03" nB="1.1054848632812500e+03" nEv="2.4251008300781250e+03" nSuw="2.2180000000000000e+03" nBuw="4.4100000000000000e+02" nEvuw="2.6590000000000000e+03" sepI="2.4805086851119995e-01" sepG="-1.0000000000000000e+00" res="-9.9000000000000000e+01" rms="0.0000000000000000e+00" nType="1" CC="0.0000000000000000e+00"/>
            <Node pos="r" depth="3" Seq="4" IVar="-1" Cut="0.0000000000000000e+00" cType="1" nS="2.1617008972167969e+02" nB="2.6409185791015625e+02" nEv="4.8026193237304688e+02" nSuw="4.4900000000000000e+02" nBuw="8.6000000000000000e+01" nEvuw="5.3500000000000000e+02" sepI="2.4751086533069611e-01" sepG="-1.0000000000000000e+00" res="-9.9000000000000000e+01" rms="0.0000000000000000e+00" nType="-1" CC="0.0000000000000000e+00"/>
          </Node>
          <Node pos="r" depth="2" Seq="2" IVar="3" Cut="4.6347107738256454e-02" cType="0" nS="7.9132122802734375e+02" nB="8.3843408203125000e+02" nEv="1.6297552490234375e+03" nSuw="9.6700000000000000e+02" nBuw="4.0300000000000000e+02" nEvuw="1.3700000000000000e+03" sepI="2.4979108572006226e-01" sepG="8.8711328506469727e+00" res="-9.9000000000000000e+01" rms="0.0000000000000000e+00" nType="0" CC="0.0000000000000000e+00">
            <Node pos="l" depth="3" Seq="2" IVar="-1" Cut="0.0000000000000000e+00" cType="1" nS="5.5862361907958984e+01" nB="1.0311565399169922e+01" nEv="6.6173927307128906e+01" nSuw="1.4100000000000000e+02" nBuw="7.0000000000000000e+00" nEvuw="1.4800000000000000e+02" sepI="1.3154371082782745e-01" sepG="-1.0000000000000000e+00" res="-9.9000000000000000e+01" rms="0.0000000000000000e+00" nType="1" CC="0.0000000000000000e+00"/>
            <Node pos="r" depth="3" Seq="6" IVar="-1" Cut="0.0000000000000000e+00" cType="1" nS="7.3545886230468750e+02" nB="8.2812249755859375e+02" nEv="1.5635812988281250e+03" nSuw="8.2600000000000000e+02" nBuw="3.9600000000000000e+02" nEvuw="1.2220000000000000e+03" sepI="2.4912194907665253e-01" sepG="-1.0000000000000000e+00" res="-9.9000000000000000e+01" rms="0.0000000000000000e+00" nType="-1" CC="0.0000000000000000e+00"/>
          </Node>
        </Node>
        <Node pos="r" depth="1" Seq="1" IVar="-1" Cut="0.0000000000000000e+00" cType="1" nS="1.4440936088562012e+01" nB="3.4315765380859375e+01" nEv="4.8756702423095703e+01" nSuw="3.1000000000000000e+01" nBuw="9.0000000000000000e+00" nEvuw="4.0000000000000000e+01" sepI="2.0845887064933777e-01" sepG="-1.0000000000000000e+00" res="-9.9000000000000000e+01" rms="0.0000000000000000e+00" nType="-1" CC="0.0000000000000000e+00"/>
      </Node>
    </BinaryTree>
    <BinaryTree type="DecisionTree" boostWeight="1.3025922442483825e-01" itree="19">
      <Node pos="s" depth="0" Seq="0" IVar="2" Cut="4.0303459763526917e-01" cType="1" nS="2.3235432128906250e+03" nB="2.2603315429687500e+03" nEv="4.5838745117187500e+03" nSuw="3.6650000000000000e+03" nBuw="9.3900000000000000e+02" nEvuw="4.6040000000000000e+03" sepI="2.4995246529579163e-01" sepG="2.6439282894134521e+00" res="-9.9000000000000000e+01" rms="0.0000000000000000e+00" nType="0" CC="0.0000000000000000e+00">
        <Node pos="l" depth="1" Seq="0" IVar="5" Cut="3.3050006628036499e-01" cType="1" nS="4.1123999023437500e+02" nB="3.2050579833984375e+02" nEv="7.3174578857421875e+02" nSuw="2.8500000000000000e+02" nBuw="2.0700000000000000e+02" nEvuw="4.9200000000000000e+02" sepI="2.4615620076656342e-01" sepG="4.5552115440368652e+00" res="-9.9000000000000000e+01" rms="0.0000000000000000e+00" nType="0" CC="0.0000000000000000e+00">
          <Node pos="l" depth="2" Seq="0" IVar="0" Cut="-5.2318382263183594e-01" cType="1" nS="1.9716839599609375e+02" nB="1.0313245391845703e+02" nEv="3.0030084228515625e+02" nSuw="1.4300000000000000e+02" nBuw="8.7000000000000000e+01" nEvuw="2.3000000000000000e+02" sepI="2.2548596560955048e-01" sepG="1.2327075958251953e+01" res="-9.9000000000000000e+01" rms="0.0000000000000000e+00" nType="0" CC="0.0000000000000000e+00">
            <Node pos="l" depth="3" Seq="0" IVar="-1" Cut="0.0000000000000000e+00" cType="1" nS="1.2855801391601562e+02" nB="2.0911275863647461e+01" nEv="1.4946928405761719e+02" nSuw="1.1000000000000000e+02" nBuw="1.8000000000000000e+01" nEvuw="1.2800000000000000e+02" sepI="1.2033051252365112e-01" sepG="-1.0000000000000000e+00" res="-9.9000000000000000e+01" rms="0.0000000000000000e+00" nType="1" CC="0.0000000000000000e+00"/>
            <Node pos="r" depth="3" Seq="4" IVar="-1" Cut="0.0000000000000000e+00" cType="1" nS="6.8610389709472656e+01" nB="8.2221176147460938e+01" nEv="1.5083155822753906e+02" nSuw="3.3000000000000000e+01" nBuw="6.9000000000000000e+01" nEvuw="1.0200000000000000e+02" sepI="2.4796426296234131e-01" sepG="-1.0000000000000000e+00" res="-9.9000000000000000e+01" rms="0.0000000000000000e+00" nType="-1" CC="0.0000000000000000e+00"/>
          </Node>
          <Node pos="r" depth="2" Seq="2" IVar="3" Cut="4.0527242235839367e-03" cType="0" nS="2.1407159423828125e+02" nB="2.1737335205078125e+02" nEv="4.3144494628906250e+02" nSuw="1.4200000000000000e+02" nBuw="1.2000000000000000e+02" nEvuw="2.6200000000000000e+02" sepI="2.4998535215854645e-01" sepG="5.1748142242431641e+00" res="-9.9000000000000000e+01" rms="0.0000000000000000e+00" nType="0" CC="0.0000000000000000e+00">
            <Node pos="l" depth="3" Seq="2" IVar="-1" Cut="0.0000000000000000e+00" cType="1" nS="1.8573724365234375e+02" nB="1.4886993408203125e+02" nEv="3.3460717773437500e+02" nSuw="1.2500000000000000e+02" nBuw="8.7000000000000000e+01" nEvuw="2.1200000000000000e+02" sepI="2.4696503579616547e-01" sepG="-1.0000000000000000e+00" res="-9.9000000000000000e+01" rms="0.0000000000000000e+00" nType="1" CC="0.0000000000000000e+00"/>
            <Node pos="r" depth="3" Seq="6" IVar="-1" Cut="0.0000000000000000e+00" cType="1" nS="2.8334348678588867e+01" nB="6.8503425598144531e+01" nEv="9.6837776184082031e+01" nSuw="1.7000000000000000e+01" nBuw="3.3000000000000000e+01" nEvuw="5.0000000000000000e+01" sepI="2.0698359608650208e-01" sepG="-1.0000000000000000e+00" res="-9.9000000000000000e+01" rms="0.0000000000000000e+00" nType="-1" CC="0.0000000000000000e+00"/>
          </Node>
        </Node>
        <Node pos="r" depth="1" Seq="1" IVar="1" Cut="3.1428570747375488e+00" cType="0" nS="1.9123031005859375e+03" nB="1.9398258056640625e+03" nEv="3.8521289062500000e+03" nSuw="3.3800000000000000e+03" nBuw="7.3200000000000000e+02" nEvuw="4.1120000000000000e+03" sepI="2.4998724460601807e-01" sepG="1.9760735034942627e+00" res="-9.9000000000000000e+01" rms="0.0000000000000000e+00" nType="0" CC="0.0000000000000000e+00">
          <Node pos="l" depth="2" Seq="1" IVar="4" Cut="3.6344308406114578e-02" cType="1" nS="4.4877040863037109e+01" nB="2.2485954284667969e+01" nEv="6.7362991333007812e+01" nSuw="8.4000000000000000e+01" nBuw="5.0000000000000000e+00" nEvuw="8.9000000000000000e+01" sepI="2.2237847745418549e-01" sepG="4.6829466819763184e+00" res="-9.9000000000000000e+01" rms="0.0000000000000000e+00" nType="0" CC="0.0000000000000000e+00">
            <Node pos="l" depth="3" Seq="1" IVar="-1" Cut="0.0000000000000000e+00" cType="1" nS="2.5880872726440430e+01" nB="0.0000000000000000e+00" nEv="2.5880872726440430e+01" nSuw="4.6000000000000000e+01" nBuw="0.0000000000000000e+00" nEvuw="4.6000000000000000e+01" sepI="0.0000000000000000e+00" sepG="-1.0000000000000000e+00" res="-9.9000000000000000e+01" rms="0.0000000000000000e+00" nType="1" CC="0.0000000000000000e+00"/>
            <Node pos="r" depth="3" Seq="5" IVar="-1" Cut="0.0000000000000000e+00" cType="1" nS="1.8996168136596680e+01" nB="2.2485954284667969e+01" nEv="4.1482120513916016e+01" nSuw="3.8000000000000000e+01" nBuw="5.0000000000000000e+00" nEvuw="4.3000000000000000e+01" sepI="2.4823063611984253e-01" sepG="-1.0000000000000000e+00" res="-9.9000000000000000e+01" rms="0.0000000000000000e+00" nType="-1" CC="0.0000000000000000e+00"/>
          </Node>
          <Node pos="r" depth="2" Seq="3" IVar="5" Cut="8.7555253505706787e-01" cType="0" nS="1.8674260253906250e+03" nB="1.9173398437500000e+03" nEv="3.7847658691406250e+03" nSuw="3.2960000000000000e+03" nBuw="7.2700000000000000e+02" nEvuw="4.0230000000000000e+03" sepI="2.4995651841163635e-01" sepG="1.6463731527328491e+00" res="-9.9000000000000000e+01" rms="0.0000000000000000e+00" nType="0" CC="0.0000000000000000e+00">
            <Node pos="l" depth="3" Seq="3" IVar="-1" Cut="0.0000000000000000e+00" cType="1" nS="1.3536045074462891e+01" nB="3.2629084587097168e+00" nEv="1.6798954010009766e+01" nSuw="8.1000000000000000e+01" nBuw="2.0000000000000000e+00" nEvuw="8.3000000000000000e+01" sepI="1.5650644898414612e-01" sepG="-1.0000000000000000e+00" res="-9.9000000000000000e+01" rms="0.0000000000000000e+00" nType="1" CC="0.0000000000000000e+00"/>
            <Node pos="r" depth="3" Seq="7" IVar="-1" Cut="0.0000000000000000e+00" cType="1" nS="1.8538900146484375e+03" nB="1.9140769042968750e+03" nEv="3.7679667968750000e+03" nSuw="3.2150000000000000e+03" nBuw="7.2500000000000000e+02" nEvuw="3.9400000000000000e+03" sepI="2.4993620812892914e-01" sepG="-1.0000000000000000e+00" res="-9.9000000000000000e+01" rms="0.0000000000000000e+00" nType="-1" CC="0.0000000000000000e+00"/>
          </Node>
        </Node>
      </Node>
    </BinaryTree>
    <BinaryTree type="DecisionTree" boostWeight="1.7302782882170173e-01" itree="20">
      <Node pos="s" depth="0" Seq="0" IVar="1" Cut="3.1428570747375488e+00" cType="0" nS="2.4389682617187500e+03" nB="2.1449062500000000e+03" nEv="4.5838745117187500e+03" nSuw="3.6650000000000000e+03" nBuw="9.3900000000000000e+02" nEvuw="4.6040000000000000e+03" sepI="2.4897114932537079e-01" sepG="1.7129979133605957e+00" res="-9.9000000000000000e+01" rms="0.0000000000000000e+00" nType="0" CC="0.0000000000000000e+00">
        <Node pos="l" depth="1" Seq="0" IVar="4" Cut="3.6344308406114578e-02" cType="1" nS="4.8231849670410156e+01" nB="2.1965620040893555e+01" nEv="7.0197471618652344e+01" nSuw="8.9000000000000000e+01" nBuw="6.0000000000000000e+00" nEvuw="9.5000000000000000e+01" sepI="2.1499802172183990e-01" sepG="3.7183225154876709e+00" res="-9.9000000000000000e+01" rms="0.0000000000000000e+00" nType="0" CC="0.0000000000000000e+00">
          <Node pos="l" depth="2" Seq="0" IVar="-1" Cut="0.0000000000000000e+00" cType="1" nS="2.7155977249145508e+01" nB="8.5279405117034912e-01" nEv="2.8008771896362305e+01" nSuw="4.9000000000000000e+01" nBuw="1.0000000000000000e+00" nEvuw="5.0000000000000000e+01" sepI="2.9520347714424133e-02" sepG="-1.0000000000000000e+00" res="-9.9000000000000000e+01" rms="0.0000000000000000e+00" nType="1" CC="0.0000000000000000e+00"/>
          <Node pos="r" depth="2" Seq="2" IVar="-1" Cut="0.0000000000000000e+00" cType="1" nS="2.1075870513916016e+01" nB="2.1112825393676758e+01" nEv="4.2188697814941406e+01" nSuw="4.0000000000000000e+01" nBuw="5.0000000000000000e+00" nEvuw="4.5000000000000000e+01" sepI="2.4999980628490448e-01" sepG="-1.0000000000000000e+00" res="-9.9000000000000000e+01" rms="0.0000000000000000e+00" nType="-1" CC="0.0000000000000000e+00"/>
        </Node>
        <Node pos="r" depth="1" Seq="1" IVar="0" Cut="-4.0031328797340393e-01" cType="1" nS="2.3907365722656250e+03" nB="2.1229406738281250e+03" nEv="4.5136772460937500e+03" nSuw="3.5760000000000000e+03" nBuw="9.3300000000000000e+02" nEvuw="4.5090000000000000e+03" sepI="2.4911999702453613e-01" sepG="1.6581690311431885e+00" res="-9.9000000000000000e+01" rms="0.0000000000000000e+00" nType="0" CC="0.0000000000000000e+00">
          <Node pos="l" depth="2" Seq="1" IVar="-1" Cut="6.4990162849426270e-01" cType="0" nS="1.6783109130859375e+03" nB="1.4144582519531250e+03" nEv="3.0927692871093750e+03" nSuw="3.0670000000000000e+03" nBuw="4.4100000000000000e+02" nEvuw="3.5080000000000000e+03" sepI="2.4818043410778046e-01" sepG="-1.0000000000000000e+00" res="-9.9000000000000000e+01" rms="0.0000000000000000e+00" nType="1" CC="0.0000000000000000e+00"/>
          <Node pos="r" depth="2" Seq="3" IVar="1" Cut="1.0952380895614624e+00" cType="1" nS="7.1242553710937500e+02" nB="7.0848254394531250e+02" nEv="1.4209080810546875e+03" nSuw="5.0900000000000000e+02" nBuw="4.9200000000000000e+02" nEvuw="1.0010000000000000e+03" sepI="2.4999807775020599e-01" sepG="2.1766088008880615e+00" res="-9.9000000000000000e+01" rms="0.0000000000000000e+00" nType="0" CC="0.0000000000000000e+00">
            <Node pos="l" depth="3" Seq="3" IVar="-1" Cut="0.0000000000000000e+00" cType="1" nS="5.0858050537109375e+02" nB="4.5391418457031250e+02" nEv="9.6249468994140625e+02" nSuw="3.0900000000000000e+02" nBuw="3.5700000000000000e+02" nEvuw="6.6600000000000000e+02" sepI="2.4919353425502777e-01" sepG="-1.0000000000000000e+00" res="-9.9000000000000000e+01" rms="0.0000000000000000e+00" nType="1" CC="0.0000000000000000e+00"/>
            <Node pos="r" depth="3" Seq="7" IVar="-1" Cut="0.0000000000000000e+00" cType="1" nS="2.0384500122070312e+02" nB="2.5456832885742188e+02" nEv="4.5841333007812500e+02" nSuw="2.0000000000000000e+02" nBuw="1.3500000000000000e+02" nEvuw="3.3500000000000000e+02" sepI="2.4693915247917175e-01" sepG="-1.0000000000000000e+00" res="-9.9000000000000000e+01" rms="0.0000000000000000e+00" nType="-1" CC="0.0000000000000000e+00"/>
          </Node>
        </Node>
      </Node>
    </BinaryTree>
    <BinaryTree type="DecisionTree" boostWeight="1.0048337817164266e-01" itree="21">
      <Node pos="s" depth="0" Seq="0" IVar="1" Cut="3.1428570747375488e+00" cType="0" nS="2.2843217773437500e+03" nB="2.2995529785156250e+03" nEv="4.5838745117187500e+03" nSuw="3.6650000000000000e+03" nBuw="9.3900000000000000e+02" nEvuw="4.6040000000000000e+03" sepI="2.4999724328517914e-01" sepG="2.8916342258453369e+00" res="-9.9000000000000000e+01" rms="0.0000000000000000e+00" nType="0" CC="0.0000000000000000e+00">
        <Node pos="l" depth="1" Seq="0" IVar="3" Cut="2.9132723808288574e-02" cType="1" nS="4.8065105438232422e+01" nB="2.0368902206420898e+01" nEv="6.8434005737304688e+01" nSuw="8.9000000000000000e+01" nBuw="6.0000000000000000e+00" nEvuw="9.5000000000000000e+01" sepI="2.0905163884162903e-01" sepG="3.0986335277557373e+00" res="-9.9000000000000000e+01" rms="0.0000000000000000e+00" nType="0" CC="0.0000000000000000e+00">
          <Node pos="l" depth="2" Seq="0" IVar="-1" Cut="0.0000000000000000e+00" cType="1" nS="3.9454139709472656e+01" nB="7.0439782142639160e+00" nEv="4.6498119354248047e+01" nSuw="5.2000000000000000e+01" nBuw="3.0000000000000000e+00" nEvuw="5.5000000000000000e+01" sepI="1.2854045629501343e-01" sepG="-1.0000000000000000e+00" res="-9.9000000000000000e+01" rms="0.0000000000000000e+00" nType="1" CC="0.0000000000000000e+00"/>
          <Node pos="r" depth="2" Seq="2" IVar="-1" Cut="0.0000000000000000e+00" cType="1" nS="8.6109657287597656e+00" nB="1.3324924468994141e+01" nEv="2.1935890197753906e+01" nSuw="3.7000000000000000e+01" nBuw="3.0000000000000000e+00" nEvuw="4.0000000000000000e+01" sepI="2.3845481872558594e-01" sepG="-1.0000000000000000e+00" res="-9.9000000000000000e+01" rms="0.0000000000000000e+00" nType="-1" CC="0.0000000000000000e+00"/>
        </Node>
        <Node pos="r" depth="1" Seq="1" IVar="0" Cut="-9.1433048248291016e-01" cType="1" nS="2.2362565917968750e+03" nB="2.2791840820312500e+03" nEv="4.5154409179687500e+03" nSuw="3.5760000000000000e+03" nBuw="9.3300000000000000e+02" nEvuw="4.5090000000000000e+03" sepI="2.4997740983963013e-01" sepG="1.1641864776611328e+00" res="-9.9000000000000000e+01" rms="0.0000000000000000e+00" nType="0" CC="0.0000000000000000e+00">
          <Node pos="l" depth="2" Seq="1" IVar="4" Cut="2.8784338384866714e-02" cType="0" nS="7.1781929016113281e+01" nB="4.9491867065429688e+01" nEv="1.2127379608154297e+02" nSuw="4.1200000000000000e+02" nBuw="3.0000000000000000e+00" nEvuw="4.1500000000000000e+02" sepI="2.4155443906784058e-01" sepG="6.0000100135803223e+00" res="-9.9000000000000000e+01" rms="0.0000000000000000e+00" nType="0" CC="0.0000000000000000e+00">
            <Node pos="l" depth="3" Seq="1" IVar="-1" Cut="0.0000000000000000e+00" cType="1" nS="2.7775156021118164e+01" nB="0.0000000000000000e+00" nEv="2.7775156021118164e+01" nSuw="2.0700000000000000e+02" nBuw="0.0000000000000000e+00" nEvuw="2.0700000000000000e+02" sepI="0.0000000000000000e+00" sepG="-1.0000000000000000e+00" res="-9.9000000000000000e+01" rms="0.0000000000000000e+00" nType="1" CC="0.0000000000000000e+00"/>
            <Node pos="r" depth="3" Seq="5" IVar="-1" Cut="0.0000000000000000e+00" cType="1" nS="4.4006767272949219e+01" nB="4.9491867065429688e+01" nEv="9.3498634338378906e+01" nSuw="2.0500000000000000e+02" nBuw="3.0000000000000000e+00" nEvuw="2.0800000000000000e+02" sepI="2.4913960695266724e-01" sepG="-1.0000000000000000e+00" res="-9.9000000000000000e+01" rms="0.0000000000000000e+00" nType="-1" CC="0.0000000000000000e+00"/>
          </Node>
          <Node pos="r" depth="2" Seq="3" IVar="4" Cut="2.8578871861100197e-02" cType="1" nS="2.1644746093750000e+03" nB="2.2296923828125000e+03" nEv="4.3941669921875000e+03" nSuw="3.1640000000000000e+03" nBuw="9.3000000000000000e+02" nEvuw="4.0940000000000000e+03" sepI="2.4994492530822754e-01" sepG="1.8012888431549072e+00" res="-9.9000000000000000e+01" rms="0.0000000000000000e+00" nType="0" CC="0.0000000000000000e+00">
            <Node pos="l" depth="3" Seq="3" IVar="-1" Cut="0.0000000000000000e+00" cType="1" nS="1.3586472167968750e+03" nB="1.3113942871093750e+03" nEv="2.6700415039062500e+03" nSuw="1.5110000000000000e+03" nBuw="6.6300000000000000e+02" nEvuw="2.1740000000000000e+03" sepI="2.4992169439792633e-01" sepG="-1.0000000000000000e+00" res="-9.9000000000000000e+01" rms="0.0000000000000000e+00" nType="1" CC="0.0000000000000000e+00"/>
            <Node pos="r" depth="3" Seq="7" IVar="-1" Cut="0.0000000000000000e+00" cType="1" nS="8.0582733154296875e+02" nB="9.1829797363281250e+02" nEv="1.7241253662109375e+03" nSuw="1.6530000000000000e+03" nBuw="2.6700000000000000e+02" nEvuw="1.9200000000000000e+03" sepI="2.4893614649772644e-01" sepG="-1.0000000000000000e+00" res="-9.9000000000000000e+01" rms="0.0000000000000000e+00" nType="-1" CC="0.0000000000000000e+00"/>
          </Node>
        </Node>
      </Node>
    </BinaryTree>
    <BinaryTree type="DecisionTree" boostWeight="1.0407458482116057e-01" itree="22">
      <Node pos="s" depth="0" Seq="0" IVar="1" Cut="3.1428570747375488e+00" cType="0" nS="2.2615358886718750e+03" nB="2.3223388671875000e+03" nEv="4.5838745117187500e+03" nSuw="3.6650000000000000e+03" nBuw="9.3900000000000000e+02" nEvuw="4.6040000000000000e+03" sepI="2.4995601177215576e-01" sepG="2.8570556640625000e+00" res="-9.9000000000000000e+01" rms="0.0000000000000000e+00" nType="0" CC="0.0000000000000000e+00">
        <Node pos="l" depth="1" Seq="0" IVar="-1" Cut="3.6344308406114578e-02" cType="1" nS="4.6634311676025391e+01" nB="2.0104265213012695e+01" nEv="6.6738578796386719e+01" nSuw="8.9000000000000000e+01" nBuw="6.0000000000000000e+00" nEvuw="9.5000000000000000e+01" sepI="2.1049407124519348e-01" sepG="-1.0000000000000000e+00" res="-9.9000000000000000e+01" rms="0.0000000000000000e+00" nType="1" CC="0.0000000000000000e+00"/>
        <Node pos="r" depth="1" Seq="1" IVar="0" Cut="-9.1433048248291016e-01" cType="1" nS="2.2149016113281250e+03" nB="2.3022343750000000e+03" nEv="4.5171362304687500e+03" nSuw="3.5760000000000000e+03" nBuw="9.3300000000000000e+02" nEvuw="4.5090000000000000e+03" sepI="2.4990655481815338e-01" sepG="1.6758525371551514e+00" res="-9.9000000000000000e+01" rms="0.0000000000000000e+00" nType="0" CC="0.0000000000000000e+00">
          <Node pos="l" depth="2" Seq="1" IVar="3" Cut="3.1024727970361710e-02" cType="0" nS="7.2780151367187500e+01" nB="4.7126159667968750e+01" nEv="1.1990631103515625e+02" nSuw="4.1200000000000000e+02" nBuw="3.0000000000000000e+00" nEvuw="4.1500000000000000e+02" sepI="2.3855632543563843e-01" sepG="5.6097617149353027e+00" res="-9.9000000000000000e+01" rms="0.0000000000000000e+00" nType="0" CC="0.0000000000000000e+00">
            <Node pos="l" depth="3" Seq="1" IVar="-1" Cut="0.0000000000000000e+00" cType="1" nS="2.7874164581298828e+01" nB="0.0000000000000000e+00" nEv="2.7874164581298828e+01" nSuw="1.8500000000000000e+02" nBuw="0.0000000000000000e+00" nEvuw="1.8500000000000000e+02" sepI="0.0000000000000000e+00" sepG="-1.0000000000000000e+00" res="-9.9000000000000000e+01" rms="0.0000000000000000e+00" nType="1" CC="0.0000000000000000e+00"/>
            <Node pos="r" depth="3" Seq="5" IVar="-1" Cut="0.0000000000000000e+00" cType="1" nS="4.4905982971191406e+01" nB="4.7126159667968750e+01" nEv="9.2032142639160156e+01" nSuw="2.2700000000000000e+02" nBuw="3.0000000000000000e+00" nEvuw="2.3000000000000000e+02" sepI="2.4985450506210327e-01" sepG="-1.0000000000000000e+00" res="-9.9000000000000000e+01" rms="0.0000000000000000e+00" nType="-1" CC="0.0000000000000000e+00"/>
          </Node>
          <Node pos="r" depth="2" Seq="3" IVar="5" Cut="3.3420562744140625e-01" cType="1" nS="2.1421215820312500e+03" nB="2.2551083984375000e+03" nEv="4.3972299804687500e+03" nSuw="3.1640000000000000e+03" nBuw="9.3000000000000000e+02" nEvuw="4.0940000000000000e+03" sepI="2.4983493983745575e-01" sepG="1.6987501382827759e+00" res="-9.9000000000000000e+01" rms="0.0000000000000000e+00" nType="0" CC="0.0000000000000000e+00">
            <Node pos="l" depth="3" Seq="3" IVar="-1" Cut="0.0000000000000000e+00" cType="1" nS="1.0246219482421875e+03" nB="9.9026885986328125e+02" nEv="2.0148907470703125e+03" nSuw="1.1160000000000000e+03" nBuw="4.3700000000000000e+02" nEvuw="1.5530000000000000e+03" sepI="2.4992732703685760e-01" sepG="-1.0000000000000000e+00" res="-9.9000000000000000e+01" rms="0.0000000000000000e+00" nType="1" CC="0.0000000000000000e+00"/>
            <Node pos="r" depth="3" Seq="7" IVar="-1" Cut="0.0000000000000000e+00" cType="1" nS="1.1174996337890625e+03" nB="1.2648394775390625e+03" nEv="2.3823391113281250e+03" nSuw="2.0480000000000000e+03" nBuw="4.9300000000000000e+02" nEvuw="2.5410000000000000e+03" sepI="2.4904374778270721e-01" sepG="-1.0000000000000000e+00" res="-9.9000000000000000e+01" rms="0.0000000000000000e+00" nType="-1" CC="0.0000000000000000e+00"/>
          </Node>
        </Node>
      </Node>
    </BinaryTree>
    <BinaryTree type="DecisionTree" boostWeight="6.5581430533930660e-02" itree="23">
      <Node pos="s" depth="0" Seq="0" IVar="1" Cut="3.1428570747375488e+00" cType="0" nS="2.2709641113281250e+03" nB="2.3129106445312500e+03" nEv="4.5838745117187500e+03" nSuw="3.6650000000000000e+03" nBuw="9.3900000000000000e+02" nEvuw="4.6040000000000000e+03" sepI="2.4997906386852264e-01" sepG="2.1778719425201416e+00" res="-9.9000000000000000e+01" rms="0.0000000000000000e+00" nType="0" CC="0.0000000000000000e+00">
        <Node pos="l" depth="1" Seq="0" IVar="-1" Cut="3.6344308406114578e-02" cType="1" nS="4.4329601287841797e+01" nB="2.1206815719604492e+01" nEv="6.5536415100097656e+01" nSuw="8.9000000000000000e+01" nBuw="6.0000000000000000e+00" nEvuw="9.5000000000000000e+01" sepI="2.1887889504432678e-01" sepG="-1.0000000000000000e+00" res="-9.9000000000000000e+01" rms="0.0000000000000000e+00" nType="1" CC="0.0000000000000000e+00"/>
        <Node pos="r" depth="1" Seq="1" IVar="0" Cut="-9.1433048248291016e-01" cType="1" nS="2.2266345214843750e+03" nB="2.2917038574218750e+03" nEv="4.5183383789062500e+03" nSuw="3.5760000000000000e+03" nBuw="9.3300000000000000e+02" nEvuw="4.5090000000000000e+03" sepI="2.4994815886020660e-01" sepG="2.0494546890258789e+00" res="-9.9000000000000000e+01" rms="0.0000000000000000e+00" nType="0" CC="0.0000000000000000e+00">
          <Node pos="l" depth="2" Seq="1" IVar="-1" Cut="3.5206159949302673e-01" cType="0" nS="7.3865295410156250e+01" nB="4.4797142028808594e+01" nEv="1.1866243743896484e+02" nSuw="4.1200000000000000e+02" nBuw="3.0000000000000000e+00" nEvuw="4.1500000000000000e+02" sepI="2.3499801754951477e-01" sepG="-1.0000000000000000e+00" res="-9.9000000000000000e+01" rms="0.0000000000000000e+00" nType="1" CC="0.0000000000000000e+00"/>
          <Node pos="r" depth="2" Seq="3" IVar="5" Cut="1.9886119663715363e-01" cType="0" nS="2.1527690429687500e+03" nB="2.2469067382812500e+03" nEv="4.3996757812500000e+03" nSuw="3.1640000000000000e+03" nBuw="9.3000000000000000e+02" nEvuw="4.0940000000000000e+03" sepI="2.4988554418087006e-01" sepG="2.2635953426361084e+00" res="-9.9000000000000000e+01" rms="0.0000000000000000e+00" nType="0" CC="0.0000000000000000e+00">
            <Node pos="l" depth="3" Seq="3" IVar="-1" Cut="0.0000000000000000e+00" cType="1" nS="1.7835924072265625e+03" nB="1.7816292724609375e+03" nEv="3.5652216796875000e+03" nSuw="2.6000000000000000e+03" nBuw="7.9900000000000000e+02" nEvuw="3.3990000000000000e+03" sepI="2.4999992549419403e-01" sepG="-1.0000000000000000e+00" res="-9.9000000000000000e+01" rms="0.0000000000000000e+00" nType="1" CC="0.0000000000000000e+00"/>
            <Node pos="r" depth="3" Seq="7" IVar="-1" Cut="0.0000000000000000e+00" cType="1" nS="3.6917681884765625e+02" nB="4.6527743530273438e+02" nEv="8.3445422363281250e+02" nSuw="5.6400000000000000e+02" nBuw="1.3100000000000000e+02" nEvuw="6.9500000000000000e+02" sepI="2.4668420851230621e-01" sepG="-1.0000000000000000e+00" res="-9.9000000000000000e+01" rms="0.0000000000000000e+00" nType="-1" CC="0.0000000000000000e+00"/>
          </Node>
        </Node>
      </Node>
    </BinaryTree>
    <BinaryTree type="DecisionTree" boostWeight="1.0846056334710071e-01" itree="24">
