<?xml version="1.0"?>
<MethodSetup Method="BDT::BDT">
  <GeneralInfo>
    <Info name="TMVA Release" value="4.0.7 [262151]"/>
    <Info name="ROOT Release" value="5.27/06 [334598]"/>
    <Info name="Creator" value="lbianchini"/>
    <Info name="Date" value="Fri Nov  4 16:29:20 2011"/>
    <Info name="Host" value="Linux lxbuild142.cern.ch 2.6.18-238.1.1.el5 #1 SMP Wed Jan 19 11:06:36 CET 2011 x86_64 x86_64 x86_64 GNU/Linux"/>
    <Info name="Dir" value="/grid_mnt/vol__vol1__u/llr/cms/lbianchini/CMSSW_4_2_5/src/Bianchi/TauTauStudies/test/Macro/tmva"/>
    <Info name="Training events" value="24700"/>
    <Info name="TrainingTime" value="9.00317"/>
    <Info name="AnalysisType" value="Classification"/>
  </GeneralInfo>
  <Options>
    <Option name="V" modified="Yes">False</Option>
    <Option name="VerbosityLevel" modified="No">Default</Option>
    <Option name="VarTransform" modified="No">None</Option>
    <Option name="H" modified="Yes">False</Option>
    <Option name="CreateMVAPdfs" modified="No">False</Option>
    <Option name="IgnoreNegWeightsInTraining" modified="No">False</Option>
    <Option name="NTrees" modified="Yes">400</Option>
    <Option name="BoostType" modified="Yes">AdaBoost</Option>
    <Option name="AdaBoostR2Loss" modified="No">quadratic</Option>
    <Option name="UseBaggedGrad" modified="No">False</Option>
    <Option name="GradBaggingFraction" modified="No">6.000000e-01</Option>
    <Option name="Shrinkage" modified="No">1.000000e+00</Option>
    <Option name="AdaBoostBeta" modified="No">1.000000e+00</Option>
    <Option name="UseRandomisedTrees" modified="No">False</Option>
    <Option name="UseNvars" modified="No">2</Option>
    <Option name="UseNTrainEvents" modified="No">24700</Option>
    <Option name="UseWeightedTrees" modified="No">True</Option>
    <Option name="UseYesNoLeaf" modified="No">True</Option>
    <Option name="NodePurityLimit" modified="No">5.000000e-01</Option>
    <Option name="SeparationType" modified="Yes">giniindex</Option>
    <Option name="nEventsMin" modified="No">98</Option>
    <Option name="nCuts" modified="Yes">20</Option>
    <Option name="PruneStrength" modified="No">-1.000000e+00</Option>
    <Option name="PruneMethod" modified="Yes">nopruning</Option>
    <Option name="PruneBeforeBoost" modified="No">False</Option>
    <Option name="PruningValFraction" modified="No">5.000000e-01</Option>
    <Option name="NNodesMax" modified="No">100000</Option>
    <Option name="MaxDepth" modified="No">3</Option>
  </Options>
  <Variables NVar="5">
    <Variable VarIndex="0" Expression="signalPFGammaCands" Label="signalPFGammaCands" Title="signalPFGammaCands" Unit="     " Internal="signalPFGammaCands" Type="I" Min="1" Max="9"/>
    <Variable VarIndex="1" Expression="visMass" Label="visMass" Title="visMass" Unit="GeV/c" Internal="visMass" Type="F" Min="0.300884" Max="1.69323"/>
    <Variable VarIndex="2" Expression="abs(gammadEta[0])" Label="dEtaG" Title="dEtaG" Unit="     " Internal="dEtaG" Type="F" Min="9.53674e-07" Max="0.138375"/>
    <Variable VarIndex="3" Expression="TMath::Min(abs(gammadPhi[0]),0.3)" Label="dPhiG" Title="dPhiG" Unit="     " Internal="dPhiG" Type="F" Min="2.563e-06" Max="0.3"/>
    <Variable VarIndex="4" Expression="gammaPt[0]/pt" Label="dPtG" Title="dPtG" Unit="     " Internal="dPtG" Type="F" Min="0.0115991" Max="0.986783"/>
  </Variables>
  <Spectators NSpec="0"/>
  <Transformations NTransformations="0"/>
  <MVAPdfs/>
  <Weights NTrees="400" TreeType="0">
    <BinaryTree type="DecisionTree" boostWeight="2.9834844253299360e+00" itree="0">
      <Node pos="s" depth="0" Seq="0" IVar="2" Cut="6.5902103669941425e-03" cType="0" nS="2.3183240234375000e+04" nB="1.5481368408203125e+03" nEv="2.4731376953125000e+04" nSuw="2.3200000000000000e+04" nBuw="1.5000000000000000e+03" nEvuw="2.4700000000000000e+04" sepI="5.8679562062025070e-02" sepG="2.8094326782226562e+02" res="-9.9000000000000000e+01" rms="0.0000000000000000e+00" nType="0" CC="0.0000000000000000e+00">
        <Node pos="l" depth="1" Seq="0" IVar="-1" Cut="9.4034594297409058e-01" cType="1" nS="2.1336318359375000e+04" nB="5.2405059814453125e+02" nEv="2.1860369140625000e+04" nSuw="2.1326000000000000e+04" nBuw="5.2300000000000000e+02" nEvuw="2.1849000000000000e+04" sepI="2.3397943004965782e-02" sepG="-1.0000000000000000e+00" res="-9.9000000000000000e+01" rms="0.0000000000000000e+00" nType="1" CC="0.0000000000000000e+00"/>
        <Node pos="r" depth="1" Seq="1" IVar="3" Cut="2.8594080358743668e-02" cType="0" nS="1.8469212646484375e+03" nB="1.0240861816406250e+03" nEv="2.8710073242187500e+03" nSuw="1.8740000000000000e+03" nBuw="9.7700000000000000e+02" nEvuw="2.8510000000000000e+03" sepI="2.2946490347385406e-01" sepG="1.2057807922363281e+02" res="-9.9000000000000000e+01" rms="0.0000000000000000e+00" nType="0" CC="0.0000000000000000e+00">
          <Node pos="l" depth="2" Seq="1" IVar="-1" Cut="2.9086464643478394e-01" cType="0" nS="1.2974221191406250e+03" nB="2.6385049438476562e+02" nEv="1.5612727050781250e+03" nSuw="1.2990000000000000e+03" nBuw="2.5700000000000000e+02" nEvuw="1.5560000000000000e+03" sepI="1.4043706655502319e-01" sepG="-1.0000000000000000e+00" res="-9.9000000000000000e+01" rms="0.0000000000000000e+00" nType="1" CC="0.0000000000000000e+00"/>
          <Node pos="r" depth="2" Seq="3" IVar="2" Cut="3.4396876581013203e-03" cType="0" nS="5.4949908447265625e+02" nB="7.6023571777343750e+02" nEv="1.3097347412109375e+03" nSuw="5.7500000000000000e+02" nBuw="7.2000000000000000e+02" nEvuw="1.2950000000000000e+03" sepI="2.4352778494358063e-01" sepG="3.9784580230712891e+01" res="-9.9000000000000000e+01" rms="0.0000000000000000e+00" nType="0" CC="0.0000000000000000e+00">
            <Node pos="l" depth="3" Seq="3" IVar="-1" Cut="0.0000000000000000e+00" cType="1" nS="2.5313366699218750e+02" nB="1.0723174285888672e+02" nEv="3.6036541748046875e+02" nSuw="2.6600000000000000e+02" nBuw="9.7000000000000000e+01" nEvuw="3.6300000000000000e+02" sepI="2.0901963114738464e-01" sepG="-1.0000000000000000e+00" res="-9.9000000000000000e+01" rms="0.0000000000000000e+00" nType="1" CC="0.0000000000000000e+00"/>
            <Node pos="r" depth="3" Seq="7" IVar="-1" Cut="0.0000000000000000e+00" cType="1" nS="2.9636538696289062e+02" nB="6.5300396728515625e+02" nEv="9.4936938476562500e+02" nSuw="3.0900000000000000e+02" nBuw="6.2300000000000000e+02" nEvuw="9.3200000000000000e+02" sepI="2.1472018957138062e-01" sepG="-1.0000000000000000e+00" res="-9.9000000000000000e+01" rms="0.0000000000000000e+00" nType="-1" CC="0.0000000000000000e+00"/>
          </Node>
        </Node>
      </Node>
    </BinaryTree>
    <BinaryTree type="DecisionTree" boostWeight="9.7514744814776466e-01" itree="1">
      <Node pos="s" depth="0" Seq="0" IVar="2" Cut="3.2947234809398651e-02" cType="0" nS="1.5098419921875000e+04" nB="9.6329570312500000e+03" nEv="2.4731376953125000e+04" nSuw="2.3200000000000000e+04" nBuw="1.5000000000000000e+03" nEvuw="2.4700000000000000e+04" sepI="2.3779051005840302e-01" sepG="5.7724505615234375e+02" res="-9.9000000000000000e+01" rms="0.0000000000000000e+00" nType="0" CC="0.0000000000000000e+00">
        <Node pos="l" depth="1" Seq="0" IVar="4" Cut="9.3842101097106934e-01" cType="1" nS="6.9844648437500000e+03" nB="1.5166638183593750e+03" nEv="8.5011289062500000e+03" nSuw="1.3323000000000000e+04" nBuw="1.5100000000000000e+02" nEvuw="1.3474000000000000e+04" sepI="1.4657816290855408e-01" sepG="2.9270391845703125e+02" res="-9.9000000000000000e+01" rms="0.0000000000000000e+00" nType="0" CC="0.0000000000000000e+00">
          <Node pos="l" depth="2" Seq="0" IVar="-1" Cut="1.3809523582458496e+00" cType="0" nS="6.8352329101562500e+03" nB="9.5161828613281250e+02" nEv="7.7868510742187500e+03" nSuw="1.3039000000000000e+04" nBuw="9.1000000000000000e+01" nEvuw="1.3130000000000000e+04" sepI="1.0727347433567047e-01" sepG="-1.0000000000000000e+00" res="-9.9000000000000000e+01" rms="0.0000000000000000e+00" nType="1" CC="0.0000000000000000e+00"/>
          <Node pos="r" depth="2" Seq="2" IVar="-1" Cut="9.5834499597549438e-01" cType="1" nS="1.4923197937011719e+02" nB="5.6504553222656250e+02" nEv="7.1427752685546875e+02" nSuw="2.8400000000000000e+02" nBuw="6.0000000000000000e+01" nEvuw="3.4400000000000000e+02" sepI="1.6527660191059113e-01" sepG="-1.0000000000000000e+00" res="-9.9000000000000000e+01" rms="0.0000000000000000e+00" nType="-1" CC="0.0000000000000000e+00"/>
        </Node>
        <Node pos="r" depth="1" Seq="1" IVar="4" Cut="1.0455137491226196e-01" cType="0" nS="8.1139545898437500e+03" nB="8.1162929687500000e+03" nEv="1.6230248046875000e+04" nSuw="9.8770000000000000e+03" nBuw="1.3490000000000000e+03" nEvuw="1.1226000000000000e+04" sepI="2.5000000000000000e-01" sepG="3.0015145874023438e+02" res="-9.9000000000000000e+01" rms="0.0000000000000000e+00" nType="0" CC="0.0000000000000000e+00">
          <Node pos="l" depth="2" Seq="1" IVar="0" Cut="1.3809523582458496e+00" cType="0" nS="6.8735756835937500e+03" nB="4.9059506835937500e+03" nEv="1.1779526367187500e+04" nSuw="8.3090000000000000e+03" nBuw="1.0090000000000000e+03" nEvuw="9.3180000000000000e+03" sepI="2.4302460253238678e-01" sepG="2.0228236389160156e+02" res="-9.9000000000000000e+01" rms="0.0000000000000000e+00" nType="0" CC="0.0000000000000000e+00">
            <Node pos="l" depth="3" Seq="1" IVar="-1" Cut="0.0000000000000000e+00" cType="1" nS="3.8316279296875000e+03" nB="1.4198879394531250e+03" nEv="5.2515161132812500e+03" nSuw="4.6880000000000000e+03" nBuw="3.5000000000000000e+02" nEvuw="5.0380000000000000e+03" sepI="1.9727317988872528e-01" sepG="-1.0000000000000000e+00" res="-9.9000000000000000e+01" rms="0.0000000000000000e+00" nType="1" CC="0.0000000000000000e+00"/>
            <Node pos="r" depth="3" Seq="5" IVar="-1" Cut="0.0000000000000000e+00" cType="1" nS="3.0419477539062500e+03" nB="3.4860625000000000e+03" nEv="6.5280102539062500e+03" nSuw="3.6210000000000000e+03" nBuw="6.5900000000000000e+02" nEvuw="4.2800000000000000e+03" sepI="2.4884290993213654e-01" sepG="-1.0000000000000000e+00" res="-9.9000000000000000e+01" rms="0.0000000000000000e+00" nType="-1" CC="0.0000000000000000e+00"/>
          </Node>
          <Node pos="r" depth="2" Seq="3" IVar="2" Cut="3.1393624376505613e-03" cType="1" nS="1.2403791503906250e+03" nB="3.2103425292968750e+03" nEv="4.4507216796875000e+03" nSuw="1.5680000000000000e+03" nBuw="3.4000000000000000e+02" nEvuw="1.9080000000000000e+03" sepI="2.0102262496948242e-01" sepG="7.0054237365722656e+01" res="-9.9000000000000000e+01" rms="0.0000000000000000e+00" nType="0" CC="0.0000000000000000e+00">
            <Node pos="l" depth="3" Seq="3" IVar="-1" Cut="0.0000000000000000e+00" cType="1" nS="5.0284149169921875e+02" nB="4.7260482788085938e+02" nEv="9.7544635009765625e+02" nSuw="1.7800000000000000e+02" nBuw="8.8000000000000000e+01" nEvuw="2.6600000000000000e+02" sepI="2.4975977838039398e-01" sepG="-1.0000000000000000e+00" res="-9.9000000000000000e+01" rms="0.0000000000000000e+00" nType="1" CC="0.0000000000000000e+00"/>
            <Node pos="r" depth="3" Seq="7" IVar="-1" Cut="0.0000000000000000e+00" cType="1" nS="7.3753765869140625e+02" nB="2.7377377929687500e+03" nEv="3.4752753906250000e+03" nSuw="1.3900000000000000e+03" nBuw="2.5200000000000000e+02" nEvuw="1.6420000000000000e+03" sepI="1.6718511283397675e-01" sepG="-1.0000000000000000e+00" res="-9.9000000000000000e+01" rms="0.0000000000000000e+00" nType="-1" CC="0.0000000000000000e+00"/>
          </Node>
        </Node>
      </Node>
    </BinaryTree>
    <BinaryTree type="DecisionTree" boostWeight="1.0230715133567305e+00" itree="2">
      <Node pos="s" depth="0" Seq="0" IVar="2" Cut="1.3179467059671879e-02" cType="0" nS="1.4864073242187500e+04" nB="9.8673027343750000e+03" nEv="2.4731376953125000e+04" nSuw="2.3200000000000000e+04" nBuw="1.5000000000000000e+03" nEvuw="2.4700000000000000e+04" sepI="2.3979477584362030e-01" sepG="2.3104029846191406e+02" res="-9.9000000000000000e+01" rms="0.0000000000000000e+00" nType="0" CC="0.0000000000000000e+00">
        <Node pos="l" depth="1" Seq="0" IVar="-1" Cut="1.3809523582458496e+00" cType="0" nS="9.1803613281250000e+03" nB="4.1112299804687500e+03" nEv="1.3291591796875000e+04" nSuw="1.9608000000000000e+04" nBuw="3.9700000000000000e+02" nEvuw="2.0005000000000000e+04" sepI="2.1363754570484161e-01" sepG="-1.0000000000000000e+00" res="-9.9000000000000000e+01" rms="0.0000000000000000e+00" nType="1" CC="0.0000000000000000e+00"/>
        <Node pos="r" depth="1" Seq="1" IVar="3" Cut="2.8594080358743668e-02" cType="1" nS="5.6837119140625000e+03" nB="5.7560732421875000e+03" nEv="1.1439785156250000e+04" nSuw="3.5920000000000000e+03" nBuw="1.1030000000000000e+03" nEvuw="4.6950000000000000e+03" sepI="2.4999000132083893e-01" sepG="3.8444747924804688e+02" res="-9.9000000000000000e+01" rms="0.0000000000000000e+00" nType="0" CC="0.0000000000000000e+00">
          <Node pos="l" depth="2" Seq="1" IVar="2" Cut="3.7653318140655756e-03" cType="1" nS="4.0433227539062500e+03" nB="1.9874289550781250e+03" nEv="6.0307514648437500e+03" nSuw="1.1290000000000000e+03" nBuw="7.9500000000000000e+02" nEvuw="1.9240000000000000e+03" sepI="2.2094650566577911e-01" sepG="4.2591012573242188e+02" res="-9.9000000000000000e+01" rms="0.0000000000000000e+00" nType="0" CC="0.0000000000000000e+00">
            <Node pos="l" depth="3" Seq="1" IVar="-1" Cut="0.0000000000000000e+00" cType="1" nS="3.4894841308593750e+03" nB="5.9809014892578125e+02" nEv="4.0875742187500000e+03" nSuw="3.3400000000000000e+02" nBuw="6.3800000000000000e+02" nEvuw="9.7200000000000000e+02" sepI="1.2490981817245483e-01" sepG="-1.0000000000000000e+00" res="-9.9000000000000000e+01" rms="0.0000000000000000e+00" nType="1" CC="0.0000000000000000e+00"/>
            <Node pos="r" depth="3" Seq="5" IVar="-1" Cut="0.0000000000000000e+00" cType="1" nS="5.5383862304687500e+02" nB="1.3893387451171875e+03" nEv="1.9431774902343750e+03" nSuw="7.9500000000000000e+02" nBuw="1.5700000000000000e+02" nEvuw="9.5200000000000000e+02" sepI="2.0378232002258301e-01" sepG="-1.0000000000000000e+00" res="-9.9000000000000000e+01" rms="0.0000000000000000e+00" nType="-1" CC="0.0000000000000000e+00"/>
          </Node>
          <Node pos="r" depth="2" Seq="3" IVar="2" Cut="5.0169313326478004e-03" cType="0" nS="1.6403891601562500e+03" nB="3.7686442871093750e+03" nEv="5.4090332031250000e+03" nSuw="2.4630000000000000e+03" nBuw="3.0800000000000000e+02" nEvuw="2.7710000000000000e+03" sepI="2.1129669249057770e-01" sepG="2.2616259765625000e+02" res="-9.9000000000000000e+01" rms="0.0000000000000000e+00" nType="0" CC="0.0000000000000000e+00">
            <Node pos="l" depth="3" Seq="3" IVar="-1" Cut="0.0000000000000000e+00" cType="1" nS="1.0191448364257812e+03" nB="6.5530358886718750e+02" nEv="1.6744484863281250e+03" nSuw="1.4640000000000000e+03" nBuw="7.7000000000000000e+01" nEvuw="1.5410000000000000e+03" sepI="2.3819623887538910e-01" sepG="-1.0000000000000000e+00" res="-9.9000000000000000e+01" rms="0.0000000000000000e+00" nType="1" CC="0.0000000000000000e+00"/>
            <Node pos="r" depth="3" Seq="7" IVar="-1" Cut="0.0000000000000000e+00" cType="1" nS="6.2124432373046875e+02" nB="3.1133405761718750e+03" nEv="3.7345849609375000e+03" nSuw="9.9900000000000000e+02" nBuw="2.3100000000000000e+02" nEvuw="1.2300000000000000e+03" sepI="1.3867698609828949e-01" sepG="-1.0000000000000000e+00" res="-9.9000000000000000e+01" rms="0.0000000000000000e+00" nType="-1" CC="0.0000000000000000e+00"/>
          </Node>
        </Node>
      </Node>
    </BinaryTree>
    <BinaryTree type="DecisionTree" boostWeight="5.8407051182816416e-01" itree="3">
      <Node pos="s" depth="0" Seq="0" IVar="4" Cut="5.8036405593156815e-02" cType="0" nS="1.1526937500000000e+04" nB="1.3204439453125000e+04" nEv="2.4731376953125000e+04" nSuw="2.3200000000000000e+04" nBuw="1.5000000000000000e+03" nEvuw="2.4700000000000000e+04" sepI="2.4884980916976929e-01" sepG="2.3293156433105469e+02" res="-9.9000000000000000e+01" rms="0.0000000000000000e+00" nType="0" CC="0.0000000000000000e+00">
        <Node pos="l" depth="1" Seq="0" IVar="4" Cut="8.0988669395446777e-01" cType="1" nS="1.0583111328125000e+04" nB="1.0246033203125000e+04" nEv="2.0829144531250000e+04" nSuw="2.1400000000000000e+04" nBuw="1.2550000000000000e+03" nEvuw="2.2655000000000000e+04" sepI="2.4993452429771423e-01" sepG="1.9043467712402344e+02" res="-9.9000000000000000e+01" rms="0.0000000000000000e+00" nType="0" CC="0.0000000000000000e+00">
          <Node pos="l" depth="2" Seq="0" IVar="1" Cut="6.3239473104476929e-01" cType="0" nS="8.9394218750000000e+03" nB="6.9924038085937500e+03" nEv="1.5931825195312500e+04" nSuw="1.8533000000000000e+04" nBuw="1.0090000000000000e+03" nEvuw="1.9542000000000000e+04" sepI="2.4626621603965759e-01" sepG="1.1147323608398438e+02" res="-9.9000000000000000e+01" rms="0.0000000000000000e+00" nType="0" CC="0.0000000000000000e+00">
            <Node pos="l" depth="3" Seq="0" IVar="-1" Cut="0.0000000000000000e+00" cType="1" nS="5.2871181640625000e+03" nB="2.9487297363281250e+03" nEv="8.2358476562500000e+03" nSuw="1.4674000000000000e+04" nBuw="1.9800000000000000e+02" nEvuw="1.4872000000000000e+04" sepI="2.2984620928764343e-01" sepG="-1.0000000000000000e+00" res="-9.9000000000000000e+01" rms="0.0000000000000000e+00" nType="1" CC="0.0000000000000000e+00"/>
            <Node pos="r" depth="3" Seq="4" IVar="-1" Cut="0.0000000000000000e+00" cType="1" nS="3.6523037109375000e+03" nB="4.0436738281250000e+03" nEv="7.6959775390625000e+03" nSuw="3.8590000000000000e+03" nBuw="8.1100000000000000e+02" nEvuw="4.6700000000000000e+03" sepI="2.4935346841812134e-01" sepG="-1.0000000000000000e+00" res="-9.9000000000000000e+01" rms="0.0000000000000000e+00" nType="-1" CC="0.0000000000000000e+00"/>
          </Node>
          <Node pos="r" depth="2" Seq="2" IVar="2" Cut="5.5518639273941517e-03" cType="1" nS="1.6436898193359375e+03" nB="3.2536296386718750e+03" nEv="4.8973193359375000e+03" nSuw="2.8670000000000000e+03" nBuw="2.4600000000000000e+02" nEvuw="3.1130000000000000e+03" sepI="2.2298267483711243e-01" sepG="1.1553361511230469e+02" res="-9.9000000000000000e+01" rms="0.0000000000000000e+00" nType="0" CC="0.0000000000000000e+00">
            <Node pos="l" depth="3" Seq="2" IVar="-1" Cut="0.0000000000000000e+00" cType="1" nS="4.3447903442382812e+02" nB="1.3926895141601562e+02" nEv="5.7374798583984375e+02" nSuw="1.2900000000000000e+02" nBuw="4.3000000000000000e+01" nEvuw="1.7200000000000000e+02" sepI="1.8381492793560028e-01" sepG="-1.0000000000000000e+00" res="-9.9000000000000000e+01" rms="0.0000000000000000e+00" nType="1" CC="0.0000000000000000e+00"/>
            <Node pos="r" depth="3" Seq="6" IVar="-1" Cut="0.0000000000000000e+00" cType="1" nS="1.2092108154296875e+03" nB="3.1143605957031250e+03" nEv="4.3235712890625000e+03" nSuw="2.7380000000000000e+03" nBuw="2.0300000000000000e+02" nEvuw="2.9410000000000000e+03" sepI="2.0145852863788605e-01" sepG="-1.0000000000000000e+00" res="-9.9000000000000000e+01" rms="0.0000000000000000e+00" nType="-1" CC="0.0000000000000000e+00"/>
          </Node>
        </Node>
        <Node pos="r" depth="1" Seq="1" IVar="2" Cut="6.4207911491394043e-02" cType="0" nS="9.4382568359375000e+02" nB="2.9584057617187500e+03" nEv="3.9022314453125000e+03" nSuw="1.8000000000000000e+03" nBuw="2.4500000000000000e+02" nEvuw="2.0450000000000000e+03" sepI="1.8336796760559082e-01" sepG="7.4159317016601562e+00" res="-9.9000000000000000e+01" rms="0.0000000000000000e+00" nType="0" CC="0.0000000000000000e+00">
          <Node pos="l" depth="2" Seq="1" IVar="3" Cut="2.8661018237471581e-02" cType="1" nS="6.9310081481933594e+01" nB="8.1627296447753906e+01" nEv="1.5093737792968750e+02" nSuw="2.8800000000000000e+02" nBuw="4.0000000000000000e+00" nEvuw="2.9200000000000000e+02" sepI="2.4833516776561737e-01" sepG="1.5697012901306152e+01" res="-9.9000000000000000e+01" rms="0.0000000000000000e+00" nType="0" CC="0.0000000000000000e+00">
            <Node pos="l" depth="3" Seq="1" IVar="-1" Cut="0.0000000000000000e+00" cType="1" nS="3.9592521667480469e+01" nB="0.0000000000000000e+00" nEv="3.9592521667480469e+01" nSuw="1.6200000000000000e+02" nBuw="0.0000000000000000e+00" nEvuw="1.6200000000000000e+02" sepI="0.0000000000000000e+00" sepG="-1.0000000000000000e+00" res="-9.9000000000000000e+01" rms="0.0000000000000000e+00" nType="1" CC="0.0000000000000000e+00"/>
            <Node pos="r" depth="3" Seq="5" IVar="-1" Cut="0.0000000000000000e+00" cType="1" nS="2.9717561721801758e+01" nB="8.1627296447753906e+01" nEv="1.1134485626220703e+02" nSuw="1.2600000000000000e+02" nBuw="4.0000000000000000e+00" nEvuw="1.3000000000000000e+02" sepI="1.9566279649734497e-01" sepG="-1.0000000000000000e+00" res="-9.9000000000000000e+01" rms="0.0000000000000000e+00" nType="-1" CC="0.0000000000000000e+00"/>
          </Node>
          <Node pos="r" depth="2" Seq="3" IVar="-1" Cut="1.8338706344366074e-02" cType="1" nS="8.7451562500000000e+02" nB="2.8767785644531250e+03" nEv="3.7512941894531250e+03" nSuw="1.5120000000000000e+03" nBuw="2.4100000000000000e+02" nEvuw="1.7530000000000000e+03" sepI="1.7877703905105591e-01" sepG="-1.0000000000000000e+00" res="-9.9000000000000000e+01" rms="0.0000000000000000e+00" nType="-1" CC="0.0000000000000000e+00"/>
        </Node>
      </Node>
    </BinaryTree>
    <BinaryTree type="DecisionTree" boostWeight="5.0111839636624067e-01" itree="4">
      <Node pos="s" depth="0" Seq="0" IVar="1" Cut="5.6609261035919189e-01" cType="1" nS="1.2539681640625000e+04" nB="1.2191694335937500e+04" nEv="2.4731376953125000e+04" nSuw="2.3200000000000000e+04" nBuw="1.5000000000000000e+03" nEvuw="2.4700000000000000e+04" sepI="2.4995049834251404e-01" sepG="1.3373524475097656e+02" res="-9.9000000000000000e+01" rms="0.0000000000000000e+00" nType="0" CC="0.0000000000000000e+00">
        <Node pos="l" depth="1" Seq="0" IVar="4" Cut="2.0561116933822632e-01" cType="1" nS="4.3064785156250000e+03" nB="2.5792802734375000e+03" nEv="6.8857587890625000e+03" nSuw="2.5620000000000000e+03" nBuw="7.5900000000000000e+02" nEvuw="3.3210000000000000e+03" sepI="2.3427028954029083e-01" sepG="7.6643356323242188e+01" res="-9.9000000000000000e+01" rms="0.0000000000000000e+00" nType="0" CC="0.0000000000000000e+00">
          <Node pos="l" depth="2" Seq="0" IVar="3" Cut="2.8594080358743668e-02" cType="1" nS="2.0462312011718750e+03" nB="6.5828173828125000e+02" nEv="2.7045129394531250e+03" nSuw="9.6100000000000000e+02" nBuw="1.5400000000000000e+02" nEvuw="1.1150000000000000e+03" sepI="1.8415705859661102e-01" sepG="5.9635498046875000e+01" res="-9.9000000000000000e+01" rms="0.0000000000000000e+00" nType="0" CC="0.0000000000000000e+00">
            <Node pos="l" depth="3" Seq="0" IVar="-1" Cut="0.0000000000000000e+00" cType="1" nS="1.7163708496093750e+03" nB="3.2365521240234375e+02" nEv="2.0400261230468750e+03" nSuw="5.3400000000000000e+02" nBuw="1.1900000000000000e+02" nEvuw="6.5300000000000000e+02" sepI="1.3348187506198883e-01" sepG="-1.0000000000000000e+00" res="-9.9000000000000000e+01" rms="0.0000000000000000e+00" nType="1" CC="0.0000000000000000e+00"/>
            <Node pos="r" depth="3" Seq="4" IVar="-1" Cut="0.0000000000000000e+00" cType="1" nS="3.2986032104492188e+02" nB="3.3462655639648438e+02" nEv="6.6448687744140625e+02" nSuw="4.2700000000000000e+02" nBuw="3.5000000000000000e+01" nEvuw="4.6200000000000000e+02" sepI="2.4998714029788971e-01" sepG="-1.0000000000000000e+00" res="-9.9000000000000000e+01" rms="0.0000000000000000e+00" nType="-1" CC="0.0000000000000000e+00"/>
          </Node>
          <Node pos="r" depth="2" Seq="2" IVar="2" Cut="1.4505161903798580e-02" cType="1" nS="2.2602473144531250e+03" nB="1.9209984130859375e+03" nEv="4.1812456054687500e+03" nSuw="1.6010000000000000e+03" nBuw="6.0500000000000000e+02" nEvuw="2.2060000000000000e+03" sepI="2.4835424125194550e-01" sepG="2.6451503753662109e+01" res="-9.9000000000000000e+01" rms="0.0000000000000000e+00" nType="0" CC="0.0000000000000000e+00">
            <Node pos="l" depth="3" Seq="2" IVar="-1" Cut="0.0000000000000000e+00" cType="1" nS="1.8073675537109375e+03" nB="1.2644697265625000e+03" nEv="3.0718374023437500e+03" nSuw="6.9900000000000000e+02" nBuw="5.5600000000000000e+02" nEvuw="1.2550000000000000e+03" sepI="2.4219128489494324e-01" sepG="-1.0000000000000000e+00" res="-9.9000000000000000e+01" rms="0.0000000000000000e+00" nType="1" CC="0.0000000000000000e+00"/>
            <Node pos="r" depth="3" Seq="6" IVar="-1" Cut="0.0000000000000000e+00" cType="1" nS="4.5287982177734375e+02" nB="6.5652862548828125e+02" nEv="1.1094084472656250e+03" nSuw="9.0200000000000000e+02" nBuw="4.9000000000000000e+01" nEvuw="9.5100000000000000e+02" sepI="2.4157595634460449e-01" sepG="-1.0000000000000000e+00" res="-9.9000000000000000e+01" rms="0.0000000000000000e+00" nType="-1" CC="0.0000000000000000e+00"/>
          </Node>
        </Node>
        <Node pos="r" depth="1" Seq="1" IVar="4" Cut="1.0447374731302261e-01" cType="0" nS="8.2332031250000000e+03" nB="9.6124140625000000e+03" nEv="1.7845617187500000e+04" nSuw="2.0638000000000000e+04" nBuw="7.4100000000000000e+02" nEvuw="2.1379000000000000e+04" sepI="2.4850672483444214e-01" sepG="7.5119537353515625e+01" res="-9.9000000000000000e+01" rms="0.0000000000000000e+00" nType="0" CC="0.0000000000000000e+00">
          <Node pos="l" depth="2" Seq="1" IVar="1" Cut="8.9959591627120972e-01" cType="1" nS="6.3675307617187500e+03" nB="6.2949301757812500e+03" nEv="1.2662460937500000e+04" nSuw="1.7221000000000000e+04" nBuw="4.2500000000000000e+02" nEvuw="1.7646000000000000e+04" sepI="2.4999177455902100e-01" sepG="1.2850697326660156e+02" res="-9.9000000000000000e+01" rms="0.0000000000000000e+00" nType="0" CC="0.0000000000000000e+00">
            <Node pos="l" depth="3" Seq="1" IVar="-1" Cut="0.0000000000000000e+00" cType="1" nS="5.2060297851562500e+03" nB="4.0185095214843750e+03" nEv="9.2245390625000000e+03" nSuw="1.2699000000000000e+04" nBuw="3.2300000000000000e+02" nEvuw="1.3022000000000000e+04" sepI="2.4585683643817902e-01" sepG="-1.0000000000000000e+00" res="-9.9000000000000000e+01" rms="0.0000000000000000e+00" nType="1" CC="0.0000000000000000e+00"/>
            <Node pos="r" depth="3" Seq="5" IVar="-1" Cut="0.0000000000000000e+00" cType="1" nS="1.1615010986328125e+03" nB="2.2764206542968750e+03" nEv="3.4379216308593750e+03" nSuw="4.5220000000000000e+03" nBuw="1.0200000000000000e+02" nEvuw="4.6240000000000000e+03" sepI="2.2370730340480804e-01" sepG="-1.0000000000000000e+00" res="-9.9000000000000000e+01" rms="0.0000000000000000e+00" nType="-1" CC="0.0000000000000000e+00"/>
          </Node>
          <Node pos="r" depth="2" Seq="3" IVar="2" Cut="3.6493081599473953e-02" cType="0" nS="1.8656723632812500e+03" nB="3.3174841308593750e+03" nEv="5.1831562500000000e+03" nSuw="3.4170000000000000e+03" nBuw="3.1600000000000000e+02" nEvuw="3.7330000000000000e+03" sepI="2.3038573563098907e-01" sepG="3.7624778747558594e+01" res="-9.9000000000000000e+01" rms="0.0000000000000000e+00" nType="0" CC="0.0000000000000000e+00">
            <Node pos="l" depth="3" Seq="3" IVar="-1" Cut="0.0000000000000000e+00" cType="1" nS="4.7971978759765625e+02" nB="3.9377276611328125e+02" nEv="8.7349255371093750e+02" nSuw="1.8970000000000000e+03" nBuw="1.6000000000000000e+01" nEvuw="1.9130000000000000e+03" sepI="2.4757961928844452e-01" sepG="-1.0000000000000000e+00" res="-9.9000000000000000e+01" rms="0.0000000000000000e+00" nType="1" CC="0.0000000000000000e+00"/>
            <Node pos="r" depth="3" Seq="7" IVar="-1" Cut="0.0000000000000000e+00" cType="1" nS="1.3859525146484375e+03" nB="2.9237111816406250e+03" nEv="4.3096635742187500e+03" nSuw="1.5200000000000000e+03" nBuw="3.0000000000000000e+02" nEvuw="1.8200000000000000e+03" sepI="2.1817050874233246e-01" sepG="-1.0000000000000000e+00" res="-9.9000000000000000e+01" rms="0.0000000000000000e+00" nType="-1" CC="0.0000000000000000e+00"/>
          </Node>
        </Node>
      </Node>
    </BinaryTree>
    <BinaryTree type="DecisionTree" boostWeight="4.8784600980516868e-01" itree="5">
      <Node pos="s" depth="0" Seq="0" IVar="4" Cut="6.6172188520431519e-01" cType="1" nS="1.1807990234375000e+04" nB="1.2923385742187500e+04" nEv="2.4731375000000000e+04" nSuw="2.3200000000000000e+04" nBuw="1.5000000000000000e+03" nEvuw="2.4700000000000000e+04" sepI="2.4949148297309875e-01" sepG="1.0822737884521484e+02" res="-9.9000000000000000e+01" rms="0.0000000000000000e+00" nType="0" CC="0.0000000000000000e+00">
        <Node pos="l" depth="1" Seq="0" IVar="1" Cut="5.6609261035919189e-01" cType="1" nS="9.1680048828125000e+03" nB="8.4852500000000000e+03" nEv="1.7653255859375000e+04" nSuw="1.7876000000000000e+04" nBuw="1.1780000000000000e+03" nEvuw="1.9054000000000000e+04" sepI="2.4962604045867920e-01" sepG="5.1656238555908203e+01" res="-9.9000000000000000e+01" rms="0.0000000000000000e+00" nType="0" CC="0.0000000000000000e+00">
          <Node pos="l" depth="2" Seq="0" IVar="1" Cut="4.6502393484115601e-01" cType="0" nS="3.3814514160156250e+03" nB="2.2717285156250000e+03" nEv="5.6531801757812500e+03" nSuw="2.3130000000000000e+03" nBuw="6.5900000000000000e+02" nEvuw="2.9720000000000000e+03" sepI="2.4036651849746704e-01" sepG="7.2510726928710938e+01" res="-9.9000000000000000e+01" rms="0.0000000000000000e+00" nType="0" CC="0.0000000000000000e+00">
            <Node pos="l" depth="3" Seq="0" IVar="-1" Cut="0.0000000000000000e+00" cType="1" nS="2.0532912597656250e+03" nB="8.4442364501953125e+02" nEv="2.8977148437500000e+03" nSuw="1.4030000000000000e+03" nBuw="1.9100000000000000e+02" nEvuw="1.5940000000000000e+03" sepI="2.0649029314517975e-01" sepG="-1.0000000000000000e+00" res="-9.9000000000000000e+01" rms="0.0000000000000000e+00" nType="1" CC="0.0000000000000000e+00"/>
            <Node pos="r" depth="3" Seq="4" IVar="-1" Cut="0.0000000000000000e+00" cType="1" nS="1.3281602783203125e+03" nB="1.4273049316406250e+03" nEv="2.7554653320312500e+03" nSuw="9.1000000000000000e+02" nBuw="4.6800000000000000e+02" nEvuw="1.3780000000000000e+03" sepI="2.4967634677886963e-01" sepG="-1.0000000000000000e+00" res="-9.9000000000000000e+01" rms="0.0000000000000000e+00" nType="-1" CC="0.0000000000000000e+00"/>
          </Node>
          <Node pos="r" depth="2" Seq="2" IVar="4" Cut="3.5208040475845337e-01" cType="0" nS="5.7865532226562500e+03" nB="6.2135219726562500e+03" nEv="1.2000075195312500e+04" nSuw="1.5563000000000000e+04" nBuw="5.1900000000000000e+02" nEvuw="1.6082000000000000e+04" sepI="2.4968351423740387e-01" sepG="1.3567973327636719e+02" res="-9.9000000000000000e+01" rms="0.0000000000000000e+00" nType="0" CC="0.0000000000000000e+00">
            <Node pos="l" depth="3" Seq="2" IVar="-1" Cut="0.0000000000000000e+00" cType="1" nS="1.5645869140625000e+03" nB="6.5297888183593750e+02" nEv="2.2175656738281250e+03" nSuw="5.4860000000000000e+03" nBuw="2.9000000000000000e+01" nEvuw="5.5150000000000000e+03" sepI="2.0775228738784790e-01" sepG="-1.0000000000000000e+00" res="-9.9000000000000000e+01" rms="0.0000000000000000e+00" nType="1" CC="0.0000000000000000e+00"/>
            <Node pos="r" depth="3" Seq="6" IVar="-1" Cut="0.0000000000000000e+00" cType="1" nS="4.2219663085937500e+03" nB="5.5605429687500000e+03" nEv="9.7825097656250000e+03" nSuw="1.0077000000000000e+04" nBuw="4.9000000000000000e+02" nEvuw="1.0567000000000000e+04" sepI="2.4531914293766022e-01" sepG="-1.0000000000000000e+00" res="-9.9000000000000000e+01" rms="0.0000000000000000e+00" nType="-1" CC="0.0000000000000000e+00"/>
          </Node>
        </Node>
        <Node pos="r" depth="1" Seq="1" IVar="2" Cut="1.1477443389594555e-02" cType="1" nS="2.6399851074218750e+03" nB="4.4381352539062500e+03" nEv="7.0781206054687500e+03" nSuw="5.3240000000000000e+03" nBuw="3.2200000000000000e+02" nEvuw="5.6460000000000000e+03" sepI="2.3386548459529877e-01" sepG="6.2233352661132812e+01" res="-9.9000000000000000e+01" rms="0.0000000000000000e+00" nType="0" CC="0.0000000000000000e+00">
          <Node pos="l" depth="2" Seq="1" IVar="2" Cut="3.2929012086242437e-03" cType="1" nS="7.9670947265625000e+02" nB="6.2621118164062500e+02" nEv="1.4229206542968750e+03" nSuw="4.6100000000000000e+02" nBuw="1.1700000000000000e+02" nEvuw="5.7800000000000000e+02" sepI="2.4641062319278717e-01" sepG="3.0600833892822266e+01" res="-9.9000000000000000e+01" rms="0.0000000000000000e+00" nType="0" CC="0.0000000000000000e+00">
            <Node pos="l" depth="3" Seq="1" IVar="-1" Cut="0.0000000000000000e+00" cType="1" nS="4.4497058105468750e+02" nB="1.6529919433593750e+02" nEv="6.1026977539062500e+02" nSuw="1.2800000000000000e+02" nBuw="6.4000000000000000e+01" nEvuw="1.9200000000000000e+02" sepI="1.9749601185321808e-01" sepG="-1.0000000000000000e+00" res="-9.9000000000000000e+01" rms="0.0000000000000000e+00" nType="1" CC="0.0000000000000000e+00"/>
            <Node pos="r" depth="3" Seq="5" IVar="-1" Cut="0.0000000000000000e+00" cType="1" nS="3.5173892211914062e+02" nB="4.6091195678710938e+02" nEv="8.1265087890625000e+02" nSuw="3.3300000000000000e+02" nBuw="5.3000000000000000e+01" nEvuw="3.8600000000000000e+02" sepI="2.4548806250095367e-01" sepG="-1.0000000000000000e+00" res="-9.9000000000000000e+01" rms="0.0000000000000000e+00" nType="-1" CC="0.0000000000000000e+00"/>
          </Node>
          <Node pos="r" depth="2" Seq="3" IVar="-1" Cut="2.8583401814103127e-02" cType="0" nS="1.8432756347656250e+03" nB="3.8119240722656250e+03" nEv="5.6551997070312500e+03" nSuw="4.8630000000000000e+03" nBuw="2.0500000000000000e+02" nEvuw="5.0680000000000000e+03" sepI="2.1970434486865997e-01" sepG="-1.0000000000000000e+00" res="-9.9000000000000000e+01" rms="0.0000000000000000e+00" nType="-1" CC="0.0000000000000000e+00"/>
        </Node>
      </Node>
    </BinaryTree>
    <BinaryTree type="DecisionTree" boostWeight="5.4247383407549277e-01" itree="6">
      <Node pos="s" depth="0" Seq="0" IVar="4" Cut="4.7597250342369080e-01" cType="1" nS="1.3458841796875000e+04" nB="1.1272534179687500e+04" nEv="2.4731375000000000e+04" nSuw="2.3200000000000000e+04" nBuw="1.5000000000000000e+03" nEvuw="2.4700000000000000e+04" sepI="2.4804626405239105e-01" sepG="7.7337661743164062e+01" res="-9.9000000000000000e+01" rms="0.0000000000000000e+00" nType="0" CC="0.0000000000000000e+00">
        <Node pos="l" depth="1" Seq="0" IVar="2" Cut="6.5905507653951645e-03" cType="0" nS="9.1037792968750000e+03" nB="6.3957456054687500e+03" nEv="1.5499525390625000e+04" nSuw="1.4456000000000000e+04" nBuw="1.0380000000000000e+03" nEvuw="1.5494000000000000e+04" sepI="2.4236847460269928e-01" sepG="6.4497734069824219e+01" res="-9.9000000000000000e+01" rms="0.0000000000000000e+00" nType="0" CC="0.0000000000000000e+00">
          <Node pos="l" depth="2" Seq="0" IVar="-1" Cut="1.6636934876441956e-01" cType="0" nS="5.5250825195312500e+03" nB="3.0351096191406250e+03" nEv="8.5601923828125000e+03" nSuw="1.3029000000000000e+04" nBuw="2.4600000000000000e+02" nEvuw="1.3275000000000000e+04" sepI="2.2884747385978699e-01" sepG="-1.0000000000000000e+00" res="-9.9000000000000000e+01" rms="0.0000000000000000e+00" nType="1" CC="0.0000000000000000e+00"/>
          <Node pos="r" depth="2" Seq="2" IVar="3" Cut="2.8594080358743668e-02" cType="1" nS="3.5786970214843750e+03" nB="3.3606359863281250e+03" nEv="6.9393330078125000e+03" nSuw="1.4270000000000000e+03" nBuw="7.9200000000000000e+02" nEvuw="2.2190000000000000e+03" sepI="2.4975313246250153e-01" sepG="1.5657342529296875e+02" res="-9.9000000000000000e+01" rms="0.0000000000000000e+00" nType="0" CC="0.0000000000000000e+00">
            <Node pos="l" depth="3" Seq="2" IVar="-1" Cut="0.0000000000000000e+00" cType="1" nS="2.3755551757812500e+03" nB="1.2208767089843750e+03" nEv="3.5964316406250000e+03" nSuw="4.4700000000000000e+02" nBuw="5.5200000000000000e+02" nEvuw="9.9900000000000000e+02" sepI="2.2422976791858673e-01" sepG="-1.0000000000000000e+00" res="-9.9000000000000000e+01" rms="0.0000000000000000e+00" nType="1" CC="0.0000000000000000e+00"/>
            <Node pos="r" depth="3" Seq="6" IVar="-1" Cut="0.0000000000000000e+00" cType="1" nS="1.2031419677734375e+03" nB="2.1397595214843750e+03" nEv="3.3429013671875000e+03" nSuw="9.8000000000000000e+02" nBuw="2.4000000000000000e+02" nEvuw="1.2200000000000000e+03" sepI="2.3037464916706085e-01" sepG="-1.0000000000000000e+00" res="-9.9000000000000000e+01" rms="0.0000000000000000e+00" nType="-1" CC="0.0000000000000000e+00"/>
          </Node>
        </Node>
        <Node pos="r" depth="1" Seq="1" IVar="2" Cut="3.4379299730062485e-02" cType="1" nS="4.3550615234375000e+03" nB="4.8767885742187500e+03" nEv="9.2318505859375000e+03" nSuw="8.7440000000000000e+03" nBuw="4.6200000000000000e+02" nEvuw="9.2060000000000000e+03" sepI="2.4920155107975006e-01" sepG="7.2540618896484375e+01" res="-9.9000000000000000e+01" rms="0.0000000000000000e+00" nType="0" CC="0.0000000000000000e+00">
          <Node pos="l" depth="2" Seq="1" IVar="0" Cut="3.1428570747375488e+00" cType="1" nS="2.7563623046875000e+03" nB="2.2218845214843750e+03" nEv="4.9782470703125000e+03" nSuw="3.4130000000000000e+03" nBuw="3.4800000000000000e+02" nEvuw="3.7610000000000000e+03" sepI="2.4711830914020538e-01" sepG="4.3415752410888672e+01" res="-9.9000000000000000e+01" rms="0.0000000000000000e+00" nType="0" CC="0.0000000000000000e+00">
            <Node pos="l" depth="3" Seq="1" IVar="-1" Cut="0.0000000000000000e+00" cType="1" nS="2.7023305664062500e+03" nB="1.9796982421875000e+03" nEv="4.6820288085937500e+03" nSuw="3.2480000000000000e+03" nBuw="3.3800000000000000e+02" nEvuw="3.5860000000000000e+03" sepI="2.4404466152191162e-01" sepG="-1.0000000000000000e+00" res="-9.9000000000000000e+01" rms="0.0000000000000000e+00" nType="1" CC="0.0000000000000000e+00"/>
            <Node pos="r" depth="3" Seq="5" IVar="-1" Cut="0.0000000000000000e+00" cType="1" nS="5.4031784057617188e+01" nB="2.4218626403808594e+02" nEv="2.9621804809570312e+02" nSuw="1.6500000000000000e+02" nBuw="1.0000000000000000e+01" nEvuw="1.7500000000000000e+02" sepI="1.4913369715213776e-01" sepG="-1.0000000000000000e+00" res="-9.9000000000000000e+01" rms="0.0000000000000000e+00" nType="-1" CC="0.0000000000000000e+00"/>
          </Node>
          <Node pos="r" depth="2" Seq="3" IVar="-1" Cut="6.8938851356506348e-01" cType="0" nS="1.5986993408203125e+03" nB="2.6549040527343750e+03" nEv="4.2536035156250000e+03" nSuw="5.3310000000000000e+03" nBuw="1.1400000000000000e+02" nEvuw="5.4450000000000000e+03" sepI="2.3458576202392578e-01" sepG="-1.0000000000000000e+00" res="-9.9000000000000000e+01" rms="0.0000000000000000e+00" nType="-1" CC="0.0000000000000000e+00"/>
        </Node>
      </Node>
    </BinaryTree>
    <BinaryTree type="DecisionTree" boostWeight="2.1954033917195798e-01" itree="7">
      <Node pos="s" depth="0" Seq="0" IVar="4" Cut="9.4034594297409058e-01" cType="1" nS="1.2267636718750000e+04" nB="1.2463739257812500e+04" nEv="2.4731375000000000e+04" nSuw="2.3200000000000000e+04" nBuw="1.5000000000000000e+03" nEvuw="2.4700000000000000e+04" sepI="2.4998427927494049e-01" sepG="4.3202873229980469e+01" res="-9.9000000000000000e+01" rms="0.0000000000000000e+00" nType="0" CC="0.0000000000000000e+00">
        <Node pos="l" depth="1" Seq="0" IVar="3" Cut="4.2859341949224472e-02" cType="0" nS="1.1586591796875000e+04" nB="1.1212555664062500e+04" nEv="2.2799148437500000e+04" nSuw="2.2677000000000000e+04" nBuw="1.3590000000000000e+03" nEvuw="2.4036000000000000e+04" sepI="2.4993270635604858e-01" sepG="4.3593780517578125e+01" res="-9.9000000000000000e+01" rms="0.0000000000000000e+00" nType="0" CC="0.0000000000000000e+00">
          <Node pos="l" depth="2" Seq="0" IVar="2" Cut="1.8419964239001274e-02" cType="0" nS="3.8324042968750000e+03" nB="2.8170444335937500e+03" nEv="6.6494487304687500e+03" nSuw="8.3470000000000000e+03" nBuw="2.4800000000000000e+02" nEvuw="8.5950000000000000e+03" sepI="2.4417079985141754e-01" sepG="5.6093761444091797e+01" res="-9.9000000000000000e+01" rms="0.0000000000000000e+00" nType="0" CC="0.0000000000000000e+00">
            <Node pos="l" depth="3" Seq="0" IVar="-1" Cut="0.0000000000000000e+00" cType="1" nS="1.9812625732421875e+03" nB="9.3061865234375000e+02" nEv="2.9118811035156250e+03" nSuw="6.0710000000000000e+03" nBuw="3.6000000000000000e+01" nEvuw="6.1070000000000000e+03" sepI="2.1745353937149048e-01" sepG="-1.0000000000000000e+00" res="-9.9000000000000000e+01" rms="0.0000000000000000e+00" nType="1" CC="0.0000000000000000e+00"/>
            <Node pos="r" depth="3" Seq="4" IVar="-1" Cut="0.0000000000000000e+00" cType="1" nS="1.8511417236328125e+03" nB="1.8864257812500000e+03" nEv="3.7375676269531250e+03" nSuw="2.2760000000000000e+03" nBuw="2.1200000000000000e+02" nEvuw="2.4880000000000000e+03" sepI="2.4997772276401520e-01" sepG="-1.0000000000000000e+00" res="-9.9000000000000000e+01" rms="0.0000000000000000e+00" nType="-1" CC="0.0000000000000000e+00"/>
          </Node>
          <Node pos="r" depth="2" Seq="2" IVar="2" Cut="9.2250548303127289e-02" cType="0" nS="7.7541875000000000e+03" nB="8.3955107421875000e+03" nEv="1.6149699218750000e+04" nSuw="1.4330000000000000e+04" nBuw="1.1110000000000000e+03" nEvuw="1.5441000000000000e+04" sepI="2.4960575997829437e-01" sepG="2.7303131103515625e+01" res="-9.9000000000000000e+01" rms="0.0000000000000000e+00" nType="0" CC="0.0000000000000000e+00">
            <Node pos="l" depth="3" Seq="2" IVar="-1" Cut="0.0000000000000000e+00" cType="1" nS="1.0700869750976562e+02" nB="2.4094717502593994e+00" nEv="1.0941816711425781e+02" nSuw="3.2100000000000000e+02" nBuw="1.0000000000000000e+00" nEvuw="3.2200000000000000e+02" sepI="2.1535851061344147e-02" sepG="-1.0000000000000000e+00" res="-9.9000000000000000e+01" rms="0.0000000000000000e+00" nType="1" CC="0.0000000000000000e+00"/>
            <Node pos="r" depth="3" Seq="6" IVar="-1" Cut="0.0000000000000000e+00" cType="1" nS="7.6471791992187500e+03" nB="8.3931015625000000e+03" nEv="1.6040280273437500e+04" nSuw="1.4009000000000000e+04" nBuw="1.1100000000000000e+03" nEvuw="1.5119000000000000e+04" sepI="2.4945937097072601e-01" sepG="-1.0000000000000000e+00" res="-9.9000000000000000e+01" rms="0.0000000000000000e+00" nType="-1" CC="0.0000000000000000e+00"/>
          </Node>
        </Node>
        <Node pos="r" depth="1" Seq="1" IVar="4" Cut="9.6695727109909058e-01" cType="1" nS="6.8104437255859375e+02" nB="1.2511838378906250e+03" nEv="1.9322281494140625e+03" nSuw="5.2300000000000000e+02" nBuw="1.4100000000000000e+02" nEvuw="6.6400000000000000e+02" sepI="2.2823366522789001e-01" sepG="3.2659450531005859e+01" res="-9.9000000000000000e+01" rms="0.0000000000000000e+00" nType="0" CC="0.0000000000000000e+00">
          <Node pos="l" depth="2" Seq="1" IVar="2" Cut="2.9424641281366348e-02" cType="0" nS="5.7674304199218750e+02" nB="7.2546704101562500e+02" nEv="1.3022100830078125e+03" nSuw="4.5700000000000000e+02" nBuw="7.2000000000000000e+01" nEvuw="5.2900000000000000e+02" sepI="2.4673907458782196e-01" sepG="2.0808521270751953e+01" res="-9.9000000000000000e+01" rms="0.0000000000000000e+00" nType="0" CC="0.0000000000000000e+00">
            <Node pos="l" depth="3" Seq="1" IVar="-1" Cut="0.0000000000000000e+00" cType="1" nS="3.3167504882812500e+02" nB="2.3301182556152344e+02" nEv="5.6468688964843750e+02" nSuw="2.5900000000000000e+02" nBuw="3.1000000000000000e+01" nEvuw="2.9000000000000000e+02" sepI="2.4236805737018585e-01" sepG="-1.0000000000000000e+00" res="-9.9000000000000000e+01" rms="0.0000000000000000e+00" nType="1" CC="0.0000000000000000e+00"/>
            <Node pos="r" depth="3" Seq="5" IVar="-1" Cut="0.0000000000000000e+00" cType="1" nS="2.4506794738769531e+02" nB="4.9245520019531250e+02" nEv="7.3752313232421875e+02" nSuw="1.9800000000000000e+02" nBuw="4.1000000000000000e+01" nEvuw="2.3900000000000000e+02" sepI="2.2187170386314392e-01" sepG="-1.0000000000000000e+00" res="-9.9000000000000000e+01" rms="0.0000000000000000e+00" nType="-1" CC="0.0000000000000000e+00"/>
          </Node>
          <Node pos="r" depth="2" Seq="3" IVar="-1" Cut="0.0000000000000000e+00" cType="1" nS="1.0430133056640625e+02" nB="5.2571673583984375e+02" nEv="6.3001806640625000e+02" nSuw="6.6000000000000000e+01" nBuw="6.9000000000000000e+01" nEvuw="1.3500000000000000e+02" sepI="1.3814514875411987e-01" sepG="-1.0000000000000000e+00" res="-9.9000000000000000e+01" rms="0.0000000000000000e+00" nType="-1" CC="0.0000000000000000e+00"/>
        </Node>
      </Node>
    </BinaryTree>
    <BinaryTree type="DecisionTree" boostWeight="2.6564045977651252e-01" itree="8">
      <Node pos="s" depth="0" Seq="0" IVar="4" Cut="9.4034594297409058e-01" cType="1" nS="1.3237959960937500e+04" nB="1.1493416015625000e+04" nEv="2.4731375000000000e+04" nSuw="2.3200000000000000e+04" nBuw="1.5000000000000000e+03" nEvuw="2.4700000000000000e+04" sepI="2.4875603616237640e-01" sepG="5.5603206634521484e+01" res="-9.9000000000000000e+01" rms="0.0000000000000000e+00" nType="0" CC="0.0000000000000000e+00">
        <Node pos="l" depth="1" Seq="0" IVar="0" Cut="5.1904764175415039e+00" cType="0" nS="1.2546718750000000e+04" nB="1.0313976562500000e+04" nEv="2.2860695312500000e+04" nSuw="2.2677000000000000e+04" nBuw="1.3590000000000000e+03" nEvuw="2.4036000000000000e+04" sepI="2.4761527776718140e-01" sepG="1.9866474151611328e+01" res="-9.9000000000000000e+01" rms="0.0000000000000000e+00" nType="0" CC="0.0000000000000000e+00">
          <Node pos="l" depth="2" Seq="0" IVar="1" Cut="7.2650110721588135e-01" cType="0" nS="9.7184532165527344e+01" nB="0.0000000000000000e+00" nEv="9.7184532165527344e+01" nSuw="2.9700000000000000e+02" nBuw="0.0000000000000000e+00" nEvuw="2.9700000000000000e+02" sepI="0.0000000000000000e+00" sepG="0.0000000000000000e+00" res="-9.9000000000000000e+01" rms="0.0000000000000000e+00" nType="1" CC="0.0000000000000000e+00"/>
          <Node pos="r" depth="2" Seq="2" IVar="0" Cut="4.0476188659667969e+00" cType="1" nS="1.2449534179687500e+04" nB="1.0313976562500000e+04" nEv="2.2763509765625000e+04" nSuw="2.2380000000000000e+04" nBuw="1.3590000000000000e+03" nEvuw="2.3739000000000000e+04" sepI="2.4779969453811646e-01" sepG="2.9770206451416016e+01" res="-9.9000000000000000e+01" rms="0.0000000000000000e+00" nType="0" CC="0.0000000000000000e+00">
            <Node pos="l" depth="3" Seq="2" IVar="-1" Cut="0.0000000000000000e+00" cType="1" nS="1.2241726562500000e+04" nB="9.8956318359375000e+03" nEv="2.2137359375000000e+04" nSuw="2.1782000000000000e+04" nBuw="1.3430000000000000e+03" nEvuw="2.3125000000000000e+04" sepI="2.4719211459159851e-01" sepG="-1.0000000000000000e+00" res="-9.9000000000000000e+01" rms="0.0000000000000000e+00" nType="1" CC="0.0000000000000000e+00"/>
            <Node pos="r" depth="3" Seq="6" IVar="-1" Cut="0.0000000000000000e+00" cType="1" nS="2.0780697631835938e+02" nB="4.1834451293945312e+02" nEv="6.2615148925781250e+02" nSuw="5.9800000000000000e+02" nBuw="1.6000000000000000e+01" nEvuw="6.1400000000000000e+02" sepI="2.2173556685447693e-01" sepG="-1.0000000000000000e+00" res="-9.9000000000000000e+01" rms="0.0000000000000000e+00" nType="-1" CC="0.0000000000000000e+00"/>
          </Node>
        </Node>
        <Node pos="r" depth="1" Seq="1" IVar="4" Cut="9.6695727109909058e-01" cType="1" nS="6.9124151611328125e+02" nB="1.1794394531250000e+03" nEv="1.8706809082031250e+03" nSuw="5.2300000000000000e+02" nBuw="1.4100000000000000e+02" nEvuw="6.6400000000000000e+02" sepI="2.3297323286533356e-01" sepG="2.5372512817382812e+01" res="-9.9000000000000000e+01" rms="0.0000000000000000e+00" nType="0" CC="0.0000000000000000e+00">
          <Node pos="l" depth="2" Seq="1" IVar="2" Cut="4.4095270335674286e-02" cType="0" nS="5.7413702392578125e+02" nB="7.0553527832031250e+02" nEv="1.2796722412109375e+03" nSuw="4.5700000000000000e+02" nBuw="7.2000000000000000e+01" nEvuw="5.2900000000000000e+02" sepI="2.4736414849758148e-01" sepG="9.4226808547973633e+00" res="-9.9000000000000000e+01" rms="0.0000000000000000e+00" nType="0" CC="0.0000000000000000e+00">
            <Node pos="l" depth="3" Seq="1" IVar="-1" Cut="0.0000000000000000e+00" cType="1" nS="2.1007983398437500e+02" nB="1.4826406860351562e+02" nEv="3.5834390258789062e+02" nSuw="1.6800000000000000e+02" nBuw="1.8000000000000000e+01" nEvuw="1.8600000000000000e+02" sepI="2.4256059527397156e-01" sepG="-1.0000000000000000e+00" res="-9.9000000000000000e+01" rms="0.0000000000000000e+00" nType="1" CC="0.0000000000000000e+00"/>
            <Node pos="r" depth="3" Seq="5" IVar="-1" Cut="0.0000000000000000e+00" cType="1" nS="3.6405718994140625e+02" nB="5.5727117919921875e+02" nEv="9.2132836914062500e+02" nSuw="2.8900000000000000e+02" nBuw="5.4000000000000000e+01" nEvuw="3.4300000000000000e+02" sepI="2.3900517821311951e-01" sepG="-1.0000000000000000e+00" res="-9.9000000000000000e+01" rms="0.0000000000000000e+00" nType="-1" CC="0.0000000000000000e+00"/>
          </Node>
          <Node pos="r" depth="2" Seq="3" IVar="-1" Cut="0.0000000000000000e+00" cType="1" nS="1.1710453796386719e+02" nB="4.7390414428710938e+02" nEv="5.9100866699218750e+02" nSuw="6.6000000000000000e+01" nBuw="6.9000000000000000e+01" nEvuw="1.3500000000000000e+02" sepI="1.5888266265392303e-01" sepG="-1.0000000000000000e+00" res="-9.9000000000000000e+01" rms="0.0000000000000000e+00" nType="-1" CC="0.0000000000000000e+00"/>
        </Node>
      </Node>
    </BinaryTree>
    <BinaryTree type="DecisionTree" boostWeight="1.0684909573530020e-01" itree="9">
      <Node pos="s" depth="0" Seq="0" IVar="0" Cut="5.1904764175415039e+00" cType="0" nS="1.1879027343750000e+04" nB="1.2852347656250000e+04" nEv="2.4731375000000000e+04" nSuw="2.3200000000000000e+04" nBuw="1.5000000000000000e+03" nEvuw="2.4700000000000000e+04" sepI="2.4961277842521667e-01" sepG="2.3265489578247070e+01" res="-9.9000000000000000e+01" rms="0.0000000000000000e+00" nType="0" CC="0.0000000000000000e+00">
        <Node pos="l" depth="1" Seq="0" IVar="1" Cut="7.2650110721588135e-01" cType="0" nS="8.5848678588867188e+01" nB="0.0000000000000000e+00" nEv="8.5848678588867188e+01" nSuw="2.9700000000000000e+02" nBuw="0.0000000000000000e+00" nEvuw="2.9700000000000000e+02" sepI="0.0000000000000000e+00" sepG="0.0000000000000000e+00" res="-9.9000000000000000e+01" rms="0.0000000000000000e+00" nType="1" CC="0.0000000000000000e+00"/>
        <Node pos="r" depth="1" Seq="1" IVar="2" Cut="9.8839804530143738e-02" cType="0" nS="1.1793178710937500e+04" nB="1.2852347656250000e+04" nEv="2.4645527343750000e+04" nSuw="2.2903000000000000e+04" nBuw="1.5000000000000000e+03" nEvuw="2.4403000000000000e+04" sepI="2.4953825771808624e-01" sepG="1.3427036285400391e+01" res="-9.9000000000000000e+01" rms="0.0000000000000000e+00" nType="0" CC="0.0000000000000000e+00">
          <Node pos="l" depth="2" Seq="1" IVar="-1" Cut="1.0131286382675171e+00" cType="0" nS="5.7499149322509766e+01" nB="3.1167955398559570e+00" nEv="6.0615943908691406e+01" nSuw="2.1200000000000000e+02" nBuw="1.0000000000000000e+00" nEvuw="2.1300000000000000e+02" sepI="4.8774853348731995e-02" sepG="-1.0000000000000000e+00" res="-9.9000000000000000e+01" rms="0.0000000000000000e+00" nType="1" CC="0.0000000000000000e+00"/>
          <Node pos="r" depth="2" Seq="3" IVar="3" Cut="2.8573747724294662e-02" cType="0" nS="1.1735679687500000e+04" nB="1.2849231445312500e+04" nEv="2.4584910156250000e+04" nSuw="2.2691000000000000e+04" nBuw="1.4990000000000000e+03" nEvuw="2.4190000000000000e+04" sepI="2.4948711693286896e-01" sepG="1.2388293266296387e+01" res="-9.9000000000000000e+01" rms="0.0000000000000000e+00" nType="0" CC="0.0000000000000000e+00">
            <Node pos="l" depth="3" Seq="3" IVar="-1" Cut="0.0000000000000000e+00" cType="1" nS="5.7278803710937500e+03" nB="5.6947680664062500e+03" nEv="1.1422648437500000e+04" nSuw="1.2926000000000000e+04" nBuw="4.5200000000000000e+02" nEvuw="1.3378000000000000e+04" sepI="2.4999789893627167e-01" sepG="-1.0000000000000000e+00" res="-9.9000000000000000e+01" rms="0.0000000000000000e+00" nType="1" CC="0.0000000000000000e+00"/>
            <Node pos="r" depth="3" Seq="7" IVar="-1" Cut="0.0000000000000000e+00" cType="1" nS="6.0077993164062500e+03" nB="7.1544628906250000e+03" nEv="1.3162262695312500e+04" nSuw="9.7650000000000000e+03" nBuw="1.0470000000000000e+03" nEvuw="1.0812000000000000e+04" sepI="2.4810263514518738e-01" sepG="-1.0000000000000000e+00" res="-9.9000000000000000e+01" rms="0.0000000000000000e+00" nType="-1" CC="0.0000000000000000e+00"/>
          </Node>
        </Node>
      </Node>
    </BinaryTree>
    <BinaryTree type="DecisionTree" boostWeight="1.3827619522985979e-01" itree="10">
      <Node pos="s" depth="0" Seq="0" IVar="0" Cut="5.1904764175415039e+00" cType="0" nS="1.1920274414062500e+04" nB="1.2811100585937500e+04" nEv="2.4731375000000000e+04" nSuw="2.3200000000000000e+04" nBuw="1.5000000000000000e+03" nEvuw="2.4700000000000000e+04" sepI="2.4967563152313232e-01" sepG="2.1941230773925781e+01" res="-9.9000000000000000e+01" rms="0.0000000000000000e+00" nType="0" CC="0.0000000000000000e+00">
        <Node pos="l" depth="1" Seq="0" IVar="1" Cut="7.2650110721588135e-01" cType="0" nS="8.1498779296875000e+01" nB="0.0000000000000000e+00" nEv="8.1498779296875000e+01" nSuw="2.9700000000000000e+02" nBuw="0.0000000000000000e+00" nEvuw="2.9700000000000000e+02" sepI="0.0000000000000000e+00" sepG="0.0000000000000000e+00" res="-9.9000000000000000e+01" rms="0.0000000000000000e+00" nType="1" CC="0.0000000000000000e+00"/>
        <Node pos="r" depth="1" Seq="1" IVar="4" Cut="5.8036405593156815e-02" cType="0" nS="1.1838776367187500e+04" nB="1.2811100585937500e+04" nEv="2.4649876953125000e+04" nSuw="2.2903000000000000e+04" nBuw="1.5000000000000000e+03" nEvuw="2.4403000000000000e+04" sepI="2.4961102008819580e-01" sepG="1.5684494972229004e+01" res="-9.9000000000000000e+01" rms="0.0000000000000000e+00" nType="0" CC="0.0000000000000000e+00">
          <Node pos="l" depth="2" Seq="1" IVar="-1" Cut="9.4255912303924561e-01" cType="1" nS="1.0160332031250000e+04" nB="1.0518884765625000e+04" nEv="2.0679216796875000e+04" nSuw="2.1104000000000000e+04" nBuw="1.2550000000000000e+03" nEvuw="2.2359000000000000e+04" sepI="2.4992483854293823e-01" sepG="-1.0000000000000000e+00" res="-9.9000000000000000e+01" rms="0.0000000000000000e+00" nType="-1" CC="0.0000000000000000e+00"/>
          <Node pos="r" depth="2" Seq="3" IVar="2" Cut="1.7512679100036621e-02" cType="1" nS="1.6784443359375000e+03" nB="2.2922160644531250e+03" nEv="3.9706604003906250e+03" nSuw="1.7990000000000000e+03" nBuw="2.4500000000000000e+02" nEvuw="2.0440000000000000e+03" sepI="2.4402651190757751e-01" sepG="9.5050842285156250e+01" res="-9.9000000000000000e+01" rms="0.0000000000000000e+00" nType="0" CC="0.0000000000000000e+00">
            <Node pos="l" depth="3" Seq="3" IVar="-1" Cut="0.0000000000000000e+00" cType="1" nS="1.0893677978515625e+03" nB="7.6269903564453125e+02" nEv="1.8520668945312500e+03" nSuw="4.6400000000000000e+02" nBuw="1.4700000000000000e+02" nEvuw="6.1100000000000000e+02" sepI="2.4222247302532196e-01" sepG="-1.0000000000000000e+00" res="-9.9000000000000000e+01" rms="0.0000000000000000e+00" nType="1" CC="0.0000000000000000e+00"/>
            <Node pos="r" depth="3" Seq="7" IVar="-1" Cut="0.0000000000000000e+00" cType="1" nS="5.8907653808593750e+02" nB="1.5295170898437500e+03" nEv="2.1185937500000000e+03" nSuw="1.3350000000000000e+03" nBuw="9.8000000000000000e+01" nEvuw="1.4330000000000000e+03" sepI="2.0073853433132172e-01" sepG="-1.0000000000000000e+00" res="-9.9000000000000000e+01" rms="0.0000000000000000e+00" nType="-1" CC="0.0000000000000000e+00"/>
          </Node>
        </Node>
      </Node>
    </BinaryTree>
    <BinaryTree type="DecisionTree" boostWeight="2.3807546070332736e-01" itree="11">
      <Node pos="s" depth="0" Seq="0" IVar="4" Cut="5.8036405593156815e-02" cType="0" nS="1.2641700195312500e+04" nB="1.2089675781250000e+04" nEv="2.4731375000000000e+04" nSuw="2.3200000000000000e+04" nBuw="1.5000000000000000e+03" nEvuw="2.4700000000000000e+04" sepI="2.4987544119358063e-01" sepG="3.5601406097412109e+01" res="-9.9000000000000000e+01" rms="0.0000000000000000e+00" nType="0" CC="0.0000000000000000e+00">
        <Node pos="l" depth="1" Seq="0" IVar="0" Cut="5.1904764175415039e+00" cType="0" nS="1.0988748046875000e+04" nB="9.8396708984375000e+03" nEv="2.0828417968750000e+04" nSuw="2.1400000000000000e+04" nBuw="1.2550000000000000e+03" nEvuw="2.2655000000000000e+04" sepI="2.4923910200595856e-01" sepG="1.6813434600830078e+01" res="-9.9000000000000000e+01" rms="0.0000000000000000e+00" nType="0" CC="0.0000000000000000e+00">
          <Node pos="l" depth="2" Seq="0" IVar="1" Cut="7.2650110721588135e-01" cType="0" nS="7.5065414428710938e+01" nB="0.0000000000000000e+00" nEv="7.5065414428710938e+01" nSuw="2.9600000000000000e+02" nBuw="0.0000000000000000e+00" nEvuw="2.9600000000000000e+02" sepI="0.0000000000000000e+00" sepG="0.0000000000000000e+00" res="-9.9000000000000000e+01" rms="0.0000000000000000e+00" nType="1" CC="0.0000000000000000e+00"/>
          <Node pos="r" depth="2" Seq="2" IVar="4" Cut="9.4255912303924561e-01" cType="1" nS="1.0913682617187500e+04" nB="9.8396708984375000e+03" nEv="2.0753353515625000e+04" nSuw="2.1104000000000000e+04" nBuw="1.2550000000000000e+03" nEvuw="2.2359000000000000e+04" sepI="2.4933044612407684e-01" sepG="1.4621372222900391e+01" res="-9.9000000000000000e+01" rms="0.0000000000000000e+00" nType="0" CC="0.0000000000000000e+00">
            <Node pos="l" depth="3" Seq="2" IVar="-1" Cut="0.0000000000000000e+00" cType="1" nS="1.0155742187500000e+04" nB="8.8666914062500000e+03" nEv="1.9022433593750000e+04" nSuw="2.0617000000000000e+04" nBuw="1.1180000000000000e+03" nEvuw="2.1735000000000000e+04" sepI="2.4885198473930359e-01" sepG="-1.0000000000000000e+00" res="-9.9000000000000000e+01" rms="0.0000000000000000e+00" nType="1" CC="0.0000000000000000e+00"/>
            <Node pos="r" depth="3" Seq="6" IVar="-1" Cut="0.0000000000000000e+00" cType="1" nS="7.5794122314453125e+02" nB="9.7297900390625000e+02" nEv="1.7309201660156250e+03" nSuw="4.8700000000000000e+02" nBuw="1.3700000000000000e+02" nEvuw="6.2400000000000000e+02" sepI="2.4614152312278748e-01" sepG="-1.0000000000000000e+00" res="-9.9000000000000000e+01" rms="0.0000000000000000e+00" nType="-1" CC="0.0000000000000000e+00"/>
          </Node>
        </Node>
        <Node pos="r" depth="1" Seq="1" IVar="2" Cut="1.7512679100036621e-02" cType="1" nS="1.6529516601562500e+03" nB="2.2500051269531250e+03" nEv="3.9029567871093750e+03" nSuw="1.8000000000000000e+03" nBuw="2.4500000000000000e+02" nEvuw="2.0450000000000000e+03" sepI="2.4414968490600586e-01" sepG="5.9805175781250000e+01" res="-9.9000000000000000e+01" rms="0.0000000000000000e+00" nType="0" CC="0.0000000000000000e+00">
          <Node pos="l" depth="2" Seq="1" IVar="3" Cut="4.3063752353191376e-02" cType="1" nS="1.0201972045898438e+03" nB="8.1925036621093750e+02" nEv="1.8394476318359375e+03" nSuw="4.6500000000000000e+02" nBuw="1.4700000000000000e+02" nEvuw="6.1200000000000000e+02" sepI="2.4701648950576782e-01" sepG="3.4800582885742188e+01" res="-9.9000000000000000e+01" rms="0.0000000000000000e+00" nType="0" CC="0.0000000000000000e+00">
            <Node pos="l" depth="3" Seq="1" IVar="-1" Cut="0.0000000000000000e+00" cType="1" nS="6.2556103515625000e+02" nB="2.7430618286132812e+02" nEv="8.9986718750000000e+02" nSuw="2.2000000000000000e+02" nBuw="7.0000000000000000e+01" nEvuw="2.9000000000000000e+02" sepI="2.1190851926803589e-01" sepG="-1.0000000000000000e+00" res="-9.9000000000000000e+01" rms="0.0000000000000000e+00" nType="1" CC="0.0000000000000000e+00"/>
            <Node pos="r" depth="3" Seq="5" IVar="-1" Cut="0.0000000000000000e+00" cType="1" nS="3.9463619995117188e+02" nB="5.4494421386718750e+02" nEv="9.3958044433593750e+02" nSuw="2.4500000000000000e+02" nBuw="7.7000000000000000e+01" nEvuw="3.2200000000000000e+02" sepI="2.4360211193561554e-01" sepG="-1.0000000000000000e+00" res="-9.9000000000000000e+01" rms="0.0000000000000000e+00" nType="-1" CC="0.0000000000000000e+00"/>
          </Node>
          <Node pos="r" depth="2" Seq="3" IVar="0" Cut="1.1904761791229248e+00" cType="0" nS="6.3275439453125000e+02" nB="1.4307547607421875e+03" nEv="2.0635090332031250e+03" nSuw="1.3350000000000000e+03" nBuw="9.8000000000000000e+01" nEvuw="1.4330000000000000e+03" sepI="2.1261189877986908e-01" sepG="2.0826457977294922e+01" res="-9.9000000000000000e+01" rms="0.0000000000000000e+00" nType="0" CC="0.0000000000000000e+00">
            <Node pos="l" depth="3" Seq="3" IVar="-1" Cut="0.0000000000000000e+00" cType="1" nS="1.7443083190917969e+02" nB="1.4871929931640625e+02" nEv="3.2315014648437500e+02" nSuw="3.7500000000000000e+02" nBuw="1.9000000000000000e+01" nEvuw="3.9400000000000000e+02" sepI="2.4841734766960144e-01" sepG="-1.0000000000000000e+00" res="-9.9000000000000000e+01" rms="0.0000000000000000e+00" nType="1" CC="0.0000000000000000e+00"/>
            <Node pos="r" depth="3" Seq="7" IVar="-1" Cut="0.0000000000000000e+00" cType="1" nS="4.5832357788085938e+02" nB="1.2820354003906250e+03" nEv="1.7403590087890625e+03" nSuw="9.6000000000000000e+02" nBuw="7.9000000000000000e+01" nEvuw="1.0390000000000000e+03" sepI="1.9399678707122803e-01" sepG="-1.0000000000000000e+00" res="-9.9000000000000000e+01" rms="0.0000000000000000e+00" nType="-1" CC="0.0000000000000000e+00"/>
          </Node>
        </Node>
      </Node>
    </BinaryTree>
    <BinaryTree type="DecisionTree" boostWeight="1.2861622317303575e-01" itree="12">
      <Node pos="s" depth="0" Seq="0" IVar="0" Cut="5.1904764175415039e+00" cType="0" nS="1.1689734375000000e+04" nB="1.3041641601562500e+04" nEv="2.4731375000000000e+04" nSuw="2.3200000000000000e+04" nBuw="1.5000000000000000e+03" nEvuw="2.4700000000000000e+04" sepI="2.4925297498703003e-01" sepG="1.9085128784179688e+01" res="-9.9000000000000000e+01" rms="0.0000000000000000e+00" nType="0" CC="0.0000000000000000e+00">
        <Node pos="l" depth="1" Seq="0" IVar="1" Cut="7.2650110721588135e-01" cType="0" nS="6.8442138671875000e+01" nB="0.0000000000000000e+00" nEv="6.8442138671875000e+01" nSuw="2.9700000000000000e+02" nBuw="0.0000000000000000e+00" nEvuw="2.9700000000000000e+02" sepI="0.0000000000000000e+00" sepG="0.0000000000000000e+00" res="-9.9000000000000000e+01" rms="0.0000000000000000e+00" nType="1" CC="0.0000000000000000e+00"/>
        <Node pos="r" depth="1" Seq="1" IVar="2" Cut="9.8839804530143738e-02" cType="0" nS="1.1621291992187500e+04" nB="1.3041641601562500e+04" nEv="2.4662933593750000e+04" nSuw="2.2903000000000000e+04" nBuw="1.5000000000000000e+03" nEvuw="2.4403000000000000e+04" sepI="2.4917083978652954e-01" sepG="1.2406674385070801e+01" res="-9.9000000000000000e+01" rms="0.0000000000000000e+00" nType="0" CC="0.0000000000000000e+00">
          <Node pos="l" depth="2" Seq="1" IVar="-1" Cut="1.0131286382675171e+00" cType="0" nS="5.3217872619628906e+01" nB="3.4938786029815674e+00" nEv="5.6711753845214844e+01" nSuw="2.1200000000000000e+02" nBuw="1.0000000000000000e+00" nEvuw="2.1300000000000000e+02" sepI="5.7812161743640900e-02" sepG="-1.0000000000000000e+00" res="-9.9000000000000000e+01" rms="0.0000000000000000e+00" nType="1" CC="0.0000000000000000e+00"/>
          <Node pos="r" depth="2" Seq="3" IVar="-1" Cut="3.0952382087707520e+00" cType="1" nS="1.1568074218750000e+04" nB="1.3038147460937500e+04" nEv="2.4606222656250000e+04" nSuw="2.2691000000000000e+04" nBuw="1.4990000000000000e+03" nEvuw="2.4190000000000000e+04" sepI="2.4910765886306763e-01" sepG="-1.0000000000000000e+00" res="-9.9000000000000000e+01" rms="0.0000000000000000e+00" nType="-1" CC="0.0000000000000000e+00"/>
        </Node>
      </Node>
    </BinaryTree>
    <BinaryTree type="DecisionTree" boostWeight="1.3910444202493619e-01" itree="13">
      <Node pos="s" depth="0" Seq="0" IVar="0" Cut="5.1904764175415039e+00" cType="0" nS="1.2476272460937500e+04" nB="1.2255102539062500e+04" nEv="2.4731375000000000e+04" nSuw="2.3200000000000000e+04" nBuw="1.5000000000000000e+03" nEvuw="2.4700000000000000e+04" sepI="2.4998000264167786e-01" sepG="1.5832901954650879e+01" res="-9.9000000000000000e+01" rms="0.0000000000000000e+00" nType="0" CC="0.0000000000000000e+00">
        <Node pos="l" depth="1" Seq="0" IVar="1" Cut="7.2650110721588135e-01" cType="0" nS="6.4312049865722656e+01" nB="0.0000000000000000e+00" nEv="6.4312049865722656e+01" nSuw="2.9700000000000000e+02" nBuw="0.0000000000000000e+00" nEvuw="2.9700000000000000e+02" sepI="0.0000000000000000e+00" sepG="0.0000000000000000e+00" res="-9.9000000000000000e+01" rms="0.0000000000000000e+00" nType="1" CC="0.0000000000000000e+00"/>
        <Node pos="r" depth="1" Seq="1" IVar="0" Cut="3.0952382087707520e+00" cType="1" nS="1.2411960937500000e+04" nB="1.2255102539062500e+04" nEv="2.4667064453125000e+04" nSuw="2.2903000000000000e+04" nBuw="1.5000000000000000e+03" nEvuw="2.4403000000000000e+04" sepI="2.4998989701271057e-01" sepG="1.1182698249816895e+01" res="-9.9000000000000000e+01" rms="0.0000000000000000e+00" nType="0" CC="0.0000000000000000e+00">
          <Node pos="l" depth="2" Seq="1" IVar="1" Cut="6.9869685173034668e-01" cType="0" nS="1.1666704101562500e+04" nB="1.1251362304687500e+04" nEv="2.2918066406250000e+04" nSuw="2.0740000000000000e+04" nBuw="1.4260000000000000e+03" nEvuw="2.2166000000000000e+04" sepI="2.4991789460182190e-01" sepG="1.2148364067077637e+01" res="-9.9000000000000000e+01" rms="0.0000000000000000e+00" nType="0" CC="0.0000000000000000e+00">
            <Node pos="l" depth="3" Seq="1" IVar="-1" Cut="0.0000000000000000e+00" cType="1" nS="6.2217983398437500e+03" nB="5.4821572265625000e+03" nEv="1.1703955078125000e+04" nSuw="1.4465000000000000e+04" nBuw="4.6700000000000000e+02" nEvuw="1.4932000000000000e+04" sepI="2.4900157749652863e-01" sepG="-1.0000000000000000e+00" res="-9.9000000000000000e+01" rms="0.0000000000000000e+00" nType="1" CC="0.0000000000000000e+00"/>
            <Node pos="r" depth="3" Seq="5" IVar="-1" Cut="0.0000000000000000e+00" cType="1" nS="5.4449052734375000e+03" nB="5.7692055664062500e+03" nEv="1.1214111328125000e+04" nSuw="6.2750000000000000e+03" nBuw="9.5900000000000000e+02" nEvuw="7.2340000000000000e+03" sepI="2.4979092180728912e-01" sepG="-1.0000000000000000e+00" res="-9.9000000000000000e+01" rms="0.0000000000000000e+00" nType="-1" CC="0.0000000000000000e+00"/>
          </Node>
          <Node pos="r" depth="2" Seq="3" IVar="2" Cut="3.3034034073352814e-02" cType="0" nS="7.4525695800781250e+02" nB="1.0037402343750000e+03" nEv="1.7489971923828125e+03" nSuw="2.1630000000000000e+03" nBuw="7.4000000000000000e+01" nEvuw="2.2370000000000000e+03" sepI="2.4453957378864288e-01" sepG="4.1343280792236328e+01" res="-9.9000000000000000e+01" rms="0.0000000000000000e+00" nType="0" CC="0.0000000000000000e+00">
            <Node pos="l" depth="3" Seq="3" IVar="-1" Cut="0.0000000000000000e+00" cType="1" nS="2.7020962524414062e+02" nB="1.0490090179443359e+02" nEv="3.7511053466796875e+02" nSuw="1.3020000000000000e+03" nBuw="3.0000000000000000e+00" nEvuw="1.3050000000000000e+03" sepI="2.0144733786582947e-01" sepG="-1.0000000000000000e+00" res="-9.9000000000000000e+01" rms="0.0000000000000000e+00" nType="1" CC="0.0000000000000000e+00"/>
            <Node pos="r" depth="3" Seq="7" IVar="-1" Cut="0.0000000000000000e+00" cType="1" nS="4.7504736328125000e+02" nB="8.9883929443359375e+02" nEv="1.3738867187500000e+03" nSuw="8.6100000000000000e+02" nBuw="7.1000000000000000e+01" nEvuw="9.3200000000000000e+02" sepI="2.2621278464794159e-01" sepG="-1.0000000000000000e+00" res="-9.9000000000000000e+01" rms="0.0000000000000000e+00" nType="-1" CC="0.0000000000000000e+00"/>
          </Node>
        </Node>
      </Node>
    </BinaryTree>
    <BinaryTree type="DecisionTree" boostWeight="1.3852214545593153e-01" itree="14">
      <Node pos="s" depth="0" Seq="0" IVar="0" Cut="5.1904764175415039e+00" cType="0" nS="1.2492320312500000e+04" nB="1.2239055664062500e+04" nEv="2.4731375000000000e+04" nSuw="2.3200000000000000e+04" nBuw="1.5000000000000000e+03" nEvuw="2.4700000000000000e+04" sepI="2.4997378885746002e-01" sepG="1.4763602256774902e+01" res="-9.9000000000000000e+01" rms="0.0000000000000000e+00" nType="0" CC="0.0000000000000000e+00">
        <Node pos="l" depth="1" Seq="0" IVar="1" Cut="7.2650110721588135e-01" cType="0" nS="6.0136173248291016e+01" nB="0.0000000000000000e+00" nEv="6.0136173248291016e+01" nSuw="2.9700000000000000e+02" nBuw="0.0000000000000000e+00" nEvuw="2.9700000000000000e+02" sepI="0.0000000000000000e+00" sepG="0.0000000000000000e+00" res="-9.9000000000000000e+01" rms="0.0000000000000000e+00" nType="1" CC="0.0000000000000000e+00"/>
        <Node pos="r" depth="1" Seq="1" IVar="4" Cut="5.8036405593156815e-02" cType="0" nS="1.2432184570312500e+04" nB="1.2239055664062500e+04" nEv="2.4671240234375000e+04" nSuw="2.2903000000000000e+04" nBuw="1.5000000000000000e+03" nEvuw="2.4403000000000000e+04" sepI="2.4998468160629272e-01" sepG="1.2306419372558594e+01" res="-9.9000000000000000e+01" rms="0.0000000000000000e+00" nType="0" CC="0.0000000000000000e+00">
          <Node pos="l" depth="2" Seq="1" IVar="3" Cut="1.1428730189800262e-01" cType="1" nS="1.0705784179687500e+04" nB="1.0143846679687500e+04" nEv="2.0849630859375000e+04" nSuw="2.1104000000000000e+04" nBuw="1.2550000000000000e+03" nEvuw="2.2359000000000000e+04" sepI="2.4981839954853058e-01" sepG="1.3070574760437012e+01" res="-9.9000000000000000e+01" rms="0.0000000000000000e+00" nType="0" CC="0.0000000000000000e+00">
            <Node pos="l" depth="3" Seq="1" IVar="-1" Cut="0.0000000000000000e+00" cType="1" nS="1.0614396484375000e+04" nB="9.9364208984375000e+03" nEv="2.0550818359375000e+04" nSuw="2.0844000000000000e+04" nBuw="1.2390000000000000e+03" nEvuw="2.2083000000000000e+04" sepI="2.4972790479660034e-01" sepG="-1.0000000000000000e+00" res="-9.9000000000000000e+01" rms="0.0000000000000000e+00" nType="1" CC="0.0000000000000000e+00"/>
            <Node pos="r" depth="3" Seq="5" IVar="-1" Cut="0.0000000000000000e+00" cType="1" nS="9.1387268066406250e+01" nB="2.0742520141601562e+02" nEv="2.9881246948242188e+02" nSuw="2.6000000000000000e+02" nBuw="1.6000000000000000e+01" nEvuw="2.7600000000000000e+02" sepI="2.1229989826679230e-01" sepG="-1.0000000000000000e+00" res="-9.9000000000000000e+01" rms="0.0000000000000000e+00" nType="-1" CC="0.0000000000000000e+00"/>
          </Node>
          <Node pos="r" depth="2" Seq="3" IVar="2" Cut="1.7512679100036621e-02" cType="1" nS="1.7264006347656250e+03" nB="2.0952089843750000e+03" nEv="3.8216096191406250e+03" nSuw="1.7990000000000000e+03" nBuw="2.4500000000000000e+02" nEvuw="2.0440000000000000e+03" sepI="2.4767164885997772e-01" sepG="4.6132297515869141e+01" res="-9.9000000000000000e+01" rms="0.0000000000000000e+00" nType="0" CC="0.0000000000000000e+00">
            <Node pos="l" depth="3" Seq="3" IVar="-1" Cut="0.0000000000000000e+00" cType="1" nS="1.0326793212890625e+03" nB="7.8906439208984375e+02" nEv="1.8217436523437500e+03" nSuw="4.6400000000000000e+02" nBuw="1.4700000000000000e+02" nEvuw="6.1100000000000000e+02" sepI="2.4552932381629944e-01" sepG="-1.0000000000000000e+00" res="-9.9000000000000000e+01" rms="0.0000000000000000e+00" nType="1" CC="0.0000000000000000e+00"/>
            <Node pos="r" depth="3" Seq="7" IVar="-1" Cut="0.0000000000000000e+00" cType="1" nS="6.9372131347656250e+02" nB="1.3061445312500000e+03" nEv="1.9998658447265625e+03" nSuw="1.3350000000000000e+03" nBuw="9.8000000000000000e+01" nEvuw="1.4330000000000000e+03" sepI="2.2655546665191650e-01" sepG="-1.0000000000000000e+00" res="-9.9000000000000000e+01" rms="0.0000000000000000e+00" nType="-1" CC="0.0000000000000000e+00"/>
          </Node>
        </Node>
      </Node>
    </BinaryTree>
    <BinaryTree type="DecisionTree" boostWeight="1.0818465919900939e-01" itree="15">
      <Node pos="s" depth="0" Seq="0" IVar="0" Cut="5.1904764175415039e+00" cType="0" nS="1.1793445312500000e+04" nB="1.2937930664062500e+04" nEv="2.4731375000000000e+04" nSuw="2.3200000000000000e+04" nBuw="1.5000000000000000e+03" nEvuw="2.4700000000000000e+04" sepI="2.4946461617946625e-01" sepG="1.5428327560424805e+01" res="-9.9000000000000000e+01" rms="0.0000000000000000e+00" nType="0" CC="0.0000000000000000e+00">
        <Node pos="l" depth="1" Seq="0" IVar="1" Cut="7.2650110721588135e-01" cType="0" nS="5.6246685028076172e+01" nB="0.0000000000000000e+00" nEv="5.6246685028076172e+01" nSuw="2.9700000000000000e+02" nBuw="0.0000000000000000e+00" nEvuw="2.9700000000000000e+02" sepI="0.0000000000000000e+00" sepG="0.0000000000000000e+00" res="-9.9000000000000000e+01" rms="0.0000000000000000e+00" nType="1" CC="0.0000000000000000e+00"/>
        <Node pos="r" depth="1" Seq="1" IVar="2" Cut="9.8839804530143738e-02" cType="0" nS="1.1737198242187500e+04" nB="1.2937930664062500e+04" nEv="2.4675128906250000e+04" nSuw="2.2903000000000000e+04" nBuw="1.5000000000000000e+03" nEvuw="2.4403000000000000e+04" sepI="2.4940800666809082e-01" sepG="9.1796379089355469e+00" res="-9.9000000000000000e+01" rms="0.0000000000000000e+00" nType="0" CC="0.0000000000000000e+00">
          <Node pos="l" depth="2" Seq="1" IVar="-1" Cut="1.0131286382675171e+00" cType="0" nS="4.4058181762695312e+01" nB="4.3103260993957520e+00" nEv="4.8368507385253906e+01" nSuw="2.1200000000000000e+02" nBuw="1.0000000000000000e+00" nEvuw="2.1300000000000000e+02" sepI="8.1172950565814972e-02" sepG="-1.0000000000000000e+00" res="-9.9000000000000000e+01" rms="0.0000000000000000e+00" nType="1" CC="0.0000000000000000e+00"/>
          <Node pos="r" depth="2" Seq="3" IVar="-1" Cut="4.2344171553850174e-02" cType="1" nS="1.1693140625000000e+04" nB="1.2933620117187500e+04" nEv="2.4626759765625000e+04" nSuw="2.2691000000000000e+04" nBuw="1.4990000000000000e+03" nEvuw="2.4190000000000000e+04" sepI="2.4936568737030029e-01" sepG="-1.0000000000000000e+00" res="-9.9000000000000000e+01" rms="0.0000000000000000e+00" nType="-1" CC="0.0000000000000000e+00"/>
        </Node>
      </Node>
    </BinaryTree>
    <BinaryTree type="DecisionTree" boostWeight="2.3743237983342427e-01" itree="16">
      <Node pos="s" depth="0" Seq="0" IVar="0" Cut="5.1904764175415039e+00" cType="0" nS="1.2456293945312500e+04" nB="1.2275082031250000e+04" nEv="2.4731375000000000e+04" nSuw="2.3200000000000000e+04" nBuw="1.5000000000000000e+03" nEvuw="2.4700000000000000e+04" sepI="2.4998657405376434e-01" sepG="1.3174385070800781e+01" res="-9.9000000000000000e+01" rms="0.0000000000000000e+00" nType="0" CC="0.0000000000000000e+00">
        <Node pos="l" depth="1" Seq="0" IVar="1" Cut="7.2650110721588135e-01" cType="0" nS="5.3362968444824219e+01" nB="0.0000000000000000e+00" nEv="5.3362968444824219e+01" nSuw="2.9700000000000000e+02" nBuw="0.0000000000000000e+00" nEvuw="2.9700000000000000e+02" sepI="0.0000000000000000e+00" sepG="0.0000000000000000e+00" res="-9.9000000000000000e+01" rms="0.0000000000000000e+00" nType="1" CC="0.0000000000000000e+00"/>
        <Node pos="r" depth="1" Seq="1" IVar="4" Cut="4.7597250342369080e-01" cType="1" nS="1.2402930664062500e+04" nB="1.2275082031250000e+04" nEv="2.4678013671875000e+04" nSuw="2.2903000000000000e+04" nBuw="1.5000000000000000e+03" nEvuw="2.4403000000000000e+04" sepI="2.4999329447746277e-01" sepG="7.9600434303283691e+00" res="-9.9000000000000000e+01" rms="0.0000000000000000e+00" nType="0" CC="0.0000000000000000e+00">
          <Node pos="l" depth="2" Seq="1" IVar="1" Cut="6.3250494003295898e-01" cType="1" nS="7.9561967773437500e+03" nB="7.4470688476562500e+03" nEv="1.5403265625000000e+04" nSuw="1.4188000000000000e+04" nBuw="1.0380000000000000e+03" nEvuw="1.5226000000000000e+04" sepI="2.4972687661647797e-01" sepG="5.1803615570068359e+01" res="-9.9000000000000000e+01" rms="0.0000000000000000e+00" nType="0" CC="0.0000000000000000e+00">
            <Node pos="l" depth="3" Seq="1" IVar="-1" Cut="0.0000000000000000e+00" cType="1" nS="3.7546801757812500e+03" nB="2.6618393554687500e+03" nEv="6.4165195312500000e+03" nSuw="3.0860000000000000e+03" nBuw="6.5200000000000000e+02" nEvuw="3.7380000000000000e+03" sepI="2.4274805188179016e-01" sepG="-1.0000000000000000e+00" res="-9.9000000000000000e+01" rms="0.0000000000000000e+00" nType="1" CC="0.0000000000000000e+00"/>
            <Node pos="r" depth="3" Seq="5" IVar="-1" Cut="0.0000000000000000e+00" cType="1" nS="4.2015166015625000e+03" nB="4.7852294921875000e+03" nEv="8.9867460937500000e+03" nSuw="1.1102000000000000e+04" nBuw="3.8600000000000000e+02" nEvuw="1.1488000000000000e+04" sepI="2.4894529581069946e-01" sepG="-1.0000000000000000e+00" res="-9.9000000000000000e+01" rms="0.0000000000000000e+00" nType="-1" CC="0.0000000000000000e+00"/>
          </Node>
          <Node pos="r" depth="2" Seq="3" IVar="1" Cut="6.8653035163879395e-01" cType="0" nS="4.4467338867187500e+03" nB="4.8280131835937500e+03" nEv="9.2747470703125000e+03" nSuw="8.7150000000000000e+03" nBuw="4.6200000000000000e+02" nEvuw="9.1770000000000000e+03" sepI="2.4957750737667084e-01" sepG="4.2734294891357422e+01" res="-9.9000000000000000e+01" rms="0.0000000000000000e+00" nType="0" CC="0.0000000000000000e+00">
            <Node pos="l" depth="3" Seq="3" IVar="-1" Cut="0.0000000000000000e+00" cType="1" nS="2.8500681152343750e+03" nB="2.4445166015625000e+03" nEv="5.2945849609375000e+03" nSuw="6.7840000000000000e+03" nBuw="1.8100000000000000e+02" nEvuw="6.9650000000000000e+03" sepI="2.4853320419788361e-01" sepG="-1.0000000000000000e+00" res="-9.9000000000000000e+01" rms="0.0000000000000000e+00" nType="1" CC="0.0000000000000000e+00"/>
            <Node pos="r" depth="3" Seq="7" IVar="-1" Cut="0.0000000000000000e+00" cType="1" nS="1.5966657714843750e+03" nB="2.3834968261718750e+03" nEv="3.9801625976562500e+03" nSuw="1.9310000000000000e+03" nBuw="2.8100000000000000e+02" nEvuw="2.2120000000000000e+03" sepI="2.4022984504699707e-01" sepG="-1.0000000000000000e+00" res="-9.9000000000000000e+01" rms="0.0000000000000000e+00" nType="-1" CC="0.0000000000000000e+00"/>
          </Node>
        </Node>
      </Node>
    </BinaryTree>
    <BinaryTree type="DecisionTree" boostWeight="2.1005836430797120e-01" itree="17">
      <Node pos="s" depth="0" Seq="0" IVar="4" Cut="4.7597250342369080e-01" cType="1" nS="1.2529624023437500e+04" nB="1.2201751953125000e+04" nEv="2.4731375000000000e+04" nSuw="2.3200000000000000e+04" nBuw="1.5000000000000000e+03" nEvuw="2.4700000000000000e+04" sepI="2.4995605647563934e-01" sepG="1.9029592514038086e+01" res="-9.9000000000000000e+01" rms="0.0000000000000000e+00" nType="0" CC="0.0000000000000000e+00">
        <Node pos="l" depth="1" Seq="0" IVar="2" Cut="6.5893709659576416e-02" cType="0" nS="8.1672124023437500e+03" nB="7.2980625000000000e+03" nEv="1.5465274414062500e+04" nSuw="1.4456000000000000e+04" nBuw="1.0380000000000000e+03" nEvuw="1.5494000000000000e+04" sepI="2.4921038746833801e-01" sepG="2.1181877136230469e+01" res="-9.9000000000000000e+01" rms="0.0000000000000000e+00" nType="0" CC="0.0000000000000000e+00">
          <Node pos="l" depth="2" Seq="0" IVar="2" Cut="8.3154797554016113e-02" cType="1" nS="3.3884124755859375e+02" nB="1.1907261657714844e+02" nEv="4.5791387939453125e+02" nSuw="1.7420000000000000e+03" nBuw="7.0000000000000000e+00" nEvuw="1.7490000000000000e+03" sepI="1.9241572916507721e-01" sepG="2.4746885299682617e+01" res="-9.9000000000000000e+01" rms="0.0000000000000000e+00" nType="0" CC="0.0000000000000000e+00">
            <Node pos="l" depth="3" Seq="0" IVar="-1" Cut="0.0000000000000000e+00" cType="1" nS="2.4477677917480469e+02" nB="1.4730572700500488e+01" nEv="2.5950735473632812e+02" nSuw="1.2460000000000000e+03" nBuw="2.0000000000000000e+00" nEvuw="1.2480000000000000e+03" sepI="5.3541500121355057e-02" sepG="-1.0000000000000000e+00" res="-9.9000000000000000e+01" rms="0.0000000000000000e+00" nType="1" CC="0.0000000000000000e+00"/>
            <Node pos="r" depth="3" Seq="4" IVar="-1" Cut="0.0000000000000000e+00" cType="1" nS="9.4064483642578125e+01" nB="1.0434204101562500e+02" nEv="1.9840652465820312e+02" nSuw="4.9600000000000000e+02" nBuw="5.0000000000000000e+00" nEvuw="5.0100000000000000e+02" sepI="2.4932917952537537e-01" sepG="-1.0000000000000000e+00" res="-9.9000000000000000e+01" rms="0.0000000000000000e+00" nType="-1" CC="0.0000000000000000e+00"/>
          </Node>
          <Node pos="r" depth="2" Seq="2" IVar="2" Cut="6.2750354409217834e-02" cType="1" nS="7.8283710937500000e+03" nB="7.1789897460937500e+03" nEv="1.5007361328125000e+04" nSuw="1.2714000000000000e+04" nBuw="1.0310000000000000e+03" nEvuw="1.3745000000000000e+04" sepI="2.4953190982341766e-01" sepG="2.5660745620727539e+01" res="-9.9000000000000000e+01" rms="0.0000000000000000e+00" nType="0" CC="0.0000000000000000e+00">
            <Node pos="l" depth="3" Seq="2" IVar="-1" Cut="0.0000000000000000e+00" cType="1" nS="7.7559179687500000e+03" nB="6.9440346679687500e+03" nEv="1.4699953125000000e+04" nSuw="1.2353000000000000e+04" nBuw="1.0290000000000000e+03" nEvuw="1.3382000000000000e+04" sepI="2.4923740327358246e-01" sepG="-1.0000000000000000e+00" res="-9.9000000000000000e+01" rms="0.0000000000000000e+00" nType="1" CC="0.0000000000000000e+00"/>
            <Node pos="r" depth="3" Seq="6" IVar="-1" Cut="0.0000000000000000e+00" cType="1" nS="7.2453125000000000e+01" nB="2.3495506286621094e+02" nEv="3.0740820312500000e+02" nSuw="3.6100000000000000e+02" nBuw="2.0000000000000000e+00" nEvuw="3.6300000000000000e+02" sepI="1.8014037609100342e-01" sepG="-1.0000000000000000e+00" res="-9.9000000000000000e+01" rms="0.0000000000000000e+00" nType="-1" CC="0.0000000000000000e+00"/>
          </Node>
        </Node>
        <Node pos="r" depth="1" Seq="1" IVar="1" Cut="8.5180729627609253e-01" cType="1" nS="4.3624111328125000e+03" nB="4.9036899414062500e+03" nEv="9.2661005859375000e+03" nSuw="8.7440000000000000e+03" nBuw="4.6200000000000000e+02" nEvuw="9.2060000000000000e+03" sepI="2.4914692342281342e-01" sepG="2.9496664047241211e+01" res="-9.9000000000000000e+01" rms="0.0000000000000000e+00" nType="0" CC="0.0000000000000000e+00">
          <Node pos="l" depth="2" Seq="1" IVar="4" Cut="5.2316910028457642e-01" cType="0" nS="3.4111271972656250e+03" nB="3.3405952148437500e+03" nEv="6.7517226562500000e+03" nSuw="6.2590000000000000e+03" nBuw="3.6200000000000000e+02" nEvuw="6.6210000000000000e+03" sepI="2.4997271597385406e-01" sepG="3.0502138137817383e+01" res="-9.9000000000000000e+01" rms="0.0000000000000000e+00" nType="0" CC="0.0000000000000000e+00">
            <Node pos="l" depth="3" Seq="1" IVar="-1" Cut="0.0000000000000000e+00" cType="1" nS="3.1609077148437500e+03" nB="2.8079694824218750e+03" nEv="5.9688774414062500e+03" nSuw="5.6570000000000000e+03" nBuw="3.0800000000000000e+02" nEvuw="5.9650000000000000e+03" sepI="2.4912591278553009e-01" sepG="-1.0000000000000000e+00" res="-9.9000000000000000e+01" rms="0.0000000000000000e+00" nType="1" CC="0.0000000000000000e+00"/>
            <Node pos="r" depth="3" Seq="5" IVar="-1" Cut="0.0000000000000000e+00" cType="1" nS="2.5021942138671875e+02" nB="5.3262567138671875e+02" nEv="7.8284515380859375e+02" nSuw="6.0200000000000000e+02" nBuw="5.4000000000000000e+01" nEvuw="6.5600000000000000e+02" sepI="2.1746604144573212e-01" sepG="-1.0000000000000000e+00" res="-9.9000000000000000e+01" rms="0.0000000000000000e+00" nType="-1" CC="0.0000000000000000e+00"/>
          </Node>
          <Node pos="r" depth="2" Seq="3" IVar="4" Cut="6.4632648229598999e-01" cType="1" nS="9.5128405761718750e+02" nB="1.5630944824218750e+03" nEv="2.5143784179687500e+03" nSuw="2.4850000000000000e+03" nBuw="1.0000000000000000e+02" nEvuw="2.5850000000000000e+03" sepI="2.3519827425479889e-01" sepG="1.8365806579589844e+01" res="-9.9000000000000000e+01" rms="0.0000000000000000e+00" nType="0" CC="0.0000000000000000e+00">
            <Node pos="l" depth="3" Seq="3" IVar="-1" Cut="0.0000000000000000e+00" cType="1" nS="2.1055247497558594e+02" nB="1.4748100280761719e+02" nEv="3.5803347778320312e+02" nSuw="1.0690000000000000e+03" nBuw="5.0000000000000000e+00" nEvuw="1.0740000000000000e+03" sepI="2.4224184453487396e-01" sepG="-1.0000000000000000e+00" res="-9.9000000000000000e+01" rms="0.0000000000000000e+00" nType="1" CC="0.0000000000000000e+00"/>
            <Node pos="r" depth="3" Seq="7" IVar="-1" Cut="0.0000000000000000e+00" cType="1" nS="7.4073156738281250e+02" nB="1.4156134033203125e+03" nEv="2.1563449707031250e+03" nSuw="1.4160000000000000e+03" nBuw="9.5000000000000000e+01" nEvuw="1.5110000000000000e+03" sepI="2.2551168501377106e-01" sepG="-1.0000000000000000e+00" res="-9.9000000000000000e+01" rms="0.0000000000000000e+00" nType="-1" CC="0.0000000000000000e+00"/>
          </Node>
        </Node>
      </Node>
    </BinaryTree>
    <BinaryTree type="DecisionTree" boostWeight="1.8354377233814265e-01" itree="18">
      <Node pos="s" depth="0" Seq="0" IVar="0" Cut="5.1904764175415039e+00" cType="0" nS="1.1587601562500000e+04" nB="1.3143774414062500e+04" nEv="2.4731375000000000e+04" nSuw="2.3200000000000000e+04" nBuw="1.5000000000000000e+03" nEvuw="2.4700000000000000e+04" sepI="2.4901017546653748e-01" sepG="1.2369069099426270e+01" res="-9.9000000000000000e+01" rms="0.0000000000000000e+00" nType="0" CC="0.0000000000000000e+00">
        <Node pos="l" depth="1" Seq="0" IVar="1" Cut="7.2650110721588135e-01" cType="0" nS="4.3714450836181641e+01" nB="0.0000000000000000e+00" nEv="4.3714450836181641e+01" nSuw="2.9700000000000000e+02" nBuw="0.0000000000000000e+00" nEvuw="2.9700000000000000e+02" sepI="0.0000000000000000e+00" sepG="0.0000000000000000e+00" res="-9.9000000000000000e+01" rms="0.0000000000000000e+00" nType="1" CC="0.0000000000000000e+00"/>
        <Node pos="r" depth="1" Seq="1" IVar="2" Cut="7.2482779622077942e-02" cType="0" nS="1.1543886718750000e+04" nB="1.3143774414062500e+04" nEv="2.4687662109375000e+04" nSuw="2.2903000000000000e+04" nBuw="1.5000000000000000e+03" nEvuw="2.4403000000000000e+04" sepI="2.4895007908344269e-01" sepG="9.1120843887329102e+00" res="-9.9000000000000000e+01" rms="0.0000000000000000e+00" nType="0" CC="0.0000000000000000e+00">
          <Node pos="l" depth="2" Seq="1" IVar="0" Cut="1.1904761791229248e+00" cType="0" nS="5.5015478515625000e+02" nB="4.2849224853515625e+02" nEv="9.7864703369140625e+02" nSuw="1.9300000000000000e+03" nBuw="2.4000000000000000e+01" nEvuw="1.9540000000000000e+03" sepI="2.4613632261753082e-01" sepG="4.7215465545654297e+01" res="-9.9000000000000000e+01" rms="0.0000000000000000e+00" nType="0" CC="0.0000000000000000e+00">
            <Node pos="l" depth="3" Seq="1" IVar="-1" Cut="0.0000000000000000e+00" cType="1" nS="2.2984698486328125e+02" nB="1.3695485115051270e+01" nEv="2.4354246520996094e+02" nSuw="1.1040000000000000e+03" nBuw="3.0000000000000000e+00" nEvuw="1.1070000000000000e+03" sepI="5.3072165697813034e-02" sepG="-1.0000000000000000e+00" res="-9.9000000000000000e+01" rms="0.0000000000000000e+00" nType="1" CC="0.0000000000000000e+00"/>
            <Node pos="r" depth="3" Seq="5" IVar="-1" Cut="0.0000000000000000e+00" cType="1" nS="3.2030783081054688e+02" nB="4.1479675292968750e+02" nEv="7.3510455322265625e+02" nSuw="8.2600000000000000e+02" nBuw="2.1000000000000000e+01" nEvuw="8.4700000000000000e+02" sepI="2.4586948752403259e-01" sepG="-1.0000000000000000e+00" res="-9.9000000000000000e+01" rms="0.0000000000000000e+00" nType="-1" CC="0.0000000000000000e+00"/>
          </Node>
          <Node pos="r" depth="2" Seq="3" IVar="2" Cut="3.4510833211243153e-03" cType="1" nS="1.0993732421875000e+04" nB="1.2715282226562500e+04" nEv="2.3709013671875000e+04" nSuw="2.0973000000000000e+04" nBuw="1.4760000000000000e+03" nEvuw="2.2449000000000000e+04" sepI="2.4868188798427582e-01" sepG="1.5181759834289551e+01" res="-9.9000000000000000e+01" rms="0.0000000000000000e+00" nType="0" CC="0.0000000000000000e+00">
            <Node pos="l" depth="3" Seq="3" IVar="-1" Cut="0.0000000000000000e+00" cType="1" nS="2.9581218261718750e+03" nB="2.8644270019531250e+03" nEv="5.8225488281250000e+03" nSuw="1.0090000000000000e+03" nBuw="8.0000000000000000e+02" nEvuw="1.8090000000000000e+03" sepI="2.4993526935577393e-01" sepG="-1.0000000000000000e+00" res="-9.9000000000000000e+01" rms="0.0000000000000000e+00" nType="1" CC="0.0000000000000000e+00"/>
            <Node pos="r" depth="3" Seq="7" IVar="-1" Cut="0.0000000000000000e+00" cType="1" nS="8.0356103515625000e+03" nB="9.8508554687500000e+03" nEv="1.7886464843750000e+04" nSuw="1.9964000000000000e+04" nBuw="6.7600000000000000e+02" nEvuw="2.0640000000000000e+04" sepI="2.4742509424686432e-01" sepG="-1.0000000000000000e+00" res="-9.9000000000000000e+01" rms="0.0000000000000000e+00" nType="-1" CC="0.0000000000000000e+00"/>
          </Node>
        </Node>
      </Node>
    </BinaryTree>
    <BinaryTree type="DecisionTree" boostWeight="3.8989595728005577e-01" itree="19">
      <Node pos="s" depth="0" Seq="0" IVar="2" Cut="6.5902103669941425e-03" cType="0" nS="1.2158373046875000e+04" nB="1.2573002929687500e+04" nEv="2.4731375000000000e+04" nSuw="2.3200000000000000e+04" nBuw="1.5000000000000000e+03" nEvuw="2.4700000000000000e+04" sepI="2.4992972612380981e-01" sepG="2.8858617782592773e+01" res="-9.9000000000000000e+01" rms="0.0000000000000000e+00" nType="0" CC="0.0000000000000000e+00">
        <Node pos="l" depth="1" Seq="0" IVar="0" Cut="1.3809523582458496e+00" cType="0" nS="8.2938164062500000e+03" nB="7.7564643554687500e+03" nEv="1.6050280273437500e+04" nSuw="2.1326000000000000e+04" nBuw="5.2300000000000000e+02" nEvuw="2.1849000000000000e+04" sepI="2.4971978366374969e-01" sepG="4.0065860748291016e+01" res="-9.9000000000000000e+01" rms="0.0000000000000000e+00" nType="0" CC="0.0000000000000000e+00">
          <Node pos="l" depth="2" Seq="0" IVar="4" Cut="6.4541351795196533e-01" cType="1" nS="3.0386623535156250e+03" nB="2.1171437988281250e+03" nEv="5.1558061523437500e+03" nSuw="1.1932000000000000e+04" nBuw="9.3000000000000000e+01" nEvuw="1.2025000000000000e+04" sepI="2.4201352894306183e-01" sepG="6.8206169128417969e+01" res="-9.9000000000000000e+01" rms="0.0000000000000000e+00" nType="0" CC="0.0000000000000000e+00">
            <Node pos="l" depth="3" Seq="0" IVar="-1" Cut="0.0000000000000000e+00" cType="1" nS="2.5355505371093750e+03" nB="1.3308719482421875e+03" nEv="3.8664226074218750e+03" nSuw="1.0334000000000000e+04" nBuw="6.7000000000000000e+01" nEvuw="1.0401000000000000e+04" sepI="2.2573032975196838e-01" sepG="-1.0000000000000000e+00" res="-9.9000000000000000e+01" rms="0.0000000000000000e+00" nType="1" CC="0.0000000000000000e+00"/>
            <Node pos="r" depth="3" Seq="4" IVar="-1" Cut="0.0000000000000000e+00" cType="1" nS="5.0311178588867188e+02" nB="7.8627172851562500e+02" nEv="1.2893835449218750e+03" nSuw="1.5980000000000000e+03" nBuw="2.6000000000000000e+01" nEvuw="1.6240000000000000e+03" sepI="2.3794299364089966e-01" sepG="-1.0000000000000000e+00" res="-9.9000000000000000e+01" rms="0.0000000000000000e+00" nType="-1" CC="0.0000000000000000e+00"/>
          </Node>
          <Node pos="r" depth="2" Seq="2" IVar="2" Cut="1.1852627620100975e-02" cType="1" nS="5.2551538085937500e+03" nB="5.6393208007812500e+03" nEv="1.0894474609375000e+04" nSuw="9.3940000000000000e+03" nBuw="4.3000000000000000e+02" nEvuw="9.8240000000000000e+03" sepI="2.4968913197517395e-01" sepG="2.8956874847412109e+01" res="-9.9000000000000000e+01" rms="0.0000000000000000e+00" nType="0" CC="0.0000000000000000e+00">
            <Node pos="l" depth="3" Seq="2" IVar="-1" Cut="0.0000000000000000e+00" cType="1" nS="9.0439123535156250e+02" nB="5.7196545410156250e+02" nEv="1.4763566894531250e+03" nSuw="6.8800000000000000e+02" nBuw="8.0000000000000000e+01" nEvuw="7.6800000000000000e+02" sepI="2.3732502758502960e-01" sepG="-1.0000000000000000e+00" res="-9.9000000000000000e+01" rms="0.0000000000000000e+00" nType="1" CC="0.0000000000000000e+00"/>
            <Node pos="r" depth="3" Seq="6" IVar="-1" Cut="0.0000000000000000e+00" cType="1" nS="4.3507622070312500e+03" nB="5.0673554687500000e+03" nEv="9.4181181640625000e+03" nSuw="8.7060000000000000e+03" nBuw="3.5000000000000000e+02" nEvuw="9.0560000000000000e+03" sepI="2.4855270981788635e-01" sepG="-1.0000000000000000e+00" res="-9.9000000000000000e+01" rms="0.0000000000000000e+00" nType="-1" CC="0.0000000000000000e+00"/>
          </Node>
        </Node>
        <Node pos="r" depth="1" Seq="1" IVar="0" Cut="1.3809523582458496e+00" cType="1" nS="3.8645566406250000e+03" nB="4.8165385742187500e+03" nEv="8.6810957031250000e+03" nSuw="1.8740000000000000e+03" nBuw="9.7700000000000000e+02" nEvuw="2.8510000000000000e+03" sepI="2.4699358642101288e-01" sepG="7.5943939208984375e+01" res="-9.9000000000000000e+01" rms="0.0000000000000000e+00" nType="0" CC="0.0000000000000000e+00">
          <Node pos="l" depth="2" Seq="1" IVar="3" Cut="1.4309557154774666e-02" cType="0" nS="2.4215478515625000e+03" nB="2.1069533691406250e+03" nEv="4.5285009765625000e+03" nSuw="9.0300000000000000e+02" nBuw="5.9100000000000000e+02" nEvuw="1.4940000000000000e+03" sepI="2.4879348278045654e-01" sepG="4.7655052185058594e+01" res="-9.9000000000000000e+01" rms="0.0000000000000000e+00" nType="0" CC="0.0000000000000000e+00">
            <Node pos="l" depth="3" Seq="1" IVar="-1" Cut="0.0000000000000000e+00" cType="1" nS="2.0364576416015625e+03" nB="1.4002930908203125e+03" nEv="3.4367507324218750e+03" nSuw="8.2600000000000000e+02" nBuw="3.1400000000000000e+02" nEvuw="1.1400000000000000e+03" sepI="2.4143390357494354e-01" sepG="-1.0000000000000000e+00" res="-9.9000000000000000e+01" rms="0.0000000000000000e+00" nType="1" CC="0.0000000000000000e+00"/>
            <Node pos="r" depth="3" Seq="5" IVar="-1" Cut="0.0000000000000000e+00" cType="1" nS="3.8509027099609375e+02" nB="7.0666021728515625e+02" nEv="1.0917504882812500e+03" nSuw="7.7000000000000000e+01" nBuw="2.7700000000000000e+02" nEvuw="3.5400000000000000e+02" sepI="2.2831076383590698e-01" sepG="-1.0000000000000000e+00" res="-9.9000000000000000e+01" rms="0.0000000000000000e+00" nType="-1" CC="0.0000000000000000e+00"/>
          </Node>
          <Node pos="r" depth="2" Seq="3" IVar="-1" Cut="1.9503462314605713e-01" cType="1" nS="1.4430087890625000e+03" nB="2.7095854492187500e+03" nEv="4.1525942382812500e+03" nSuw="9.7100000000000000e+02" nBuw="3.8600000000000000e+02" nEvuw="1.3570000000000000e+03" sepI="2.2674244642257690e-01" sepG="-1.0000000000000000e+00" res="-9.9000000000000000e+01" rms="0.0000000000000000e+00" nType="-1" CC="0.0000000000000000e+00"/>
        </Node>
      </Node>
    </BinaryTree>
    <BinaryTree type="DecisionTree" boostWeight="4.1838512271761519e-01" itree="20">
      <Node pos="s" depth="0" Seq="0" IVar="2" Cut="1.3179467059671879e-02" cType="0" nS="1.2867356445312500e+04" nB="1.1864019531250000e+04" nEv="2.4731375000000000e+04" nSuw="2.3200000000000000e+04" nBuw="1.5000000000000000e+03" nEvuw="2.4700000000000000e+04" sepI="2.4958853423595428e-01" sepG="6.1743171691894531e+01" res="-9.9000000000000000e+01" rms="0.0000000000000000e+00" nType="0" CC="0.0000000000000000e+00">
        <Node pos="l" depth="1" Seq="0" IVar="3" Cut="1.4288155362010002e-02" cType="1" nS="7.5348872070312500e+03" nB="5.7631943359375000e+03" nEv="1.3298082031250000e+04" nSuw="1.9608000000000000e+04" nBuw="3.9700000000000000e+02" nEvuw="2.0005000000000000e+04" sepI="2.4556249380111694e-01" sepG="3.6293388366699219e+01" res="-9.9000000000000000e+01" rms="0.0000000000000000e+00" nType="0" CC="0.0000000000000000e+00">
          <Node pos="l" depth="2" Seq="0" IVar="-1" Cut="1.3333333730697632e+00" cType="0" nS="1.9898192138671875e+03" nB="1.0095172119140625e+03" nEv="2.9993364257812500e+03" nSuw="4.5690000000000000e+03" nBuw="1.0900000000000000e+02" nEvuw="4.6780000000000000e+03" sepI="2.2329396009445190e-01" sepG="-1.0000000000000000e+00" res="-9.9000000000000000e+01" rms="0.0000000000000000e+00" nType="1" CC="0.0000000000000000e+00"/>
          <Node pos="r" depth="2" Seq="2" IVar="3" Cut="2.7900550514459610e-02" cType="0" nS="5.5450678710937500e+03" nB="4.7536772460937500e+03" nEv="1.0298745117187500e+04" nSuw="1.5039000000000000e+04" nBuw="2.8800000000000000e+02" nEvuw="1.5327000000000000e+04" sepI="2.4852377176284790e-01" sepG="6.2571899414062500e+01" res="-9.9000000000000000e+01" rms="0.0000000000000000e+00" nType="0" CC="0.0000000000000000e+00">
            <Node pos="l" depth="3" Seq="2" IVar="-1" Cut="0.0000000000000000e+00" cType="1" nS="3.8654982910156250e+03" nB="2.5928337402343750e+03" nEv="6.4583320312500000e+03" nSuw="1.0904000000000000e+04" nBuw="1.5200000000000000e+02" nEvuw="1.1056000000000000e+04" sepI="2.4029205739498138e-01" sepG="-1.0000000000000000e+00" res="-9.9000000000000000e+01" rms="0.0000000000000000e+00" nType="1" CC="0.0000000000000000e+00"/>
            <Node pos="r" depth="3" Seq="6" IVar="-1" Cut="0.0000000000000000e+00" cType="1" nS="1.6795697021484375e+03" nB="2.1608435058593750e+03" nEv="3.8404133300781250e+03" nSuw="4.1350000000000000e+03" nBuw="1.3600000000000000e+02" nEvuw="4.2710000000000000e+03" sepI="2.4607384204864502e-01" sepG="-1.0000000000000000e+00" res="-9.9000000000000000e+01" rms="0.0000000000000000e+00" nType="-1" CC="0.0000000000000000e+00"/>
          </Node>
        </Node>
        <Node pos="r" depth="1" Seq="1" IVar="3" Cut="2.8594080358743668e-02" cType="1" nS="5.3324687500000000e+03" nB="6.1008251953125000e+03" nEv="1.1433293945312500e+04" nSuw="3.5920000000000000e+03" nBuw="1.1030000000000000e+03" nEvuw="4.6950000000000000e+03" sepI="2.4887092411518097e-01" sepG="5.1530342102050781e+01" res="-9.9000000000000000e+01" rms="0.0000000000000000e+00" nType="0" CC="0.0000000000000000e+00">
          <Node pos="l" depth="2" Seq="1" IVar="3" Cut="1.9044796004891396e-02" cType="0" nS="3.1495156250000000e+03" nB="2.7810380859375000e+03" nEv="5.9305537109375000e+03" nSuw="1.1290000000000000e+03" nBuw="7.9500000000000000e+02" nEvuw="1.9240000000000000e+03" sepI="2.4903489649295807e-01" sepG="8.2096031188964844e+01" res="-9.9000000000000000e+01" rms="0.0000000000000000e+00" nType="0" CC="0.0000000000000000e+00">
            <Node pos="l" depth="3" Seq="1" IVar="-1" Cut="0.0000000000000000e+00" cType="1" nS="1.4512790527343750e+03" nB="6.5285272216796875e+02" nEv="2.1041315917968750e+03" nSuw="5.0300000000000000e+02" nBuw="1.6500000000000000e+02" nEvuw="6.6800000000000000e+02" sepI="2.1400320529937744e-01" sepG="-1.0000000000000000e+00" res="-9.9000000000000000e+01" rms="0.0000000000000000e+00" nType="1" CC="0.0000000000000000e+00"/>
            <Node pos="r" depth="3" Seq="5" IVar="-1" Cut="0.0000000000000000e+00" cType="1" nS="1.6982365722656250e+03" nB="2.1281853027343750e+03" nEv="3.8264221191406250e+03" nSuw="6.2600000000000000e+02" nBuw="6.3000000000000000e+02" nEvuw="1.2560000000000000e+03" sepI="2.4684363603591919e-01" sepG="-1.0000000000000000e+00" res="-9.9000000000000000e+01" rms="0.0000000000000000e+00" nType="-1" CC="0.0000000000000000e+00"/>
          </Node>
          <Node pos="r" depth="2" Seq="3" IVar="-1" Cut="3.1363198067992926e-03" cType="0" nS="2.1829531250000000e+03" nB="3.3197873535156250e+03" nEv="5.5027407226562500e+03" nSuw="2.4630000000000000e+03" nBuw="3.0800000000000000e+02" nEvuw="2.7710000000000000e+03" sepI="2.3932971060276031e-01" sepG="-1.0000000000000000e+00" res="-9.9000000000000000e+01" rms="0.0000000000000000e+00" nType="-1" CC="0.0000000000000000e+00"/>
        </Node>
      </Node>
    </BinaryTree>
    <BinaryTree type="DecisionTree" boostWeight="2.6855384443498520e-01" itree="21">
      <Node pos="s" depth="0" Seq="0" IVar="3" Cut="2.8573747724294662e-02" cType="1" nS="1.3062748046875000e+04" nB="1.1668627929687500e+04" nEv="2.4731375000000000e+04" nSuw="2.3200000000000000e+04" nBuw="1.5000000000000000e+03" nEvuw="2.4700000000000000e+04" sepI="2.4920558929443359e-01" sepG="1.8802444458007812e+01" res="-9.9000000000000000e+01" rms="0.0000000000000000e+00" nType="0" CC="0.0000000000000000e+00">
        <Node pos="l" depth="1" Seq="0" IVar="-1" Cut="4.0476188659667969e+00" cType="0" nS="7.1696572265625000e+03" nB="5.7596186523437500e+03" nEv="1.2929275390625000e+04" nSuw="1.0037000000000000e+04" nBuw="1.0480000000000000e+03" nEvuw="1.1085000000000000e+04" sepI="2.4702659249305725e-01" sepG="-1.0000000000000000e+00" res="-9.9000000000000000e+01" rms="0.0000000000000000e+00" nType="1" CC="0.0000000000000000e+00"/>
